<?xml version="1.0"?>
<MethodSetup Method="BDT::BDT">
  <GeneralInfo>
    <Info name="TMVA Release" value="4.2.1 [262657]"/>
    <Info name="ROOT Release" value="6.06/01 [394753]"/>
    <Info name="Creator" value="vbhopatk"/>
    <Info name="Date" value="Fri Jul  7 22:08:17 2017"/>
    <Info name="Host" value="Linux vocms0301.cern.ch 2.6.32-642.11.1.el6.x86_64 #1 SMP Wed Nov 16 09:40:09 CET 2016 x86_64 x86_64 x86_64 GNU/Linux"/>
    <Info name="Dir" value="/nfs/dust/cms/user/vbhopatk/Rereco_Moriond17/TMVA/Training/FinalNtuples"/>
    <Info name="Training events" value="53079"/>
    <Info name="TrainingTime" value="2.87139180e+01"/>
    <Info name="AnalysisType" value="Classification"/>
  </GeneralInfo>
  <Options>
    <Option name="V" modified="Yes">False</Option>
    <Option name="VerbosityLevel" modified="No">Default</Option>
    <Option name="VarTransform" modified="No">None</Option>
    <Option name="H" modified="Yes">False</Option>
    <Option name="CreateMVAPdfs" modified="No">False</Option>
    <Option name="IgnoreNegWeightsInTraining" modified="Yes">False</Option>
    <Option name="NTrees" modified="Yes">500</Option>
    <Option name="MaxDepth" modified="Yes">3</Option>
    <Option name="MinNodeSize" modified="No">5%</Option>
    <Option name="nCuts" modified="Yes">20</Option>
    <Option name="BoostType" modified="Yes">Grad</Option>
    <Option name="AdaBoostR2Loss" modified="No">quadratic</Option>
    <Option name="UseBaggedBoost" modified="Yes">True</Option>
    <Option name="Shrinkage" modified="Yes">3.000000e-01</Option>
    <Option name="AdaBoostBeta" modified="No">5.000000e-01</Option>
    <Option name="UseRandomisedTrees" modified="No">False</Option>
    <Option name="UseNvars" modified="No">3</Option>
    <Option name="UsePoissonNvars" modified="No">True</Option>
    <Option name="BaggedSampleFraction" modified="No">5.000000e-01</Option>
    <Option name="UseYesNoLeaf" modified="No">True</Option>
    <Option name="NegWeightTreatment" modified="No">ignorenegweightsintraining</Option>
    <Option name="Css" modified="No">1.000000e+00</Option>
    <Option name="Cts_sb" modified="No">1.000000e+00</Option>
    <Option name="Ctb_ss" modified="No">1.000000e+00</Option>
    <Option name="Cbb" modified="No">1.000000e+00</Option>
    <Option name="NodePurityLimit" modified="No">5.000000e-01</Option>
    <Option name="SeparationType" modified="Yes">giniindex</Option>
    <Option name="DoBoostMonitor" modified="No">False</Option>
    <Option name="UseFisherCuts" modified="No">False</Option>
    <Option name="MinLinCorrForFisher" modified="No">8.000000e-01</Option>
    <Option name="UseExclusiveVars" modified="No">False</Option>
    <Option name="DoPreselection" modified="No">False</Option>
    <Option name="SigToBkgFraction" modified="No">1.000000e+00</Option>
    <Option name="PruneMethod" modified="Yes">nopruning</Option>
    <Option name="PruneStrength" modified="No">0.000000e+00</Option>
    <Option name="PruningValFraction" modified="No">5.000000e-01</Option>
    <Option name="nEventsMin" modified="No">0</Option>
    <Option name="UseBaggedGrad" modified="No">False</Option>
    <Option name="GradBaggingFraction" modified="Yes">5.000000e-01</Option>
    <Option name="UseNTrainEvents" modified="No">0</Option>
    <Option name="NNodesMax" modified="No">0</Option>
  </Options>
  <Variables NVar="7">
    <Variable VarIndex="0" Expression="eta_tt" Label="eta_tt" Title="eta_tt" Unit="" Internal="eta_tt" Type="F" Min="-6.71308041e+00" Max="7.54447556e+00"/>
    <Variable VarIndex="1" Expression="dphi_posmu_met" Label="dphi_posmu_met" Title="dphi_posmu_met" Unit="" Internal="dphi_posmu_met" Type="F" Min="7.94366042e-06" Max="3.14148402e+00"/>
    <Variable VarIndex="2" Expression="dzeta" Label="dzeta" Title="dzeta" Unit="" Internal="dzeta" Type="F" Min="-7.34761047e+02" Max="2.75458313e+02"/>
    <Variable VarIndex="3" Expression="met" Label="met" Title="met" Unit="" Internal="met" Type="F" Min="2.15874493e-01" Max="3.68457245e+02"/>
    <Variable VarIndex="4" Expression="costheta" Label="costheta" Title="costheta" Unit="" Internal="costheta" Type="F" Min="-9.99914587e-01" Max="9.99955416e-01"/>
    <Variable VarIndex="5" Expression="ptRatio" Label="ptRatio" Title="ptRatio" Unit="" Internal="ptRatio" Type="F" Min="2.08758772e-03" Max="1.00000000e+00"/>
    <Variable VarIndex="6" Expression="mjj" Label="mjj" Title="mjj" Unit="" Internal="mjj" Type="F" Min="3.00011139e+02" Max="5.25561475e+03"/>
  </Variables>
  <Spectators NSpec="0"/>
  <Classes NClass="2">
    <Class Name="Signal" Index="0"/>
    <Class Name="Background" Index="1"/>
  </Classes>
  <Transformations NTransformations="0"/>
  <MVAPdfs/>
  <Weights NTrees="500" AnalysisType="1">
    <BinaryTree type="DecisionTree" boostWeight="1.0000000000000000e+00" itree="0">
      <Node pos="s" depth="0" NCoef="0" IVar="3" Cut="5.6021270751953125e+01" cType="1" res="1.6397938597947359e-03" rms="4.9999731779098511e-01" purity="5.0163978338241577e-01" nType="0">
        <Node pos="l" depth="1" NCoef="0" IVar="6" Cut="7.6836834716796875e+02" cType="1" res="-2.2403194010257721e-01" rms="4.4700077176094055e-01" purity="2.7596804499626160e-01" nType="0">
          <Node pos="l" depth="2" NCoef="0" IVar="2" Cut="-4.4059261322021484e+01" cType="1" res="-3.0874636769294739e-01" rms="3.9328831434249878e-01" purity="1.9125364720821381e-01" nType="0">
            <Node pos="l" depth="3" NCoef="0" IVar="-1" Cut="0.0000000000000000e+00" cType="1" res="-1.7448957264423370e-01" rms="2.0726253092288971e-01" purity="4.4981051236391068e-02" nType="-99"/>
            <Node pos="r" depth="3" NCoef="0" IVar="-1" Cut="0.0000000000000000e+00" cType="1" res="-1.8251096829771996e-02" rms="4.5651108026504517e-01" purity="2.9604503512382507e-01" nType="-99"/>
          </Node>
          <Node pos="r" depth="2" NCoef="0" IVar="-1" Cut="0.0000000000000000e+00" cType="1" res="6.5749827772378922e-03" rms="4.7321346402168274e-01" purity="6.6145896911621094e-01" nType="-99"/>
        </Node>
        <Node pos="r" depth="1" NCoef="0" IVar="-1" Cut="0.0000000000000000e+00" cType="1" res="1.2308889999985695e-02" rms="3.0073937773704529e-01" purity="8.9944440126419067e-01" nType="-99"/>
      </Node>
    </BinaryTree>
    <BinaryTree type="DecisionTree" boostWeight="1.0000000000000000e+00" itree="1">
      <Node pos="s" depth="0" NCoef="0" IVar="2" Cut="-4.2054138183593750e+00" cType="1" res="1.1707180179655552e-02" rms="4.8044848442077637e-01" purity="4.9262580275535583e-01" nType="0">
        <Node pos="l" depth="1" NCoef="0" IVar="6" Cut="7.7197338867187500e+02" cType="1" res="-2.4011012911796570e-01" rms="4.0191212296485901e-01" purity="2.2422069311141968e-01" nType="0">
          <Node pos="l" depth="2" NCoef="0" IVar="3" Cut="4.5191562652587891e+01" cType="1" res="-3.1236797571182251e-01" rms="3.3996883034706116e-01" purity="1.4383922517299652e-01" nType="0">
            <Node pos="l" depth="3" NCoef="0" IVar="-1" Cut="0.0000000000000000e+00" cType="1" res="-8.4026813507080078e-02" rms="2.8407636284828186e-01" purity="9.3366540968418121e-02" nType="-99"/>
            <Node pos="r" depth="3" NCoef="0" IVar="-1" Cut="0.0000000000000000e+00" cType="1" res="-8.0970730632543564e-03" rms="4.6797263622283936e-01" purity="3.6472979187965393e-01" nType="-99"/>
          </Node>
          <Node pos="r" depth="2" NCoef="0" IVar="-1" Cut="0.0000000000000000e+00" cType="1" res="4.9561187624931335e-03" rms="4.8569175601005554e-01" purity="6.1707746982574463e-01" nType="-99"/>
        </Node>
        <Node pos="r" depth="1" NCoef="0" IVar="3" Cut="3.5971008300781250e+01" cType="1" res="3.3337000012397766e-01" rms="3.6726233363151550e-01" purity="8.3547735214233398e-01" nType="0">
          <Node pos="l" depth="2" NCoef="0" IVar="-1" Cut="0.0000000000000000e+00" cType="1" res="7.7946484088897705e-04" rms="4.9732264876365662e-01" purity="5.0935167074203491e-01" nType="-99"/>
          <Node pos="r" depth="2" NCoef="0" IVar="-1" Cut="0.0000000000000000e+00" cType="1" res="1.2196977622807026e-02" rms="2.8797179460525513e-01" purity="9.0718668699264526e-01" nType="-99"/>
        </Node>
      </Node>
    </BinaryTree>
    <BinaryTree type="DecisionTree" boostWeight="1.0000000000000000e+00" itree="2">
      <Node pos="s" depth="0" NCoef="0" IVar="3" Cut="5.2917148590087891e+01" cType="1" res="3.7056356668472290e-02" rms="4.6651077270507812e-01" purity="5.0573933124542236e-01" nType="0">
        <Node pos="l" depth="1" NCoef="0" IVar="2" Cut="-2.5144485473632812e+01" cType="1" res="-1.8399332463741302e-01" rms="4.1403320431709290e-01" purity="2.5852602720260620e-01" nType="0">
          <Node pos="l" depth="2" NCoef="0" IVar="2" Cut="-5.8936103820800781e+01" cType="1" res="-3.2895085215568542e-01" rms="2.6252752542495728e-01" purity="8.0821536481380463e-02" nType="0">
            <Node pos="l" depth="3" NCoef="0" IVar="-1" Cut="0.0000000000000000e+00" cType="1" res="-2.7726322412490845e-01" rms="1.1566377431154251e-01" purity="1.2907903641462326e-02" nType="-99"/>
            <Node pos="r" depth="3" NCoef="0" IVar="-1" Cut="0.0000000000000000e+00" cType="1" res="-4.6544469892978668e-02" rms="3.4608113765716553e-01" purity="1.4785093069076538e-01" nType="-99"/>
          </Node>
          <Node pos="r" depth="2" NCoef="0" IVar="6" Cut="4.8209466552734375e+02" cType="1" res="-1.0156789794564247e-02" rms="4.8880383372306824e-01" purity="4.7163343429565430e-01" nType="0">
            <Node pos="l" depth="3" NCoef="0" IVar="-1" Cut="0.0000000000000000e+00" cType="1" res="-2.6351196691393852e-02" rms="4.1564238071441650e-01" purity="2.3030504584312439e-01" nType="-99"/>
            <Node pos="r" depth="3" NCoef="0" IVar="-1" Cut="0.0000000000000000e+00" cType="1" res="7.9256044700741768e-03" rms="4.5129671692848206e-01" purity="6.9777131080627441e-01" nType="-99"/>
          </Node>
        </Node>
        <Node pos="r" depth="1" NCoef="0" IVar="1" Cut="1.6454998254776001e+00" cType="1" res="3.7580075860023499e-01" rms="3.1435209512710571e-01" purity="8.8457775115966797e-01" nType="0">
          <Node pos="l" depth="2" NCoef="0" IVar="-1" Cut="0.0000000000000000e+00" cType="1" res="1.2326531112194061e-02" rms="2.5480553507804871e-01" purity="9.2825603485107422e-01" nType="-99"/>
          <Node pos="r" depth="2" NCoef="0" IVar="-1" Cut="0.0000000000000000e+00" cType="1" res="6.2628793530166149e-03" rms="4.6760687232017517e-01" purity="6.4989840984344482e-01" nType="-99"/>
        </Node>
      </Node>
    </BinaryTree>
    <BinaryTree type="DecisionTree" boostWeight="1.0000000000000000e+00" itree="3">
      <Node pos="s" depth="0" NCoef="0" IVar="3" Cut="5.2821784973144531e+01" cType="1" res="5.3398787975311279e-02" rms="4.4680750370025635e-01" purity="4.9678185582160950e-01" nType="0">
        <Node pos="l" depth="1" NCoef="0" IVar="6" Cut="8.1963708496093750e+02" cType="1" res="-1.4015175402164459e-01" rms="4.0298071503639221e-01" purity="2.5929054617881775e-01" nType="0">
          <Node pos="l" depth="2" NCoef="0" IVar="6" Cut="5.7217620849609375e+02" cType="1" res="-2.0696493983268738e-01" rms="3.5950693488121033e-01" purity="1.7607411742210388e-01" nType="0">
            <Node pos="l" depth="3" NCoef="0" IVar="-1" Cut="0.0000000000000000e+00" cType="1" res="-4.2579594999551773e-02" rms="3.2580226659774780e-01" purity="1.3673131167888641e-01" nType="-99"/>
            <Node pos="r" depth="3" NCoef="0" IVar="-1" Cut="0.0000000000000000e+00" cType="1" res="-3.7876735441386700e-03" rms="4.5371234416961670e-01" purity="3.5801583528518677e-01" nType="-99"/>
          </Node>
          <Node pos="r" depth="2" NCoef="0" IVar="-1" Cut="0.0000000000000000e+00" cType="1" res="8.2485303282737732e-03" rms="4.3447193503379822e-01" purity="7.0149582624435425e-01" nType="-99"/>
        </Node>
        <Node pos="r" depth="1" NCoef="0" IVar="1" Cut="1.4955434799194336e+00" cType="1" res="3.6660781502723694e-01" rms="3.1809386610984802e-01" purity="8.8109707832336426e-01" nType="0">
          <Node pos="l" depth="2" NCoef="0" IVar="-1" Cut="0.0000000000000000e+00" cType="1" res="1.2315130792558193e-02" rms="2.5751581788063049e-01" purity="9.2620193958282471e-01" nType="-99"/>
          <Node pos="r" depth="2" NCoef="0" IVar="-1" Cut="0.0000000000000000e+00" cType="1" res="7.8542334958910942e-03" rms="4.4297119975090027e-01" purity="7.1668797731399536e-01" nType="-99"/>
        </Node>
      </Node>
    </BinaryTree>
    <BinaryTree type="DecisionTree" boostWeight="1.0000000000000000e+00" itree="4">
      <Node pos="s" depth="0" NCoef="0" IVar="2" Cut="-5.8627600669860840e+00" cType="1" res="6.2164470553398132e-02" rms="4.4055196642875671e-01" purity="4.9917593598365784e-01" nType="0">
        <Node pos="l" depth="1" NCoef="0" IVar="2" Cut="-3.6467105865478516e+01" cType="1" res="-1.5012151002883911e-01" rms="3.8185173273086548e-01" purity="2.2812284529209137e-01" nType="0">
          <Node pos="l" depth="2" NCoef="0" IVar="5" Cut="7.1973204612731934e-01" cType="1" res="-2.4925361573696136e-01" rms="2.5404027104377747e-01" purity="7.4587427079677582e-02" nType="0">
            <Node pos="l" depth="3" NCoef="0" IVar="-1" Cut="0.0000000000000000e+00" cType="1" res="-1.9029682874679565e-01" rms="1.7676277458667755e-01" purity="2.7439599856734276e-02" nType="-99"/>
            <Node pos="r" depth="3" NCoef="0" IVar="-1" Cut="0.0000000000000000e+00" cType="1" res="-5.4047681391239166e-02" rms="2.7431619167327881e-01" purity="9.5080465078353882e-02" nType="-99"/>
          </Node>
          <Node pos="r" depth="2" NCoef="0" IVar="3" Cut="3.5079139709472656e+01" cType="1" res="-2.0191118121147156e-02" rms="4.7177654504776001e-01" purity="4.2935851216316223e-01" nType="0">
            <Node pos="l" depth="3" NCoef="0" IVar="-1" Cut="0.0000000000000000e+00" cType="1" res="-1.3824356719851494e-02" rms="4.3781778216362000e-01" purity="2.8306642174720764e-01" nType="-99"/>
            <Node pos="r" depth="3" NCoef="0" IVar="-1" Cut="0.0000000000000000e+00" cType="1" res="7.9410970211029053e-03" rms="4.4614601135253906e-01" purity="6.7871856689453125e-01" nType="-99"/>
          </Node>
        </Node>
        <Node pos="r" depth="1" NCoef="0" IVar="3" Cut="4.8999710083007812e+01" cType="1" res="3.1875675916671753e-01" rms="3.6349183320999146e-01" purity="8.2680064439773560e-01" nType="0">
          <Node pos="l" depth="2" NCoef="0" IVar="3" Cut="2.8161487579345703e+01" cType="1" res="8.0535233020782471e-02" rms="4.8363682627677917e-01" purity="5.6011897325515747e-01" nType="0">
            <Node pos="l" depth="3" NCoef="0" IVar="-1" Cut="0.0000000000000000e+00" cType="1" res="-4.3890858069062233e-03" rms="4.8120889067649841e-01" purity="4.0268528461456299e-01" nType="-99"/>
            <Node pos="r" depth="3" NCoef="0" IVar="-1" Cut="0.0000000000000000e+00" cType="1" res="6.8972138687968254e-03" rms="4.6368926763534546e-01" purity="6.5290457010269165e-01" nType="-99"/>
          </Node>
          <Node pos="r" depth="2" NCoef="0" IVar="-1" Cut="0.0000000000000000e+00" cType="1" res="1.2491600587964058e-02" rms="2.2244000434875488e-01" purity="9.4657516479492188e-01" nType="-99"/>
        </Node>
      </Node>
    </BinaryTree>
    <BinaryTree type="DecisionTree" boostWeight="1.0000000000000000e+00" itree="5">
      <Node pos="s" depth="0" NCoef="0" IVar="3" Cut="4.6284965515136719e+01" cType="1" res="7.8764885663986206e-02" rms="4.2845058441162109e-01" purity="5.0932711362838745e-01" nType="0">
        <Node pos="l" depth="1" NCoef="0" IVar="6" Cut="6.4643212890625000e+02" cType="1" res="-1.2491456419229507e-01" rms="3.8421350717544556e-01" purity="2.4323830008506775e-01" nType="0">
          <Node pos="l" depth="2" NCoef="0" IVar="3" Cut="3.3148010253906250e+01" cType="1" res="-2.1024984121322632e-01" rms="3.1608408689498901e-01" purity="1.3073568046092987e-01" nType="0">
            <Node pos="l" depth="3" NCoef="0" IVar="-1" Cut="0.0000000000000000e+00" cType="1" res="-6.4892895519733429e-02" rms="2.7197083830833435e-01" purity="8.9419357478618622e-02" nType="-99"/>
            <Node pos="r" depth="3" NCoef="0" IVar="-1" Cut="0.0000000000000000e+00" cType="1" res="-1.1106406338512897e-02" rms="3.9620840549468994e-01" purity="2.4448609352111816e-01" nType="-99"/>
          </Node>
          <Node pos="r" depth="2" NCoef="0" IVar="5" Cut="7.1740412712097168e-01" cType="1" res="1.2912653386592865e-01" rms="4.5104163885116577e-01" purity="5.7815587520599365e-01" nType="0">
            <Node pos="l" depth="3" NCoef="0" IVar="-1" Cut="0.0000000000000000e+00" cType="1" res="7.5245830230414867e-03" rms="4.4205811619758606e-01" purity="6.6199690103530884e-01" nType="-99"/>
            <Node pos="r" depth="3" NCoef="0" IVar="-1" Cut="0.0000000000000000e+00" cType="1" res="2.0542775746434927e-03" rms="4.4972032308578491e-01" purity="4.3772318959236145e-01" nType="-99"/>
          </Node>
        </Node>
        <Node pos="r" depth="1" NCoef="0" IVar="2" Cut="-2.6063253402709961e+01" cType="1" res="3.3094140887260437e-01" rms="3.3633828163146973e-01" purity="8.3877295255661011e-01" nType="0">
          <Node pos="l" depth="2" NCoef="0" IVar="-1" Cut="0.0000000000000000e+00" cType="1" res="-5.7457843795418739e-03" rms="4.4208514690399170e-01" purity="3.4405773878097534e-01" nType="-99"/>
          <Node pos="r" depth="2" NCoef="0" IVar="-1" Cut="0.0000000000000000e+00" cType="1" res="1.2052522972226143e-02" rms="2.4918766319751740e-01" purity="9.3066805601119995e-01" nType="-99"/>
        </Node>
      </Node>
    </BinaryTree>
    <BinaryTree type="DecisionTree" boostWeight="1.0000000000000000e+00" itree="6">
      <Node pos="s" depth="0" NCoef="0" IVar="3" Cut="4.8923667907714844e+01" cType="1" res="1.0040336847305298e-01" rms="4.2181870341300964e-01" purity="5.2491998672485352e-01" nType="0">
        <Node pos="l" depth="1" NCoef="0" IVar="6" Cut="6.3948345947265625e+02" cType="1" res="-9.8634794354438782e-02" rms="3.9199060201644897e-01" purity="2.5085473060607910e-01" nType="0">
          <Node pos="l" depth="2" NCoef="0" IVar="3" Cut="3.7345100402832031e+01" cType="1" res="-1.5583916008472443e-01" rms="3.4874519705772400e-01" purity="1.6588599979877472e-01" nType="0">
            <Node pos="l" depth="3" NCoef="0" IVar="-1" Cut="0.0000000000000000e+00" cType="1" res="-3.8123775273561478e-02" rms="3.2071912288665771e-01" purity="1.2584358453750610e-01" nType="-99"/>
            <Node pos="r" depth="3" NCoef="0" IVar="-1" Cut="0.0000000000000000e+00" cType="1" res="-3.4282365813851357e-03" rms="4.2242458462715149e-01" purity="3.2236734032630920e-01" nType="-99"/>
          </Node>
          <Node pos="r" depth="2" NCoef="0" IVar="3" Cut="2.8168727874755859e+01" cType="1" res="9.2334166169166565e-02" rms="4.6173846721649170e-01" purity="5.3451126813888550e-01" nType="0">
            <Node pos="l" depth="3" NCoef="0" IVar="-1" Cut="0.0000000000000000e+00" cType="1" res="2.1568562369793653e-03" rms="4.6946525573730469e-01" purity="4.6424067020416260e-01" nType="-99"/>
            <Node pos="r" depth="3" NCoef="0" IVar="-1" Cut="0.0000000000000000e+00" cType="1" res="6.5573612228035927e-03" rms="4.4661635160446167e-01" purity="6.0621792078018188e-01" nType="-99"/>
          </Node>
        </Node>
        <Node pos="r" depth="1" NCoef="0" IVar="2" Cut="-5.8627600669860840e+00" cType="1" res="3.5303962230682373e-01" rms="3.0762451887130737e-01" purity="8.7278699874877930e-01" nType="0">
          <Node pos="l" depth="2" NCoef="0" IVar="-1" Cut="0.0000000000000000e+00" cType="1" res="4.2144772596657276e-03" rms="4.5903471112251282e-01" purity="5.5218577384948730e-01" nType="-99"/>
          <Node pos="r" depth="2" NCoef="0" IVar="-1" Cut="0.0000000000000000e+00" cType="1" res="1.2248346582055092e-02" rms="2.0341573655605316e-01" purity="9.5572811365127563e-01" nType="-99"/>
        </Node>
      </Node>
    </BinaryTree>
    <BinaryTree type="DecisionTree" boostWeight="1.0000000000000000e+00" itree="7">
      <Node pos="s" depth="0" NCoef="0" IVar="3" Cut="5.2821784973144531e+01" cType="1" res="7.4661165475845337e-02" rms="4.1697937250137329e-01" purity="4.8945426940917969e-01" nType="0">
        <Node pos="l" depth="1" NCoef="0" IVar="6" Cut="8.4623687744140625e+02" cType="1" res="-9.1012701392173767e-02" rms="3.8585993647575378e-01" purity="2.5417312979698181e-01" nType="0">
          <Node pos="l" depth="2" NCoef="0" IVar="2" Cut="-1.0113520622253418e+01" cType="1" res="-1.4345909655094147e-01" rms="3.5244846343994141e-01" purity="1.7744535207748413e-01" nType="0">
            <Node pos="l" depth="3" NCoef="0" IVar="-1" Cut="0.0000000000000000e+00" cType="1" res="-4.1396580636501312e-02" rms="2.9721435904502869e-01" purity="1.0816713422536850e-01" nType="-99"/>
            <Node pos="r" depth="3" NCoef="0" IVar="-1" Cut="0.0000000000000000e+00" cType="1" res="-3.1978678889572620e-03" rms="4.7258511185646057e-01" purity="3.9292976260185242e-01" nType="-99"/>
          </Node>
          <Node pos="r" depth="2" NCoef="0" IVar="-1" Cut="0.0000000000000000e+00" cType="1" res="8.2512237131595612e-03" rms="4.2932406067848206e-01" purity="6.9257348775863647e-01" nType="-99"/>
        </Node>
        <Node pos="r" depth="1" NCoef="0" IVar="1" Cut="1.3457081317901611e+00" cType="1" res="3.5013875365257263e-01" rms="3.0640971660614014e-01" purity="8.8067275285720825e-01" nType="0">
          <Node pos="l" depth="2" NCoef="0" IVar="-1" Cut="0.0000000000000000e+00" cType="1" res="1.1782382614910603e-02" rms="2.4680022895336151e-01" purity="9.2920744419097900e-01" nType="-99"/>
          <Node pos="r" depth="2" NCoef="0" IVar="-1" Cut="0.0000000000000000e+00" cType="1" res="8.0123869702219963e-03" rms="4.1581428050994873e-01" purity="7.2784560918807983e-01" nType="-99"/>
        </Node>
      </Node>
    </BinaryTree>
    <BinaryTree type="DecisionTree" boostWeight="1.0000000000000000e+00" itree="8">
      <Node pos="s" depth="0" NCoef="0" IVar="3" Cut="4.8187446594238281e+01" cType="1" res="9.8410800099372864e-02" rms="4.1023090481758118e-01" purity="5.1585888862609863e-01" nType="0">
        <Node pos="l" depth="1" NCoef="0" IVar="6" Cut="6.3948345947265625e+02" cType="1" res="-9.4379357993602753e-02" rms="3.7299343943595886e-01" purity="2.3865070939064026e-01" nType="0">
          <Node pos="l" depth="2" NCoef="0" IVar="3" Cut="2.5407001495361328e+01" cType="1" res="-1.5854465961456299e-01" rms="3.1804168224334717e-01" purity="1.3613419234752655e-01" nType="0">
            <Node pos="l" depth="3" NCoef="0" IVar="-1" Cut="0.0000000000000000e+00" cType="1" res="-7.9313144087791443e-02" rms="2.3876625299453735e-01" purity="6.2045533210039139e-02" nType="-99"/>
            <Node pos="r" depth="3" NCoef="0" IVar="-1" Cut="0.0000000000000000e+00" cType="1" res="-1.2973865494132042e-02" rms="3.7244105339050293e-01" purity="2.0948657393455505e-01" nType="-99"/>
          </Node>
          <Node pos="r" depth="2" NCoef="0" IVar="3" Cut="2.7750919342041016e+01" cType="1" res="9.9349804222583771e-02" rms="4.5145663619041443e-01" purity="5.4817062616348267e-01" nType="0">
            <Node pos="l" depth="3" NCoef="0" IVar="-1" Cut="0.0000000000000000e+00" cType="1" res="-2.9262246098369360e-03" rms="4.4871485233306885e-01" purity="3.8319709897041321e-01" nType="-99"/>
            <Node pos="r" depth="3" NCoef="0" IVar="-1" Cut="0.0000000000000000e+00" cType="1" res="8.2760499790310860e-03" rms="4.2384788393974304e-01" purity="6.7289000749588013e-01" nType="-99"/>
          </Node>
        </Node>
        <Node pos="r" depth="1" NCoef="0" IVar="2" Cut="-2.8393831253051758e+01" cType="1" res="3.3886307477951050e-01" rms="3.1700295209884644e-01" purity="8.6159914731979370e-01" nType="0">
          <Node pos="l" depth="2" NCoef="0" IVar="-1" Cut="0.0000000000000000e+00" cType="1" res="2.9626481700688601e-03" rms="4.7714519500732422e-01" purity="4.7646179795265198e-01" nType="-99"/>
          <Node pos="r" depth="2" NCoef="0" IVar="-1" Cut="0.0000000000000000e+00" cType="1" res="1.1673702858388424e-02" rms="2.3514191806316376e-01" purity="9.3857085704803467e-01" nType="-99"/>
        </Node>
      </Node>
    </BinaryTree>
    <BinaryTree type="DecisionTree" boostWeight="1.0000000000000000e+00" itree="9">
      <Node pos="s" depth="0" NCoef="0" IVar="3" Cut="5.2821784973144531e+01" cType="1" res="9.9474541842937469e-02" rms="4.0342882275581360e-01" purity="5.1154857873916626e-01" nType="0">
        <Node pos="l" depth="1" NCoef="0" IVar="2" Cut="-9.0453586578369141e+00" cType="1" res="-7.0385739207267761e-02" rms="3.7902370095252991e-01" purity="2.5237399339675903e-01" nType="0">
          <Node pos="l" depth="2" NCoef="0" IVar="6" Cut="4.7322723388671875e+02" cType="1" res="-1.3510613143444061e-01" rms="3.1531736254692078e-01" purity="1.3791213929653168e-01" nType="0">
            <Node pos="l" depth="3" NCoef="0" IVar="-1" Cut="0.0000000000000000e+00" cType="1" res="-6.3304767012596130e-02" rms="2.4722440540790558e-01" purity="6.8438053131103516e-02" nType="-99"/>
            <Node pos="r" depth="3" NCoef="0" IVar="-1" Cut="0.0000000000000000e+00" cType="1" res="-8.8032716885209084e-03" rms="3.9458471536636353e-01" purity="2.4935345351696014e-01" nType="-99"/>
          </Node>
          <Node pos="r" depth="2" NCoef="0" IVar="6" Cut="4.3723550415039062e+02" cType="1" res="9.5826528966426849e-02" rms="4.6784067153930664e-01" purity="5.4633027315139771e-01" nType="0">
            <Node pos="l" depth="3" NCoef="0" IVar="-1" Cut="0.0000000000000000e+00" cType="1" res="-4.8501840792596340e-03" rms="4.5604473352432251e-01" purity="3.4815511107444763e-01" nType="-99"/>
            <Node pos="r" depth="3" NCoef="0" IVar="-1" Cut="0.0000000000000000e+00" cType="1" res="8.1957280635833740e-03" rms="4.4327506422996521e-01" purity="6.8551033735275269e-01" nType="-99"/>
          </Node>
        </Node>
        <Node pos="r" depth="1" NCoef="0" IVar="1" Cut="1.4950556755065918e+00" cType="1" res="3.4726083278656006e-01" rms="2.9516795277595520e-01" purity="8.8962340354919434e-01" nType="0">
          <Node pos="l" depth="2" NCoef="0" IVar="-1" Cut="0.0000000000000000e+00" cType="1" res="1.1538447812199593e-02" rms="2.4298816919326782e-01" purity="9.3089020252227783e-01" nType="-99"/>
          <Node pos="r" depth="2" NCoef="0" IVar="-1" Cut="0.0000000000000000e+00" cType="1" res="7.2758798487484455e-03" rms="4.1938772797584534e-01" purity="7.1648317575454712e-01" nType="-99"/>
        </Node>
      </Node>
    </BinaryTree>
    <BinaryTree type="DecisionTree" boostWeight="1.0000000000000000e+00" itree="10">
      <Node pos="s" depth="0" NCoef="0" IVar="2" Cut="-1.5744689941406250e+01" cType="1" res="9.0128310024738312e-02" rms="4.0201374888420105e-01" purity="4.8973697423934937e-01" nType="0">
        <Node pos="l" depth="1" NCoef="0" IVar="6" Cut="6.4643231201171875e+02" cType="1" res="-1.1092977225780487e-01" rms="3.3170503377914429e-01" purity="1.6571484506130219e-01" nType="0">
          <Node pos="l" depth="2" NCoef="0" IVar="1" Cut="1.3463144302368164e+00" cType="1" res="-1.3889279961585999e-01" rms="2.8725448250770569e-01" purity="1.0562738031148911e-01" nType="0">
            <Node pos="l" depth="3" NCoef="0" IVar="-1" Cut="0.0000000000000000e+00" cType="1" res="-1.6808662563562393e-02" rms="3.4264987707138062e-01" purity="1.6539445519447327e-01" nType="-99"/>
            <Node pos="r" depth="3" NCoef="0" IVar="-1" Cut="0.0000000000000000e+00" cType="1" res="-7.3742821812629700e-02" rms="2.3059631884098053e-01" purity="5.9093147516250610e-02" nType="-99"/>
          </Node>
          <Node pos="r" depth="2" NCoef="0" IVar="-1" Cut="0.0000000000000000e+00" cType="1" res="2.1418038522824645e-04" rms="4.5407763123512268e-01" purity="4.1120076179504395e-01" nType="-99"/>
        </Node>
        <Node pos="r" depth="1" NCoef="0" IVar="3" Cut="3.5433658599853516e+01" cType="1" res="2.6661232113838196e-01" rms="3.7452182173728943e-01" purity="7.7415591478347778e-01" nType="0">
          <Node pos="l" depth="2" NCoef="0" IVar="6" Cut="4.3277923583984375e+02" cType="1" res="4.2178016155958176e-02" rms="4.6936380863189697e-01" purity="4.4453468918800354e-01" nType="0">
            <Node pos="l" depth="3" NCoef="0" IVar="-1" Cut="0.0000000000000000e+00" cType="1" res="-6.6224960610270500e-03" rms="4.4437658786773682e-01" purity="2.8405636548995972e-01" nType="-99"/>
            <Node pos="r" depth="3" NCoef="0" IVar="-1" Cut="0.0000000000000000e+00" cType="1" res="6.1976383440196514e-03" rms="4.7030922770500183e-01" purity="5.7936489582061768e-01" nType="-99"/>
          </Node>
          <Node pos="r" depth="2" NCoef="0" IVar="3" Cut="5.1309070587158203e+01" cType="1" res="3.4267058968544006e-01" rms="3.0048030614852905e-01" purity="8.8586091995239258e-01" nType="0">
            <Node pos="l" depth="3" NCoef="0" IVar="-1" Cut="0.0000000000000000e+00" cType="1" res="5.6586717255413532e-03" rms="4.6670559048652649e-01" purity="6.1304831504821777e-01" nType="-99"/>
            <Node pos="r" depth="3" NCoef="0" IVar="-1" Cut="0.0000000000000000e+00" cType="1" res="1.1692900210618973e-02" rms="2.2102864086627960e-01" purity="9.4735002517700195e-01" nType="-99"/>
          </Node>
        </Node>
      </Node>
    </BinaryTree>
    <BinaryTree type="DecisionTree" boostWeight="1.0000000000000000e+00" itree="11">
      <Node pos="s" depth="0" NCoef="0" IVar="3" Cut="6.5122512817382812e+01" cType="1" res="9.9548019468784332e-02" rms="3.9523744583129883e-01" purity="4.9672758579254150e-01" nType="0">
        <Node pos="l" depth="1" NCoef="0" IVar="6" Cut="7.3344079589843750e+02" cType="1" res="-1.3275648467242718e-02" rms="3.9177596569061279e-01" purity="3.1964668631553650e-01" nType="0">
          <Node pos="l" depth="2" NCoef="0" IVar="2" Cut="-2.1889772415161133e+01" cType="1" res="-7.4235238134860992e-02" rms="3.6140322685241699e-01" purity="2.1593798696994781e-01" nType="0">
            <Node pos="l" depth="3" NCoef="0" IVar="-1" Cut="0.0000000000000000e+00" cType="1" res="-3.9269350469112396e-02" rms="2.7218714356422424e-01" purity="9.0149275958538055e-02" nType="-99"/>
            <Node pos="r" depth="3" NCoef="0" IVar="-1" Cut="0.0000000000000000e+00" cType="1" res="4.9138313625007868e-04" rms="4.5934027433395386e-01" purity="4.1887626051902771e-01" nType="-99"/>
          </Node>
          <Node pos="r" depth="2" NCoef="0" IVar="-1" Cut="0.0000000000000000e+00" cType="1" res="8.3100413903594017e-03" rms="4.1660091280937195e-01" purity="7.0276111364364624e-01" nType="-99"/>
        </Node>
        <Node pos="r" depth="1" NCoef="0" IVar="-1" Cut="0.0000000000000000e+00" cType="1" res="1.1381114833056927e-02" rms="2.3007561266422272e-01" purity="9.3631428480148315e-01" nType="-99"/>
      </Node>
    </BinaryTree>
    <BinaryTree type="DecisionTree" boostWeight="1.0000000000000000e+00" itree="12">
      <Node pos="s" depth="0" NCoef="0" IVar="3" Cut="4.8828300476074219e+01" cType="1" res="1.0841618478298187e-01" rms="3.8891339302062988e-01" purity="5.1189559698104858e-01" nType="0">
        <Node pos="l" depth="1" NCoef="0" IVar="6" Cut="8.1963128662109375e+02" cType="1" res="-5.0231788307428360e-02" rms="3.6753475666046143e-01" purity="2.4923776090145111e-01" nType="0">
          <Node pos="l" depth="2" NCoef="0" IVar="6" Cut="5.2268963623046875e+02" cType="1" res="-9.6215866506099701e-02" rms="3.3446657657623291e-01" purity="1.6676984727382660e-01" nType="0">
            <Node pos="l" depth="3" NCoef="0" IVar="-1" Cut="0.0000000000000000e+00" cType="1" res="-3.8007579743862152e-02" rms="2.8305366635322571e-01" purity="9.5540568232536316e-02" nType="-99"/>
            <Node pos="r" depth="3" NCoef="0" IVar="-1" Cut="0.0000000000000000e+00" cType="1" res="1.6300183488056064e-03" rms="4.2559081315994263e-01" purity="3.6455452442169189e-01" nType="-99"/>
          </Node>
          <Node pos="r" depth="2" NCoef="0" IVar="-1" Cut="0.0000000000000000e+00" cType="1" res="7.7460138127207756e-03" rms="4.3308335542678833e-01" purity="6.8296289443969727e-01" nType="-99"/>
        </Node>
        <Node pos="r" depth="1" NCoef="0" IVar="2" Cut="-3.1925771713256836e+01" cType="1" res="3.1820571422576904e-01" rms="3.0877867341041565e-01" purity="8.5922360420227051e-01" nType="0">
          <Node pos="l" depth="2" NCoef="0" IVar="-1" Cut="0.0000000000000000e+00" cType="1" res="-1.4469574671238661e-03" rms="4.4717174768447876e-01" purity="3.9120915532112122e-01" nType="-99"/>
          <Node pos="r" depth="2" NCoef="0" IVar="-1" Cut="0.0000000000000000e+00" cType="1" res="1.1249816976487637e-02" rms="2.3700769245624542e-01" purity="9.3608778715133667e-01" nType="-99"/>
        </Node>
      </Node>
    </BinaryTree>
    <BinaryTree type="DecisionTree" boostWeight="1.0000000000000000e+00" itree="13">
      <Node pos="s" depth="0" NCoef="0" IVar="3" Cut="6.4132652282714844e+01" cType="1" res="1.1488481611013412e-01" rms="3.9195150136947632e-01" purity="5.0972449779510498e-01" nType="0">
        <Node pos="l" depth="1" NCoef="0" IVar="6" Cut="4.8208673095703125e+02" cType="1" res="1.9117815420031548e-02" rms="3.9681521058082581e-01" purity="3.4822538495063782e-01" nType="0">
          <Node pos="l" depth="2" NCoef="0" IVar="6" Cut="3.9538385009765625e+02" cType="1" res="-8.8070228695869446e-02" rms="3.3563598990440369e-01" purity="1.6076509654521942e-01" nType="0">
            <Node pos="l" depth="3" NCoef="0" IVar="-1" Cut="0.0000000000000000e+00" cType="1" res="-4.0763329714536667e-02" rms="2.8149670362472534e-01" purity="9.5256470143795013e-02" nType="-99"/>
            <Node pos="r" depth="3" NCoef="0" IVar="-1" Cut="0.0000000000000000e+00" cType="1" res="1.4413954922929406e-03" rms="3.9984855055809021e-01" purity="2.8425335884094238e-01" nType="-99"/>
          </Node>
          <Node pos="r" depth="2" NCoef="0" IVar="2" Cut="-2.9863870620727539e+01" cType="1" res="1.4146192371845245e-01" rms="4.2488503456115723e-01" purity="5.6219196319580078e-01" nType="0">
            <Node pos="l" depth="3" NCoef="0" IVar="-1" Cut="0.0000000000000000e+00" cType="1" res="-1.4296593144536018e-02" rms="3.4876447916030884e-01" purity="1.8736591935157776e-01" nType="-99"/>
            <Node pos="r" depth="3" NCoef="0" IVar="-1" Cut="0.0000000000000000e+00" cType="1" res="9.6483100205659866e-03" rms="4.0793180465698242e-01" purity="7.5068795680999756e-01" nType="-99"/>
          </Node>
        </Node>
        <Node pos="r" depth="1" NCoef="0" IVar="-1" Cut="0.0000000000000000e+00" cType="1" res="1.0997877456247807e-02" rms="2.4065518379211426e-01" purity="9.2933750152587891e-01" nType="-99"/>
      </Node>
    </BinaryTree>
    <BinaryTree type="DecisionTree" boostWeight="1.0000000000000000e+00" itree="14">
      <Node pos="s" depth="0" NCoef="0" IVar="3" Cut="6.5124259948730469e+01" cType="1" res="1.0584040731191635e-01" rms="3.8398653268814087e-01" purity="4.9826985597610474e-01" nType="0">
        <Node pos="l" depth="1" NCoef="0" IVar="6" Cut="7.3344244384765625e+02" cType="1" res="-6.9999886909499764e-04" rms="3.8390421867370605e-01" purity="3.1887236237525940e-01" nType="0">
          <Node pos="l" depth="2" NCoef="0" IVar="2" Cut="1.8921672105789185e+00" cType="1" res="-5.8190997689962387e-02" rms="3.5737198591232300e-01" purity="2.0823368430137634e-01" nType="0">
            <Node pos="l" depth="3" NCoef="0" IVar="-1" Cut="0.0000000000000000e+00" cType="1" res="-1.7743922770023346e-02" rms="3.2086423039436340e-01" purity="1.4328484237194061e-01" nType="-99"/>
            <Node pos="r" depth="3" NCoef="0" IVar="-1" Cut="0.0000000000000000e+00" cType="1" res="4.3709189631044865e-03" rms="4.7704455256462097e-01" purity="5.3420400619506836e-01" nType="-99"/>
          </Node>
          <Node pos="r" depth="2" NCoef="0" IVar="-1" Cut="0.0000000000000000e+00" cType="1" res="7.8022046945989132e-03" rms="4.0481609106063843e-01" purity="7.1069037914276123e-01" nType="-99"/>
        </Node>
        <Node pos="r" depth="1" NCoef="0" IVar="-1" Cut="0.0000000000000000e+00" cType="1" res="1.0978036560118198e-02" rms="2.2692169249057770e-01" purity="9.3823307752609253e-01" nType="-99"/>
      </Node>
    </BinaryTree>
    <BinaryTree type="DecisionTree" boostWeight="1.0000000000000000e+00" itree="15">
      <Node pos="s" depth="0" NCoef="0" IVar="3" Cut="5.2917148590087891e+01" cType="1" res="1.1617798358201981e-01" rms="3.8261795043945312e-01" purity="5.1291686296463013e-01" nType="0">
        <Node pos="l" depth="1" NCoef="0" IVar="6" Cut="6.4643212890625000e+02" cType="1" res="-1.4553237706422806e-02" rms="3.7937256693840027e-01" purity="2.7237129211425781e-01" nType="0">
          <Node pos="l" depth="2" NCoef="0" IVar="6" Cut="4.8142822265625000e+02" cType="1" res="-6.6625393927097321e-02" rms="3.3746486902236938e-01" purity="1.6218663752079010e-01" nType="0">
            <Node pos="l" depth="3" NCoef="0" IVar="-1" Cut="0.0000000000000000e+00" cType="1" res="-1.9775252789258957e-02" rms="3.1463405489921570e-01" purity="1.2794660031795502e-01" nType="-99"/>
            <Node pos="r" depth="3" NCoef="0" IVar="-1" Cut="0.0000000000000000e+00" cType="1" res="-1.6973874880932271e-04" rms="3.9606165885925293e-01" purity="2.7375274896621704e-01" nType="-99"/>
          </Node>
          <Node pos="r" depth="2" NCoef="0" IVar="4" Cut="-4.7666627913713455e-02" cType="1" res="1.3930870592594147e-01" rms="4.4833332300186157e-01" purity="5.9794300794601440e-01" nType="0">
            <Node pos="l" depth="3" NCoef="0" IVar="-1" Cut="0.0000000000000000e+00" cType="1" res="8.4851821884512901e-03" rms="4.4159930944442749e-01" purity="6.5649265050888062e-01" nType="-99"/>
            <Node pos="r" depth="3" NCoef="0" IVar="-1" Cut="0.0000000000000000e+00" cType="1" res="3.0167389195412397e-03" rms="4.4333311915397644e-01" purity="5.2266579866409302e-01" nType="-99"/>
          </Node>
        </Node>
        <Node pos="r" depth="1" NCoef="0" IVar="1" Cut="1.4960949420928955e+00" cType="1" res="3.1875696778297424e-01" rms="2.8758805990219116e-01" purity="8.8566243648529053e-01" nType="0">
          <Node pos="l" depth="2" NCoef="0" IVar="-1" Cut="0.0000000000000000e+00" cType="1" res="1.0748314671218395e-02" rms="2.3924233019351959e-01" purity="9.2881834506988525e-01" nType="-99"/>
          <Node pos="r" depth="2" NCoef="0" IVar="-1" Cut="0.0000000000000000e+00" cType="1" res="6.2976148910820484e-03" rms="4.1563588380813599e-01" purity="6.7783635854721069e-01" nType="-99"/>
        </Node>
      </Node>
    </BinaryTree>
    <BinaryTree type="DecisionTree" boostWeight="1.0000000000000000e+00" itree="16">
      <Node pos="s" depth="0" NCoef="0" IVar="2" Cut="-1.3175789833068848e+01" cType="1" res="1.2083650380373001e-01" rms="3.8415342569351196e-01" purity="5.1295191049575806e-01" nType="0">
        <Node pos="l" depth="1" NCoef="0" IVar="2" Cut="-8.1907524108886719e+01" cType="1" res="-3.9994008839130402e-02" rms="3.5323622822761536e-01" purity="2.1270334720611572e-01" nType="0">
          <Node pos="l" depth="2" NCoef="0" IVar="6" Cut="4.1471899414062500e+02" cType="1" res="-1.6104437410831451e-01" rms="1.6305702924728394e-01" purity="2.0687296986579895e-02" nType="0">
            <Node pos="l" depth="3" NCoef="0" IVar="-1" Cut="0.0000000000000000e+00" cType="1" res="-1.1406324058771133e-01" rms="1.6077996790409088e-01" purity="2.4288807064294815e-02" nType="-99"/>
            <Node pos="r" depth="3" NCoef="0" IVar="-1" Cut="0.0000000000000000e+00" cType="1" res="-1.7542408406734467e-01" rms="1.5319128334522247e-01" purity="1.6231238842010498e-02" nType="-99"/>
          </Node>
          <Node pos="r" depth="2" NCoef="0" IVar="6" Cut="6.4109234619140625e+02" cType="1" res="-2.1943375468254089e-03" rms="3.8656434416770935e-01" purity="2.7266299724578857e-01" nType="0">
            <Node pos="l" depth="3" NCoef="0" IVar="-1" Cut="0.0000000000000000e+00" cType="1" res="-9.6205733716487885e-03" rms="3.4985932707786560e-01" purity="1.6337655484676361e-01" nType="-99"/>
            <Node pos="r" depth="3" NCoef="0" IVar="-1" Cut="0.0000000000000000e+00" cType="1" res="6.0220258310437202e-03" rms="4.4941344857215881e-01" purity="5.7970875501632690e-01" nType="-99"/>
          </Node>
        </Node>
        <Node pos="r" depth="1" NCoef="0" IVar="6" Cut="5.3600347900390625e+02" cType="1" res="2.7180117368698120e-01" rms="3.4914654493331909e-01" purity="7.9478234052658081e-01" nType="0">
          <Node pos="l" depth="2" NCoef="0" IVar="3" Cut="3.5433658599853516e+01" cType="1" res="1.3837124407291412e-01" rms="4.3290492892265320e-01" purity="5.9257018566131592e-01" nType="0">
            <Node pos="l" depth="3" NCoef="0" IVar="-1" Cut="0.0000000000000000e+00" cType="1" res="-3.0772306490689516e-03" rms="4.4498452544212341e-01" purity="2.9190188646316528e-01" nType="-99"/>
            <Node pos="r" depth="3" NCoef="0" IVar="-1" Cut="0.0000000000000000e+00" cType="1" res="8.7022725492715836e-03" rms="3.9407366514205933e-01" purity="7.6352143287658691e-01" nType="-99"/>
          </Node>
          <Node pos="r" depth="2" NCoef="0" IVar="-1" Cut="0.0000000000000000e+00" cType="1" res="1.0948901064693928e-02" rms="2.4829591810703278e-01" purity="9.2351859807968140e-01" nType="-99"/>
        </Node>
      </Node>
    </BinaryTree>
    <BinaryTree type="DecisionTree" boostWeight="1.0000000000000000e+00" itree="17">
      <Node pos="s" depth="0" NCoef="0" IVar="3" Cut="5.2917148590087891e+01" cType="1" res="1.1270182579755783e-01" rms="3.7025442719459534e-01" purity="5.0980389118194580e-01" nType="0">
        <Node pos="l" depth="1" NCoef="0" IVar="6" Cut="8.4623571777343750e+02" cType="1" res="-1.5886623412370682e-02" rms="3.6408782005310059e-01" purity="2.6829916238784790e-01" nType="0">
          <Node pos="l" depth="2" NCoef="0" IVar="3" Cut="4.2881900787353516e+01" cType="1" res="-5.6954924017190933e-02" rms="3.3896327018737793e-01" purity="1.8407255411148071e-01" nType="0">
            <Node pos="l" depth="3" NCoef="0" IVar="-1" Cut="0.0000000000000000e+00" cType="1" res="-1.6772631555795670e-02" rms="3.1536123156547546e-01" purity="1.4083465933799744e-01" nType="-99"/>
            <Node pos="r" depth="3" NCoef="0" IVar="-1" Cut="0.0000000000000000e+00" cType="1" res="5.5525139905512333e-03" rms="4.2088246345520020e-01" purity="4.2528200149536133e-01" nType="-99"/>
          </Node>
          <Node pos="r" depth="2" NCoef="0" IVar="-1" Cut="0.0000000000000000e+00" cType="1" res="7.7076647430658340e-03" rms="4.1226094961166382e-01" purity="7.1020585298538208e-01" nType="-99"/>
        </Node>
        <Node pos="r" depth="1" NCoef="0" IVar="1" Cut="1.4948964118957520e+00" cType="1" res="3.1127300858497620e-01" rms="2.8127712011337280e-01" purity="8.8274472951889038e-01" nType="0">
          <Node pos="l" depth="2" NCoef="0" IVar="-1" Cut="0.0000000000000000e+00" cType="1" res="1.0702257975935936e-02" rms="2.3332530260086060e-01" purity="9.3065929412841797e-01" nType="-99"/>
          <Node pos="r" depth="2" NCoef="0" IVar="-1" Cut="0.0000000000000000e+00" cType="1" res="6.5017035230994225e-03" rms="3.9224141836166382e-01" purity="6.8354713916778564e-01" nType="-99"/>
        </Node>
      </Node>
    </BinaryTree>
    <BinaryTree type="DecisionTree" boostWeight="1.0000000000000000e+00" itree="18">
      <Node pos="s" depth="0" NCoef="0" IVar="3" Cut="4.8070911407470703e+01" cType="1" res="1.1238834261894226e-01" rms="3.6643815040588379e-01" purity="5.1272058486938477e-01" nType="0">
        <Node pos="l" depth="1" NCoef="0" IVar="2" Cut="-3.0145353317260742e+01" cType="1" res="-3.3609133213758469e-02" rms="3.5136872529983521e-01" purity="2.3578993976116180e-01" nType="0">
          <Node pos="l" depth="2" NCoef="0" IVar="3" Cut="3.2118724822998047e+01" cType="1" res="-1.1838451027870178e-01" rms="1.9052420556545258e-01" purity="3.6831647157669067e-02" nType="0">
            <Node pos="l" depth="3" NCoef="0" IVar="-1" Cut="0.0000000000000000e+00" cType="1" res="-1.8528553843498230e-01" rms="1.4373762905597687e-01" purity="1.4424329623579979e-02" nType="-99"/>
            <Node pos="r" depth="3" NCoef="0" IVar="-1" Cut="0.0000000000000000e+00" cType="1" res="-2.5692144408822060e-02" rms="2.6720580458641052e-01" purity="8.9695274829864502e-02" nType="-99"/>
          </Node>
          <Node pos="r" depth="2" NCoef="0" IVar="6" Cut="6.1226043701171875e+02" cType="1" res="4.9677401781082153e-02" rms="4.4169273972511292e-01" purity="4.3125414848327637e-01" nType="0">
            <Node pos="l" depth="3" NCoef="0" IVar="-1" Cut="0.0000000000000000e+00" cType="1" res="-7.9206796362996101e-03" rms="4.1924557089805603e-01" purity="2.3657344281673431e-01" nType="-99"/>
            <Node pos="r" depth="3" NCoef="0" IVar="-1" Cut="0.0000000000000000e+00" cType="1" res="8.9851273223757744e-03" rms="4.1275113821029663e-01" purity="7.6077711582183838e-01" nType="-99"/>
          </Node>
        </Node>
        <Node pos="r" depth="1" NCoef="0" IVar="2" Cut="-3.2523254394531250e+01" cType="1" res="2.9181686043739319e-01" rms="2.9863032698631287e-01" purity="8.5306382179260254e-01" nType="0">
          <Node pos="l" depth="2" NCoef="0" IVar="-1" Cut="0.0000000000000000e+00" cType="1" res="-2.3643239401280880e-03" rms="4.1258648037910461e-01" purity="3.5590177774429321e-01" nType="-99"/>
          <Node pos="r" depth="2" NCoef="0" IVar="-1" Cut="0.0000000000000000e+00" cType="1" res="1.0448493994772434e-02" rms="2.3926427960395813e-01" purity="9.3158721923828125e-01" nType="-99"/>
        </Node>
      </Node>
    </BinaryTree>
    <BinaryTree type="DecisionTree" boostWeight="1.0000000000000000e+00" itree="19">
      <Node pos="s" depth="0" NCoef="0" IVar="3" Cut="5.2961215972900391e+01" cType="1" res="1.2721088528633118e-01" rms="3.6460870504379272e-01" purity="5.1616048812866211e-01" nType="0">
        <Node pos="l" depth="1" NCoef="0" IVar="6" Cut="6.0451531982421875e+02" cType="1" res="1.3239351101219654e-02" rms="3.6879464983940125e-01" purity="2.7770984172821045e-01" nType="0">
          <Node pos="l" depth="2" NCoef="0" IVar="1" Cut="8.9775061607360840e-01" cType="1" res="-3.7464544177055359e-02" rms="3.2829946279525757e-01" purity="1.6299083828926086e-01" nType="0">
            <Node pos="l" depth="3" NCoef="0" IVar="-1" Cut="0.0000000000000000e+00" cType="1" res="3.2734160777181387e-03" rms="3.9071586728096008e-01" purity="2.7612113952636719e-01" nType="-99"/>
            <Node pos="r" depth="3" NCoef="0" IVar="-1" Cut="0.0000000000000000e+00" cType="1" res="-2.1009823307394981e-02" rms="2.8428193926811218e-01" purity="1.0439218580722809e-01" nType="-99"/>
          </Node>
          <Node pos="r" depth="2" NCoef="0" IVar="2" Cut="-3.1278409957885742e+01" cType="1" res="1.3969945907592773e-01" rms="4.2896488308906555e-01" purity="5.6382948160171509e-01" nType="0">
            <Node pos="l" depth="3" NCoef="0" IVar="-1" Cut="0.0000000000000000e+00" cType="1" res="-2.7832071646116674e-04" rms="4.0798035264015198e-01" purity="2.5367715954780579e-01" nType="-99"/>
            <Node pos="r" depth="3" NCoef="0" IVar="-1" Cut="0.0000000000000000e+00" cType="1" res="8.2991514354944229e-03" rms="4.1910034418106079e-01" purity="7.4451112747192383e-01" nType="-99"/>
          </Node>
        </Node>
        <Node pos="r" depth="1" NCoef="0" IVar="1" Cut="1.4960503578186035e+00" cType="1" res="3.0470800399780273e-01" rms="2.7644801139831543e-01" purity="8.8751906156539917e-01" nType="0">
          <Node pos="l" depth="2" NCoef="0" IVar="-1" Cut="0.0000000000000000e+00" cType="1" res="1.0372410528361797e-02" rms="2.3058138787746429e-01" purity="9.3164724111557007e-01" nType="-99"/>
          <Node pos="r" depth="2" NCoef="0" IVar="-1" Cut="0.0000000000000000e+00" cType="1" res="6.7093991674482822e-03" rms="3.9198434352874756e-01" purity="6.9554829597473145e-01" nType="-99"/>
        </Node>
      </Node>
    </BinaryTree>
    <BinaryTree type="DecisionTree" boostWeight="1.0000000000000000e+00" itree="20">
      <Node pos="s" depth="0" NCoef="0" IVar="3" Cut="5.2821784973144531e+01" cType="1" res="1.2339209020137787e-01" rms="3.6518338322639465e-01" purity="5.1012361049652100e-01" nType="0">
        <Node pos="l" depth="1" NCoef="0" IVar="6" Cut="8.4623815917968750e+02" cType="1" res="1.0303017683327198e-02" rms="3.6846917867660522e-01" purity="2.6968890428543091e-01" nType="0">
          <Node pos="l" depth="2" NCoef="0" IVar="6" Cut="6.1150018310546875e+02" cType="1" res="-1.9007865339517593e-02" rms="3.5336408019065857e-01" purity="2.0156329870223999e-01" nType="0">
            <Node pos="l" depth="3" NCoef="0" IVar="-1" Cut="0.0000000000000000e+00" cType="1" res="-8.1739826127886772e-03" rms="3.2822939753532410e-01" purity="1.5335634350776672e-01" nType="-99"/>
            <Node pos="r" depth="3" NCoef="0" IVar="-1" Cut="0.0000000000000000e+00" cType="1" res="5.8738403022289276e-03" rms="4.4697380065917969e-01" purity="4.5554089546203613e-01" nType="-99"/>
          </Node>
          <Node pos="r" depth="2" NCoef="0" IVar="-1" Cut="0.0000000000000000e+00" cType="1" res="7.7253798954188824e-03" rms="4.0615576505661011e-01" purity="6.9772309064865112e-01" nType="-99"/>
        </Node>
        <Node pos="r" depth="1" NCoef="0" IVar="1" Cut="1.1965368986129761e+00" cType="1" res="2.9907497763633728e-01" rms="2.8085887432098389e-01" purity="8.8363689184188843e-01" nType="0">
          <Node pos="l" depth="2" NCoef="0" IVar="-1" Cut="0.0000000000000000e+00" cType="1" res="1.0433564893901348e-02" rms="2.2437690198421478e-01" purity="9.3623894453048706e-01" nType="-99"/>
          <Node pos="r" depth="2" NCoef="0" IVar="-1" Cut="0.0000000000000000e+00" cType="1" res="7.7104968950152397e-03" rms="3.7384560704231262e-01" purity="7.4622941017150879e-01" nType="-99"/>
        </Node>
      </Node>
    </BinaryTree>
    <BinaryTree type="DecisionTree" boostWeight="1.0000000000000000e+00" itree="21">
      <Node pos="s" depth="0" NCoef="0" IVar="3" Cut="6.5142501831054688e+01" cType="1" res="1.1297480016946793e-01" rms="3.6255842447280884e-01" purity="4.9886643886566162e-01" nType="0">
        <Node pos="l" depth="1" NCoef="0" IVar="6" Cut="6.4611700439453125e+02" cType="1" res="1.7807105556130409e-02" rms="3.7059780955314636e-01" purity="3.1069409847259521e-01" nType="0">
          <Node pos="l" depth="2" NCoef="0" IVar="6" Cut="3.8239413452148438e+02" cType="1" res="-3.7532057613134384e-02" rms="3.3858227729797363e-01" purity="1.8490713834762573e-01" nType="0">
            <Node pos="l" depth="3" NCoef="0" IVar="-1" Cut="0.0000000000000000e+00" cType="1" res="-2.0473724231123924e-02" rms="3.0040490627288818e-01" purity="1.1709641665220261e-01" nType="-99"/>
            <Node pos="r" depth="3" NCoef="0" IVar="-1" Cut="0.0000000000000000e+00" cType="1" res="-5.3331500384956598e-04" rms="3.6541131138801575e-01" purity="2.4398116767406464e-01" nType="-99"/>
          </Node>
          <Node pos="r" depth="2" NCoef="0" IVar="3" Cut="2.5191553115844727e+01" cType="1" res="1.6287679970264435e-01" rms="4.0962085127830505e-01" purity="6.4044034481048584e-01" nType="0">
            <Node pos="l" depth="3" NCoef="0" IVar="-1" Cut="0.0000000000000000e+00" cType="1" res="1.9998507923446596e-04" rms="4.2483234405517578e-01" purity="4.2252662777900696e-01" nType="-99"/>
            <Node pos="r" depth="3" NCoef="0" IVar="-1" Cut="0.0000000000000000e+00" cType="1" res="8.7102241814136505e-03" rms="3.8400235772132874e-01" purity="7.3108732700347900e-01" nType="-99"/>
          </Node>
        </Node>
        <Node pos="r" depth="1" NCoef="0" IVar="-1" Cut="0.0000000000000000e+00" cType="1" res="1.0343252681195736e-02" rms="2.1550688147544861e-01" purity="9.4059300422668457e-01" nType="-99"/>
      </Node>
    </BinaryTree>
    <BinaryTree type="DecisionTree" boostWeight="1.0000000000000000e+00" itree="22">
      <Node pos="s" depth="0" NCoef="0" IVar="3" Cut="6.0625774383544922e+01" cType="1" res="1.1474088579416275e-01" rms="3.5903874039649963e-01" purity="5.0384634733200073e-01" nType="0">
        <Node pos="l" depth="1" NCoef="0" IVar="6" Cut="6.6416503906250000e+02" cType="1" res="2.2809948772192001e-02" rms="3.6752945184707642e-01" purity="3.1318116188049316e-01" nType="0">
          <Node pos="l" depth="2" NCoef="0" IVar="6" Cut="4.5606222534179688e+02" cType="1" res="-3.0251765623688698e-02" rms="3.3715090155601501e-01" purity="1.9039498269557953e-01" nType="0">
            <Node pos="l" depth="3" NCoef="0" IVar="-1" Cut="0.0000000000000000e+00" cType="1" res="-1.4061536639928818e-02" rms="3.0819156765937805e-01" purity="1.3066241145133972e-01" nType="-99"/>
            <Node pos="r" depth="3" NCoef="0" IVar="-1" Cut="0.0000000000000000e+00" cType="1" res="2.9425951652228832e-03" rms="3.8375359773635864e-01" purity="3.1647661328315735e-01" nType="-99"/>
          </Node>
          <Node pos="r" depth="2" NCoef="0" IVar="3" Cut="2.9194564819335938e+01" cType="1" res="1.7227645218372345e-01" rms="4.0633404254913330e-01" purity="6.5905052423477173e-01" nType="0">
            <Node pos="l" depth="3" NCoef="0" IVar="-1" Cut="0.0000000000000000e+00" cType="1" res="3.6101390141993761e-03" rms="4.3283548951148987e-01" purity="5.0357830524444580e-01" nType="-99"/>
            <Node pos="r" depth="3" NCoef="0" IVar="-1" Cut="0.0000000000000000e+00" cType="1" res="8.9448923245072365e-03" rms="3.7164065241813660e-01" purity="7.6141750812530518e-01" nType="-99"/>
          </Node>
        </Node>
        <Node pos="r" depth="1" NCoef="0" IVar="-1" Cut="0.0000000000000000e+00" cType="1" res="1.0060526430606842e-02" rms="2.3652535676956177e-01" purity="9.2292469739913940e-01" nType="-99"/>
      </Node>
    </BinaryTree>
    <BinaryTree type="DecisionTree" boostWeight="1.0000000000000000e+00" itree="23">
      <Node pos="s" depth="0" NCoef="0" IVar="3" Cut="6.4022590637207031e+01" cType="1" res="1.1044257134199142e-01" rms="3.5834324359893799e-01" purity="4.9696677923202515e-01" nType="0">
        <Node pos="l" depth="1" NCoef="0" IVar="6" Cut="6.6416503906250000e+02" cType="1" res="1.9131373614072800e-02" rms="3.6670547723770142e-01" purity="3.0896818637847900e-01" nType="0">
          <Node pos="l" depth="2" NCoef="0" IVar="6" Cut="3.8671276855468750e+02" cType="1" res="-3.3790018409490585e-02" rms="3.3688879013061523e-01" purity="1.8506781756877899e-01" nType="0">
            <Node pos="l" depth="3" NCoef="0" IVar="-1" Cut="0.0000000000000000e+00" cType="1" res="-2.9575821012258530e-02" rms="2.7612513303756714e-01" purity="9.1217100620269775e-02" nType="-99"/>
            <Node pos="r" depth="3" NCoef="0" IVar="-1" Cut="0.0000000000000000e+00" cType="1" res="1.1674221605062485e-03" rms="3.7574103474617004e-01" purity="2.6548919081687927e-01" nType="-99"/>
          </Node>
          <Node pos="r" depth="2" NCoef="0" IVar="3" Cut="3.0728542327880859e+01" cType="1" res="1.6865871846675873e-01" rms="4.0432190895080566e-01" purity="6.5904396772384644e-01" nType="0">
            <Node pos="l" depth="3" NCoef="0" IVar="-1" Cut="0.0000000000000000e+00" cType="1" res="4.7895866446197033e-03" rms="4.3778273463249207e-01" purity="5.1712977886199951e-01" nType="-99"/>
            <Node pos="r" depth="3" NCoef="0" IVar="-1" Cut="0.0000000000000000e+00" cType="1" res="8.4477784112095833e-03" rms="3.6835640668869019e-01" purity="7.5991261005401611e-01" nType="-99"/>
          </Node>
        </Node>
        <Node pos="r" depth="1" NCoef="0" IVar="-1" Cut="0.0000000000000000e+00" cType="1" res="1.0010095313191414e-02" rms="2.2269015014171600e-01" purity="9.3500512838363647e-01" nType="-99"/>
      </Node>
    </BinaryTree>
    <BinaryTree type="DecisionTree" boostWeight="1.0000000000000000e+00" itree="24">
      <Node pos="s" depth="0" NCoef="0" IVar="3" Cut="5.2821784973144531e+01" cType="1" res="9.9985882639884949e-02" rms="3.5553008317947388e-01" purity="4.8136895895004272e-01" nType="0">
        <Node pos="l" depth="1" NCoef="0" IVar="6" Cut="8.4623571777343750e+02" cType="1" res="-3.3538436982780695e-03" rms="3.5279154777526855e-01" purity="2.4757456779479980e-01" nType="0">
          <Node pos="l" depth="2" NCoef="0" IVar="2" Cut="-1.4005767822265625e+01" cType="1" res="-3.1918689608573914e-02" rms="3.3164331316947937e-01" purity="1.7735670506954193e-01" nType="0">
            <Node pos="l" depth="3" NCoef="0" IVar="-1" Cut="0.0000000000000000e+00" cType="1" res="-2.6924066245555878e-02" rms="2.5480335950851440e-01" purity="7.8087061643600464e-02" nType="-99"/>
            <Node pos="r" depth="3" NCoef="0" IVar="-1" Cut="0.0000000000000000e+00" cType="1" res="2.7370352763682604e-03" rms="4.5806145668029785e-01" purity="4.1343986988067627e-01" nType="-99"/>
          </Node>
          <Node pos="r" depth="2" NCoef="0" IVar="-1" Cut="0.0000000000000000e+00" cType="1" res="7.0281699299812317e-03" rms="4.2100295424461365e-01" purity="6.7262780666351318e-01" nType="-99"/>
        </Node>
        <Node pos="r" depth="1" NCoef="0" IVar="1" Cut="1.3460925817489624e+00" cType="1" res="2.7308988571166992e-01" rms="2.8600251674652100e-01" purity="8.7299716472625732e-01" nType="0">
          <Node pos="l" depth="2" NCoef="0" IVar="-1" Cut="0.0000000000000000e+00" cType="1" res="9.8083354532718658e-03" rms="2.3871177434921265e-01" purity="9.2460781335830688e-01" nType="-99"/>
          <Node pos="r" depth="2" NCoef="0" IVar="-1" Cut="0.0000000000000000e+00" cType="1" res="6.6860667429864407e-03" rms="3.7319946289062500e-01" purity="7.2341120243072510e-01" nType="-99"/>
        </Node>
      </Node>
    </BinaryTree>
    <BinaryTree type="DecisionTree" boostWeight="1.0000000000000000e+00" itree="25">
      <Node pos="s" depth="0" NCoef="0" IVar="2" Cut="-1.3175789833068848e+01" cType="1" res="1.1803329735994339e-01" rms="3.5550659894943237e-01" purity="5.0896024703979492e-01" nType="0">
        <Node pos="l" depth="1" NCoef="0" IVar="6" Cut="6.4642260742187500e+02" cType="1" res="-2.7694897726178169e-02" rms="3.2558050751686096e-01" purity="1.7950166761875153e-01" nType="0">
          <Node pos="l" depth="2" NCoef="0" IVar="5" Cut="5.2691054344177246e-01" cType="1" res="-5.8199424296617508e-02" rms="2.7649718523025513e-01" purity="9.0365879237651825e-02" nType="0">
            <Node pos="l" depth="3" NCoef="0" IVar="-1" Cut="0.0000000000000000e+00" cType="1" res="5.4287174716591835e-03" rms="4.0105384588241577e-01" purity="2.1901810169219971e-01" nType="-99"/>
            <Node pos="r" depth="3" NCoef="0" IVar="-1" Cut="0.0000000000000000e+00" cType="1" res="-5.9915628284215927e-02" rms="2.1024577319622040e-01" purity="4.6671602874994278e-02" nType="-99"/>
          </Node>
          <Node pos="r" depth="2" NCoef="0" IVar="1" Cut="1.3486654758453369e+00" cType="1" res="7.3259636759757996e-02" rms="4.3650129437446594e-01" purity="4.7449600696563721e-01" nType="0">
            <Node pos="l" depth="3" NCoef="0" IVar="-1" Cut="0.0000000000000000e+00" cType="1" res="6.9227437488734722e-03" rms="4.3916654586791992e-01" purity="5.7426679134368896e-01" nType="-99"/>
            <Node pos="r" depth="3" NCoef="0" IVar="-1" Cut="0.0000000000000000e+00" cType="1" res="-1.2688935385085642e-04" rms="4.2117527127265930e-01" purity="3.5739073157310486e-01" nType="-99"/>
          </Node>
        </Node>
        <Node pos="r" depth="1" NCoef="0" IVar="3" Cut="3.5467411041259766e+01" cType="1" res="2.4644578993320465e-01" rms="3.3036684989929199e-01" purity="7.9927200078964233e-01" nType="0">
          <Node pos="l" depth="2" NCoef="0" IVar="5" Cut="4.3099021911621094e-01" cType="1" res="4.0874432772397995e-02" rms="4.4374787807464600e-01" purity="4.2165148258209229e-01" nType="0">
            <Node pos="l" depth="3" NCoef="0" IVar="-1" Cut="0.0000000000000000e+00" cType="1" res="-5.0218463875353336e-03" rms="4.2633244395256042e-01" purity="3.0235454440116882e-01" nType="-99"/>
            <Node pos="r" depth="3" NCoef="0" IVar="-1" Cut="0.0000000000000000e+00" cType="1" res="6.2942244112491608e-03" rms="4.4388639926910400e-01" purity="5.1253122091293335e-01" nType="-99"/>
          </Node>
          <Node pos="r" depth="2" NCoef="0" IVar="3" Cut="5.1344169616699219e+01" cType="1" res="3.0409371852874756e-01" rms="2.6335352659225464e-01" purity="9.0516728162765503e-01" nType="0">
            <Node pos="l" depth="3" NCoef="0" IVar="-1" Cut="0.0000000000000000e+00" cType="1" res="7.5625926256179810e-03" rms="4.4765475392341614e-01" purity="6.4662629365921021e-01" nType="-99"/>
            <Node pos="r" depth="3" NCoef="0" IVar="-1" Cut="0.0000000000000000e+00" cType="1" res="1.0236459784209728e-02" rms="2.0195351541042328e-01" purity="9.5420503616333008e-01" nType="-99"/>
          </Node>
        </Node>
      </Node>
    </BinaryTree>
    <BinaryTree type="DecisionTree" boostWeight="1.0000000000000000e+00" itree="26">
      <Node pos="s" depth="0" NCoef="0" IVar="3" Cut="5.2821784973144531e+01" cType="1" res="1.0482987016439438e-01" rms="3.4877240657806396e-01" purity="4.8984491825103760e-01" nType="0">
        <Node pos="l" depth="1" NCoef="0" IVar="3" Cut="4.5301303863525391e+01" cType="1" res="2.4510215735062957e-04" rms="3.4734201431274414e-01" purity="2.4738599359989166e-01" nType="0">
          <Node pos="l" depth="2" NCoef="0" IVar="6" Cut="8.1963592529296875e+02" cType="1" res="-2.8465125709772110e-02" rms="3.2814782857894897e-01" purity="1.9592805206775665e-01" nType="0">
            <Node pos="l" depth="3" NCoef="0" IVar="-1" Cut="0.0000000000000000e+00" cType="1" res="-1.0884756222367287e-02" rms="3.0493175983428955e-01" purity="1.3485093414783478e-01" nType="-99"/>
            <Node pos="r" depth="3" NCoef="0" IVar="-1" Cut="0.0000000000000000e+00" cType="1" res="4.9029658548533916e-03" rms="4.2994928359985352e-01" purity="6.0138070583343506e-01" nType="-99"/>
          </Node>
          <Node pos="r" depth="2" NCoef="0" IVar="-1" Cut="0.0000000000000000e+00" cType="1" res="9.1573353856801987e-03" rms="4.0589186549186707e-01" purity="5.8221334218978882e-01" nType="-99"/>
        </Node>
        <Node pos="r" depth="1" NCoef="0" IVar="1" Cut="1.3462506532669067e+00" cType="1" res="2.7183648943901062e-01" rms="2.7906027436256409e-01" purity="8.7701654434204102e-01" nType="0">
          <Node pos="l" depth="2" NCoef="0" IVar="-1" Cut="0.0000000000000000e+00" cType="1" res="9.7920913249254227e-03" rms="2.3434844613075256e-01" purity="9.2657625675201416e-01" nType="-99"/>
          <Node pos="r" depth="2" NCoef="0" IVar="-1" Cut="0.0000000000000000e+00" cType="1" res="6.4370101317763329e-03" rms="3.7123915553092957e-01" purity="7.1296674013137817e-01" nType="-99"/>
        </Node>
      </Node>
    </BinaryTree>
    <BinaryTree type="DecisionTree" boostWeight="1.0000000000000000e+00" itree="27">
      <Node pos="s" depth="0" NCoef="0" IVar="3" Cut="5.2989486694335938e+01" cType="1" res="9.7381234169006348e-02" rms="3.4304720163345337e-01" purity="4.8362734913825989e-01" nType="0">
        <Node pos="l" depth="1" NCoef="0" IVar="6" Cut="6.4611059570312500e+02" cType="1" res="-1.5015053562819958e-02" rms="3.3753356337547302e-01" purity="2.2486452758312225e-01" nType="0">
          <Node pos="l" depth="2" NCoef="0" IVar="6" Cut="4.4833386230468750e+02" cType="1" res="-4.5174658298492432e-02" rms="2.9926252365112305e-01" purity="1.2635798752307892e-01" nType="0">
            <Node pos="l" depth="3" NCoef="0" IVar="-1" Cut="0.0000000000000000e+00" cType="1" res="-2.3384125903248787e-02" rms="2.5746005773544312e-01" purity="8.4139660000801086e-02" nType="-99"/>
            <Node pos="r" depth="3" NCoef="0" IVar="-1" Cut="0.0000000000000000e+00" cType="1" res="2.6807148242369294e-04" rms="3.7285369634628296e-01" purity="2.2188569605350494e-01" nType="-99"/>
          </Node>
          <Node pos="r" depth="2" NCoef="0" IVar="3" Cut="2.5495277404785156e+01" cType="1" res="8.2771375775337219e-02" rms="4.2477652430534363e-01" purity="5.4425209760665894e-01" nType="0">
            <Node pos="l" depth="3" NCoef="0" IVar="-1" Cut="0.0000000000000000e+00" cType="1" res="1.2738443729176652e-05" rms="4.4011068344116211e-01" purity="3.9551502466201782e-01" nType="-99"/>
            <Node pos="r" depth="3" NCoef="0" IVar="-1" Cut="0.0000000000000000e+00" cType="1" res="5.8051403611898422e-03" rms="4.0710312128067017e-01" purity="6.3452428579330444e-01" nType="-99"/>
          </Node>
        </Node>
        <Node pos="r" depth="1" NCoef="0" IVar="1" Cut="1.3448973894119263e+00" cType="1" res="2.7076414227485657e-01" rms="2.7188369631767273e-01" purity="8.8279581069946289e-01" nType="0">
          <Node pos="l" depth="2" NCoef="0" IVar="-1" Cut="0.0000000000000000e+00" cType="1" res="9.7767226397991180e-03" rms="2.2234442830085754e-01" purity="9.3370330333709717e-01" nType="-99"/>
          <Node pos="r" depth="2" NCoef="0" IVar="-1" Cut="0.0000000000000000e+00" cType="1" res="6.1673545278608799e-03" rms="3.7229058146476746e-01" purity="7.1008598804473877e-01" nType="-99"/>
        </Node>
      </Node>
    </BinaryTree>
    <BinaryTree type="DecisionTree" boostWeight="1.0000000000000000e+00" itree="28">
      <Node pos="s" depth="0" NCoef="0" IVar="3" Cut="5.7344467163085938e+01" cType="1" res="1.1987796425819397e-01" rms="3.5154885053634644e-01" purity="5.0773310661315918e-01" nType="0">
        <Node pos="l" depth="1" NCoef="0" IVar="6" Cut="8.4623101806640625e+02" cType="1" res="3.1645428389310837e-02" rms="3.6638066172599792e-01" purity="2.9335036873817444e-01" nType="0">
          <Node pos="l" depth="2" NCoef="0" IVar="3" Cut="3.8337135314941406e+01" cType="1" res="-2.9871370643377304e-03" rms="3.5160607099533081e-01" purity="2.0642538368701935e-01" nType="0">
            <Node pos="l" depth="3" NCoef="0" IVar="-1" Cut="0.0000000000000000e+00" cType="1" res="-1.0966761037707329e-02" rms="2.9930698871612549e-01" purity="1.2425518780946732e-01" nType="-99"/>
            <Node pos="r" depth="3" NCoef="0" IVar="-1" Cut="0.0000000000000000e+00" cType="1" res="7.5920741073787212e-03" rms="4.4341543316841125e-01" purity="4.1918429732322693e-01" nType="-99"/>
          </Node>
          <Node pos="r" depth="2" NCoef="0" IVar="-1" Cut="0.0000000000000000e+00" cType="1" res="8.0671124160289764e-03" rms="3.8837349414825439e-01" purity="7.4228394031524658e-01" nType="-99"/>
        </Node>
        <Node pos="r" depth="1" NCoef="0" IVar="-1" Cut="0.0000000000000000e+00" cType="1" res="9.3565238639712334e-03" rms="2.4753323197364807e-01" purity="9.1142076253890991e-01" nType="-99"/>
      </Node>
    </BinaryTree>
    <BinaryTree type="DecisionTree" boostWeight="1.0000000000000000e+00" itree="29">
      <Node pos="s" depth="0" NCoef="0" IVar="3" Cut="5.2961215972900391e+01" cType="1" res="1.0730529576539993e-01" rms="3.4695884585380554e-01" purity="4.9694913625717163e-01" nType="0">
        <Node pos="l" depth="1" NCoef="0" IVar="6" Cut="8.1963842773437500e+02" cType="1" res="9.9369222298264503e-03" rms="3.5392060875892639e-01" purity="2.5116246938705444e-01" nType="0">
          <Node pos="l" depth="2" NCoef="0" IVar="0" Cut="1.9813952445983887e+00" cType="1" res="-1.5132473781704903e-02" rms="3.3539694547653198e-01" purity="1.7484745383262634e-01" nType="0">
            <Node pos="l" depth="3" NCoef="0" IVar="-1" Cut="0.0000000000000000e+00" cType="1" res="3.0411483021453023e-04" rms="3.3996468782424927e-01" purity="1.8827253580093384e-01" nType="-99"/>
            <Node pos="r" depth="3" NCoef="0" IVar="-1" Cut="0.0000000000000000e+00" cType="1" res="-4.6596512198448181e-02" rms="2.7303186058998108e-01" purity="8.0302670598030090e-02" nType="-99"/>
          </Node>
          <Node pos="r" depth="2" NCoef="0" IVar="-1" Cut="0.0000000000000000e+00" cType="1" res="6.1878506094217300e-03" rms="4.1539704799652100e-01" purity="6.6417860984802246e-01" nType="-99"/>
        </Node>
        <Node pos="r" depth="1" NCoef="0" IVar="1" Cut="1.4958251714706421e+00" cType="1" res="2.6004874706268311e-01" rms="2.7298927307128906e-01" purity="8.8251888751983643e-01" nType="0">
          <Node pos="l" depth="2" NCoef="0" IVar="-1" Cut="0.0000000000000000e+00" cType="1" res="9.5531083643436432e-03" rms="2.2727903723716736e-01" purity="9.3159848451614380e-01" nType="-99"/>
          <Node pos="r" depth="2" NCoef="0" IVar="-1" Cut="0.0000000000000000e+00" cType="1" res="3.4192621242254972e-03" rms="3.9191737771034241e-01" purity="6.2448221445083618e-01" nType="-99"/>
        </Node>
      </Node>
    </BinaryTree>
    <BinaryTree type="DecisionTree" boostWeight="1.0000000000000000e+00" itree="30">
      <Node pos="s" depth="0" NCoef="0" IVar="3" Cut="6.5142501831054688e+01" cType="1" res="1.0875876992940903e-01" rms="3.3991509675979614e-01" purity="5.0460100173950195e-01" nType="0">
        <Node pos="l" depth="1" NCoef="0" IVar="2" Cut="-1.7000833511352539e+01" cType="1" res="2.6419630274176598e-02" rms="3.5248741507530212e-01" purity="3.1519547104835510e-01" nType="0">
          <Node pos="l" depth="2" NCoef="0" IVar="2" Cut="-3.9579265594482422e+01" cType="1" res="-4.8784088343381882e-02" rms="2.8125512599945068e-01" purity="1.1419183760881424e-01" nType="0">
            <Node pos="l" depth="3" NCoef="0" IVar="-1" Cut="0.0000000000000000e+00" cType="1" res="-5.5625032633543015e-02" rms="1.9809190928936005e-01" purity="4.1068378835916519e-02" nType="-99"/>
            <Node pos="r" depth="3" NCoef="0" IVar="-1" Cut="0.0000000000000000e+00" cType="1" res="-1.3767671589448582e-05" rms="3.8704055547714233e-01" purity="2.5054827332496643e-01" nType="-99"/>
          </Node>
          <Node pos="r" depth="2" NCoef="0" IVar="6" Cut="4.8209725952148438e+02" cType="1" res="1.3182994723320007e-01" rms="4.1046804189682007e-01" purity="5.9693503379821777e-01" nType="0">
            <Node pos="l" depth="3" NCoef="0" IVar="-1" Cut="0.0000000000000000e+00" cType="1" res="-4.3690242455340922e-04" rms="4.2435693740844727e-01" purity="3.3119857311248779e-01" nType="-99"/>
            <Node pos="r" depth="3" NCoef="0" IVar="-1" Cut="0.0000000000000000e+00" cType="1" res="8.3766207098960876e-03" rms="3.7085440754890442e-01" purity="7.8558707237243652e-01" nType="-99"/>
          </Node>
        </Node>
        <Node pos="r" depth="1" NCoef="0" IVar="-1" Cut="0.0000000000000000e+00" cType="1" res="9.5683736726641655e-03" rms="2.0904748141765594e-01" purity="9.4169890880584717e-01" nType="-99"/>
      </Node>
    </BinaryTree>
    <BinaryTree type="DecisionTree" boostWeight="1.0000000000000000e+00" itree="31">
      <Node pos="s" depth="0" NCoef="0" IVar="3" Cut="3.5433658599853516e+01" cType="1" res="1.1973663419485092e-01" rms="3.4531566500663757e-01" purity="5.0995481014251709e-01" nType="0">
        <Node pos="l" depth="1" NCoef="0" IVar="6" Cut="6.4642572021484375e+02" cType="1" res="-9.7746849060058594e-03" rms="3.2093515992164612e-01" purity="1.9665764272212982e-01" nType="0">
          <Node pos="l" depth="2" NCoef="0" IVar="1" Cut="5.9851163625717163e-01" cType="1" res="-3.9502449333667755e-02" rms="2.7573779225349426e-01" purity="9.7751557826995850e-02" nType="0">
            <Node pos="l" depth="3" NCoef="0" IVar="-1" Cut="0.0000000000000000e+00" cType="1" res="-7.9705595970153809e-02" rms="2.0263369381427765e-01" purity="3.9024949073791504e-02" nType="-99"/>
            <Node pos="r" depth="3" NCoef="0" IVar="-1" Cut="0.0000000000000000e+00" cType="1" res="-7.0786010473966599e-03" rms="2.8780260682106018e-01" purity="1.1159770935773849e-01" nType="-99"/>
          </Node>
          <Node pos="r" depth="2" NCoef="0" IVar="-1" Cut="0.0000000000000000e+00" cType="1" res="4.8806127160787582e-03" rms="4.2436179518699646e-01" purity="5.2612495422363281e-01" nType="-99"/>
        </Node>
        <Node pos="r" depth="1" NCoef="0" IVar="2" Cut="-5.2210891723632812e+01" cType="1" res="2.1454432606697083e-01" rms="3.3146145939826965e-01" purity="7.3930138349533081e-01" nType="0">
          <Node pos="l" depth="2" NCoef="0" IVar="-1" Cut="0.0000000000000000e+00" cType="1" res="-7.3316721245646477e-03" rms="3.4250169992446899e-01" purity="1.8178457021713257e-01" nType="-99"/>
          <Node pos="r" depth="2" NCoef="0" IVar="5" Cut="4.7848364710807800e-01" cType="1" res="2.6034748554229736e-01" rms="3.0757641792297363e-01" purity="8.3802127838134766e-01" nType="0">
            <Node pos="l" depth="3" NCoef="0" IVar="-1" Cut="0.0000000000000000e+00" cType="1" res="4.3968795798718929e-03" rms="4.1949808597564697e-01" purity="5.8374595642089844e-01" nType="-99"/>
            <Node pos="r" depth="3" NCoef="0" IVar="-1" Cut="0.0000000000000000e+00" cType="1" res="9.8594734445214272e-03" rms="2.7576574683189392e-01" purity="8.7864577770233154e-01" nType="-99"/>
          </Node>
        </Node>
      </Node>
    </BinaryTree>
    <BinaryTree type="DecisionTree" boostWeight="1.0000000000000000e+00" itree="32">
      <Node pos="s" depth="0" NCoef="0" IVar="3" Cut="3.5387145996093750e+01" cType="1" res="1.1224453151226044e-01" rms="3.4617125988006592e-01" purity="4.9802890419960022e-01" nType="0">
        <Node pos="l" depth="1" NCoef="0" IVar="3" Cut="3.2044597625732422e+01" cType="1" res="-9.2810885980725288e-03" rms="3.2293757796287537e-01" purity="1.9029313325881958e-01" nType="0">
          <Node pos="l" depth="2" NCoef="0" IVar="6" Cut="6.2361511230468750e+02" cType="1" res="-2.7373202145099640e-02" rms="3.0170989036560059e-01" purity="1.6415591537952423e-01" nType="0">
            <Node pos="l" depth="3" NCoef="0" IVar="-1" Cut="0.0000000000000000e+00" cType="1" res="-2.4082282558083534e-02" rms="2.5618490576744080e-01" purity="7.4547037482261658e-02" nType="-99"/>
            <Node pos="r" depth="3" NCoef="0" IVar="-1" Cut="0.0000000000000000e+00" cType="1" res="2.2461046464741230e-03" rms="4.1209489107131958e-01" purity="4.6140488982200623e-01" nType="-99"/>
          </Node>
          <Node pos="r" depth="2" NCoef="0" IVar="-1" Cut="0.0000000000000000e+00" cType="1" res="1.0262594558298588e-02" rms="4.2308756709098816e-01" purity="3.7396147847175598e-01" nType="-99"/>
        </Node>
        <Node pos="r" depth="1" NCoef="0" IVar="2" Cut="-3.2523254394531250e+01" cType="1" res="2.0413586497306824e-01" rms="3.3463165163993835e-01" purity="7.3072266578674316e-01" nType="0">
          <Node pos="l" depth="2" NCoef="0" IVar="2" Cut="-6.1935138702392578e+01" cType="1" res="1.6516875475645065e-02" rms="3.8231605291366577e-01" purity="2.7826523780822754e-01" nType="0">
            <Node pos="l" depth="3" NCoef="0" IVar="-1" Cut="0.0000000000000000e+00" cType="1" res="-3.2886337488889694e-02" rms="2.7876707911491394e-01" purity="9.6677698194980621e-02" nType="-99"/>
            <Node pos="r" depth="3" NCoef="0" IVar="-1" Cut="0.0000000000000000e+00" cType="1" res="9.8221162334084511e-03" rms="4.2986884713172913e-01" purity="4.8415759205818176e-01" nType="-99"/>
          </Node>
          <Node pos="r" depth="2" NCoef="0" IVar="5" Cut="5.7471412420272827e-01" cType="1" res="2.5823256373405457e-01" rms="2.9840412735939026e-01" purity="8.6118090152740479e-01" nType="0">
            <Node pos="l" depth="3" NCoef="0" IVar="-1" Cut="0.0000000000000000e+00" cType="1" res="6.0051381587982178e-03" rms="4.0022003650665283e-01" purity="7.0123958587646484e-01" nType="-99"/>
            <Node pos="r" depth="3" NCoef="0" IVar="-1" Cut="0.0000000000000000e+00" cType="1" res="9.8243430256843567e-03" rms="2.4791209399700165e-01" purity="9.1115188598632812e-01" nType="-99"/>
          </Node>
        </Node>
      </Node>
    </BinaryTree>
    <BinaryTree type="DecisionTree" boostWeight="1.0000000000000000e+00" itree="33">
      <Node pos="s" depth="0" NCoef="0" IVar="2" Cut="-1.4156901359558105e+01" cType="1" res="1.2023995816707611e-01" rms="3.4566983580589294e-01" purity="5.0776106119155884e-01" nType="0">
        <Node pos="l" depth="1" NCoef="0" IVar="6" Cut="6.4643231201171875e+02" cType="1" res="4.6740504913032055e-03" rms="3.2669532299041748e-01" purity="2.0171278715133667e-01" nType="0">
          <Node pos="l" depth="2" NCoef="0" IVar="2" Cut="-6.9322853088378906e+01" cType="1" res="-2.3678140714764595e-02" rms="2.8153094649314880e-01" purity="1.0676297545433044e-01" nType="0">
            <Node pos="l" depth="3" NCoef="0" IVar="-1" Cut="0.0000000000000000e+00" cType="1" res="-1.6378563642501831e-01" rms="1.1190453916788101e-01" purity="6.6968044266104698e-03" nType="-99"/>
            <Node pos="r" depth="3" NCoef="0" IVar="-1" Cut="0.0000000000000000e+00" cType="1" res="9.8700867965817451e-04" rms="3.3539399504661560e-01" purity="1.5989409387111664e-01" nType="-99"/>
          </Node>
          <Node pos="r" depth="2" NCoef="0" IVar="0" Cut="4.8618882894515991e-02" cType="1" res="9.6666686236858368e-02" rms="4.2987182736396790e-01" purity="5.0979065895080566e-01" nType="0">
            <Node pos="l" depth="3" NCoef="0" IVar="-1" Cut="0.0000000000000000e+00" cType="1" res="7.3153604753315449e-03" rms="4.3866559863090515e-01" purity="5.4898595809936523e-01" nType="-99"/>
            <Node pos="r" depth="3" NCoef="0" IVar="-1" Cut="0.0000000000000000e+00" cType="1" res="3.0308486893773079e-03" rms="4.1331773996353149e-01" purity="4.6009919047355652e-01" nType="-99"/>
          </Node>
        </Node>
        <Node pos="r" depth="1" NCoef="0" IVar="3" Cut="3.5666954040527344e+01" cType="1" res="2.2662040591239929e-01" rms="3.2805585861206055e-01" purity="7.8948384523391724e-01" nType="0">
          <Node pos="l" depth="2" NCoef="0" IVar="3" Cut="2.3983903884887695e+01" cType="1" res="5.7704582810401917e-02" rms="4.4686639308929443e-01" purity="4.0628308057785034e-01" nType="0">
            <Node pos="l" depth="3" NCoef="0" IVar="-1" Cut="0.0000000000000000e+00" cType="1" res="-6.0796770267188549e-03" rms="3.9538478851318359e-01" purity="2.6620188355445862e-01" nType="-99"/>
            <Node pos="r" depth="3" NCoef="0" IVar="-1" Cut="0.0000000000000000e+00" cType="1" res="8.5942083969712257e-03" rms="4.6733498573303223e-01" purity="5.3022122383117676e-01" nType="-99"/>
          </Node>
          <Node pos="r" depth="2" NCoef="0" IVar="2" Cut="1.3451201438903809e+01" cType="1" res="2.7594518661499023e-01" rms="2.6452055573463440e-01" purity="9.0138155221939087e-01" nType="0">
            <Node pos="l" depth="3" NCoef="0" IVar="-1" Cut="0.0000000000000000e+00" cType="1" res="8.7151108309626579e-03" rms="3.5421928763389587e-01" purity="8.1190699338912964e-01" nType="-99"/>
            <Node pos="r" depth="3" NCoef="0" IVar="-1" Cut="0.0000000000000000e+00" cType="1" res="9.6358032897114754e-03" rms="2.1563366055488586e-01" purity="9.3832385540008545e-01" nType="-99"/>
          </Node>
        </Node>
      </Node>
    </BinaryTree>
    <BinaryTree type="DecisionTree" boostWeight="1.0000000000000000e+00" itree="34">
      <Node pos="s" depth="0" NCoef="0" IVar="2" Cut="-5.8627600669860840e+00" cType="1" res="1.1574647575616837e-01" rms="3.3564773201942444e-01" purity="5.0981259346008301e-01" nType="0">
        <Node pos="l" depth="1" NCoef="0" IVar="6" Cut="5.3599224853515625e+02" cType="1" res="1.5721103176474571e-02" rms="3.2539531588554382e-01" purity="2.4348282814025879e-01" nType="0">
          <Node pos="l" depth="2" NCoef="0" IVar="2" Cut="-3.1298383712768555e+01" cType="1" res="-2.9021965339779854e-02" rms="2.6585212349891663e-01" purity="1.0858687013387680e-01" nType="0">
            <Node pos="l" depth="3" NCoef="0" IVar="-1" Cut="0.0000000000000000e+00" cType="1" res="-2.8664696961641312e-02" rms="1.8492566049098969e-01" purity="4.7212012112140656e-02" nType="-99"/>
            <Node pos="r" depth="3" NCoef="0" IVar="-1" Cut="0.0000000000000000e+00" cType="1" res="5.2650726865977049e-04" rms="3.8423937559127808e-01" purity="2.4070654809474945e-01" nType="-99"/>
          </Node>
          <Node pos="r" depth="2" NCoef="0" IVar="2" Cut="-3.6481765747070312e+01" cType="1" res="9.6299871802330017e-02" rms="3.9897975325584412e-01" purity="4.8641985654830933e-01" nType="0">
            <Node pos="l" depth="3" NCoef="0" IVar="-1" Cut="0.0000000000000000e+00" cType="1" res="-2.2219463717192411e-03" rms="3.5787457227706909e-01" purity="2.2032897174358368e-01" nType="-99"/>
            <Node pos="r" depth="3" NCoef="0" IVar="-1" Cut="0.0000000000000000e+00" cType="1" res="7.8055649064481258e-03" rms="4.0723380446434021e-01" purity="6.9421070814132690e-01" nType="-99"/>
          </Node>
        </Node>
        <Node pos="r" depth="1" NCoef="0" IVar="5" Cut="5.7328552007675171e-01" cType="1" res="2.3586387932300568e-01" rms="3.0717271566390991e-01" purity="8.2963991165161133e-01" nType="0">
          <Node pos="l" depth="2" NCoef="0" IVar="1" Cut="1.0478198528289795e+00" cType="1" res="1.3018342852592468e-01" rms="4.1433948278427124e-01" purity="6.2807029485702515e-01" nType="0">
            <Node pos="l" depth="3" NCoef="0" IVar="-1" Cut="0.0000000000000000e+00" cType="1" res="7.4409041553735733e-03" rms="3.8523253798484802e-01" purity="7.0467829704284668e-01" nType="-99"/>
            <Node pos="r" depth="3" NCoef="0" IVar="-1" Cut="0.0000000000000000e+00" cType="1" res="4.6812258660793304e-03" rms="4.3450412154197693e-01" purity="5.5824959278106689e-01" nType="-99"/>
          </Node>
          <Node pos="r" depth="2" NCoef="0" IVar="-1" Cut="0.0000000000000000e+00" cType="1" res="9.4827944412827492e-03" rms="2.2854505479335785e-01" purity="9.2042791843414307e-01" nType="-99"/>
        </Node>
      </Node>
    </BinaryTree>
    <BinaryTree type="DecisionTree" boostWeight="1.0000000000000000e+00" itree="35">
      <Node pos="s" depth="0" NCoef="0" IVar="3" Cut="6.4022590637207031e+01" cType="1" res="1.1628737300634384e-01" rms="3.4119096398353577e-01" purity="5.0506299734115601e-01" nType="0">
        <Node pos="l" depth="1" NCoef="0" IVar="6" Cut="7.3344226074218750e+02" cType="1" res="4.0346987545490265e-02" rms="3.6333006620407104e-01" purity="3.0522993206977844e-01" nType="0">
          <Node pos="l" depth="2" NCoef="0" IVar="6" Cut="4.6505404663085938e+02" cType="1" res="1.1991172097623348e-02" rms="3.4872689843177795e-01" purity="2.0824611186981201e-01" nType="0">
            <Node pos="l" depth="3" NCoef="0" IVar="-1" Cut="0.0000000000000000e+00" cType="1" res="-4.4203051365911961e-03" rms="3.0725675821304321e-01" purity="1.4065106213092804e-01" nType="-99"/>
            <Node pos="r" depth="3" NCoef="0" IVar="-1" Cut="0.0000000000000000e+00" cType="1" res="6.7849010229110718e-03" rms="4.1396793723106384e-01" purity="3.4624949097633362e-01" nType="-99"/>
          </Node>
          <Node pos="r" depth="2" NCoef="0" IVar="-1" Cut="0.0000000000000000e+00" cType="1" res="6.4305933192372322e-03" rms="3.9627563953399658e-01" purity="6.7878460884094238e-01" nType="-99"/>
        </Node>
        <Node pos="r" depth="1" NCoef="0" IVar="-1" Cut="0.0000000000000000e+00" cType="1" res="9.2988777905702591e-03" rms="2.0756241679191589e-01" purity="9.3789225816726685e-01" nType="-99"/>
      </Node>
    </BinaryTree>
    <BinaryTree type="DecisionTree" boostWeight="1.0000000000000000e+00" itree="36">
      <Node pos="s" depth="0" NCoef="0" IVar="3" Cut="5.4645256042480469e+01" cType="1" res="1.0559774935245514e-01" rms="3.3223375678062439e-01" purity="5.0025177001953125e-01" nType="0">
        <Node pos="l" depth="1" NCoef="0" IVar="3" Cut="4.4298656463623047e+01" cType="1" res="1.8204119056463242e-02" rms="3.4572339057922363e-01" purity="2.6159691810607910e-01" nType="0">
          <Node pos="l" depth="2" NCoef="0" IVar="0" Cut="-1.7465305328369141e+00" cType="1" res="-3.2972518820315599e-03" rms="3.3131715655326843e-01" purity="2.0928512513637543e-01" nType="0">
            <Node pos="l" depth="3" NCoef="0" IVar="-1" Cut="0.0000000000000000e+00" cType="1" res="-1.9338974729180336e-02" rms="2.9871526360511780e-01" purity="1.3982413709163666e-01" nType="-99"/>
            <Node pos="r" depth="3" NCoef="0" IVar="-1" Cut="0.0000000000000000e+00" cType="1" res="2.2343404125422239e-03" rms="3.3452603220939636e-01" purity="2.2369341552257538e-01" nType="-99"/>
          </Node>
          <Node pos="r" depth="2" NCoef="0" IVar="-1" Cut="0.0000000000000000e+00" cType="1" res="7.1152565069496632e-03" rms="3.9456182718276978e-01" purity="5.3762197494506836e-01" nType="-99"/>
        </Node>
        <Node pos="r" depth="1" NCoef="0" IVar="3" Cut="6.5639694213867188e+01" cType="1" res="2.5047767162322998e-01" rms="2.4812570214271545e-01" purity="8.9589035511016846e-01" nType="0">
          <Node pos="l" depth="2" NCoef="0" IVar="-1" Cut="0.0000000000000000e+00" cType="1" res="6.1617009341716766e-03" rms="3.5227397084236145e-01" purity="7.3242235183715820e-01" nType="-99"/>
          <Node pos="r" depth="2" NCoef="0" IVar="-1" Cut="0.0000000000000000e+00" cType="1" res="9.2573510482907295e-03" rms="2.0008490979671478e-01" purity="9.4231545925140381e-01" nType="-99"/>
        </Node>
      </Node>
    </BinaryTree>
    <BinaryTree type="DecisionTree" boostWeight="1.0000000000000000e+00" itree="37">
      <Node pos="s" depth="0" NCoef="0" IVar="3" Cut="4.6189598083496094e+01" cType="1" res="1.0645256191492081e-01" rms="3.3486995100975037e-01" purity="4.9772256612777710e-01" nType="0">
        <Node pos="l" depth="1" NCoef="0" IVar="2" Cut="-2.2427701950073242e+01" cType="1" res="8.5953408852219582e-03" rms="3.3787587285041809e-01" purity="2.2568699717521667e-01" nType="0">
          <Node pos="l" depth="2" NCoef="0" IVar="4" Cut="4.9101199954748154e-02" cType="1" res="-3.8331765681505203e-02" rms="2.3905421793460846e-01" purity="7.3227062821388245e-02" nType="0">
            <Node pos="l" depth="3" NCoef="0" IVar="-1" Cut="0.0000000000000000e+00" cType="1" res="-2.7385957073420286e-03" rms="2.7752625942230225e-01" purity="1.0695804655551910e-01" nType="-99"/>
            <Node pos="r" depth="3" NCoef="0" IVar="-1" Cut="0.0000000000000000e+00" cType="1" res="-6.3529692590236664e-02" rms="1.7364883422851562e-01" purity="3.1550277024507523e-02" nType="-99"/>
          </Node>
          <Node pos="r" depth="2" NCoef="0" IVar="6" Cut="4.3723550415039062e+02" cType="1" res="7.6913960278034210e-02" rms="4.3507361412048340e-01" purity="4.4764509797096252e-01" nType="0">
            <Node pos="l" depth="3" NCoef="0" IVar="-1" Cut="0.0000000000000000e+00" cType="1" res="-2.5141458027064800e-03" rms="4.1243451833724976e-01" purity="2.1643888950347900e-01" nType="-99"/>
            <Node pos="r" depth="3" NCoef="0" IVar="-1" Cut="0.0000000000000000e+00" cType="1" res="6.7655700258910656e-03" rms="4.3892422318458557e-01" purity="6.2161129713058472e-01" nType="-99"/>
          </Node>
        </Node>
        <Node pos="r" depth="1" NCoef="0" IVar="2" Cut="-1.6277975082397461e+01" cType="1" res="2.2709709405899048e-01" rms="2.8858917951583862e-01" purity="8.3310514688491821e-01" nType="0">
          <Node pos="l" depth="2" NCoef="0" IVar="-1" Cut="0.0000000000000000e+00" cType="1" res="5.0954497419297695e-03" rms="4.0062740445137024e-01" purity="4.7908815741539001e-01" nType="-99"/>
          <Node pos="r" depth="2" NCoef="0" IVar="-1" Cut="0.0000000000000000e+00" cType="1" res="8.9893266558647156e-03" rms="2.3261533677577972e-01" purity="9.3226563930511475e-01" nType="-99"/>
        </Node>
      </Node>
    </BinaryTree>
    <BinaryTree type="DecisionTree" boostWeight="1.0000000000000000e+00" itree="38">
      <Node pos="s" depth="0" NCoef="0" IVar="2" Cut="8.2737712860107422e+00" cType="1" res="1.0721265524625778e-01" rms="3.3940270543098450e-01" purity="4.9521291255950928e-01" nType="0">
        <Node pos="l" depth="1" NCoef="0" IVar="2" Cut="-2.7128335952758789e+01" cType="1" res="3.6213077604770660e-02" rms="3.5358327627182007e-01" purity="2.9262399673461914e-01" nType="0">
          <Node pos="l" depth="2" NCoef="0" IVar="1" Cut="1.3463054895401001e+00" cType="1" res="-2.4782098829746246e-02" rms="2.7700257301330566e-01" purity="1.0951956361532211e-01" nType="0">
            <Node pos="l" depth="3" NCoef="0" IVar="-1" Cut="0.0000000000000000e+00" cType="1" res="3.8433142472058535e-03" rms="3.3807662129402161e-01" purity="1.8220686912536621e-01" nType="-99"/>
            <Node pos="r" depth="3" NCoef="0" IVar="-1" Cut="0.0000000000000000e+00" cType="1" res="-3.5975910723209381e-02" rms="2.1416060626506805e-01" purity="5.4880786687135696e-02" nType="-99"/>
          </Node>
          <Node pos="r" depth="2" NCoef="0" IVar="3" Cut="3.6161399841308594e+01" cType="1" res="1.1476883292198181e-01" rms="4.1982406377792358e-01" purity="5.2844440937042236e-01" nType="0">
            <Node pos="l" depth="3" NCoef="0" IVar="-1" Cut="0.0000000000000000e+00" cType="1" res="4.5720762573182583e-03" rms="4.3388465046882629e-01" purity="3.6006885766983032e-01" nType="-99"/>
            <Node pos="r" depth="3" NCoef="0" IVar="-1" Cut="0.0000000000000000e+00" cType="1" res="7.8605860471725464e-03" rms="3.8455677032470703e-01" purity="7.5236004590988159e-01" nType="-99"/>
          </Node>
        </Node>
        <Node pos="r" depth="1" NCoef="0" IVar="1" Cut="1.2684296369552612e+00" cType="1" res="2.4529422819614410e-01" rms="2.5925329327583313e-01" purity="8.8921236991882324e-01" nType="0">
          <Node pos="l" depth="2" NCoef="0" IVar="-1" Cut="0.0000000000000000e+00" cType="1" res="9.1578122228384018e-03" rms="2.1370162069797516e-01" purity="9.3068253993988037e-01" nType="-99"/>
          <Node pos="r" depth="2" NCoef="0" IVar="-1" Cut="0.0000000000000000e+00" cType="1" res="7.2114448994398117e-03" rms="3.4751567244529724e-01" purity="7.7651888132095337e-01" nType="-99"/>
        </Node>
      </Node>
    </BinaryTree>
    <BinaryTree type="DecisionTree" boostWeight="1.0000000000000000e+00" itree="39">
      <Node pos="s" depth="0" NCoef="0" IVar="3" Cut="6.5266464233398438e+01" cType="1" res="9.5231190323829651e-02" rms="3.3164173364639282e-01" purity="4.8184928297996521e-01" nType="0">
        <Node pos="l" depth="1" NCoef="0" IVar="6" Cut="4.7306781005859375e+02" cType="1" res="3.3323008567094803e-02" rms="3.4712517261505127e-01" purity="3.1277376413345337e-01" nType="0">
          <Node pos="l" depth="2" NCoef="0" IVar="5" Cut="4.7928076982498169e-01" cType="1" res="-3.2288178801536560e-02" rms="2.8948599100112915e-01" purity="1.2838339805603027e-01" nType="0">
            <Node pos="l" depth="3" NCoef="0" IVar="-1" Cut="0.0000000000000000e+00" cType="1" res="-2.8888752683997154e-02" rms="2.8682816028594971e-01" purity="1.1189343780279160e-01" nType="-99"/>
            <Node pos="r" depth="3" NCoef="0" IVar="-1" Cut="0.0000000000000000e+00" cType="1" res="-1.8231320427730680e-03" rms="2.8589567542076111e-01" purity="1.3367637991905212e-01" nType="-99"/>
          </Node>
          <Node pos="r" depth="2" NCoef="0" IVar="2" Cut="-3.0224199295043945e+01" cType="1" res="1.0702929645776749e-01" rms="3.8916364312171936e-01" purity="5.1991415023803711e-01" nType="0">
            <Node pos="l" depth="3" NCoef="0" IVar="-1" Cut="0.0000000000000000e+00" cType="1" res="-6.8347151391208172e-03" rms="3.1514367461204529e-01" purity="1.5458601713180542e-01" nType="-99"/>
            <Node pos="r" depth="3" NCoef="0" IVar="-1" Cut="0.0000000000000000e+00" cType="1" res="7.5513697229325771e-03" rms="4.0355581045150757e-01" purity="7.1703797578811646e-01" nType="-99"/>
          </Node>
        </Node>
        <Node pos="r" depth="1" NCoef="0" IVar="-1" Cut="0.0000000000000000e+00" cType="1" res="9.0069100260734558e-03" rms="2.1017944812774658e-01" purity="9.3422538042068481e-01" nType="-99"/>
      </Node>
    </BinaryTree>
    <BinaryTree type="DecisionTree" boostWeight="1.0000000000000000e+00" itree="40">
      <Node pos="s" depth="0" NCoef="0" IVar="2" Cut="-1.3175789833068848e+01" cType="1" res="1.0897487401962280e-01" rms="3.2925188541412354e-01" purity="5.0752836465835571e-01" nType="0">
        <Node pos="l" depth="1" NCoef="0" IVar="6" Cut="4.7321685791015625e+02" cType="1" res="7.4003604240715504e-03" rms="3.1291329860687256e-01" purity="1.9489727914333344e-01" nType="0">
          <Node pos="l" depth="2" NCoef="0" IVar="2" Cut="-4.7549430847167969e+01" cType="1" res="-2.7741393074393272e-02" rms="2.3767429590225220e-01" purity="7.6189510524272919e-02" nType="0">
            <Node pos="l" depth="3" NCoef="0" IVar="-1" Cut="0.0000000000000000e+00" cType="1" res="-5.3804375231266022e-02" rms="1.1595086753368378e-01" purity="2.1368889138102531e-02" nType="-99"/>
            <Node pos="r" depth="3" NCoef="0" IVar="-1" Cut="0.0000000000000000e+00" cType="1" res="-5.6924455566331744e-04" rms="3.3206790685653687e-01" purity="1.4617298543453217e-01" nType="-99"/>
          </Node>
          <Node pos="r" depth="2" NCoef="0" IVar="3" Cut="3.1984460830688477e+01" cType="1" res="5.6817933917045593e-02" rms="3.8985928893089294e-01" purity="3.6182829737663269e-01" nType="0">
            <Node pos="l" depth="3" NCoef="0" IVar="-1" Cut="0.0000000000000000e+00" cType="1" res="-3.9193397387862206e-03" rms="3.5104411840438843e-01" purity="1.9325660169124603e-01" nType="-99"/>
            <Node pos="r" depth="3" NCoef="0" IVar="-1" Cut="0.0000000000000000e+00" cType="1" res="8.0997850745916367e-03" rms="4.0937945246696472e-01" purity="5.3327441215515137e-01" nType="-99"/>
          </Node>
        </Node>
        <Node pos="r" depth="1" NCoef="0" IVar="3" Cut="3.5666954040527344e+01" cType="1" res="2.0249208807945251e-01" rms="3.1594642996788025e-01" purity="7.9536020755767822e-01" nType="0">
          <Node pos="l" depth="2" NCoef="0" IVar="3" Cut="2.3983903884887695e+01" cType="1" res="2.5168465450406075e-02" rms="4.1486570239067078e-01" purity="4.0296405553817749e-01" nType="0">
            <Node pos="l" depth="3" NCoef="0" IVar="-1" Cut="0.0000000000000000e+00" cType="1" res="-1.0045548900961876e-02" rms="3.7649077177047729e-01" purity="2.4555240571498871e-01" nType="-99"/>
            <Node pos="r" depth="3" NCoef="0" IVar="-1" Cut="0.0000000000000000e+00" cType="1" res="5.8684321120381355e-03" rms="4.2583751678466797e-01" purity="5.3590536117553711e-01" nType="-99"/>
          </Node>
          <Node pos="r" depth="2" NCoef="0" IVar="5" Cut="5.2587652206420898e-01" cType="1" res="2.5116112828254700e-01" rms="2.6264402270317078e-01" purity="9.0305906534194946e-01" nType="0">
            <Node pos="l" depth="3" NCoef="0" IVar="-1" Cut="0.0000000000000000e+00" cType="1" res="5.6681376881897449e-03" rms="3.9180648326873779e-01" purity="7.3258513212203979e-01" nType="-99"/>
            <Node pos="r" depth="3" NCoef="0" IVar="-1" Cut="0.0000000000000000e+00" cType="1" res="9.3524828553199768e-03" rms="2.1822690963745117e-01" purity="9.3944042921066284e-01" nType="-99"/>
          </Node>
        </Node>
      </Node>
    </BinaryTree>
    <BinaryTree type="DecisionTree" boostWeight="1.0000000000000000e+00" itree="41">
      <Node pos="s" depth="0" NCoef="0" IVar="2" Cut="-1.5744689941406250e+01" cType="1" res="1.1120404303073883e-01" rms="3.3120691776275635e-01" purity="5.0726658105850220e-01" nType="0">
        <Node pos="l" depth="1" NCoef="0" IVar="1" Cut="8.9746457338333130e-01" cType="1" res="6.7827100865542889e-03" rms="3.0703541636466980e-01" purity="1.8189735710620880e-01" nType="0">
          <Node pos="l" depth="2" NCoef="0" IVar="3" Cut="3.1842912673950195e+01" cType="1" res="7.5315147638320923e-02" rms="3.6846110224723816e-01" purity="3.1715062260627747e-01" nType="0">
            <Node pos="l" depth="3" NCoef="0" IVar="-1" Cut="0.0000000000000000e+00" cType="1" res="1.4947993913665414e-03" rms="3.1983101367950439e-01" purity="1.4439620077610016e-01" nType="-99"/>
            <Node pos="r" depth="3" NCoef="0" IVar="-1" Cut="0.0000000000000000e+00" cType="1" res="9.1971606016159058e-03" rms="4.0236884355545044e-01" purity="5.1208055019378662e-01" nType="-99"/>
          </Node>
          <Node pos="r" depth="2" NCoef="0" IVar="2" Cut="-4.3499809265136719e+01" cType="1" res="-2.7083091437816620e-02" rms="2.6513952016830444e-01" purity="1.1506097763776779e-01" nType="0">
            <Node pos="l" depth="3" NCoef="0" IVar="-1" Cut="0.0000000000000000e+00" cType="1" res="-5.0269301980733871e-02" rms="1.8545435369014740e-01" purity="3.5118680447340012e-02" nType="-99"/>
            <Node pos="r" depth="3" NCoef="0" IVar="-1" Cut="0.0000000000000000e+00" cType="1" res="2.5301221758127213e-03" rms="3.6316949129104614e-01" purity="2.5988194346427917e-01" nType="-99"/>
          </Node>
        </Node>
        <Node pos="r" depth="1" NCoef="0" IVar="6" Cut="4.9968383789062500e+02" cType="1" res="2.0028316974639893e-01" rms="3.2499504089355469e-01" purity="7.8483057022094727e-01" nType="0">
          <Node pos="l" depth="2" NCoef="0" IVar="5" Cut="5.7324594259262085e-01" cType="1" res="9.7269266843795776e-02" rms="4.0667378902435303e-01" purity="5.4932969808578491e-01" nType="0">
            <Node pos="l" depth="3" NCoef="0" IVar="-1" Cut="0.0000000000000000e+00" cType="1" res="2.6386577519588172e-04" rms="4.3301087617874146e-01" purity="3.5139110684394836e-01" nType="-99"/>
            <Node pos="r" depth="3" NCoef="0" IVar="-1" Cut="0.0000000000000000e+00" cType="1" res="8.0380793660879135e-03" rms="3.6035725474357605e-01" purity="7.2916913032531738e-01" nType="-99"/>
          </Node>
          <Node pos="r" depth="2" NCoef="0" IVar="-1" Cut="0.0000000000000000e+00" cType="1" res="8.8255638256669044e-03" rms="2.5886780023574829e-01" purity="9.0481567382812500e-01" nType="-99"/>
        </Node>
      </Node>
    </BinaryTree>
    <BinaryTree type="DecisionTree" boostWeight="1.0000000000000000e+00" itree="42">
      <Node pos="s" depth="0" NCoef="0" IVar="2" Cut="1.7619781494140625e+00" cType="1" res="9.7269698977470398e-02" rms="3.2435333728790283e-01" purity="4.9068903923034668e-01" nType="0">
        <Node pos="l" depth="1" NCoef="0" IVar="2" Cut="-2.6580839157104492e+01" cType="1" res="1.8657745793461800e-02" rms="3.2177001237869263e-01" purity="2.6180353760719299e-01" nType="0">
          <Node pos="l" depth="2" NCoef="0" IVar="1" Cut="4.4897684454917908e-01" cType="1" res="-2.8562849387526512e-02" rms="2.4046035110950470e-01" purity="1.1026646941900253e-01" nType="0">
            <Node pos="l" depth="3" NCoef="0" IVar="-1" Cut="0.0000000000000000e+00" cType="1" res="4.8983134329319000e-03" rms="3.1050017476081848e-01" purity="3.0523410439491272e-01" nType="-99"/>
            <Node pos="r" depth="3" NCoef="0" IVar="-1" Cut="0.0000000000000000e+00" cType="1" res="-1.8653562292456627e-02" rms="2.2250624001026154e-01" purity="7.5526304543018341e-02" nType="-99"/>
          </Node>
          <Node pos="r" depth="2" NCoef="0" IVar="3" Cut="3.1473096847534180e+01" cType="1" res="9.4173267483711243e-02" rms="4.0911468863487244e-01" purity="5.0414276123046875e-01" nType="0">
            <Node pos="l" depth="3" NCoef="0" IVar="-1" Cut="0.0000000000000000e+00" cType="1" res="9.9579093512147665e-04" rms="4.2945915460586548e-01" purity="2.6614236831665039e-01" nType="-99"/>
            <Node pos="r" depth="3" NCoef="0" IVar="-1" Cut="0.0000000000000000e+00" cType="1" res="7.4348943307995796e-03" rms="3.7030509114265442e-01" purity="7.3159366846084595e-01" nType="-99"/>
          </Node>
        </Node>
        <Node pos="r" depth="1" NCoef="0" IVar="5" Cut="5.2660727500915527e-01" cType="1" res="2.2419215738773346e-01" rms="2.8602981567382812e-01" purity="8.6023479700088501e-01" nType="0">
          <Node pos="l" depth="2" NCoef="0" IVar="-1" Cut="0.0000000000000000e+00" cType="1" res="4.2535481043159962e-03" rms="4.2215657234191895e-01" purity="6.0296058654785156e-01" nType="-99"/>
          <Node pos="r" depth="2" NCoef="0" IVar="-1" Cut="0.0000000000000000e+00" cType="1" res="9.1709271073341370e-03" rms="2.1801072359085083e-01" purity="9.3245840072631836e-01" nType="-99"/>
        </Node>
      </Node>
    </BinaryTree>
    <BinaryTree type="DecisionTree" boostWeight="1.0000000000000000e+00" itree="43">
      <Node pos="s" depth="0" NCoef="0" IVar="3" Cut="6.5122512817382812e+01" cType="1" res="9.7898520529270172e-02" rms="3.2818612456321716e-01" purity="4.8681896924972534e-01" nType="0">
        <Node pos="l" depth="1" NCoef="0" IVar="6" Cut="8.1164172363281250e+02" cType="1" res="3.6334462463855743e-02" rms="3.4907895326614380e-01" purity="3.0452990531921387e-01" nType="0">
