<?xml version="1.0"?>
<MethodSetup Method="BDT::BDT">
  <GeneralInfo>
    <Info name="TMVA Release" value="4.2.1 [262657]"/>
    <Info name="ROOT Release" value="6.06/01 [394753]"/>
    <Info name="Creator" value="vbhopatk"/>
    <Info name="Date" value="Thu May 25 16:05:41 2017"/>
    <Info name="Host" value="Linux vocms0301.cern.ch 2.6.32-642.11.1.el6.x86_64 #1 SMP Wed Nov 16 09:40:09 CET 2016 x86_64 x86_64 x86_64 GNU/Linux"/>
    <Info name="Dir" value="/nfs/dust/cms/user/vbhopatk/Rereco_Moriond17/TMVA/Training/updatedboostcat"/>
    <Info name="Training events" value="4877998"/>
    <Info name="TrainingTime" value="3.44333039e+03"/>
    <Info name="AnalysisType" value="Classification"/>
  </GeneralInfo>
  <Options>
    <Option name="V" modified="Yes">False</Option>
    <Option name="VerbosityLevel" modified="No">Default</Option>
    <Option name="VarTransform" modified="No">None</Option>
    <Option name="H" modified="Yes">False</Option>
    <Option name="CreateMVAPdfs" modified="No">False</Option>
    <Option name="IgnoreNegWeightsInTraining" modified="Yes">False</Option>
    <Option name="NTrees" modified="Yes">500</Option>
    <Option name="MaxDepth" modified="Yes">3</Option>
    <Option name="MinNodeSize" modified="No">5%</Option>
    <Option name="nCuts" modified="Yes">20</Option>
    <Option name="BoostType" modified="Yes">Grad</Option>
    <Option name="AdaBoostR2Loss" modified="No">quadratic</Option>
    <Option name="UseBaggedBoost" modified="Yes">True</Option>
    <Option name="Shrinkage" modified="Yes">3.000000e-01</Option>
    <Option name="AdaBoostBeta" modified="No">5.000000e-01</Option>
    <Option name="UseRandomisedTrees" modified="No">False</Option>
    <Option name="UseNvars" modified="No">3</Option>
    <Option name="UsePoissonNvars" modified="No">True</Option>
    <Option name="BaggedSampleFraction" modified="No">5.000000e-01</Option>
    <Option name="UseYesNoLeaf" modified="No">True</Option>
    <Option name="NegWeightTreatment" modified="No">ignorenegweightsintraining</Option>
    <Option name="Css" modified="No">1.000000e+00</Option>
    <Option name="Cts_sb" modified="No">1.000000e+00</Option>
    <Option name="Ctb_ss" modified="No">1.000000e+00</Option>
    <Option name="Cbb" modified="No">1.000000e+00</Option>
    <Option name="NodePurityLimit" modified="No">5.000000e-01</Option>
    <Option name="SeparationType" modified="Yes">giniindex</Option>
    <Option name="DoBoostMonitor" modified="No">False</Option>
    <Option name="UseFisherCuts" modified="No">False</Option>
    <Option name="MinLinCorrForFisher" modified="No">8.000000e-01</Option>
    <Option name="UseExclusiveVars" modified="No">False</Option>
    <Option name="DoPreselection" modified="No">False</Option>
    <Option name="SigToBkgFraction" modified="No">1.000000e+00</Option>
    <Option name="PruneMethod" modified="Yes">nopruning</Option>
    <Option name="PruneStrength" modified="No">0.000000e+00</Option>
    <Option name="PruningValFraction" modified="No">5.000000e-01</Option>
    <Option name="nEventsMin" modified="No">0</Option>
    <Option name="UseBaggedGrad" modified="No">False</Option>
    <Option name="GradBaggingFraction" modified="Yes">5.000000e-01</Option>
    <Option name="UseNTrainEvents" modified="No">0</Option>
    <Option name="NNodesMax" modified="No">0</Option>
  </Options>
  <Variables NVar="8">
    <Variable VarIndex="0" Expression="eta_tt" Label="eta_tt" Title="eta_tt" Unit="" Internal="eta_tt" Type="F" Min="-8.88577652e+00" Max="9.50384808e+00"/>
    <Variable VarIndex="1" Expression="dphi_posmu_met" Label="dphi_posmu_met" Title="dphi_posmu_met" Unit="" Internal="dphi_posmu_met" Type="F" Min="2.58095678e-08" Max="3.14159083e+00"/>
    <Variable VarIndex="2" Expression="dzeta" Label="dzeta" Title="dzeta" Unit="" Internal="dzeta" Type="F" Min="-1.26727136e+03" Max="4.64222595e+02"/>
    <Variable VarIndex="3" Expression="met" Label="met" Title="met" Unit="" Internal="met" Type="F" Min="6.33291155e-03" Max="2.04912524e+03"/>
    <Variable VarIndex="4" Expression="m_vis" Label="m_vis" Title="m_vis" Unit="" Internal="m_vis" Type="F" Min="2.00002918e+01" Max="2.00928662e+03"/>
    <Variable VarIndex="5" Expression="costheta" Label="costheta" Title="costheta" Unit="" Internal="costheta" Type="F" Min="-9.99998331e-01" Max="9.99995530e-01"/>
    <Variable VarIndex="6" Expression="ptRatio" Label="ptRatio" Title="ptRatio" Unit="" Internal="ptRatio" Type="F" Min="3.95768468e-04" Max="1.00000000e+00"/>
    <Variable VarIndex="7" Expression="pt_tot" Label="pt_tot" Title="pt_tot" Unit="" Internal="pt_tot" Type="F" Min="3.82683687e-02" Max="2.03486121e+03"/>
  </Variables>
  <Spectators NSpec="0"/>
  <Classes NClass="2">
    <Class Name="Signal" Index="0"/>
    <Class Name="Background" Index="1"/>
  </Classes>
  <Transformations NTransformations="0"/>
  <MVAPdfs/>
  <Weights NTrees="500" AnalysisType="1">
    <BinaryTree type="DecisionTree" boostWeight="1.0000000000000000e+00" itree="0">
      <Node pos="s" depth="0" NCoef="0" IVar="4" Cut="8.1048194885253906e+01" cType="1" res="-1.2254754081368446e-02" rms="4.9984979629516602e-01" purity="4.8774525523185730e-01" nType="0">
        <Node pos="l" depth="1" NCoef="0" IVar="-1" Cut="0.0000000000000000e+00" cType="1" res="2.0008151477668434e-04" rms="3.2549953460693359e-01" purity="8.7953925132751465e-01" nType="-99"/>
        <Node pos="r" depth="1" NCoef="0" IVar="2" Cut="-1.4672790527343750e+01" cType="1" res="-3.4983038902282715e-01" rms="3.5723760724067688e-01" purity="1.5016961097717285e-01" nType="0">
          <Node pos="l" depth="2" NCoef="0" IVar="2" Cut="-4.5327934265136719e+01" cType="1" res="-4.0993425250053406e-01" rms="2.8627592325210571e-01" purity="9.0065747499465942e-02" nType="0">
            <Node pos="l" depth="3" NCoef="0" IVar="-1" Cut="0.0000000000000000e+00" cType="1" res="-5.3560552187263966e-03" rms="1.9602595269680023e-01" purity="4.0028452873229980e-02" nType="-99"/>
            <Node pos="r" depth="3" NCoef="0" IVar="-1" Cut="0.0000000000000000e+00" cType="1" res="-1.3536382466554642e-03" rms="3.3034235239028931e-01" purity="1.2466824054718018e-01" nType="-99"/>
          </Node>
          <Node pos="r" depth="2" NCoef="0" IVar="6" Cut="2.8630432486534119e-01" cType="1" res="-2.5058686733245850e-01" rms="4.3267333507537842e-01" purity="2.4941310286521912e-01" nType="0">
            <Node pos="l" depth="3" NCoef="0" IVar="-1" Cut="0.0000000000000000e+00" cType="1" res="-2.2282091958913952e-04" rms="4.7166612744331360e-01" purity="3.3407512307167053e-01" nType="-99"/>
            <Node pos="r" depth="3" NCoef="0" IVar="-1" Cut="0.0000000000000000e+00" cType="1" res="-7.7505363151431084e-04" rms="3.8545545935630798e-01" purity="1.8152853846549988e-01" nType="-99"/>
          </Node>
        </Node>
      </Node>
    </BinaryTree>
    <BinaryTree type="DecisionTree" boostWeight="1.0000000000000000e+00" itree="1">
      <Node pos="s" depth="0" NCoef="0" IVar="2" Cut="-2.2440057754516602e+01" cType="1" res="3.8574892096221447e-03" rms="4.9948954582214355e-01" purity="5.0337302684783936e-01" nType="0">
        <Node pos="l" depth="1" NCoef="0" IVar="4" Cut="9.1737442016601562e+01" cType="1" res="-3.1020051240921021e-01" rms="3.9066231250762939e-01" purity="1.8853521347045898e-01" nType="0">
          <Node pos="l" depth="2" NCoef="0" IVar="4" Cut="8.1489273071289062e+01" cType="1" res="-2.6385119557380676e-01" rms="4.2351499199867249e-01" purity="2.3506426811218262e-01" nType="0">
            <Node pos="l" depth="3" NCoef="0" IVar="-1" Cut="0.0000000000000000e+00" cType="1" res="5.8308713050791994e-05" rms="4.9467456340789795e-01" purity="5.7267457246780396e-01" nType="-99"/>
            <Node pos="r" depth="3" NCoef="0" IVar="-1" Cut="0.0000000000000000e+00" cType="1" res="-2.4888634216040373e-03" rms="2.6032871007919312e-01" purity="7.3229812085628510e-02" nType="-99"/>
          </Node>
          <Node pos="r" depth="2" NCoef="0" IVar="1" Cut="1.7952057123184204e+00" cType="1" res="-4.1733497381210327e-01" rms="2.7266648411750793e-01" purity="8.0985344946384430e-02" nType="0">
            <Node pos="l" depth="3" NCoef="0" IVar="-1" Cut="0.0000000000000000e+00" cType="1" res="-1.8813346978276968e-03" rms="2.9266148805618286e-01" purity="9.4660162925720215e-02" nType="-99"/>
            <Node pos="r" depth="3" NCoef="0" IVar="-1" Cut="0.0000000000000000e+00" cType="1" res="-2.9463381506502628e-03" rms="2.4910181760787964e-01" purity="6.6592738032341003e-02" nType="-99"/>
          </Node>
        </Node>
        <Node pos="r" depth="1" NCoef="0" IVar="3" Cut="3.5558414459228516e+01" cType="1" res="1.7004840075969696e-01" rms="4.7004172205924988e-01" purity="6.6997665166854858e-01" nType="0">
          <Node pos="l" depth="2" NCoef="0" IVar="2" Cut="-8.7590951919555664e+00" cType="1" res="2.5505395606160164e-02" rms="4.9917256832122803e-01" purity="5.2536135911941528e-01" nType="0">
            <Node pos="l" depth="3" NCoef="0" IVar="-1" Cut="0.0000000000000000e+00" cType="1" res="-8.2573322288226336e-05" rms="4.9380800127983093e-01" purity="4.2306980490684509e-01" nType="-99"/>
            <Node pos="r" depth="3" NCoef="0" IVar="-1" Cut="0.0000000000000000e+00" cType="1" res="7.0232832513283938e-05" rms="4.9160617589950562e-01" purity="5.9053134918212891e-01" nType="-99"/>
          </Node>
          <Node pos="r" depth="2" NCoef="0" IVar="6" Cut="3.8178482651710510e-01" cType="1" res="3.3714622259140015e-01" rms="3.6908671259880066e-01" purity="8.3715796470642090e-01" nType="0">
            <Node pos="l" depth="3" NCoef="0" IVar="-1" Cut="0.0000000000000000e+00" cType="1" res="1.2703506217803806e-04" rms="4.6453949809074402e-01" purity="6.8459665775299072e-01" nType="-99"/>
            <Node pos="r" depth="3" NCoef="0" IVar="-1" Cut="0.0000000000000000e+00" cType="1" res="2.0066459546796978e-04" rms="3.1639415025711060e-01" purity="8.8705527782440186e-01" nType="-99"/>
          </Node>
        </Node>
      </Node>
    </BinaryTree>
    <BinaryTree type="DecisionTree" boostWeight="1.0000000000000000e+00" itree="2">
      <Node pos="s" depth="0" NCoef="0" IVar="2" Cut="-6.7096557617187500e+00" cType="1" res="3.2921035308390856e-03" rms="4.9921289086341858e-01" purity="5.0248956680297852e-01" nType="0">
        <Node pos="l" depth="1" NCoef="0" IVar="4" Cut="9.1737686157226562e+01" cType="1" res="-1.8916849792003632e-01" rms="4.6145126223564148e-01" purity="3.0934050679206848e-01" nType="0">
          <Node pos="l" depth="2" NCoef="0" IVar="4" Cut="8.4905563354492188e+01" cType="1" res="-1.1879748851060867e-01" rms="4.8456189036369324e-01" purity="3.7998297810554504e-01" nType="0">
            <Node pos="l" depth="3" NCoef="0" IVar="-1" Cut="0.0000000000000000e+00" cType="1" res="1.3332183880265802e-04" rms="4.5614743232727051e-01" purity="7.0430260896682739e-01" nType="-99"/>
            <Node pos="r" depth="3" NCoef="0" IVar="-1" Cut="0.0000000000000000e+00" cType="1" res="-2.4530240334570408e-03" rms="2.6092734932899475e-01" purity="7.3627799749374390e-02" nType="-99"/>
          </Node>
          <Node pos="r" depth="2" NCoef="0" IVar="6" Cut="4.2909431457519531e-01" cType="1" res="-3.8359138369560242e-01" rms="3.1788629293441772e-01" purity="1.1416753381490707e-01" nType="0">
            <Node pos="l" depth="3" NCoef="0" IVar="-1" Cut="0.0000000000000000e+00" cType="1" res="-8.7083363905549049e-04" rms="3.7379691004753113e-01" purity="1.6792345046997070e-01" nType="-99"/>
            <Node pos="r" depth="3" NCoef="0" IVar="-1" Cut="0.0000000000000000e+00" cType="1" res="-2.6170094497501850e-03" rms="2.5700950622558594e-01" purity="7.1161046624183655e-02" nType="-99"/>
          </Node>
        </Node>
        <Node pos="r" depth="1" NCoef="0" IVar="6" Cut="4.2917954921722412e-01" cType="1" res="2.4305808544158936e-01" rms="4.3677562475204468e-01" purity="7.4311327934265137e-01" nType="0">
          <Node pos="l" depth="2" NCoef="0" IVar="2" Cut="6.5734281539916992e+00" cType="1" res="1.0376686602830887e-01" rms="4.8899617791175842e-01" purity="6.0375046730041504e-01" nType="0">
            <Node pos="l" depth="3" NCoef="0" IVar="-1" Cut="0.0000000000000000e+00" cType="1" res="2.7523199150891742e-06" rms="4.9986204504966736e-01" purity="5.0303250551223755e-01" nType="-99"/>
            <Node pos="r" depth="3" NCoef="0" IVar="-1" Cut="0.0000000000000000e+00" cType="1" res="1.2051958765368909e-04" rms="4.6734926104545593e-01" purity="6.7743116617202759e-01" nType="-99"/>
          </Node>
          <Node pos="r" depth="2" NCoef="0" IVar="-1" Cut="0.0000000000000000e+00" cType="1" res="1.9408129446674138e-04" rms="3.4100818634033203e-01" purity="8.6553990840911865e-01" nType="-99"/>
        </Node>
      </Node>
    </BinaryTree>
    <BinaryTree type="DecisionTree" boostWeight="1.0000000000000000e+00" itree="3">
      <Node pos="s" depth="0" NCoef="0" IVar="2" Cut="4.4028887748718262e+00" cType="1" res="9.9416524171829224e-03" rms="4.9876704812049866e-01" purity="5.0882375240325928e-01" nType="0">
        <Node pos="l" depth="1" NCoef="0" IVar="2" Cut="-3.4632087707519531e+01" cType="1" res="-1.2489756941795349e-01" rms="4.8254495859146118e-01" purity="3.7340655922889709e-01" nType="0">
          <Node pos="l" depth="2" NCoef="0" IVar="6" Cut="4.2930978536605835e-01" cType="1" res="-3.5617405176162720e-01" rms="3.4635722637176514e-01" purity="1.4030793309211731e-01" nType="0">
            <Node pos="l" depth="3" NCoef="0" IVar="-1" Cut="0.0000000000000000e+00" cType="1" res="-3.9482951979152858e-04" rms="4.4193157553672791e-01" purity="2.6811352372169495e-01" nType="-99"/>
            <Node pos="r" depth="3" NCoef="0" IVar="-1" Cut="0.0000000000000000e+00" cType="1" res="-1.7914776690304279e-03" rms="3.0011841654777527e-01" purity="1.0072853416204453e-01" nType="-99"/>
          </Node>
          <Node pos="r" depth="2" NCoef="0" IVar="2" Cut="-2.1620376586914062e+01" cType="1" res="-7.1539585478603840e-03" rms="4.9922496080398560e-01" purity="4.9207791686058044e-01" nType="0">
            <Node pos="l" depth="3" NCoef="0" IVar="-1" Cut="0.0000000000000000e+00" cType="1" res="-3.6009403993375599e-04" rms="4.4752949476242065e-01" purity="2.7869570255279541e-01" nType="-99"/>
            <Node pos="r" depth="3" NCoef="0" IVar="-1" Cut="0.0000000000000000e+00" cType="1" res="5.2309093007352203e-05" rms="4.9539083242416382e-01" purity="5.6417894363403320e-01" nType="-99"/>
          </Node>
        </Node>
        <Node pos="r" depth="1" NCoef="0" IVar="6" Cut="3.3388385176658630e-01" cType="1" res="3.0901277065277100e-01" rms="3.9281857013702393e-01" purity="8.0917692184448242e-01" nType="0">
          <Node pos="l" depth="2" NCoef="0" IVar="-1" Cut="0.0000000000000000e+00" cType="1" res="1.1892984912265092e-04" rms="4.6869209408760071e-01" purity="6.7388844490051270e-01" nType="-99"/>
          <Node pos="r" depth="2" NCoef="0" IVar="-1" Cut="0.0000000000000000e+00" cType="1" res="1.9676206284202635e-04" rms="3.3181887865066528e-01" purity="8.7390190362930298e-01" nType="-99"/>
        </Node>
      </Node>
    </BinaryTree>
    <BinaryTree type="DecisionTree" boostWeight="1.0000000000000000e+00" itree="4">
      <Node pos="s" depth="0" NCoef="0" IVar="4" Cut="9.1393234252929688e+01" cType="1" res="-1.2822301127016544e-02" rms="4.9851360917091370e-01" purity="4.8581179976463318e-01" nType="0">
        <Node pos="l" depth="1" NCoef="0" IVar="4" Cut="8.4593902587890625e+01" cType="1" res="9.7588308155536652e-02" rms="4.8936036229133606e-01" purity="5.9661608934402466e-01" nType="0">
          <Node pos="l" depth="2" NCoef="0" IVar="2" Cut="-3.1571329116821289e+01" cType="1" res="3.5197043418884277e-01" rms="3.5478201508522034e-01" purity="8.5202974081039429e-01" nType="0">
            <Node pos="l" depth="3" NCoef="0" IVar="-1" Cut="0.0000000000000000e+00" cType="1" res="5.3865715017309412e-06" rms="4.9968278408050537e-01" purity="5.0500428676605225e-01" nType="-99"/>
            <Node pos="r" depth="3" NCoef="0" IVar="-1" Cut="0.0000000000000000e+00" cType="1" res="2.0710979879368097e-04" rms="2.8854918479919434e-01" purity="9.0827631950378418e-01" nType="-99"/>
          </Node>
          <Node pos="r" depth="2" NCoef="0" IVar="4" Cut="8.7507904052734375e+01" cType="1" res="-3.6909973621368408e-01" rms="3.3372852206230164e-01" purity="1.2803538143634796e-01" nType="0">
            <Node pos="l" depth="3" NCoef="0" IVar="-1" Cut="0.0000000000000000e+00" cType="1" res="-2.3281920584850013e-04" rms="4.6877264976501465e-01" purity="3.2783651351928711e-01" nType="-99"/>
            <Node pos="r" depth="3" NCoef="0" IVar="-1" Cut="0.0000000000000000e+00" cType="1" res="-2.4884166195988655e-03" rms="2.6197612285614014e-01" purity="7.4273511767387390e-02" nType="-99"/>
          </Node>
        </Node>
        <Node pos="r" depth="1" NCoef="0" IVar="6" Cut="3.3402252197265625e-01" cType="1" res="-4.0521034598350525e-01" rms="2.8871938586235046e-01" purity="9.2024698853492737e-02" nType="0">
          <Node pos="l" depth="2" NCoef="0" IVar="-1" Cut="0.0000000000000000e+00" cType="1" res="-8.1333785783499479e-04" rms="3.8121277093887329e-01" purity="1.7639884352684021e-01" nType="-99"/>
          <Node pos="r" depth="2" NCoef="0" IVar="6" Cut="5.5601549148559570e-01" cType="1" res="-4.5098772644996643e-01" rms="2.0794652402400970e-01" purity="4.5418098568916321e-02" nType="0">
            <Node pos="l" depth="3" NCoef="0" IVar="-1" Cut="0.0000000000000000e+00" cType="1" res="-2.4187555536627769e-03" rms="2.6350089907646179e-01" purity="7.5157523155212402e-02" nType="-99"/>
            <Node pos="r" depth="3" NCoef="0" IVar="-1" Cut="0.0000000000000000e+00" cType="1" res="-2.8709596022963524e-02" rms="1.0611297190189362e-01" purity="1.1397247202694416e-02" nType="-99"/>
          </Node>
        </Node>
      </Node>
    </BinaryTree>
    <BinaryTree type="DecisionTree" boostWeight="1.0000000000000000e+00" itree="5">
      <Node pos="s" depth="0" NCoef="0" IVar="2" Cut="-3.3666603088378906e+01" cType="1" res="9.9470643326640129e-03" rms="4.9749889969825745e-01" purity="5.0731015205383301e-01" nType="0">
        <Node pos="l" depth="1" NCoef="0" IVar="3" Cut="3.6905178070068359e+01" cType="1" res="-3.1591460108757019e-01" rms="3.7937068939208984e-01" purity="1.7646978795528412e-01" nType="0">
          <Node pos="l" depth="2" NCoef="0" IVar="3" Cut="1.9344350814819336e+01" cType="1" res="-3.6574035882949829e-01" rms="3.3054143190383911e-01" purity="1.2634103000164032e-01" nType="0">
            <Node pos="l" depth="3" NCoef="0" IVar="-1" Cut="0.0000000000000000e+00" cType="1" res="-3.6091001238673925e-03" rms="2.3143386840820312e-01" purity="5.7403475046157837e-02" nType="-99"/>
            <Node pos="r" depth="3" NCoef="0" IVar="-1" Cut="0.0000000000000000e+00" cType="1" res="-8.7173935025930405e-04" rms="3.7491211295127869e-01" purity="1.7129518091678619e-01" nType="-99"/>
          </Node>
          <Node pos="r" depth="2" NCoef="0" IVar="-1" Cut="0.0000000000000000e+00" cType="1" res="-3.1183953979052603e-04" rms="4.5337253808975220e-01" purity="2.9355826973915100e-01" nType="-99"/>
        </Node>
        <Node pos="r" depth="1" NCoef="0" IVar="3" Cut="4.5054973602294922e+01" cType="1" res="1.1888649314641953e-01" rms="4.8452779650688171e-01" purity="6.1791396141052246e-01" nType="0">
          <Node pos="l" depth="2" NCoef="0" IVar="2" Cut="-1.5073431015014648e+01" cType="1" res="6.1919842846691608e-03" rms="4.9863409996032715e-01" purity="5.0481516122817993e-01" nType="0">
            <Node pos="l" depth="3" NCoef="0" IVar="-1" Cut="0.0000000000000000e+00" cType="1" res="-2.2967910626903176e-04" rms="4.6928077936172485e-01" purity="3.3192729949951172e-01" nType="-99"/>
            <Node pos="r" depth="3" NCoef="0" IVar="-1" Cut="0.0000000000000000e+00" cType="1" res="7.0236244937404990e-05" rms="4.9095067381858826e-01" purity="5.8998465538024902e-01" nType="-99"/>
          </Node>
          <Node pos="r" depth="2" NCoef="0" IVar="-1" Cut="0.0000000000000000e+00" cType="1" res="2.0142513676546514e-04" rms="3.2415980100631714e-01" purity="8.7989437580108643e-01" nType="-99"/>
        </Node>
      </Node>
    </BinaryTree>
    <BinaryTree type="DecisionTree" boostWeight="1.0000000000000000e+00" itree="6">
      <Node pos="s" depth="0" NCoef="0" IVar="2" Cut="-3.0489963531494141e+01" cType="1" res="-7.0713432505726814e-03" rms="4.9721992015838623e-01" purity="4.9010285735130310e-01" nType="0">
        <Node pos="l" depth="1" NCoef="0" IVar="4" Cut="9.1393295288085938e+01" cType="1" res="-3.3178168535232544e-01" rms="3.6473047733306885e-01" purity="1.6026106476783752e-01" nType="0">
          <Node pos="l" depth="2" NCoef="0" IVar="4" Cut="8.4593955993652344e+01" cType="1" res="-2.8546899557113647e-01" rms="4.0539151430130005e-01" purity="2.0979003608226776e-01" nType="0">
            <Node pos="l" depth="3" NCoef="0" IVar="-1" Cut="0.0000000000000000e+00" cType="1" res="-6.0641400523309130e-06" rms="4.9937346577644348e-01" purity="4.9211305379867554e-01" nType="-99"/>
            <Node pos="r" depth="3" NCoef="0" IVar="-1" Cut="0.0000000000000000e+00" cType="1" res="-7.2971456684172153e-03" rms="1.6527874767780304e-01" purity="2.8185438364744186e-02" nType="-99"/>
          </Node>
          <Node pos="r" depth="2" NCoef="0" IVar="-1" Cut="0.0000000000000000e+00" cType="1" res="-2.7732725720852613e-03" rms="2.5307825207710266e-01" purity="6.8943485617637634e-02" nType="-99"/>
        </Node>
        <Node pos="r" depth="1" NCoef="0" IVar="3" Cut="2.5790668487548828e+01" cType="1" res="1.1814587563276291e-01" rms="4.8469305038452148e-01" purity="6.1729890108108521e-01" nType="0">
          <Node pos="l" depth="2" NCoef="0" IVar="2" Cut="-1.1886360168457031e+01" cType="1" res="-8.6947388947010040e-02" rms="4.9081379175186157e-01" purity="4.1149353981018066e-01" nType="0">
            <Node pos="l" depth="3" NCoef="0" IVar="-1" Cut="0.0000000000000000e+00" cType="1" res="-3.6400742828845978e-04" rms="4.4448721408843994e-01" purity="2.7380362153053284e-01" nType="-99"/>
            <Node pos="r" depth="3" NCoef="0" IVar="-1" Cut="0.0000000000000000e+00" cType="1" res="1.9333019736222923e-05" rms="4.9871352314949036e-01" purity="5.2171194553375244e-01" nType="-99"/>
          </Node>
          <Node pos="r" depth="2" NCoef="0" IVar="6" Cut="4.7662317752838135e-01" cType="1" res="2.4697262048721313e-01" rms="4.3377301096916199e-01" purity="7.4657297134399414e-01" nType="0">
            <Node pos="l" depth="3" NCoef="0" IVar="-1" Cut="0.0000000000000000e+00" cType="1" res="1.0251195635646582e-04" rms="4.7855940461158752e-01" purity="6.4226365089416504e-01" nType="-99"/>
            <Node pos="r" depth="3" NCoef="0" IVar="-1" Cut="0.0000000000000000e+00" cType="1" res="1.8612277926877141e-04" rms="3.6602750420570374e-01" purity="8.3870798349380493e-01" nType="-99"/>
          </Node>
        </Node>
      </Node>
    </BinaryTree>
    <BinaryTree type="DecisionTree" boostWeight="1.0000000000000000e+00" itree="7">
      <Node pos="s" depth="0" NCoef="0" IVar="2" Cut="-1.2680376052856445e+01" cType="1" res="4.7719357535243034e-03" rms="4.9676460027694702e-01" purity="5.0153148174285889e-01" nType="0">
        <Node pos="l" depth="1" NCoef="0" IVar="4" Cut="9.1737503051757812e+01" cType="1" res="-2.3356699943542480e-01" rms="4.3528500199317932e-01" purity="2.5967350602149963e-01" nType="0">
          <Node pos="l" depth="2" NCoef="0" IVar="4" Cut="8.1489326477050781e+01" cType="1" res="-1.6301429271697998e-01" rms="4.6813306212425232e-01" purity="3.3204695582389832e-01" nType="0">
            <Node pos="l" depth="3" NCoef="0" IVar="-1" Cut="0.0000000000000000e+00" cType="1" res="1.3285357272252440e-04" rms="4.5560768246650696e-01" purity="7.0515215396881104e-01" nType="-99"/>
            <Node pos="r" depth="3" NCoef="0" IVar="-1" Cut="0.0000000000000000e+00" cType="1" res="-2.4916860274970531e-03" rms="2.6887786388397217e-01" purity="7.8888669610023499e-02" nType="-99"/>
          </Node>
          <Node pos="r" depth="2" NCoef="0" IVar="5" Cut="-1.4290522038936615e-01" cType="1" res="-4.2392456531524658e-01" rms="2.4441662430763245e-01" purity="6.4403317868709564e-02" nType="0">
            <Node pos="l" depth="3" NCoef="0" IVar="-1" Cut="0.0000000000000000e+00" cType="1" res="-1.8214742885902524e-03" rms="2.9002285003662109e-01" purity="9.3955710530281067e-02" nType="-99"/>
            <Node pos="r" depth="3" NCoef="0" IVar="-1" Cut="0.0000000000000000e+00" cType="1" res="-4.8437709920108318e-03" rms="1.9769950211048126e-01" purity="4.0872212499380112e-02" nType="-99"/>
          </Node>
        </Node>
        <Node pos="r" depth="1" NCoef="0" IVar="2" Cut="1.0029296875000000e+01" cType="1" res="2.1551163494586945e-01" rms="4.5033645629882812e-01" purity="7.1538269519805908e-01" nType="0">
          <Node pos="l" depth="2" NCoef="0" IVar="6" Cut="4.7662395238876343e-01" cType="1" res="9.1023638844490051e-02" rms="4.9074667692184448e-01" purity="5.9049701690673828e-01" nType="0">
            <Node pos="l" depth="3" NCoef="0" IVar="-1" Cut="0.0000000000000000e+00" cType="1" res="2.6507763323024847e-05" rms="4.9839434027671814e-01" purity="5.3052085638046265e-01" nType="-99"/>
            <Node pos="r" depth="3" NCoef="0" IVar="-1" Cut="0.0000000000000000e+00" cType="1" res="1.3467678218148649e-04" rms="4.5162707567214966e-01" purity="7.1066558361053467e-01" nType="-99"/>
          </Node>
          <Node pos="r" depth="2" NCoef="0" IVar="-1" Cut="0.0000000000000000e+00" cType="1" res="1.8757705402094871e-04" rms="3.6277028918266296e-01" purity="8.4346961975097656e-01" nType="-99"/>
        </Node>
      </Node>
    </BinaryTree>
    <BinaryTree type="DecisionTree" boostWeight="1.0000000000000000e+00" itree="8">
      <Node pos="s" depth="0" NCoef="0" IVar="4" Cut="8.3290679931640625e+01" cType="1" res="6.5940250642597675e-03" rms="4.9637708067893982e-01" purity="5.0287109613418579e-01" nType="0">
        <Node pos="l" depth="1" NCoef="0" IVar="4" Cut="7.1235359191894531e+01" cType="1" res="3.7584906816482544e-01" rms="3.2907468080520630e-01" purity="8.7608706951141357e-01" nType="0">
          <Node pos="l" depth="2" NCoef="0" IVar="-1" Cut="0.0000000000000000e+00" cType="1" res="2.0622667216230184e-04" rms="2.9196748137474060e-01" purity="9.0567708015441895e-01" nType="-99"/>
          <Node pos="r" depth="2" NCoef="0" IVar="-1" Cut="0.0000000000000000e+00" cType="1" res="1.6595756460446864e-04" rms="4.0865412354469299e-01" purity="7.8737974166870117e-01" nType="-99"/>
        </Node>
        <Node pos="r" depth="1" NCoef="0" IVar="6" Cut="2.8630435466766357e-01" cType="1" res="-3.8332542777061462e-01" rms="3.1016406416893005e-01" purity="1.0876902192831039e-01" nType="0">
          <Node pos="l" depth="2" NCoef="0" IVar="7" Cut="2.9740905761718750e+01" cType="1" res="-2.9269784688949585e-01" rms="4.0297803282737732e-01" purity="2.0433029532432556e-01" nType="0">
            <Node pos="l" depth="3" NCoef="0" IVar="-1" Cut="0.0000000000000000e+00" cType="1" res="-4.0990562411025167e-04" rms="4.3529966473579407e-01" purity="2.5464874505996704e-01" nType="-99"/>
            <Node pos="r" depth="3" NCoef="0" IVar="-1" Cut="0.0000000000000000e+00" cType="1" res="-1.1364698875695467e-03" rms="3.4820616245269775e-01" purity="1.4139561355113983e-01" nType="-99"/>
          </Node>
          <Node pos="r" depth="2" NCoef="0" IVar="3" Cut="3.0583770751953125e+01" cType="1" res="-4.1305124759674072e-01" rms="2.6629680395126343e-01" purity="7.7424943447113037e-02" nType="0">
            <Node pos="l" depth="3" NCoef="0" IVar="-1" Cut="0.0000000000000000e+00" cType="1" res="-5.0960294902324677e-03" rms="1.9628112018108368e-01" purity="4.0471401065587997e-02" nType="-99"/>
            <Node pos="r" depth="3" NCoef="0" IVar="-1" Cut="0.0000000000000000e+00" cType="1" res="-1.1180624132975936e-03" rms="3.4858989715576172e-01" purity="1.4269159734249115e-01" nType="-99"/>
          </Node>
        </Node>
      </Node>
    </BinaryTree>
    <BinaryTree type="DecisionTree" boostWeight="1.0000000000000000e+00" itree="9">
      <Node pos="s" depth="0" NCoef="0" IVar="2" Cut="-3.0489963531494141e+01" cType="1" res="8.7636373937129974e-03" rms="4.9574345350265503e-01" purity="5.0433993339538574e-01" nType="0">
        <Node pos="l" depth="1" NCoef="0" IVar="6" Cut="3.8211229443550110e-01" cType="1" res="-3.0470758676528931e-01" rms="3.8308990001678467e-01" purity="1.8325352668762207e-01" nType="0">
          <Node pos="l" depth="2" NCoef="0" IVar="-1" Cut="0.0000000000000000e+00" cType="1" res="-2.2264337167143822e-04" rms="4.6799716353416443e-01" purity="3.3184012770652771e-01" nType="-99"/>
          <Node pos="r" depth="2" NCoef="0" IVar="5" Cut="5.2374374866485596e-01" cType="1" res="-3.4259149432182312e-01" rms="3.4764146804809570e-01" purity="1.4415858685970306e-01" nType="0">
            <Node pos="l" depth="3" NCoef="0" IVar="-1" Cut="0.0000000000000000e+00" cType="1" res="-1.5858702827244997e-03" rms="3.1093758344650269e-01" purity="1.1113827675580978e-01" nType="-99"/>
            <Node pos="r" depth="3" NCoef="0" IVar="-1" Cut="0.0000000000000000e+00" cType="1" res="-4.2546854820102453e-04" rms="4.2843937873840332e-01" purity="2.4965105950832367e-01" nType="-99"/>
          </Node>
        </Node>
        <Node pos="r" depth="1" NCoef="0" IVar="3" Cut="2.5779460906982422e+01" cType="1" res="1.2980887293815613e-01" rms="4.8103553056716919e-01" purity="6.2832576036453247e-01" nType="0">
          <Node pos="l" depth="2" NCoef="0" IVar="2" Cut="-1.4503970146179199e+01" cType="1" res="-4.3829083442687988e-02" rms="4.9549928307533264e-01" purity="4.5333757996559143e-01" nType="0">
            <Node pos="l" depth="3" NCoef="0" IVar="-1" Cut="0.0000000000000000e+00" cType="1" res="-3.4842427703551948e-04" rms="4.4639256596565247e-01" purity="2.8002020716667175e-01" nType="-99"/>
            <Node pos="r" depth="3" NCoef="0" IVar="-1" Cut="0.0000000000000000e+00" cType="1" res="4.3050869862781838e-05" rms="4.9590396881103516e-01" purity="5.5056619644165039e-01" nType="-99"/>
          </Node>
          <Node pos="r" depth="2" NCoef="0" IVar="6" Cut="4.7672769427299500e-01" cType="1" res="2.4720208346843719e-01" rms="4.3322151899337769e-01" purity="7.4663186073303223e-01" nType="0">
            <Node pos="l" depth="3" NCoef="0" IVar="-1" Cut="0.0000000000000000e+00" cType="1" res="1.0230785119347274e-04" rms="4.7881081700325012e-01" purity="6.3971489667892456e-01" nType="-99"/>
            <Node pos="r" depth="3" NCoef="0" IVar="-1" Cut="0.0000000000000000e+00" cType="1" res="1.8628966063261032e-04" rms="3.6418810486793518e-01" purity="8.4017574787139893e-01" nType="-99"/>
          </Node>
        </Node>
      </Node>
    </BinaryTree>
    <BinaryTree type="DecisionTree" boostWeight="1.0000000000000000e+00" itree="10">
      <Node pos="s" depth="0" NCoef="0" IVar="2" Cut="-3.4897529602050781e+01" cType="1" res="-1.7344621301162988e-04" rms="4.9559399485588074e-01" purity="4.9521487951278687e-01" nType="0">
        <Node pos="l" depth="1" NCoef="0" IVar="6" Cut="4.7686728835105896e-01" cType="1" res="-3.4888628125190735e-01" rms="3.4076094627380371e-01" purity="1.3779480755329132e-01" nType="0">
          <Node pos="l" depth="2" NCoef="0" IVar="-1" Cut="0.0000000000000000e+00" cType="1" res="-3.2908233697526157e-04" rms="4.4806480407714844e-01" purity="2.8624811768531799e-01" nType="-99"/>
          <Node pos="r" depth="2" NCoef="0" IVar="3" Cut="2.7946346282958984e+01" cType="1" res="-4.1375920176506042e-01" rms="2.5361806154251099e-01" purity="7.0653453469276428e-02" nType="0">
            <Node pos="l" depth="3" NCoef="0" IVar="-1" Cut="0.0000000000000000e+00" cType="1" res="-6.0696885921061039e-03" rms="1.8210360407829285e-01" purity="3.5196747630834579e-02" nType="-99"/>
            <Node pos="r" depth="3" NCoef="0" IVar="-1" Cut="0.0000000000000000e+00" cType="1" res="-1.4115585945546627e-03" rms="3.2026576995849609e-01" purity="1.1839740723371506e-01" nType="-99"/>
          </Node>
        </Node>
        <Node pos="r" depth="1" NCoef="0" IVar="3" Cut="4.0666854858398438e+01" cType="1" res="1.0777635127305984e-01" rms="4.8621413111686707e-01" purity="6.0586017370223999e-01" nType="0">
          <Node pos="l" depth="2" NCoef="0" IVar="2" Cut="-2.0559457778930664e+01" cType="1" res="-1.1392682790756226e-02" rms="4.9735844135284424e-01" purity="4.8576083779335022e-01" nType="0">
            <Node pos="l" depth="3" NCoef="0" IVar="-1" Cut="0.0000000000000000e+00" cType="1" res="-3.7290630280040205e-04" rms="4.4152319431304932e-01" purity="2.7016022801399231e-01" nType="-99"/>
            <Node pos="r" depth="3" NCoef="0" IVar="-1" Cut="0.0000000000000000e+00" cType="1" res="4.4265343603910878e-05" rms="4.9545964598655701e-01" purity="5.5228972434997559e-01" nType="-99"/>
          </Node>
          <Node pos="r" depth="2" NCoef="0" IVar="-1" Cut="0.0000000000000000e+00" cType="1" res="1.8683364032767713e-04" rms="3.6382851004600525e-01" purity="8.4149104356765747e-01" nType="-99"/>
        </Node>
      </Node>
    </BinaryTree>
    <BinaryTree type="DecisionTree" boostWeight="1.0000000000000000e+00" itree="11">
      <Node pos="s" depth="0" NCoef="0" IVar="2" Cut="-1.7743707656860352e+01" cType="1" res="4.5539537677541375e-04" rms="4.9524658918380737e-01" purity="4.9553033709526062e-01" nType="0">
        <Node pos="l" depth="1" NCoef="0" IVar="4" Cut="9.1393234252929688e+01" cType="1" res="-2.4794369935989380e-01" rms="4.2317867279052734e-01" purity="2.4116258323192596e-01" nType="0">
          <Node pos="l" depth="2" NCoef="0" IVar="4" Cut="8.1194229125976562e+01" cType="1" res="-1.6736431419849396e-01" rms="4.6405860781669617e-01" purity="3.2471543550491333e-01" nType="0">
            <Node pos="l" depth="3" NCoef="0" IVar="-1" Cut="0.0000000000000000e+00" cType="1" res="1.1995049862889573e-04" rms="4.6631395816802979e-01" purity="6.7778795957565308e-01" nType="-99"/>
            <Node pos="r" depth="3" NCoef="0" IVar="-1" Cut="0.0000000000000000e+00" cType="1" res="-1.9566223490983248e-03" rms="2.8762078285217285e-01" purity="9.1954149305820465e-02" nType="-99"/>
          </Node>
          <Node pos="r" depth="2" NCoef="0" IVar="1" Cut="1.6455996036529541e+00" cType="1" res="-4.2450803518295288e-01" rms="2.3281541466712952e-01" purity="5.8082833886146545e-02" nType="0">
            <Node pos="l" depth="3" NCoef="0" IVar="-1" Cut="0.0000000000000000e+00" cType="1" res="-7.6090688817203045e-03" rms="1.6979116201400757e-01" purity="2.9582006856799126e-02" nType="-99"/>
            <Node pos="r" depth="3" NCoef="0" IVar="-1" Cut="0.0000000000000000e+00" cType="1" res="-2.1631009876728058e-03" rms="2.7185600996017456e-01" purity="8.1594899296760559e-02" nType="-99"/>
          </Node>
        </Node>
        <Node pos="r" depth="1" NCoef="0" IVar="2" Cut="9.9596481323242188e+00" cType="1" res="1.7939724028110504e-01" rms="4.6527546644210815e-01" purity="6.7877185344696045e-01" nType="0">
          <Node pos="l" depth="2" NCoef="0" IVar="3" Cut="3.0401494979858398e+01" cType="1" res="6.9145917892456055e-02" rms="4.9355933070182800e-01" purity="5.6775969266891479e-01" nType="0">
            <Node pos="l" depth="3" NCoef="0" IVar="-1" Cut="0.0000000000000000e+00" cType="1" res="8.5079036580282263e-06" rms="4.9814599752426147e-01" purity="5.0758832693099976e-01" nType="-99"/>
            <Node pos="r" depth="3" NCoef="0" IVar="-1" Cut="0.0000000000000000e+00" cType="1" res="1.2789911124855280e-04" rms="4.6290889382362366e-01" purity="6.8494868278503418e-01" nType="-99"/>
          </Node>
          <Node pos="r" depth="2" NCoef="0" IVar="-1" Cut="0.0000000000000000e+00" cType="1" res="1.8392945639789104e-04" rms="3.7410649657249451e-01" purity="8.3071255683898926e-01" nType="-99"/>
        </Node>
      </Node>
    </BinaryTree>
    <BinaryTree type="DecisionTree" boostWeight="1.0000000000000000e+00" itree="12">
      <Node pos="s" depth="0" NCoef="0" IVar="2" Cut="-6.7096557617187500e+00" cType="1" res="7.4694380164146423e-03" rms="4.9493399262428284e-01" purity="5.0208997726440430e-01" nType="0">
        <Node pos="l" depth="1" NCoef="0" IVar="4" Cut="9.1737419128417969e+01" cType="1" res="-1.7961208522319794e-01" rms="4.5790126919746399e-01" purity="3.1066375970840454e-01" nType="0">
          <Node pos="l" depth="2" NCoef="0" IVar="4" Cut="8.4905303955078125e+01" cType="1" res="-1.1194755882024765e-01" rms="4.8105812072753906e-01" purity="3.8095036149024963e-01" nType="0">
            <Node pos="l" depth="3" NCoef="0" IVar="-1" Cut="0.0000000000000000e+00" cType="1" res="1.3197427324485034e-04" rms="4.5638364553451538e-01" purity="7.0112442970275879e-01" nType="-99"/>
            <Node pos="r" depth="3" NCoef="0" IVar="-1" Cut="0.0000000000000000e+00" cType="1" res="-2.0712546538561583e-03" rms="2.7668780088424683e-01" purity="8.4500052034854889e-02" nType="-99"/>
          </Node>
          <Node pos="r" depth="2" NCoef="0" IVar="1" Cut="1.7951927185058594e+00" cType="1" res="-3.6592280864715576e-01" rms="3.2013455033302307e-01" purity="1.1713322252035141e-01" nType="0">
            <Node pos="l" depth="3" NCoef="0" IVar="-1" Cut="0.0000000000000000e+00" cType="1" res="-2.5285359006375074e-03" rms="2.6284292340278625e-01" purity="7.4974186718463898e-02" nType="-99"/>
            <Node pos="r" depth="3" NCoef="0" IVar="-1" Cut="0.0000000000000000e+00" cType="1" res="-8.7880552746355534e-04" rms="3.6479470133781433e-01" purity="1.6020484268665314e-01" nType="-99"/>
          </Node>
        </Node>
        <Node pos="r" depth="1" NCoef="0" IVar="6" Cut="4.2879754304885864e-01" cType="1" res="2.4231351912021637e-01" rms="4.3608215451240540e-01" purity="7.4238789081573486e-01" nType="0">
          <Node pos="l" depth="2" NCoef="0" IVar="6" Cut="2.2479663789272308e-01" cType="1" res="1.0238524526357651e-01" rms="4.8852151632308960e-01" purity="6.0205316543579102e-01" nType="0">
            <Node pos="l" depth="3" NCoef="0" IVar="-1" Cut="0.0000000000000000e+00" cType="1" res="1.3375793059822172e-04" rms="4.5563429594039917e-01" purity="7.0461905002593994e-01" nType="-99"/>
            <Node pos="r" depth="3" NCoef="0" IVar="-1" Cut="0.0000000000000000e+00" cType="1" res="1.6643321941955946e-05" rms="4.9853855371475220e-01" purity="5.1809686422348022e-01" nType="-99"/>
          </Node>
          <Node pos="r" depth="2" NCoef="0" IVar="-1" Cut="0.0000000000000000e+00" cType="1" res="1.9504223018884659e-04" rms="3.4053456783294678e-01" purity="8.6470818519592285e-01" nType="-99"/>
        </Node>
      </Node>
    </BinaryTree>
    <BinaryTree type="DecisionTree" boostWeight="1.0000000000000000e+00" itree="13">
      <Node pos="s" depth="0" NCoef="0" IVar="2" Cut="-6.7096557617187500e+00" cType="1" res="7.4226250872015953e-03" rms="4.9454173445701599e-01" purity="5.0180804729461670e-01" nType="0">
        <Node pos="l" depth="1" NCoef="0" IVar="4" Cut="8.7872222900390625e+01" cType="1" res="-1.9665655493736267e-01" rms="4.4987770915031433e-01" purity="2.9287761449813843e-01" nType="0">
          <Node pos="l" depth="2" NCoef="0" IVar="4" Cut="8.1408226013183594e+01" cType="1" res="9.6396207809448242e-02" rms="4.8814088106155396e-01" purity="5.9331667423248291e-01" nType="0">
            <Node pos="l" depth="3" NCoef="0" IVar="-1" Cut="0.0000000000000000e+00" cType="1" res="1.4337895845528692e-04" rms="4.4398492574691772e-01" purity="7.2810423374176025e-01" nType="-99"/>
            <Node pos="r" depth="3" NCoef="0" IVar="-1" Cut="0.0000000000000000e+00" cType="1" res="-4.0807592449709773e-04" rms="4.3704578280448914e-01" purity="2.6245892047882080e-01" nType="-99"/>
          </Node>
          <Node pos="r" depth="2" NCoef="0" IVar="6" Cut="2.8663721680641174e-01" cType="1" res="-4.0663552284240723e-01" rms="2.6654592156410217e-01" purity="7.7606178820133209e-02" nType="0">
            <Node pos="l" depth="3" NCoef="0" IVar="-1" Cut="0.0000000000000000e+00" cType="1" res="-9.2798541299998760e-04" rms="3.6401283740997314e-01" purity="1.5759105980396271e-01" nType="-99"/>
            <Node pos="r" depth="3" NCoef="0" IVar="-1" Cut="0.0000000000000000e+00" cType="1" res="-3.0754562467336655e-03" rms="2.3730301856994629e-01" purity="6.0204554349184036e-02" nType="-99"/>
          </Node>
        </Node>
        <Node pos="r" depth="1" NCoef="0" IVar="6" Cut="4.2950963973999023e-01" cType="1" res="2.4995371699333191e-01" rms="4.3172204494476318e-01" purity="7.5010442733764648e-01" nType="0">
          <Node pos="l" depth="2" NCoef="0" IVar="2" Cut="1.3214933395385742e+01" cType="1" res="1.1851529777050018e-01" rms="4.8481726646423340e-01" purity="6.1829239130020142e-01" nType="0">
            <Node pos="l" depth="3" NCoef="0" IVar="-1" Cut="0.0000000000000000e+00" cType="1" res="4.6770219341851771e-05" rms="4.9570420384407043e-01" purity="5.5698114633560181e-01" nType="-99"/>
            <Node pos="r" depth="3" NCoef="0" IVar="-1" Cut="0.0000000000000000e+00" cType="1" res="1.4258953160606325e-04" rms="4.5134457945823669e-01" purity="7.1351253986358643e-01" nType="-99"/>
          </Node>
          <Node pos="r" depth="2" NCoef="0" IVar="-1" Cut="0.0000000000000000e+00" cType="1" res="1.9548829004634172e-04" rms="3.3693191409111023e-01" purity="8.6808437108993530e-01" nType="-99"/>
        </Node>
      </Node>
    </BinaryTree>
    <BinaryTree type="DecisionTree" boostWeight="1.0000000000000000e+00" itree="14">
      <Node pos="s" depth="0" NCoef="0" IVar="4" Cut="8.3290657043457031e+01" cType="1" res="5.0472817383706570e-03" rms="4.9411556124687195e-01" purity="4.9906343221664429e-01" nType="0">
        <Node pos="l" depth="1" NCoef="0" IVar="4" Cut="7.1235343933105469e+01" cType="1" res="3.7261757254600525e-01" rms="3.3206954598426819e-01" purity="8.7304425239562988e-01" nType="0">
          <Node pos="l" depth="2" NCoef="0" IVar="-1" Cut="0.0000000000000000e+00" cType="1" res="2.0656379638239741e-04" rms="2.9272240400314331e-01" purity="9.0483868122100830e-01" nType="-99"/>
          <Node pos="r" depth="2" NCoef="0" IVar="-1" Cut="0.0000000000000000e+00" cType="1" res="1.5952490502968431e-04" rms="4.1880670189857483e-01" purity="7.7152788639068604e-01" nType="-99"/>
        </Node>
        <Node pos="r" depth="1" NCoef="0" IVar="6" Cut="1.9079656898975372e-01" cType="1" res="-3.7334656715393066e-01" rms="3.1575968861579895e-01" purity="1.1407029628753662e-01" nType="0">
          <Node pos="l" depth="2" NCoef="0" IVar="-1" Cut="0.0000000000000000e+00" cType="1" res="-1.8261330842506140e-04" rms="4.7691199183464050e-01" purity="3.5277497768402100e-01" nType="-99"/>
          <Node pos="r" depth="2" NCoef="0" IVar="7" Cut="8.1168647766113281e+01" cType="1" res="-4.0114992856979370e-01" rms="2.7762091159820557e-01" purity="8.5147291421890259e-02" nType="0">
            <Node pos="l" depth="3" NCoef="0" IVar="-1" Cut="0.0000000000000000e+00" cType="1" res="-2.6233945973217487e-03" rms="2.5221991539001465e-01" purity="6.9178521633148193e-02" nType="-99"/>
            <Node pos="r" depth="3" NCoef="0" IVar="-1" Cut="0.0000000000000000e+00" cType="1" res="-1.0411101393401623e-03" rms="3.5377553105354309e-01" purity="1.4953640103340149e-01" nType="-99"/>
          </Node>
        </Node>
      </Node>
    </BinaryTree>
    <BinaryTree type="DecisionTree" boostWeight="1.0000000000000000e+00" itree="15">
      <Node pos="s" depth="0" NCoef="0" IVar="2" Cut="-1.9405151367187500e+01" cType="1" res="3.4880550811067224e-04" rms="4.9367555975914001e-01" purity="4.9376413226127625e-01" nType="0">
        <Node pos="l" depth="1" NCoef="0" IVar="4" Cut="8.7873031616210938e+01" cType="1" res="-2.6219350099563599e-01" rms="4.1048189997673035e-01" purity="2.2290630638599396e-01" nType="0">
          <Node pos="l" depth="2" NCoef="0" IVar="4" Cut="7.8177032470703125e+01" cType="1" res="1.0913780424743891e-03" rms="4.9655732512474060e-01" purity="4.9603053927421570e-01" nType="0">
            <Node pos="l" depth="3" NCoef="0" IVar="-1" Cut="0.0000000000000000e+00" cType="1" res="1.0817546717589721e-04" rms="4.7550287842750549e-01" purity="6.5144550800323486e-01" nType="-99"/>
            <Node pos="r" depth="3" NCoef="0" IVar="-1" Cut="0.0000000000000000e+00" cType="1" res="-3.9996998384594917e-04" rms="4.3779173493385315e-01" purity="2.6398321986198425e-01" nType="-99"/>
          </Node>
          <Node pos="r" depth="2" NCoef="0" IVar="5" Cut="1.4285172522068024e-01" cType="1" res="-4.1892009973526001e-01" rms="2.3705089092254639e-01" purity="6.0322590172290802e-02" nType="0">
            <Node pos="l" depth="3" NCoef="0" IVar="-1" Cut="0.0000000000000000e+00" cType="1" res="-7.8952172771096230e-03" rms="1.5483136475086212e-01" purity="2.4541161954402924e-02" nType="-99"/>
            <Node pos="r" depth="3" NCoef="0" IVar="-1" Cut="0.0000000000000000e+00" cType="1" res="-1.5640552155673504e-03" rms="3.0787527561187744e-01" purity="1.0751784592866898e-01" nType="-99"/>
          </Node>
        </Node>
        <Node pos="r" depth="1" NCoef="0" IVar="3" Cut="4.0681888580322266e+01" cType="1" res="1.7198427021503448e-01" rms="4.6730071306228638e-01" purity="6.7083579301834106e-01" nType="0">
          <Node pos="l" depth="2" NCoef="0" IVar="2" Cut="-1.0864770889282227e+01" cType="1" res="5.0025053322315216e-02" rms="4.9507564306259155e-01" purity="5.4772412776947021e-01" nType="0">
            <Node pos="l" depth="3" NCoef="0" IVar="-1" Cut="0.0000000000000000e+00" cType="1" res="-1.3931667490396649e-04" rms="4.8066198825836182e-01" purity="3.7445417046546936e-01" nType="-99"/>
            <Node pos="r" depth="3" NCoef="0" IVar="-1" Cut="0.0000000000000000e+00" cType="1" res="7.7003591286484152e-05" rms="4.8796677589416504e-01" purity="5.9962093830108643e-01" nType="-99"/>
          </Node>
          <Node pos="r" depth="2" NCoef="0" IVar="-1" Cut="0.0000000000000000e+00" cType="1" res="1.9318780687171966e-04" rms="3.4347864985466003e-01" purity="8.6189913749694824e-01" nType="-99"/>
        </Node>
      </Node>
    </BinaryTree>
    <BinaryTree type="DecisionTree" boostWeight="1.0000000000000000e+00" itree="16">
      <Node pos="s" depth="0" NCoef="0" IVar="2" Cut="-3.1686849594116211e+01" cType="1" res="8.6133442819118500e-03" rms="4.9305498600006104e-01" purity="5.0156831741333008e-01" nType="0">
        <Node pos="l" depth="1" NCoef="0" IVar="6" Cut="4.7686728835105896e-01" cType="1" res="-3.2211345434188843e-01" rms="3.5907405614852905e-01" purity="1.5827570855617523e-01" nType="0">
          <Node pos="l" depth="2" NCoef="0" IVar="-1" Cut="0.0000000000000000e+00" cType="1" res="-2.8495930018834770e-04" rms="4.5066529512405396e-01" purity="2.9739019274711609e-01" nType="-99"/>
          <Node pos="r" depth="2" NCoef="0" IVar="2" Cut="-6.7685012817382812e+01" cType="1" res="-3.9023748040199280e-01" rms="2.7789822220802307e-01" purity="8.6977265775203705e-02" nType="0">
            <Node pos="l" depth="3" NCoef="0" IVar="-1" Cut="0.0000000000000000e+00" cType="1" res="-7.5207524932920933e-03" rms="1.6493014991283417e-01" purity="2.8288410976529121e-02" nType="-99"/>
            <Node pos="r" depth="3" NCoef="0" IVar="-1" Cut="0.0000000000000000e+00" cType="1" res="-1.3062098296359181e-03" rms="3.2384291291236877e-01" purity="1.2312114238739014e-01" nType="-99"/>
          </Node>
        </Node>
        <Node pos="r" depth="1" NCoef="0" IVar="3" Cut="4.0406585693359375e+01" cType="1" res="1.2626104056835175e-01" rms="4.8058897256851196e-01" purity="6.2368595600128174e-01" nType="0">
          <Node pos="l" depth="2" NCoef="0" IVar="2" Cut="-1.4564927101135254e+01" cType="1" res="3.9167460054159164e-03" rms="4.9607598781585693e-01" purity="4.9979698657989502e-01" nType="0">
            <Node pos="l" depth="3" NCoef="0" IVar="-1" Cut="0.0000000000000000e+00" cType="1" res="-1.8432829529047012e-04" rms="4.7137111425399780e-01" purity="3.4908211231231689e-01" nType="-99"/>
            <Node pos="r" depth="3" NCoef="0" IVar="-1" Cut="0.0000000000000000e+00" cType="1" res="6.2096885812934488e-05" rms="4.9171975255012512e-01" purity="5.7743382453918457e-01" nType="-99"/>
          </Node>
          <Node pos="r" depth="2" NCoef="0" IVar="-1" Cut="0.0000000000000000e+00" cType="1" res="1.9072054419666529e-04" rms="3.5542020201683044e-01" purity="8.4959012269973755e-01" nType="-99"/>
        </Node>
      </Node>
    </BinaryTree>
    <BinaryTree type="DecisionTree" boostWeight="1.0000000000000000e+00" itree="17">
      <Node pos="s" depth="0" NCoef="0" IVar="2" Cut="-3.0489963531494141e+01" cType="1" res="8.4385881200432777e-03" rms="4.9308690428733826e-01" purity="5.0075548887252808e-01" nType="0">
        <Node pos="l" depth="1" NCoef="0" IVar="6" Cut="3.8175225257873535e-01" cType="1" res="-2.9199197888374329e-01" rms="3.8505414128303528e-01" purity="1.8700610101222992e-01" nType="0">
          <Node pos="l" depth="2" NCoef="0" IVar="-1" Cut="0.0000000000000000e+00" cType="1" res="-2.0887305436190218e-04" rms="4.6890529990196228e-01" purity="3.3696100115776062e-01" nType="-99"/>
          <Node pos="r" depth="2" NCoef="0" IVar="5" Cut="4.2852389812469482e-01" cType="1" res="-3.2953318953514099e-01" rms="3.5025089979171753e-01" purity="1.4759519696235657e-01" nType="0">
            <Node pos="l" depth="3" NCoef="0" IVar="-1" Cut="0.0000000000000000e+00" cType="1" res="-1.6258604591712356e-03" rms="2.9944929480552673e-01" purity="1.0276489704847336e-01" nType="-99"/>
            <Node pos="r" depth="3" NCoef="0" IVar="-1" Cut="0.0000000000000000e+00" cType="1" res="-3.9816764183342457e-04" rms="4.3023267388343811e-01" purity="2.5311481952667236e-01" nType="-99"/>
          </Node>
        </Node>
        <Node pos="r" depth="1" NCoef="0" IVar="4" Cut="8.2469123840332031e+01" cType="1" res="1.2605649232864380e-01" rms="4.8073413968086243e-01" purity="6.2358766794204712e-01" nType="0">
          <Node pos="l" depth="2" NCoef="0" IVar="-1" Cut="0.0000000000000000e+00" cType="1" res="2.1156479488126934e-04" rms="2.5949713587760925e-01" purity="9.2728447914123535e-01" nType="-99"/>
          <Node pos="r" depth="2" NCoef="0" IVar="6" Cut="1.9079656898975372e-01" cType="1" res="-3.0163291096687317e-01" rms="3.9144387841224670e-01" purity="1.9077484309673309e-01" nType="0">
            <Node pos="l" depth="3" NCoef="0" IVar="-1" Cut="0.0000000000000000e+00" cType="1" res="-1.0694798402255401e-04" rms="4.8952645063400269e-01" purity="4.0150517225265503e-01" nType="-99"/>
            <Node pos="r" depth="3" NCoef="0" IVar="-1" Cut="0.0000000000000000e+00" cType="1" res="-1.0392870754003525e-03" rms="3.5325780510902405e-01" purity="1.4721600711345673e-01" nType="-99"/>
          </Node>
        </Node>
      </Node>
    </BinaryTree>
    <BinaryTree type="DecisionTree" boostWeight="1.0000000000000000e+00" itree="18">
      <Node pos="s" depth="0" NCoef="0" IVar="2" Cut="-2.2440057754516602e+01" cType="1" res="2.5597070343792439e-03" rms="4.9266991019248962e-01" purity="4.9470666050910950e-01" nType="0">
        <Node pos="l" depth="1" NCoef="0" IVar="4" Cut="9.1737503051757812e+01" cType="1" res="-2.5706925988197327e-01" rms="4.1052380204200745e-01" purity="2.2434476017951965e-01" nType="0">
          <Node pos="l" depth="2" NCoef="0" IVar="4" Cut="8.1489334106445312e+01" cType="1" res="-2.0001983642578125e-01" rms="4.4503214955329895e-01" purity="2.8534498810768127e-01" nType="0">
            <Node pos="l" depth="3" NCoef="0" IVar="-1" Cut="0.0000000000000000e+00" cType="1" res="9.8896351119037718e-05" rms="4.7973206639289856e-01" purity="6.3551598787307739e-01" nType="-99"/>
            <Node pos="r" depth="3" NCoef="0" IVar="-1" Cut="0.0000000000000000e+00" cType="1" res="-1.9323320593684912e-03" rms="2.8755363821983337e-01" purity="9.2253901064395905e-02" nType="-99"/>
          </Node>
          <Node pos="r" depth="2" NCoef="0" IVar="1" Cut="1.7951941490173340e+00" cType="1" res="-3.9939200878143311e-01" rms="2.5787740945816040e-01" purity="7.2165839374065399e-02" nType="0">
            <Node pos="l" depth="3" NCoef="0" IVar="-1" Cut="0.0000000000000000e+00" cType="1" res="-2.6391984429210424e-03" rms="2.5042843818664551e-01" purity="6.6863447427749634e-02" nType="-99"/>
            <Node pos="r" depth="3" NCoef="0" IVar="-1" Cut="0.0000000000000000e+00" cType="1" res="-2.3798488546162844e-03" rms="2.6517876982688904e-01" purity="7.7556572854518890e-02" nType="-99"/>
          </Node>
        </Node>
        <Node pos="r" depth="1" NCoef="0" IVar="3" Cut="3.3086273193359375e+01" cType="1" res="1.5380313992500305e-01" rms="4.7307771444320679e-01" purity="6.5220248699188232e-01" nType="0">
          <Node pos="l" depth="2" NCoef="0" IVar="2" Cut="-1.3701727390289307e+00" cType="1" res="9.7352070733904839e-03" rms="4.9665239453315735e-01" purity="5.0638866424560547e-01" nType="0">
            <Node pos="l" depth="3" NCoef="0" IVar="-1" Cut="0.0000000000000000e+00" cType="1" res="-6.7603476054500788e-05" rms="4.9128475785255432e-01" purity="4.3041825294494629e-01" nType="-99"/>
            <Node pos="r" depth="3" NCoef="0" IVar="-1" Cut="0.0000000000000000e+00" cType="1" res="9.0031680883839726e-05" rms="4.8348891735076904e-01" purity="6.2065804004669189e-01" nType="-99"/>
          </Node>
          <Node pos="r" depth="2" NCoef="0" IVar="6" Cut="4.2904347181320190e-01" cType="1" res="3.0559304356575012e-01" rms="3.9345631003379822e-01" purity="8.0583184957504272e-01" nType="0">
            <Node pos="l" depth="3" NCoef="0" IVar="-1" Cut="0.0000000000000000e+00" cType="1" res="1.1486143193906173e-04" rms="4.7140517830848694e-01" purity="6.6138470172882080e-01" nType="-99"/>
            <Node pos="r" depth="3" NCoef="0" IVar="-1" Cut="0.0000000000000000e+00" cType="1" res="2.0012269669678062e-04" rms="3.2616266608238220e-01" purity="8.7702769041061401e-01" nType="-99"/>
          </Node>
        </Node>
      </Node>
    </BinaryTree>
    <BinaryTree type="DecisionTree" boostWeight="1.0000000000000000e+00" itree="19">
      <Node pos="s" depth="0" NCoef="0" IVar="2" Cut="-3.7888549804687500e+01" cType="1" res="1.0828741826117039e-02" rms="4.9247947335243225e-01" purity="5.0277596712112427e-01" nType="0">
        <Node pos="l" depth="1" NCoef="0" IVar="4" Cut="8.7872245788574219e+01" cType="1" res="-3.4832277894020081e-01" rms="3.2862848043441772e-01" purity="1.2750189006328583e-01" nType="0">
          <Node pos="l" depth="2" NCoef="0" IVar="-1" Cut="0.0000000000000000e+00" cType="1" res="-3.1006665085442364e-04" rms="4.5242026448249817e-01" purity="2.9441380500793457e-01" nType="-99"/>
          <Node pos="r" depth="2" NCoef="0" IVar="6" Cut="5.2528059482574463e-01" cType="1" res="-4.1476115584373474e-01" rms="2.2698409855365753e-01" purity="5.5226612836122513e-02" nType="0">
            <Node pos="l" depth="3" NCoef="0" IVar="-1" Cut="0.0000000000000000e+00" cType="1" res="-1.7097637755796313e-03" rms="2.9747393727302551e-01" purity="9.8682455718517303e-02" nType="-99"/>
            <Node pos="r" depth="3" NCoef="0" IVar="-1" Cut="0.0000000000000000e+00" cType="1" res="-5.9962375089526176e-03" rms="1.7734873294830322e-01" purity="3.2792836427688599e-02" nType="-99"/>
          </Node>
        </Node>
        <Node pos="r" depth="1" NCoef="0" IVar="2" Cut="-1.2996271848678589e+00" cType="1" res="1.0645435750484467e-01" rms="4.8463320732116699e-01" purity="6.0269427299499512e-01" nType="0">
          <Node pos="l" depth="2" NCoef="0" IVar="3" Cut="2.6010007858276367e+01" cType="1" res="-6.5169878304004669e-02" rms="4.8970836400985718e-01" purity="4.2700633406639099e-01" nType="0">
            <Node pos="l" depth="3" NCoef="0" IVar="-1" Cut="0.0000000000000000e+00" cType="1" res="-1.8503205501474440e-04" rms="4.7170567512512207e-01" purity="3.4858235716819763e-01" nType="-99"/>
            <Node pos="r" depth="3" NCoef="0" IVar="-1" Cut="0.0000000000000000e+00" cType="1" res="4.6303284761961550e-05" rms="4.9287551641464233e-01" purity="5.4895734786987305e-01" nType="-99"/>
          </Node>
          <Node pos="r" depth="2" NCoef="0" IVar="6" Cut="3.8146373629570007e-01" cType="1" res="2.8147885203361511e-01" rms="4.1128388047218323e-01" purity="7.8186297416687012e-01" nType="0">
            <Node pos="l" depth="3" NCoef="0" IVar="-1" Cut="0.0000000000000000e+00" cType="1" res="1.1132160580018535e-04" rms="4.7315886616706848e-01" purity="6.5724885463714600e-01" nType="-99"/>
            <Node pos="r" depth="3" NCoef="0" IVar="-1" Cut="0.0000000000000000e+00" cType="1" res="1.9347823399584740e-04" rms="3.3546021580696106e-01" purity="8.6912238597869873e-01" nType="-99"/>
          </Node>
        </Node>
      </Node>
    </BinaryTree>
    <BinaryTree type="DecisionTree" boostWeight="1.0000000000000000e+00" itree="20">
      <Node pos="s" depth="0" NCoef="0" IVar="4" Cut="8.2468177795410156e+01" cType="1" res="1.3174717314541340e-02" rms="4.9205878376960754e-01" purity="5.0491535663604736e-01" nType="0">
        <Node pos="l" depth="1" NCoef="0" IVar="6" Cut="6.1942237615585327e-01" cType="1" res="3.7985107302665710e-01" rms="3.2318058609962463e-01" purity="8.8051515817642212e-01" nType="0">
          <Node pos="l" depth="2" NCoef="0" IVar="-1" Cut="0.0000000000000000e+00" cType="1" res="2.0733475685119629e-04" rms="2.8580814599990845e-01" purity="9.0994536876678467e-01" nType="-99"/>
          <Node pos="r" depth="2" NCoef="0" IVar="-1" Cut="0.0000000000000000e+00" cType="1" res="1.8255243776366115e-04" rms="3.7303763628005981e-01" purity="8.3057421445846558e-01" nType="-99"/>
        </Node>
        <Node pos="r" depth="1" NCoef="0" IVar="6" Cut="1.9079656898975372e-01" cType="1" res="-3.5093712806701660e-01" rms="3.3577737212181091e-01" purity="1.3194258511066437e-01" nType="0">
          <Node pos="l" depth="2" NCoef="0" IVar="-1" Cut="0.0000000000000000e+00" cType="1" res="-1.9744534802157432e-04" rms="4.7458520531654358e-01" purity="3.4526604413986206e-01" nType="-99"/>
          <Node pos="r" depth="2" NCoef="0" IVar="6" Cut="3.8346433639526367e-01" cType="1" res="-3.7429967522621155e-01" rms="3.0726769566535950e-01" purity="1.0709722340106964e-01" nType="0">
            <Node pos="l" depth="3" NCoef="0" IVar="-1" Cut="0.0000000000000000e+00" cType="1" res="-8.9499325258657336e-04" rms="3.6936813592910767e-01" purity="1.6349603235721588e-01" nType="-99"/>
            <Node pos="r" depth="3" NCoef="0" IVar="-1" Cut="0.0000000000000000e+00" cType="1" res="-2.5136268232017756e-03" rms="2.5886464118957520e-01" purity="7.3291622102260590e-02" nType="-99"/>
          </Node>
        </Node>
      </Node>
    </BinaryTree>
    <BinaryTree type="DecisionTree" boostWeight="1.0000000000000000e+00" itree="21">
      <Node pos="s" depth="0" NCoef="0" IVar="4" Cut="9.1737503051757812e+01" cType="1" res="5.0229374319314957e-03" rms="4.9159723520278931e-01" purity="4.9632149934768677e-01" nType="0">
        <Node pos="l" depth="1" NCoef="0" IVar="4" Cut="8.1489334106445312e+01" cType="1" res="9.6111394464969635e-02" rms="4.8451313376426697e-01" purity="5.9033674001693726e-01" nType="0">
          <Node pos="l" depth="2" NCoef="0" IVar="1" Cut="1.4960293769836426e+00" cType="1" res="3.8219031691551208e-01" rms="3.2036131620407104e-01" purity="8.8297826051712036e-01" nType="0">
            <Node pos="l" depth="3" NCoef="0" IVar="-1" Cut="0.0000000000000000e+00" cType="1" res="2.0796809985768050e-04" rms="2.8090441226959229e-01" purity="9.1316771507263184e-01" nType="-99"/>
            <Node pos="r" depth="3" NCoef="0" IVar="-1" Cut="0.0000000000000000e+00" cType="1" res="1.8232695583719760e-04" rms="3.7697517871856689e-01" purity="8.2664954662322998e-01" nType="-99"/>
          </Node>
          <Node pos="r" depth="2" NCoef="0" IVar="4" Cut="8.7833442687988281e+01" cType="1" res="-3.2489505410194397e-01" rms="3.6263135075569153e-01" purity="1.5967237949371338e-01" nType="0">
            <Node pos="l" depth="3" NCoef="0" IVar="-1" Cut="0.0000000000000000e+00" cType="1" res="-1.5432172222062945e-04" rms="4.7827824950218201e-01" purity="3.6587440967559814e-01" nType="-99"/>
            <Node pos="r" depth="3" NCoef="0" IVar="-1" Cut="0.0000000000000000e+00" cType="1" res="-2.4560643360018730e-03" rms="2.5439533591270447e-01" purity="7.0725627243518829e-02" nType="-99"/>
          </Node>
        </Node>
        <Node pos="r" depth="1" NCoef="0" IVar="6" Cut="3.3402252197265625e-01" cType="1" res="-3.8664418458938599e-01" rms="2.8691697120666504e-01" purity="9.2069797217845917e-02" nType="0">
          <Node pos="l" depth="2" NCoef="0" IVar="-1" Cut="0.0000000000000000e+00" cType="1" res="-9.3958969227969646e-04" rms="3.6237859725952148e-01" purity="1.5687887370586395e-01" nType="-99"/>
          <Node pos="r" depth="2" NCoef="0" IVar="5" Cut="1.4284995198249817e-01" cType="1" res="-4.1451293230056763e-01" rms="2.3172937333583832e-01" purity="5.7143408805131912e-02" nType="0">
            <Node pos="l" depth="3" NCoef="0" IVar="-1" Cut="0.0000000000000000e+00" cType="1" res="-8.3789154887199402e-03" rms="1.5586459636688232e-01" purity="2.4928795173764229e-02" nType="-99"/>
            <Node pos="r" depth="3" NCoef="0" IVar="-1" Cut="0.0000000000000000e+00" cType="1" res="-1.7762392526492476e-03" rms="2.9718270897865295e-01" purity="9.8188698291778564e-02" nType="-99"/>
          </Node>
        </Node>
      </Node>
    </BinaryTree>
    <BinaryTree type="DecisionTree" boostWeight="1.0000000000000000e+00" itree="22">
      <Node pos="s" depth="0" NCoef="0" IVar="2" Cut="-4.8553054809570312e+01" cType="1" res="1.8714992329478264e-02" rms="4.9088254570960999e-01" purity="5.0967389345169067e-01" nType="0">
        <Node pos="l" depth="1" NCoef="0" IVar="4" Cut="9.1394645690917969e+01" cType="1" res="-3.7725147604942322e-01" rms="2.8374734520912170e-01" purity="9.3056865036487579e-02" nType="0">
          <Node pos="l" depth="2" NCoef="0" IVar="-1" Cut="0.0000000000000000e+00" cType="1" res="-1.1758591281250119e-03" rms="3.4058386087417603e-01" purity="1.3985882699489594e-01" nType="-99"/>
          <Node pos="r" depth="2" NCoef="0" IVar="-1" Cut="0.0000000000000000e+00" cType="1" res="-2.1131362766027451e-02" rms="1.0168345272541046e-01" purity="1.0613676160573959e-02" nType="-99"/>
        </Node>
        <Node pos="r" depth="1" NCoef="0" IVar="2" Cut="-1.2281656265258789e+01" cType="1" res="8.4029212594032288e-02" rms="4.8713862895965576e-01" purity="5.7839441299438477e-01" nType="0">
          <Node pos="l" depth="2" NCoef="0" IVar="3" Cut="2.5996658325195312e+01" cType="1" res="-1.3410584628582001e-01" rms="4.7032815217971802e-01" purity="3.5247308015823364e-01" nType="0">
            <Node pos="l" depth="3" NCoef="0" IVar="-1" Cut="0.0000000000000000e+00" cType="1" res="-3.6856846418231726e-04" rms="4.3503659963607788e-01" purity="2.6575213670730591e-01" nType="-99"/>
            <Node pos="r" depth="3" NCoef="0" IVar="-1" Cut="0.0000000000000000e+00" cType="1" res="-1.3657599993166514e-05" rms="4.9176862835884094e-01" purity="4.7520846128463745e-01" nType="-99"/>
          </Node>
          <Node pos="r" depth="2" NCoef="0" IVar="6" Cut="4.7672769427299500e-01" cType="1" res="2.2258701920509338e-01" rms="4.4509008526802063e-01" purity="7.2189795970916748e-01" nType="0">
            <Node pos="l" depth="3" NCoef="0" IVar="-1" Cut="0.0000000000000000e+00" cType="1" res="8.8081716967280954e-05" rms="4.8313981294631958e-01" purity="6.1802059412002563e-01" nType="-99"/>
            <Node pos="r" depth="3" NCoef="0" IVar="-1" Cut="0.0000000000000000e+00" cType="1" res="1.9107111438643187e-04" rms="3.4596881270408630e-01" purity="8.5785669088363647e-01" nType="-99"/>
          </Node>
        </Node>
      </Node>
    </BinaryTree>
    <BinaryTree type="DecisionTree" boostWeight="1.0000000000000000e+00" itree="23">
      <Node pos="s" depth="0" NCoef="0" IVar="2" Cut="-2.3226367950439453e+01" cType="1" res="1.5241140499711037e-02" rms="4.9051994085311890e-01" purity="5.0537824630737305e-01" nType="0">
        <Node pos="l" depth="1" NCoef="0" IVar="4" Cut="8.1048072814941406e+01" cType="1" res="-2.4650633335113525e-01" rms="4.1170492768287659e-01" purity="2.2950866818428040e-01" nType="0">
          <Node pos="l" depth="2" NCoef="0" IVar="-1" Cut="0.0000000000000000e+00" cType="1" res="1.0327805648557842e-04" rms="4.7740304470062256e-01" purity="6.4343404769897461e-01" nType="-99"/>
          <Node pos="r" depth="2" NCoef="0" IVar="6" Cut="3.8175225257873535e-01" cType="1" res="-3.7739691138267517e-01" rms="2.8550982475280762e-01" purity="9.1467887163162231e-02" nType="0">
            <Node pos="l" depth="3" NCoef="0" IVar="-1" Cut="0.0000000000000000e+00" cType="1" res="-7.7952223364263773e-04" rms="3.7922343611717224e-01" purity="1.7677925527095795e-01" nType="-99"/>
            <Node pos="r" depth="3" NCoef="0" IVar="-1" Cut="0.0000000000000000e+00" cType="1" res="-2.9788541141897440e-03" rms="2.4052645266056061e-01" purity="6.2431175261735916e-02" nType="-99"/>
          </Node>
        </Node>
        <Node pos="r" depth="1" NCoef="0" IVar="3" Cut="2.5790668487548828e+01" cType="1" res="1.5986083447933197e-01" rms="4.7024449706077576e-01" purity="6.5780067443847656e-01" nType="0">
          <Node pos="l" depth="2" NCoef="0" IVar="7" Cut="2.5920352935791016e+01" cType="1" res="-2.0647129043936729e-02" rms="4.9500933289527893e-01" purity="4.7447982430458069e-01" nType="0">
            <Node pos="l" depth="3" NCoef="0" IVar="-1" Cut="0.0000000000000000e+00" cType="1" res="8.7327847722917795e-05" rms="4.8369210958480835e-01" purity="6.1409503221511841e-01" nType="-99"/>
            <Node pos="r" depth="3" NCoef="0" IVar="-1" Cut="0.0000000000000000e+00" cType="1" res="-1.3667019084095955e-04" rms="4.8074245452880859e-01" purity="3.8016533851623535e-01" nType="-99"/>
          </Node>
          <Node pos="r" depth="2" NCoef="0" IVar="6" Cut="4.7657942771911621e-01" cType="1" res="2.6689523458480835e-01" rms="4.1973632574081421e-01" purity="7.6650297641754150e-01" nType="0">
            <Node pos="l" depth="3" NCoef="0" IVar="-1" Cut="0.0000000000000000e+00" cType="1" res="1.0238978575216606e-04" rms="4.7767004370689392e-01" purity="6.3804346323013306e-01" nType="-99"/>
            <Node pos="r" depth="3" NCoef="0" IVar="-1" Cut="0.0000000000000000e+00" cType="1" res="1.9535519822966307e-04" rms="3.3670499920845032e-01" purity="8.6632424592971802e-01" nType="-99"/>
          </Node>
        </Node>
      </Node>
    </BinaryTree>
    <BinaryTree type="DecisionTree" boostWeight="1.0000000000000000e+00" itree="24">
      <Node pos="s" depth="0" NCoef="0" IVar="2" Cut="-6.7096557617187500e+00" cType="1" res="4.0040821768343449e-03" rms="4.9041152000427246e-01" purity="4.9344989657402039e-01" nType="0">
        <Node pos="l" depth="1" NCoef="0" IVar="2" Cut="-5.1560401916503906e+01" cType="1" res="-1.6489832103252411e-01" rms="4.5603179931640625e-01" purity="3.1670063734054565e-01" nType="0">
          <Node pos="l" depth="2" NCoef="0" IVar="1" Cut="1.6455923318862915e+00" cType="1" res="-3.7178933620452881e-01" rms="2.8365585207939148e-01" purity="9.2059150338172913e-02" nType="0">
            <Node pos="l" depth="3" NCoef="0" IVar="-1" Cut="0.0000000000000000e+00" cType="1" res="-8.0692872870713472e-04" rms="3.6727768182754517e-01" purity="1.6750505566596985e-01" nType="-99"/>
            <Node pos="r" depth="3" NCoef="0" IVar="-1" Cut="0.0000000000000000e+00" cType="1" res="-4.5443898998200893e-03" rms="1.9469138979911804e-01" purity="4.1945271193981171e-02" nType="-99"/>
          </Node>
          <Node pos="r" depth="2" NCoef="0" IVar="4" Cut="8.1048072814941406e+01" cType="1" res="-1.0265840590000153e-01" rms="4.7913670539855957e-01" purity="3.8428044319152832e-01" nType="0">
            <Node pos="l" depth="3" NCoef="0" IVar="-1" Cut="0.0000000000000000e+00" cType="1" res="1.7405123799107969e-04" rms="3.9004483819007874e-01" purity="8.1195956468582153e-01" nType="-99"/>
            <Node pos="r" depth="3" NCoef="0" IVar="-1" Cut="0.0000000000000000e+00" cType="1" res="-1.0032086865976453e-03" rms="3.5372006893157959e-01" purity="1.4838585257530212e-01" nType="-99"/>
          </Node>
        </Node>
        <Node pos="r" depth="1" NCoef="0" IVar="6" Cut="4.2915722727775574e-01" cType="1" res="2.2885856032371521e-01" rms="4.4190824031829834e-01" purity="7.2875076532363892e-01" nType="0">
          <Node pos="l" depth="2" NCoef="0" IVar="2" Cut="7.7372965812683105e+00" cType="1" res="1.0006880760192871e-01" rms="4.8776599764823914e-01" purity="5.9906148910522461e-01" nType="0">
            <Node pos="l" depth="3" NCoef="0" IVar="-1" Cut="0.0000000000000000e+00" cType="1" res="-5.3710687097918708e-07" rms="4.9752178788185120e-01" purity="4.9754661321640015e-01" nType="-99"/>
            <Node pos="r" depth="3" NCoef="0" IVar="-1" Cut="0.0000000000000000e+00" cType="1" res="1.2264768884051591e-04" rms="4.6354845166206360e-01" purity="6.8239748477935791e-01" nType="-99"/>
          </Node>
          <Node pos="r" depth="2" NCoef="0" IVar="-1" Cut="0.0000000000000000e+00" cType="1" res="1.8968334188684821e-04" rms="3.5210695862770081e-01" purity="8.5206323862075806e-01" nType="-99"/>
        </Node>
      </Node>
    </BinaryTree>
    <BinaryTree type="DecisionTree" boostWeight="1.0000000000000000e+00" itree="25">
      <Node pos="s" depth="0" NCoef="0" IVar="2" Cut="-3.8292758941650391e+01" cType="1" res="1.5590526163578033e-02" rms="4.8993578553199768e-01" purity="5.0513714551925659e-01" nType="0">
        <Node pos="l" depth="1" NCoef="0" IVar="6" Cut="4.7786417603492737e-01" cType="1" res="-2.9960602521896362e-01" rms="3.6572253704071045e-01" purity="1.6851128637790680e-01" nType="0">
          <Node pos="l" depth="2" NCoef="0" IVar="-1" Cut="0.0000000000000000e+00" cType="1" res="-2.2500980412587523e-04" rms="4.5908540487289429e-01" purity="3.2395642995834351e-01" nType="-99"/>
          <Node pos="r" depth="2" NCoef="0" IVar="1" Cut="1.3463944196701050e+00" cType="1" res="-3.5748061537742615e-01" rms="3.0187195539474487e-01" purity="1.0605484992265701e-01" nType="0">
            <Node pos="l" depth="3" NCoef="0" IVar="-1" Cut="0.0000000000000000e+00" cType="1" res="-7.7868188964203000e-04" rms="3.7196192145347595e-01" purity="1.7401568591594696e-01" nType="-99"/>
            <Node pos="r" depth="3" NCoef="0" IVar="-1" Cut="0.0000000000000000e+00" cType="1" res="-2.5444834027439356e-03" rms="2.5073799490928650e-01" purity="7.0501215755939484e-02" nType="-99"/>
          </Node>
        </Node>
        <Node pos="r" depth="1" NCoef="0" IVar="3" Cut="4.3973945617675781e+01" cType="1" res="1.0295161604881287e-01" rms="4.8407363891601562e-01" purity="5.9843766689300537e-01" nType="0">
          <Node pos="l" depth="2" NCoef="0" IVar="2" Cut="-1.0936165809631348e+01" cType="1" res="-1.9441518932580948e-02" rms="4.9336108565330505e-01" purity="4.7370660305023193e-01" nType="0">
            <Node pos="l" depth="3" NCoef="0" IVar="-1" Cut="0.0000000000000000e+00" cType="1" res="-2.1426878811325878e-04" rms="4.6413955092430115e-01" purity="3.3180129528045654e-01" nType="-99"/>
            <Node pos="r" depth="3" NCoef="0" IVar="-1" Cut="0.0000000000000000e+00" cType="1" res="7.4269883043598384e-05" rms="4.8782023787498474e-01" purity="5.9517705440521240e-01" nType="-99"/>
          </Node>
          <Node pos="r" depth="2" NCoef="0" IVar="-1" Cut="0.0000000000000000e+00" cType="1" res="1.9466850790195167e-04" rms="3.3215790987014771e-01" purity="8.7085455656051636e-01" nType="-99"/>
        </Node>
      </Node>
    </BinaryTree>
    <BinaryTree type="DecisionTree" boostWeight="1.0000000000000000e+00" itree="26">
      <Node pos="s" depth="0" NCoef="0" IVar="2" Cut="-3.4897529602050781e+01" cType="1" res="1.2720815837383270e-02" rms="4.8999863862991333e-01" purity="5.0187903642654419e-01" nType="0">
        <Node pos="l" depth="1" NCoef="0" IVar="6" Cut="4.2930978536605835e-01" cType="1" res="-3.1706741452217102e-01" rms="3.5089197754859924e-01" purity="1.5021340548992157e-01" nType="0">
          <Node pos="l" depth="2" NCoef="0" IVar="-1" Cut="0.0000000000000000e+00" cType="1" res="-3.3772340975701809e-04" rms="4.4100883603096008e-01" purity="2.7741971611976624e-01" nType="-99"/>
          <Node pos="r" depth="2" NCoef="0" IVar="1" Cut="1.1967977285385132e+00" cType="1" res="-3.5220360755920410e-01" rms="3.0989694595336914e-01" purity="1.1132598668336868e-01" nType="0">
            <Node pos="l" depth="3" NCoef="0" IVar="-1" Cut="0.0000000000000000e+00" cType="1" res="-6.0632789973169565e-04" rms="3.9225098490715027e-01" purity="1.9707173109054565e-01" nType="-99"/>
            <Node pos="r" depth="3" NCoef="0" IVar="-1" Cut="0.0000000000000000e+00" cType="1" res="-2.5098209735006094e-03" rms="2.5645813345909119e-01" purity="7.3178209364414215e-02" nType="-99"/>
          </Node>
        </Node>
        <Node pos="r" depth="1" NCoef="0" IVar="3" Cut="4.0666854858398438e+01" cType="1" res="1.1498633027076721e-01" rms="4.8185816407203674e-01" purity="6.1092871427536011e-01" nType="0">
          <Node pos="l" depth="2" NCoef="0" IVar="2" Cut="-1.6974941253662109e+01" cType="1" res="-4.8871105536818504e-03" rms="4.9437060952186584e-01" purity="4.8870253562927246e-01" nType="0">
            <Node pos="l" depth="3" NCoef="0" IVar="-1" Cut="0.0000000000000000e+00" cType="1" res="-2.5323650334030390e-04" rms="4.5632940530776978e-01" purity="3.0992132425308228e-01" nType="-99"/>
            <Node pos="r" depth="3" NCoef="0" IVar="-1" Cut="0.0000000000000000e+00" cType="1" res="5.8474299294175580e-05" rms="4.9148684740066528e-01" purity="5.7012826204299927e-01" nType="-99"/>
          </Node>
          <Node pos="r" depth="2" NCoef="0" IVar="-1" Cut="0.0000000000000000e+00" cType="1" res="1.8880188872572035e-04" rms="3.5725530982017517e-01" purity="8.4641087055206299e-01" nType="-99"/>
        </Node>
      </Node>
    </BinaryTree>
    <BinaryTree type="DecisionTree" boostWeight="1.0000000000000000e+00" itree="27">
      <Node pos="s" depth="0" NCoef="0" IVar="2" Cut="-3.4897529602050781e+01" cType="1" res="1.9063614308834076e-02" rms="4.8935696482658386e-01" purity="5.0860112905502319e-01" nType="0">
        <Node pos="l" depth="1" NCoef="0" IVar="4" Cut="8.7872245788574219e+01" cType="1" res="-3.1578299403190613e-01" rms="3.5033196210861206e-01" purity="1.5142427384853363e-01" nType="0">
          <Node pos="l" depth="2" NCoef="0" IVar="-1" Cut="0.0000000000000000e+00" cType="1" res="-1.5599516336806118e-04" rms="4.7641074657440186e-01" purity="3.6562478542327881e-01" nType="-99"/>
          <Node pos="r" depth="2" NCoef="0" IVar="5" Cut="2.3810374736785889e-01" cType="1" res="-4.1042858362197876e-01" rms="2.1134181320667267e-01" purity="4.7259543091058731e-02" nType="0">
            <Node pos="l" depth="3" NCoef="0" IVar="-1" Cut="0.0000000000000000e+00" cType="1" res="-1.9146125763654709e-02" rms="1.0876299440860748e-01" purity="1.1714581400156021e-02" nType="-99"/>
            <Node pos="r" depth="3" NCoef="0" IVar="-1" Cut="0.0000000000000000e+00" cType="1" res="-1.6238925745710731e-03" rms="3.0606922507286072e-01" purity="1.0575716942548752e-01" nType="-99"/>
          </Node>
        </Node>
        <Node pos="r" depth="1" NCoef="0" IVar="3" Cut="4.3994861602783203e+01" cType="1" res="1.2111692875623703e-01" rms="4.8006463050842285e-01" purity="6.1746013164520264e-01" nType="0">
          <Node pos="l" depth="2" NCoef="0" IVar="2" Cut="-5.0369267463684082e+00" cType="1" res="-1.4748409390449524e-02" rms="4.9371814727783203e-01" purity="4.7916629910469055e-01" nType="0">
            <Node pos="l" depth="3" NCoef="0" IVar="-1" Cut="0.0000000000000000e+00" cType="1" res="-1.4717363228555769e-04" rms="4.7618532180786133e-01" purity="3.7008458375930786e-01" nType="-99"/>
            <Node pos="r" depth="3" NCoef="0" IVar="-1" Cut="0.0000000000000000e+00" cType="1" res="9.0016219473909587e-05" rms="4.8286470770835876e-01" purity="6.1928009986877441e-01" nType="-99"/>
          </Node>
          <Node pos="r" depth="2" NCoef="0" IVar="-1" Cut="0.0000000000000000e+00" cType="1" res="2.0118225074838847e-04" rms="3.1680309772491455e-01" purity="8.8443619012832642e-01" nType="-99"/>
        </Node>
      </Node>
    </BinaryTree>
    <BinaryTree type="DecisionTree" boostWeight="1.0000000000000000e+00" itree="28">
      <Node pos="s" depth="0" NCoef="0" IVar="2" Cut="-4.9866043090820312e+01" cType="1" res="1.0271966457366943e-02" rms="4.8880785703659058e-01" purity="4.9827858805656433e-01" nType="0">
        <Node pos="l" depth="1" NCoef="0" IVar="1" Cut="2.0943989753723145e+00" cType="1" res="-3.7044015526771545e-01" rms="2.7397999167442322e-01" purity="8.5498102009296417e-02" nType="0">
          <Node pos="l" depth="2" NCoef="0" IVar="-1" Cut="0.0000000000000000e+00" cType="1" res="-3.6544662434607744e-03" rms="2.2924448549747467e-01" purity="5.7024672627449036e-02" nType="-99"/>
          <Node pos="r" depth="2" NCoef="0" IVar="-1" Cut="0.0000000000000000e+00" cType="1" res="-1.2315029744058847e-03" rms="3.1562444567680359e-01" purity="1.1901867389678955e-01" nType="-99"/>
        </Node>
        <Node pos="r" depth="1" NCoef="0" IVar="2" Cut="-1.3633693695068359e+01" cType="1" res="7.0979431271553040e-02" rms="4.8812463879585266e-01" purity="5.6409960985183716e-01" nType="0">
          <Node pos="l" depth="2" NCoef="0" IVar="3" Cut="3.8187873840332031e+01" cType="1" res="-1.5186063945293427e-01" rms="4.6211862564086914e-01" purity="3.3104056119918823e-01" nType="0">
            <Node pos="l" depth="3" NCoef="0" IVar="-1" Cut="0.0000000000000000e+00" cType="1" res="-3.1381889129988849e-04" rms="4.4354677200317383e-01" purity="2.8503602743148804e-01" nType="-99"/>
            <Node pos="r" depth="3" NCoef="0" IVar="-1" Cut="0.0000000000000000e+00" cType="1" res="5.2068076911382377e-05" rms="4.8826521635055542e-01" purity="5.5064415931701660e-01" nType="-99"/>
          </Node>
          <Node pos="r" depth="2" NCoef="0" IVar="3" Cut="4.3984592437744141e+01" cType="1" res="2.0602333545684814e-01" rms="4.5267143845558167e-01" purity="7.0533633232116699e-01" nType="0">
            <Node pos="l" depth="3" NCoef="0" IVar="-1" Cut="0.0000000000000000e+00" cType="1" res="7.2144983278121799e-05" rms="4.8846340179443359e-01" purity="5.9132790565490723e-01" nType="-99"/>
            <Node pos="r" depth="3" NCoef="0" IVar="-1" Cut="0.0000000000000000e+00" cType="1" res="2.0046197460033000e-04" rms="3.1255891919136047e-01" purity="8.8863337039947510e-01" nType="-99"/>
          </Node>
        </Node>
      </Node>
    </BinaryTree>
    <BinaryTree type="DecisionTree" boostWeight="1.0000000000000000e+00" itree="29">
      <Node pos="s" depth="0" NCoef="0" IVar="4" Cut="8.7872489929199219e+01" cType="1" res="1.3569700531661510e-02" rms="4.8862078785896301e-01" purity="5.0148731470108032e-01" nType="0">
        <Node pos="l" depth="1" NCoef="0" IVar="4" Cut="7.8176483154296875e+01" cType="1" res="2.9742911458015442e-01" rms="3.9852792024612427e-01" purity="7.9618662595748901e-01" nType="0">
          <Node pos="l" depth="2" NCoef="0" IVar="-1" Cut="0.0000000000000000e+00" cType="1" res="2.0395318279042840e-04" rms="3.0105298757553101e-01" purity="8.9795094728469849e-01" nType="-99"/>
          <Node pos="r" depth="2" NCoef="0" IVar="4" Cut="8.4640472412109375e+01" cType="1" res="-6.5741024911403656e-02" rms="4.8930928111076355e-01" purity="4.2510214447975159e-01" nType="0">
            <Node pos="l" depth="3" NCoef="0" IVar="-1" Cut="0.0000000000000000e+00" cType="1" res="6.4876454416662455e-05" rms="4.9051612615585327e-01" purity="5.7761603593826294e-01" nType="-99"/>
            <Node pos="r" depth="3" NCoef="0" IVar="-1" Cut="0.0000000000000000e+00" cType="1" res="-3.4345375024713576e-04" rms="4.4344222545623779e-01" purity="2.7726861834526062e-01" nType="-99"/>
          </Node>
        </Node>
        <Node pos="r" depth="1" NCoef="0" IVar="6" Cut="2.3872464895248413e-01" cType="1" res="-3.8339942693710327e-01" rms="2.8329539299011230e-01" purity="8.9358896017074585e-02" nType="0">
          <Node pos="l" depth="2" NCoef="0" IVar="-1" Cut="0.0000000000000000e+00" cType="1" res="-4.7079726937226951e-04" rms="4.2447715997695923e-01" purity="2.3718258738517761e-01" nType="-99"/>
          <Node pos="r" depth="2" NCoef="0" IVar="7" Cut="4.8621776580810547e+01" cType="1" res="-4.0969836711883545e-01" rms="2.3624230921268463e-01" purity="5.9239722788333893e-02" nType="0">
            <Node pos="l" depth="3" NCoef="0" IVar="-1" Cut="0.0000000000000000e+00" cType="1" res="-5.9355348348617554e-03" rms="1.7592737078666687e-01" purity="3.2158516347408295e-02" nType="-99"/>
            <Node pos="r" depth="3" NCoef="0" IVar="-1" Cut="0.0000000000000000e+00" cType="1" res="-2.0681864116340876e-03" rms="2.7431499958038330e-01" purity="8.2128420472145081e-02" nType="-99"/>
          </Node>
        </Node>
      </Node>
    </BinaryTree>
    <BinaryTree type="DecisionTree" boostWeight="1.0000000000000000e+00" itree="30">
      <Node pos="s" depth="0" NCoef="0" IVar="2" Cut="-6.7096557617187500e+00" cType="1" res="1.0822437703609467e-02" rms="4.8783454298973083e-01" purity="4.9816507101058960e-01" nType="0">
        <Node pos="l" depth="1" NCoef="0" IVar="4" Cut="9.1393218994140625e+01" cType="1" res="-1.7367236316204071e-01" rms="4.4790676236152649e-01" purity="3.0349352955818176e-01" nType="0">
          <Node pos="l" depth="2" NCoef="0" IVar="4" Cut="8.1194221496582031e+01" cType="1" res="-8.7774656713008881e-02" rms="4.7878611087799072e-01" purity="3.9643034338951111e-01" nType="0">
            <Node pos="l" depth="3" NCoef="0" IVar="-1" Cut="0.0000000000000000e+00" cType="1" res="1.5128869563341141e-04" rms="4.3479663133621216e-01" purity="7.4282634258270264e-01" nType="-99"/>
            <Node pos="r" depth="3" NCoef="0" IVar="-1" Cut="0.0000000000000000e+00" cType="1" res="-1.1796691687777638e-03" rms="3.3298867940902710e-01" purity="1.3111519813537598e-01" nType="-99"/>
          </Node>
          <Node pos="r" depth="2" NCoef="0" IVar="6" Cut="3.8151624798774719e-01" cType="1" res="-3.7934374809265137e-01" rms="2.6858219504356384e-01" purity="8.0967850983142853e-02" nType="0">
            <Node pos="l" depth="3" NCoef="0" IVar="-1" Cut="0.0000000000000000e+00" cType="1" res="-8.2199927419424057e-04" rms="3.7504270672798157e-01" purity="1.7009735107421875e-01" nType="-99"/>
            <Node pos="r" depth="3" NCoef="0" IVar="-1" Cut="0.0000000000000000e+00" cType="1" res="-7.3160044848918915e-03" rms="1.6496771574020386e-01" purity="2.8560180217027664e-02" nType="-99"/>
          </Node>
        </Node>
        <Node pos="r" depth="1" NCoef="0" IVar="6" Cut="4.2904409766197205e-01" cType="1" res="2.4074277281761169e-01" rms="4.3504172563552856e-01" purity="7.4076777696609497e-01" nType="0">
          <Node pos="l" depth="2" NCoef="0" IVar="2" Cut="2.8832235336303711e+00" cType="1" res="1.1682428419589996e-01" rms="4.8354065418243408e-01" purity="6.1573714017868042e-01" nType="0">
            <Node pos="l" depth="3" NCoef="0" IVar="-1" Cut="0.0000000000000000e+00" cType="1" res="-1.5436857836448326e-07" rms="4.9695238471031189e-01" purity="4.9729600548744202e-01" nType="-99"/>
            <Node pos="r" depth="3" NCoef="0" IVar="-1" Cut="0.0000000000000000e+00" cType="1" res="1.1754321894841269e-04" rms="4.6793410181999207e-01" purity="6.6903895139694214e-01" nType="-99"/>
          </Node>
          <Node pos="r" depth="2" NCoef="0" IVar="-1" Cut="0.0000000000000000e+00" cType="1" res="1.9225914729759097e-04" rms="3.4460839629173279e-01" purity="8.5917758941650391e-01" nType="-99"/>
        </Node>
      </Node>
    </BinaryTree>
    <BinaryTree type="DecisionTree" boostWeight="1.0000000000000000e+00" itree="31">
      <Node pos="s" depth="0" NCoef="0" IVar="2" Cut="-3.3666603088378906e+01" cType="1" res="1.9954236224293709e-02" rms="4.8737490177154541e-01" purity="5.0697016716003418e-01" nType="0">
        <Node pos="l" depth="1" NCoef="0" IVar="3" Cut="3.8752304077148438e+01" cType="1" res="-2.9601541161537170e-01" rms="3.5963317751884460e-01" purity="1.6518312692642212e-01" nType="0">
          <Node pos="l" depth="2" NCoef="0" IVar="4" Cut="8.7872245788574219e+01" cType="1" res="-3.4267327189445496e-01" rms="3.1139713525772095e-01" purity="1.1582412570714951e-01" nType="0">
            <Node pos="l" depth="3" NCoef="0" IVar="-1" Cut="0.0000000000000000e+00" cType="1" res="-3.2163533614948392e-04" rms="4.4584828615188599e-01" purity="2.8400832414627075e-01" nType="-99"/>
            <Node pos="r" depth="3" NCoef="0" IVar="-1" Cut="0.0000000000000000e+00" cType="1" res="-4.4239074923098087e-03" rms="1.9964547455310822e-01" purity="4.2366601526737213e-02" nType="-99"/>
          </Node>
          <Node pos="r" depth="2" NCoef="0" IVar="-1" Cut="0.0000000000000000e+00" cType="1" res="-2.7465895982459188e-04" rms="4.4227945804595947e-01" purity="3.0014508962631226e-01" nType="-99"/>
        </Node>
        <Node pos="r" depth="1" NCoef="0" IVar="3" Cut="4.5063396453857422e+01" cType="1" res="1.2375269085168839e-01" rms="4.7906887531280518e-01" purity="6.1924976110458374e-01" nType="0">
          <Node pos="l" depth="2" NCoef="0" IVar="2" Cut="-1.1301301956176758e+01" cType="1" res="1.7912877723574638e-02" rms="4.9344420433044434e-01" purity="5.1114374399185181e-01" nType="0">
            <Node pos="l" depth="3" NCoef="0" IVar="-1" Cut="0.0000000000000000e+00" cType="1" res="-1.4833101886324584e-04" rms="4.7443911433219910e-01" purity="3.6700737476348877e-01" nType="-99"/>
            <Node pos="r" depth="3" NCoef="0" IVar="-1" Cut="0.0000000000000000e+00" cType="1" res="8.5354731709230691e-05" rms="4.8351410031318665e-01" purity="6.1247909069061279e-01" nType="-99"/>
          </Node>
          <Node pos="r" depth="2" NCoef="0" IVar="-1" Cut="0.0000000000000000e+00" cType="1" res="1.9866014190483838e-04" rms="3.2488572597503662e-01" purity="8.7732529640197754e-01" nType="-99"/>
        </Node>
      </Node>
    </BinaryTree>
    <BinaryTree type="DecisionTree" boostWeight="1.0000000000000000e+00" itree="32">
      <Node pos="s" depth="0" NCoef="0" IVar="2" Cut="5.1743774414062500e+00" cType="1" res="2.3035129532217979e-02" rms="4.8723405599594116e-01" purity="5.0969636440277100e-01" nType="0">
        <Node pos="l" depth="1" NCoef="0" IVar="2" Cut="-4.0242225646972656e+01" cType="1" res="-1.0044840723276138e-01" rms="4.7319510579109192e-01" purity="3.7996301054954529e-01" nType="0">
          <Node pos="l" depth="2" NCoef="0" IVar="3" Cut="3.8759819030761719e+01" cType="1" res="-3.1863754987716675e-01" rms="3.3559241890907288e-01" purity="1.3680504262447357e-01" nType="0">
            <Node pos="l" depth="3" NCoef="0" IVar="-1" Cut="0.0000000000000000e+00" cType="1" res="-1.7713193083181977e-03" rms="2.8433403372764587e-01" purity="9.2449881136417389e-02" nType="-99"/>
            <Node pos="r" depth="3" NCoef="0" IVar="-1" Cut="0.0000000000000000e+00" cType="1" res="-3.9076182292774320e-04" rms="4.2065089941024780e-01" purity="2.4744787812232971e-01" nType="-99"/>
          </Node>
          <Node pos="r" depth="2" NCoef="0" IVar="2" Cut="-1.6452539443969727e+01" cType="1" res="-1.6306934878230095e-02" rms="4.9131754040718079e-01" purity="4.7373333573341370e-01" nType="0">
            <Node pos="l" depth="3" NCoef="0" IVar="-1" Cut="0.0000000000000000e+00" cType="1" res="-1.7445086268708110e-04" rms="4.6831491589546204e-01" purity="3.5035219788551331e-01" nType="-99"/>
            <Node pos="r" depth="3" NCoef="0" IVar="-1" Cut="0.0000000000000000e+00" cType="1" res="6.3396022596862167e-05" rms="4.8922997713088989e-01" purity="5.7654219865798950e-01" nType="-99"/>
          </Node>
        </Node>
        <Node pos="r" depth="1" NCoef="0" IVar="6" Cut="3.3388385176658630e-01" cType="1" res="3.1131118535995483e-01" rms="3.8752299547195435e-01" purity="8.1256288290023804e-01" nType="0">
          <Node pos="l" depth="2" NCoef="0" IVar="-1" Cut="0.0000000000000000e+00" cType="1" res="1.0200750693911687e-04" rms="4.7816216945648193e-01" purity="6.3831430673599243e-01" nType="-99"/>
          <Node pos="r" depth="2" NCoef="0" IVar="-1" Cut="0.0000000000000000e+00" cType="1" res="1.9774271640926600e-04" rms="3.1906256079673767e-01" purity="8.8258779048919678e-01" nType="-99"/>
        </Node>
      </Node>
    </BinaryTree>
    <BinaryTree type="DecisionTree" boostWeight="1.0000000000000000e+00" itree="33">
      <Node pos="s" depth="0" NCoef="0" IVar="2" Cut="5.1743774414062500e+00" cType="1" res="9.6746422350406647e-03" rms="4.8695683479309082e-01" purity="4.9609690904617310e-01" nType="0">
        <Node pos="l" depth="1" NCoef="0" IVar="2" Cut="-4.0242225646972656e+01" cType="1" res="-1.2158053368330002e-01" rms="4.6700009703636169e-01" purity="3.5835814476013184e-01" nType="0">
          <Node pos="l" depth="2" NCoef="0" IVar="3" Cut="3.8756023406982422e+01" cType="1" res="-3.5218980908393860e-01" rms="2.9445067048072815e-01" purity="1.0213257372379303e-01" nType="0">
            <Node pos="l" depth="3" NCoef="0" IVar="-1" Cut="0.0000000000000000e+00" cType="1" res="-3.9083482697606087e-03" rms="2.1228332817554474e-01" purity="4.8431850969791412e-02" nType="-99"/>
            <Node pos="r" depth="3" NCoef="0" IVar="-1" Cut="0.0000000000000000e+00" cType="1" res="-4.6674747136421502e-04" rms="4.0907117724418640e-01" purity="2.3288372159004211e-01" nType="-99"/>
          </Node>
          <Node pos="r" depth="2" NCoef="0" IVar="3" Cut="3.0359828948974609e+01" cType="1" res="-3.3393241465091705e-02" rms="4.9012172222137451e-01" purity="4.5634138584136963e-01" nType="0">
            <Node pos="l" depth="3" NCoef="0" IVar="-1" Cut="0.0000000000000000e+00" cType="1" res="-1.4933572674635798e-04" rms="4.7434118390083313e-01" purity="3.6639127135276794e-01" nType="-99"/>
            <Node pos="r" depth="3" NCoef="0" IVar="-1" Cut="0.0000000000000000e+00" cType="1" res="1.0239064431516454e-04" rms="4.7439926862716675e-01" purity="6.3386666774749756e-01" nType="-99"/>
          </Node>
        </Node>
        <Node pos="r" depth="1" NCoef="0" IVar="6" Cut="3.3477810025215149e-01" cType="1" res="3.0906173586845398e-01" rms="3.8938763737678528e-01" purity="8.1027281284332275e-01" nType="0">
          <Node pos="l" depth="2" NCoef="0" IVar="-1" Cut="0.0000000000000000e+00" cType="1" res="1.0771549568744376e-04" rms="4.7438868880271912e-01" purity="6.5101408958435059e-01" nType="-99"/>
          <Node pos="r" depth="2" NCoef="0" IVar="-1" Cut="0.0000000000000000e+00" cType="1" res="1.9757385598495603e-04" rms="3.2333162426948547e-01" purity="8.7896406650543213e-01" nType="-99"/>
        </Node>
      </Node>
    </BinaryTree>
    <BinaryTree type="DecisionTree" boostWeight="1.0000000000000000e+00" itree="34">
      <Node pos="s" depth="0" NCoef="0" IVar="4" Cut="8.7872306823730469e+01" cType="1" res="1.9672198221087456e-02" rms="4.8686724901199341e-01" purity="5.0589901208877563e-01" nType="0">
        <Node pos="l" depth="1" NCoef="0" IVar="4" Cut="8.1408309936523438e+01" cType="1" res="2.9979741573333740e-01" rms="3.9625504612922668e-01" purity="7.9854124784469604e-01" nType="0">
          <Node pos="l" depth="2" NCoef="0" IVar="1" Cut="1.4959782361984253e+00" cType="1" res="3.8563081622123718e-01" rms="3.1499007344245911e-01" purity="8.8664376735687256e-01" nType="0">
            <Node pos="l" depth="3" NCoef="0" IVar="-1" Cut="0.0000000000000000e+00" cType="1" res="2.0485361164901406e-04" rms="2.8202277421951294e-01" purity="9.1202443838119507e-01" nType="-99"/>
            <Node pos="r" depth="3" NCoef="0" IVar="-1" Cut="0.0000000000000000e+00" cType="1" res="1.8843788711819798e-04" rms="3.5954886674880981e-01" purity="8.4440571069717407e-01" nType="-99"/>
          </Node>
          <Node pos="r" depth="2" NCoef="0" IVar="-1" Cut="0.0000000000000000e+00" cType="1" res="-1.5218052431009710e-04" rms="4.7661325335502625e-01" purity="3.6650079488754272e-01" nType="-99"/>
        </Node>
        <Node pos="r" depth="1" NCoef="0" IVar="0" Cut="-7.3590421676635742e-01" cType="1" res="-3.7516835331916809e-01" rms="2.8866508603096008e-01" purity="9.3415528535842896e-02" nType="0">
          <Node pos="l" depth="2" NCoef="0" IVar="6" Cut="2.8630435466766357e-01" cType="1" res="-3.3100074529647827e-01" rms="3.4374353289604187e-01" purity="1.4018179476261139e-01" nType="0">
            <Node pos="l" depth="3" NCoef="0" IVar="-1" Cut="0.0000000000000000e+00" cType="1" res="-5.2967190276831388e-04" rms="4.1481235623359680e-01" purity="2.2236700356006622e-01" nType="-99"/>
            <Node pos="r" depth="3" NCoef="0" IVar="-1" Cut="0.0000000000000000e+00" cType="1" res="-1.4528695028275251e-03" rms="3.0771130323410034e-01" purity="1.0787447541952133e-01" nType="-99"/>
          </Node>
          <Node pos="r" depth="2" NCoef="0" IVar="3" Cut="3.6832183837890625e+01" cType="1" res="-4.0750652551651001e-01" rms="2.3526687920093536e-01" purity="5.9174697846174240e-02" nType="0">
            <Node pos="l" depth="3" NCoef="0" IVar="-1" Cut="0.0000000000000000e+00" cType="1" res="-5.3575159981846809e-03" rms="1.8772104382514954e-01" purity="3.6601770669221878e-02" nType="-99"/>
            <Node pos="r" depth="3" NCoef="0" IVar="-1" Cut="0.0000000000000000e+00" cType="1" res="-1.1469342280179262e-03" rms="3.3863168954849243e-01" purity="1.3340428471565247e-01" nType="-99"/>
          </Node>
        </Node>
      </Node>
    </BinaryTree>
    <BinaryTree type="DecisionTree" boostWeight="1.0000000000000000e+00" itree="35">
      <Node pos="s" depth="0" NCoef="0" IVar="2" Cut="-2.3668630599975586e+01" cType="1" res="9.7584296017885208e-03" rms="4.8627108335494995e-01" purity="4.9510127305984497e-01" nType="0">
        <Node pos="l" depth="1" NCoef="0" IVar="3" Cut="3.6905178070068359e+01" cType="1" res="-2.6870042085647583e-01" rms="3.8405442237854004e-01" purity="1.9441100955009460e-01" nType="0">
          <Node pos="l" depth="2" NCoef="0" IVar="4" Cut="8.7872306823730469e+01" cType="1" res="-3.1387728452682495e-01" rms="3.4425887465476990e-01" purity="1.4692538976669312e-01" nType="0">
            <Node pos="l" depth="3" NCoef="0" IVar="-1" Cut="0.0000000000000000e+00" cType="1" res="-1.9306001195218414e-04" rms="4.6898818016052246e-01" purity="3.4315630793571472e-01" nType="-99"/>
            <Node pos="r" depth="3" NCoef="0" IVar="-1" Cut="0.0000000000000000e+00" cType="1" res="-3.1093237921595573e-03" rms="2.2774876654148102e-01" purity="5.6122682988643646e-02" nType="-99"/>
          </Node>
          <Node pos="r" depth="2" NCoef="0" IVar="-1" Cut="0.0000000000000000e+00" cType="1" res="-2.0691360987257212e-04" rms="4.5400947332382202e-01" purity="3.2490313053131104e-01" nType="-99"/>
        </Node>
        <Node pos="r" depth="1" NCoef="0" IVar="3" Cut="4.4006042480468750e+01" cType="1" res="1.5564802289009094e-01" rms="4.7027674317359924e-01" purity="6.5263831615447998e-01" nType="0">
          <Node pos="l" depth="2" NCoef="0" IVar="2" Cut="-1.2055574655532837e+00" cType="1" res="5.0292059779167175e-02" rms="4.9217665195465088e-01" purity="5.4495054483413696e-01" nType="0">
            <Node pos="l" depth="3" NCoef="0" IVar="-1" Cut="0.0000000000000000e+00" cType="1" res="-4.4287739001447335e-05" rms="4.9081340432167053e-01" purity="4.4748800992965698e-01" nType="-99"/>
            <Node pos="r" depth="3" NCoef="0" IVar="-1" Cut="0.0000000000000000e+00" cType="1" res="1.1393378372304142e-04" rms="4.6939894556999207e-01" purity="6.6232198476791382e-01" nType="-99"/>
          </Node>
          <Node pos="r" depth="2" NCoef="0" IVar="-1" Cut="0.0000000000000000e+00" cType="1" res="1.9674733630381525e-04" rms="3.2775774598121643e-01" purity="8.7495279312133789e-01" nType="-99"/>
        </Node>
      </Node>
    </BinaryTree>
    <BinaryTree type="DecisionTree" boostWeight="1.0000000000000000e+00" itree="36">
      <Node pos="s" depth="0" NCoef="0" IVar="4" Cut="8.7872306823730469e+01" cType="1" res="1.4135134406387806e-02" rms="4.8581621050834656e-01" purity="4.9958932399749756e-01" nType="0">
        <Node pos="l" depth="1" NCoef="0" IVar="4" Cut="7.8176307678222656e+01" cType="1" res="2.9752856492996216e-01" rms="3.9776962995529175e-01" purity="7.9637217521667480e-01" nType="0">
          <Node pos="l" depth="2" NCoef="0" IVar="-1" Cut="0.0000000000000000e+00" cType="1" res="2.0431110169738531e-04" rms="2.9883125424385071e-01" purity="8.9933764934539795e-01" nType="-99"/>
          <Node pos="r" depth="2" NCoef="0" IVar="4" Cut="8.5102058410644531e+01" cType="1" res="-9.0726643800735474e-02" rms="4.8461139202117920e-01" purity="3.9841896295547485e-01" nType="0">
            <Node pos="l" depth="3" NCoef="0" IVar="-1" Cut="0.0000000000000000e+00" cType="1" res="3.4068045351887122e-05" rms="4.9560007452964783e-01" purity="5.3278774023056030e-01" nType="-99"/>
            <Node pos="r" depth="3" NCoef="0" IVar="-1" Cut="0.0000000000000000e+00" cType="1" res="-4.4197469833306968e-04" rms="4.2482271790504456e-01" purity="2.4395421147346497e-01" nType="-99"/>
          </Node>
        </Node>
        <Node pos="r" depth="1" NCoef="0" IVar="3" Cut="3.8732124328613281e+01" cType="1" res="-3.8805639743804932e-01" rms="2.6587566733360291e-01" purity="7.8395567834377289e-02" nType="0">
          <Node pos="l" depth="2" NCoef="0" IVar="0" Cut="-7.8407251834869385e-01" cType="1" res="-4.0249297022819519e-01" rms="2.4084581434726715e-01" purity="6.2894463539123535e-02" nType="0">
            <Node pos="l" depth="3" NCoef="0" IVar="-1" Cut="0.0000000000000000e+00" cType="1" res="-1.7142246942967176e-03" rms="2.9087248444557190e-01" purity="9.5149978995323181e-02" nType="-99"/>
            <Node pos="r" depth="3" NCoef="0" IVar="-1" Cut="0.0000000000000000e+00" cType="1" res="-4.8244157806038857e-03" rms="1.9666789472103119e-01" purity="4.0605131536722183e-02" nType="-99"/>
          </Node>
          <Node pos="r" depth="2" NCoef="0" IVar="-1" Cut="0.0000000000000000e+00" cType="1" res="-1.0797629365697503e-03" rms="3.4292677044868469e-01" purity="1.4089445769786835e-01" nType="-99"/>
        </Node>
      </Node>
    </BinaryTree>
    <BinaryTree type="DecisionTree" boostWeight="1.0000000000000000e+00" itree="37">
      <Node pos="s" depth="0" NCoef="0" IVar="2" Cut="-2.3668630599975586e+01" cType="1" res="1.8953550606966019e-02" rms="4.8536419868469238e-01" purity="5.0377112627029419e-01" nType="0">
        <Node pos="l" depth="1" NCoef="0" IVar="4" Cut="8.7872245788574219e+01" cType="1" res="-2.5490063428878784e-01" rms="3.9251929521560669e-01" purity="2.0674508810043335e-01" nType="0">
          <Node pos="l" depth="2" NCoef="0" IVar="6" Cut="6.2128311395645142e-01" cType="1" res="-2.2453311830759048e-02" rms="4.9240496754646301e-01" purity="4.6600735187530518e-01" nType="0">
            <Node pos="l" depth="3" NCoef="0" IVar="-1" Cut="0.0000000000000000e+00" cType="1" res="5.3948588174534962e-05" rms="4.9049887061119080e-01" purity="5.5486965179443359e-01" nType="-99"/>
            <Node pos="r" depth="3" NCoef="0" IVar="-1" Cut="0.0000000000000000e+00" cType="1" res="-1.3380448217503726e-04" rms="4.7865191102027893e-01" purity="3.7557879090309143e-01" nType="-99"/>
          </Node>
          <Node pos="r" depth="2" NCoef="0" IVar="0" Cut="-5.2292883396148682e-01" cType="1" res="-3.8600650429725647e-01" rms="2.3780800402164459e-01" purity="6.0514919459819794e-02" nType="0">
            <Node pos="l" depth="3" NCoef="0" IVar="-1" Cut="0.0000000000000000e+00" cType="1" res="-1.5721672680228949e-03" rms="2.9550123214721680e-01" purity="9.8333433270454407e-02" nType="-99"/>
            <Node pos="r" depth="3" NCoef="0" IVar="-1" Cut="0.0000000000000000e+00" cType="1" res="-5.9689753688871861e-03" rms="1.7671535909175873e-01" purity="3.1413439661264420e-02" nType="-99"/>
          </Node>
        </Node>
        <Node pos="r" depth="1" NCoef="0" IVar="3" Cut="4.0681507110595703e+01" cType="1" res="1.6228806972503662e-01" rms="4.6737712621688843e-01" purity="6.5923368930816650e-01" nType="0">
