<?xml version="1.0"?>
<MethodSetup Method="BDT::BDT">
  <GeneralInfo>
    <Info name="TMVA Release" value="4.2.1 [262657]"/>
    <Info name="ROOT Release" value="6.06/01 [394753]"/>
    <Info name="Creator" value="vbhopatk"/>
    <Info name="Date" value="Thu May 18 21:14:16 2017"/>
    <Info name="Host" value="Linux vocms0301.cern.ch 2.6.32-642.11.1.el6.x86_64 #1 SMP Wed Nov 16 09:40:09 CET 2016 x86_64 x86_64 x86_64 GNU/Linux"/>
    <Info name="Dir" value="/nfs/dust/cms/user/vbhopatk/Rereco_Moriond17/TMVA/Training/finalLDYjetbins"/>
    <Info name="Training events" value="4877998"/>
    <Info name="TrainingTime" value="4.02592539e+03"/>
    <Info name="AnalysisType" value="Classification"/>
  </GeneralInfo>
  <Options>
    <Option name="V" modified="Yes">False</Option>
    <Option name="VerbosityLevel" modified="No">Default</Option>
    <Option name="VarTransform" modified="No">None</Option>
    <Option name="H" modified="Yes">False</Option>
    <Option name="CreateMVAPdfs" modified="No">False</Option>
    <Option name="IgnoreNegWeightsInTraining" modified="Yes">False</Option>
    <Option name="NTrees" modified="Yes">500</Option>
    <Option name="MaxDepth" modified="Yes">3</Option>
    <Option name="MinNodeSize" modified="No">5%</Option>
    <Option name="nCuts" modified="Yes">20</Option>
    <Option name="BoostType" modified="Yes">Grad</Option>
    <Option name="AdaBoostR2Loss" modified="No">quadratic</Option>
    <Option name="UseBaggedBoost" modified="Yes">True</Option>
    <Option name="Shrinkage" modified="Yes">3.000000e-01</Option>
    <Option name="AdaBoostBeta" modified="No">5.000000e-01</Option>
    <Option name="UseRandomisedTrees" modified="No">False</Option>
    <Option name="UseNvars" modified="No">3</Option>
    <Option name="UsePoissonNvars" modified="No">True</Option>
    <Option name="BaggedSampleFraction" modified="No">5.000000e-01</Option>
    <Option name="UseYesNoLeaf" modified="No">True</Option>
    <Option name="NegWeightTreatment" modified="No">ignorenegweightsintraining</Option>
    <Option name="Css" modified="No">1.000000e+00</Option>
    <Option name="Cts_sb" modified="No">1.000000e+00</Option>
    <Option name="Ctb_ss" modified="No">1.000000e+00</Option>
    <Option name="Cbb" modified="No">1.000000e+00</Option>
    <Option name="NodePurityLimit" modified="No">5.000000e-01</Option>
    <Option name="SeparationType" modified="Yes">giniindex</Option>
    <Option name="DoBoostMonitor" modified="No">False</Option>
    <Option name="UseFisherCuts" modified="No">False</Option>
    <Option name="MinLinCorrForFisher" modified="No">8.000000e-01</Option>
    <Option name="UseExclusiveVars" modified="No">False</Option>
    <Option name="DoPreselection" modified="No">False</Option>
    <Option name="SigToBkgFraction" modified="No">1.000000e+00</Option>
    <Option name="PruneMethod" modified="Yes">nopruning</Option>
    <Option name="PruneStrength" modified="No">0.000000e+00</Option>
    <Option name="PruningValFraction" modified="No">5.000000e-01</Option>
    <Option name="nEventsMin" modified="No">0</Option>
    <Option name="UseBaggedGrad" modified="No">False</Option>
    <Option name="GradBaggingFraction" modified="Yes">5.000000e-01</Option>
    <Option name="UseNTrainEvents" modified="No">0</Option>
    <Option name="NNodesMax" modified="No">0</Option>
  </Options>
  <Variables NVar="8">
    <Variable VarIndex="0" Expression="eta_tt" Label="eta_tt" Title="eta_tt" Unit="" Internal="eta_tt" Type="F" Min="-1.00325575e+01" Max="1.05670576e+01"/>
    <Variable VarIndex="1" Expression="dphi_posmu_met" Label="dphi_posmu_met" Title="dphi_posmu_met" Unit="" Internal="dphi_posmu_met" Type="F" Min="6.49526584e-08" Max="3.14159250e+00"/>
    <Variable VarIndex="2" Expression="dzeta" Label="dzeta" Title="dzeta" Unit="" Internal="dzeta" Type="F" Min="-9.06665771e+02" Max="3.14338428e+03"/>
    <Variable VarIndex="3" Expression="met" Label="met" Title="met" Unit="" Internal="met" Type="F" Min="4.54602437e-03" Max="3.62930322e+03"/>
    <Variable VarIndex="4" Expression="m_vis" Label="m_vis" Title="m_vis" Unit="" Internal="m_vis" Type="F" Min="2.00001583e+01" Max="2.00928662e+03"/>
    <Variable VarIndex="5" Expression="costheta" Label="costheta" Title="costheta" Unit="" Internal="costheta" Type="F" Min="-9.99998331e-01" Max="9.99999046e-01"/>
    <Variable VarIndex="6" Expression="ptRatio" Label="ptRatio" Title="ptRatio" Unit="" Internal="ptRatio" Type="F" Min="1.32269881e-04" Max="1.00000000e+00"/>
    <Variable VarIndex="7" Expression="pt_sv" Label="pt_sv" Title="pt_sv" Unit="" Internal="pt_sv" Type="F" Min="0.00000000e+00" Max="9.69682617e+02"/>
  </Variables>
  <Spectators NSpec="0"/>
  <Classes NClass="2">
    <Class Name="Signal" Index="0"/>
    <Class Name="Background" Index="1"/>
  </Classes>
  <Transformations NTransformations="0"/>
  <MVAPdfs/>
  <Weights NTrees="500" AnalysisType="1">
    <BinaryTree type="DecisionTree" boostWeight="1.0000000000000000e+00" itree="0">
      <Node pos="s" depth="0" NCoef="0" IVar="4" Cut="8.7872123718261719e+01" cType="1" res="-6.2296008691191673e-03" rms="4.9996119737625122e-01" purity="4.9377039074897766e-01" nType="0">
        <Node pos="l" depth="1" NCoef="0" IVar="4" Cut="8.1408119201660156e+01" cType="1" res="2.9332947731018066e-01" rms="4.0491706132888794e-01" purity="7.9332947731018066e-01" nType="0">
          <Node pos="l" depth="2" NCoef="0" IVar="2" Cut="-2.9355875015258789e+01" cType="1" res="3.8077148795127869e-01" rms="3.2405719161033630e-01" purity="8.8077151775360107e-01" nType="0">
            <Node pos="l" depth="3" NCoef="0" IVar="-1" Cut="0.0000000000000000e+00" cType="1" res="6.3130442867986858e-05" rms="4.9350675940513611e-01" purity="5.8031851053237915e-01" nType="-99"/>
            <Node pos="r" depth="3" NCoef="0" IVar="-1" Cut="0.0000000000000000e+00" cType="1" res="2.1395008661784232e-04" rms="2.5250819325447083e-01" purity="9.3155491352081299e-01" nType="-99"/>
          </Node>
          <Node pos="r" depth="2" NCoef="0" IVar="4" Cut="8.5717483520507812e+01" cType="1" res="-8.1208311021327972e-02" rms="4.9336114525794983e-01" purity="4.1879171133041382e-01" nType="0">
            <Node pos="l" depth="3" NCoef="0" IVar="-1" Cut="0.0000000000000000e+00" cType="1" res="2.2888518287800252e-05" rms="4.9932077527046204e-01" purity="5.2605307102203369e-01" nType="-99"/>
            <Node pos="r" depth="3" NCoef="0" IVar="-1" Cut="0.0000000000000000e+00" cType="1" res="-2.9904922121204436e-04" rms="4.5770582556724548e-01" purity="2.9874050617218018e-01" nType="-99"/>
          </Node>
        </Node>
        <Node pos="r" depth="1" NCoef="0" IVar="2" Cut="-2.7343610763549805e+01" cType="1" res="-4.2610141634941101e-01" rms="2.6160579919815063e-01" purity="7.3898591101169586e-02" nType="0">
          <Node pos="l" depth="2" NCoef="0" IVar="5" Cut="-2.3808413743972778e-01" cType="1" res="-4.7612273693084717e-01" rms="1.5266680717468262e-01" purity="2.3877276107668877e-02" nType="0">
            <Node pos="l" depth="3" NCoef="0" IVar="-1" Cut="0.0000000000000000e+00" cType="1" res="-5.4871239699423313e-03" rms="1.9161599874496460e-01" purity="3.8173943758010864e-02" nType="-99"/>
            <Node pos="r" depth="3" NCoef="0" IVar="-1" Cut="0.0000000000000000e+00" cType="1" res="-1.6235243529081345e-02" rms="1.2278556078672409e-01" purity="1.5310711227357388e-02" nType="-99"/>
          </Node>
          <Node pos="r" depth="2" NCoef="0" IVar="0" Cut="-5.4884761571884155e-01" cType="1" res="-3.8154879212379456e-01" rms="3.2314163446426392e-01" purity="1.1845120787620544e-01" nType="0">
            <Node pos="l" depth="3" NCoef="0" IVar="-1" Cut="0.0000000000000000e+00" cType="1" res="-9.0685265604406595e-04" rms="3.6752846837043762e-01" purity="1.6099730134010315e-01" nType="-99"/>
            <Node pos="r" depth="3" NCoef="0" IVar="-1" Cut="0.0000000000000000e+00" cType="1" res="-2.3506863508373499e-03" rms="2.7295690774917603e-01" purity="8.1079326570034027e-02" nType="-99"/>
          </Node>
        </Node>
      </Node>
    </BinaryTree>
    <BinaryTree type="DecisionTree" boostWeight="1.0000000000000000e+00" itree="1">
      <Node pos="s" depth="0" NCoef="0" IVar="2" Cut="3.1719622611999512e+00" cType="1" res="6.4981346949934959e-03" rms="4.9867060780525208e-01" purity="5.0517266988754272e-01" nType="0">
        <Node pos="l" depth="1" NCoef="0" IVar="2" Cut="-3.5804386138916016e+01" cType="1" res="-1.4036050438880920e-01" rms="4.7799164056777954e-01" purity="3.5769024491310120e-01" nType="0">
          <Node pos="l" depth="2" NCoef="0" IVar="3" Cut="3.8749626159667969e+01" cType="1" res="-3.6522999405860901e-01" rms="3.3577418327331543e-01" purity="1.3059838116168976e-01" nType="0">
            <Node pos="l" depth="3" NCoef="0" IVar="-1" Cut="0.0000000000000000e+00" cType="1" res="-2.4588874075561762e-03" rms="2.6654943823814392e-01" purity="7.7358506619930267e-02" nType="-99"/>
            <Node pos="r" depth="3" NCoef="0" IVar="-1" Cut="0.0000000000000000e+00" cType="1" res="-3.9233491406776011e-04" rms="4.4184786081314087e-01" purity="2.6976707577705383e-01" nType="-99"/>
          </Node>
          <Node pos="r" depth="2" NCoef="0" IVar="2" Cut="-2.0956247329711914e+01" cType="1" res="-2.7573728933930397e-02" rms="4.9843743443489075e-01" purity="4.7159168124198914e-01" nType="0">
            <Node pos="l" depth="3" NCoef="0" IVar="-1" Cut="0.0000000000000000e+00" cType="1" res="-3.1219155061990023e-04" rms="4.5542171597480774e-01" purity="2.9623183608055115e-01" nType="-99"/>
            <Node pos="r" depth="3" NCoef="0" IVar="-1" Cut="0.0000000000000000e+00" cType="1" res="4.0566475945524871e-05" rms="4.9734008312225342e-01" purity="5.4811626672744751e-01" nType="-99"/>
          </Node>
        </Node>
        <Node pos="r" depth="1" NCoef="0" IVar="6" Cut="3.3402761816978455e-01" cType="1" res="3.0462491512298584e-01" rms="3.9624416828155518e-01" purity="8.0456578731536865e-01" nType="0">
          <Node pos="l" depth="2" NCoef="0" IVar="-1" Cut="0.0000000000000000e+00" cType="1" res="1.0037549509434029e-04" rms="4.8050382733345032e-01" purity="6.3702511787414551e-01" nType="-99"/>
          <Node pos="r" depth="2" NCoef="0" IVar="-1" Cut="0.0000000000000000e+00" cType="1" res="1.9575486658141017e-04" rms="3.3018413186073303e-01" purity="8.7526673078536987e-01" nType="-99"/>
        </Node>
      </Node>
    </BinaryTree>
    <BinaryTree type="DecisionTree" boostWeight="1.0000000000000000e+00" itree="2">
      <Node pos="s" depth="0" NCoef="0" IVar="4" Cut="8.5010269165039062e+01" cType="1" res="2.3557350505143404e-03" rms="4.9849730730056763e-01" purity="5.0081586837768555e-01" nType="0">
        <Node pos="l" depth="1" NCoef="0" IVar="2" Cut="-2.0053070068359375e+01" cType="1" res="3.5608914494514465e-01" rms="3.5078489780426025e-01" purity="8.5613137483596802e-01" nType="0">
          <Node pos="l" depth="2" NCoef="0" IVar="-1" Cut="0.0000000000000000e+00" cType="1" res="5.6881828641053289e-05" rms="4.9475830793380737e-01" purity="5.7059764862060547e-01" nType="-99"/>
          <Node pos="r" depth="2" NCoef="0" IVar="-1" Cut="0.0000000000000000e+00" cType="1" res="2.1405522420536727e-04" rms="2.5393062829971313e-01" purity="9.3071252107620239e-01" nType="-99"/>
        </Node>
        <Node pos="r" depth="1" NCoef="0" IVar="6" Cut="2.3839677870273590e-01" cType="1" res="-3.9086809754371643e-01" rms="3.0697351694107056e-01" purity="1.0583332926034927e-01" nType="0">
          <Node pos="l" depth="2" NCoef="0" IVar="-1" Cut="0.0000000000000000e+00" cType="1" res="-4.8700661864131689e-04" rms="4.2570915818214417e-01" purity="2.3804347217082977e-01" nType="-99"/>
          <Node pos="r" depth="2" NCoef="0" IVar="2" Cut="-2.4901798248291016e+01" cType="1" res="-4.1651031374931335e-01" rms="2.7044060826301575e-01" purity="7.9861022531986237e-02" nType="0">
            <Node pos="l" depth="3" NCoef="0" IVar="-1" Cut="0.0000000000000000e+00" cType="1" res="-4.3287584558129311e-03" rms="2.0611199736595154e-01" purity="4.4724307954311371e-02" nType="-99"/>
            <Node pos="r" depth="3" NCoef="0" IVar="-1" Cut="0.0000000000000000e+00" cType="1" res="-1.3067743275314569e-03" rms="3.3015522360801697e-01" purity="1.2454595416784286e-01" nType="-99"/>
          </Node>
        </Node>
      </Node>
    </BinaryTree>
    <BinaryTree type="DecisionTree" boostWeight="1.0000000000000000e+00" itree="3">
      <Node pos="s" depth="0" NCoef="0" IVar="4" Cut="9.1738059997558594e+01" cType="1" res="-1.7124103615060449e-03" rms="4.9794998764991760e-01" purity="4.9612927436828613e-01" nType="0">
        <Node pos="l" depth="1" NCoef="0" IVar="4" Cut="8.1489898681640625e+01" cType="1" res="9.0069353580474854e-02" rms="4.9030244350433350e-01" purity="5.8858025074005127e-01" nType="0">
          <Node pos="l" depth="2" NCoef="0" IVar="1" Cut="1.4959988594055176e+00" cType="1" res="3.8187682628631592e-01" rms="3.2241404056549072e-01" purity="8.8201993703842163e-01" nType="0">
            <Node pos="l" depth="3" NCoef="0" IVar="-1" Cut="0.0000000000000000e+00" cType="1" res="2.0732195116579533e-04" rms="2.8784728050231934e-01" purity="9.0875065326690674e-01" nType="-99"/>
            <Node pos="r" depth="3" NCoef="0" IVar="-1" Cut="0.0000000000000000e+00" cType="1" res="1.8661124340724200e-04" rms="3.6850711703300476e-01" purity="8.3768975734710693e-01" nType="-99"/>
          </Node>
          <Node pos="r" depth="2" NCoef="0" IVar="4" Cut="8.7345993041992188e+01" cType="1" res="-3.3069697022438049e-01" rms="3.7055996060371399e-01" purity="1.6546028852462769e-01" nType="0">
            <Node pos="l" depth="3" NCoef="0" IVar="-1" Cut="0.0000000000000000e+00" cType="1" res="-1.1781177454395220e-04" rms="4.8899158835411072e-01" purity="3.9757072925567627e-01" nType="-99"/>
            <Node pos="r" depth="3" NCoef="0" IVar="-1" Cut="0.0000000000000000e+00" cType="1" res="-2.1212131250649691e-03" rms="2.7697393298149109e-01" purity="8.4038339555263519e-02" nType="-99"/>
          </Node>
        </Node>
        <Node pos="r" depth="1" NCoef="0" IVar="6" Cut="4.7625976800918579e-01" cType="1" res="-3.8887566328048706e-01" rms="3.0725395679473877e-01" purity="1.0614300519227982e-01" nType="0">
          <Node pos="l" depth="2" NCoef="0" IVar="7" Cut="3.8432743072509766e+01" cType="1" res="-3.3732250332832336e-01" rms="3.6522698402404785e-01" purity="1.5918970108032227e-01" nType="0">
            <Node pos="l" depth="3" NCoef="0" IVar="-1" Cut="0.0000000000000000e+00" cType="1" res="-6.1579840257763863e-04" rms="4.0373975038528442e-01" purity="2.0596408843994141e-01" nType="-99"/>
            <Node pos="r" depth="3" NCoef="0" IVar="-1" Cut="0.0000000000000000e+00" cType="1" res="-1.5485771000385284e-03" rms="3.2080063223838806e-01" purity="1.1680231243371964e-01" nType="-99"/>
          </Node>
          <Node pos="r" depth="2" NCoef="0" IVar="-1" Cut="0.0000000000000000e+00" cType="1" res="-7.8596286475658417e-03" rms="1.5792173147201538e-01" purity="2.5483008474111557e-02" nType="-99"/>
        </Node>
      </Node>
    </BinaryTree>
    <BinaryTree type="DecisionTree" boostWeight="1.0000000000000000e+00" itree="4">
      <Node pos="s" depth="0" NCoef="0" IVar="4" Cut="9.1737289428710938e+01" cType="1" res="-1.2852659448981285e-02" rms="4.9711990356445312e-01" purity="4.8436793684959412e-01" nType="0">
        <Node pos="l" depth="1" NCoef="0" IVar="4" Cut="8.1489120483398438e+01" cType="1" res="7.9844795167446136e-02" rms="4.9167862534523010e-01" purity="5.7807147502899170e-01" nType="0">
          <Node pos="l" depth="2" NCoef="0" IVar="1" Cut="1.4960191249847412e+00" cType="1" res="3.7764886021614075e-01" rms="3.2723015546798706e-01" purity="8.7789672613143921e-01" nType="0">
            <Node pos="l" depth="3" NCoef="0" IVar="-1" Cut="0.0000000000000000e+00" cType="1" res="2.0524201681837440e-04" rms="2.9371231794357300e-01" purity="9.0455460548400879e-01" nType="-99"/>
            <Node pos="r" depth="3" NCoef="0" IVar="-1" Cut="0.0000000000000000e+00" cType="1" res="1.8338493828196079e-04" rms="3.7129631638526917e-01" purity="8.3460706472396851e-01" nType="-99"/>
          </Node>
          <Node pos="r" depth="2" NCoef="0" IVar="4" Cut="8.7345237731933594e+01" cType="1" res="-3.4206151962280273e-01" rms="3.5900610685348511e-01" purity="1.5330168604850769e-01" nType="0">
            <Node pos="l" depth="3" NCoef="0" IVar="-1" Cut="0.0000000000000000e+00" cType="1" res="-1.3764436880592257e-04" rms="4.8591953516006470e-01" purity="3.8395252823829651e-01" nType="-99"/>
            <Node pos="r" depth="3" NCoef="0" IVar="-1" Cut="0.0000000000000000e+00" cType="1" res="-2.4315004702657461e-03" rms="2.6064893603324890e-01" purity="7.3673680424690247e-02" nType="-99"/>
          </Node>
        </Node>
        <Node pos="r" depth="1" NCoef="0" IVar="7" Cut="3.9816871643066406e+01" cType="1" res="-3.9841875433921814e-01" rms="2.9172745347023010e-01" purity="9.4617106020450592e-02" nType="0">
          <Node pos="l" depth="2" NCoef="0" IVar="-1" Cut="0.0000000000000000e+00" cType="1" res="-7.6333660399541259e-04" rms="3.8517746329307556e-01" purity="1.8128490447998047e-01" nType="-99"/>
          <Node pos="r" depth="2" NCoef="0" IVar="1" Cut="1.7951929569244385e+00" cType="1" res="-4.3453204631805420e-01" rms="2.3087626695632935e-01" purity="5.6944139301776886e-02" nType="0">
            <Node pos="l" depth="3" NCoef="0" IVar="-1" Cut="0.0000000000000000e+00" cType="1" res="-1.1014372110366821e-01" rms="8.7724588811397552e-02" purity="7.7988044358789921e-03" nType="-99"/>
            <Node pos="r" depth="3" NCoef="0" IVar="-1" Cut="0.0000000000000000e+00" cType="1" res="-1.4155287062749267e-03" rms="3.1539168953895569e-01" purity="1.1319082975387573e-01" nType="-99"/>
          </Node>
        </Node>
      </Node>
    </BinaryTree>
    <BinaryTree type="DecisionTree" boostWeight="1.0000000000000000e+00" itree="5">
      <Node pos="s" depth="0" NCoef="0" IVar="1" Cut="8.9759796857833862e-01" cType="1" res="1.9479928538203239e-02" rms="4.9370557069778442e-01" purity="5.1245349645614624e-01" nType="0">
        <Node pos="l" depth="1" NCoef="0" IVar="6" Cut="5.7150471210479736e-01" cType="1" res="1.3748405873775482e-01" rms="4.7483828663825989e-01" purity="6.2979876995086670e-01" nType="0">
          <Node pos="l" depth="2" NCoef="0" IVar="2" Cut="-1.4961700439453125e+01" cType="1" res="3.6209136247634888e-02" rms="4.9177715182304382e-01" purity="5.2797973155975342e-01" nType="0">
            <Node pos="l" depth="3" NCoef="0" IVar="-1" Cut="0.0000000000000000e+00" cType="1" res="-3.1745553133077919e-04" rms="4.4183731079101562e-01" purity="2.8408181667327881e-01" nType="-99"/>
            <Node pos="r" depth="3" NCoef="0" IVar="-1" Cut="0.0000000000000000e+00" cType="1" res="9.8776705272030085e-05" rms="4.7713676095008850e-01" purity="6.3166809082031250e-01" nType="-99"/>
          </Node>
          <Node pos="r" depth="2" NCoef="0" IVar="-1" Cut="0.0000000000000000e+00" cType="1" res="1.5141424955800176e-04" rms="4.3202140927314758e-01" purity="7.3577582836151123e-01" nType="-99"/>
        </Node>
        <Node pos="r" depth="1" NCoef="0" IVar="2" Cut="-3.1071510314941406e+01" cType="1" res="-5.0625875592231750e-02" rms="4.9133896827697754e-01" purity="4.4273906946182251e-01" nType="0">
          <Node pos="l" depth="2" NCoef="0" IVar="7" Cut="4.7504642486572266e+01" cType="1" res="-3.1667837500572205e-01" rms="3.7180262804031372e-01" purity="1.7033779621124268e-01" nType="0">
            <Node pos="l" depth="3" NCoef="0" IVar="-1" Cut="0.0000000000000000e+00" cType="1" res="-1.5131986583583057e-04" rms="4.7816035151481628e-01" purity="3.6996433138847351e-01" nType="-99"/>
            <Node pos="r" depth="3" NCoef="0" IVar="-1" Cut="0.0000000000000000e+00" cType="1" res="-2.1151059772819281e-03" rms="2.8387379646301270e-01" purity="9.0080082416534424e-02" nType="-99"/>
          </Node>
          <Node pos="r" depth="2" NCoef="0" IVar="2" Cut="7.5597677230834961e+00" cType="1" res="9.0128019452095032e-02" rms="4.8860988020896912e-01" purity="5.8685171604156494e-01" nType="0">
            <Node pos="l" depth="3" NCoef="0" IVar="-1" Cut="0.0000000000000000e+00" cType="1" res="-2.3659056751057506e-05" rms="4.9550366401672363e-01" purity="4.7132810950279236e-01" nType="-99"/>
            <Node pos="r" depth="3" NCoef="0" IVar="-1" Cut="0.0000000000000000e+00" cType="1" res="1.6538894851692021e-04" rms="4.1622719168663025e-01" purity="7.7155840396881104e-01" nType="-99"/>
          </Node>
        </Node>
      </Node>
    </BinaryTree>
    <BinaryTree type="DecisionTree" boostWeight="1.0000000000000000e+00" itree="6">
      <Node pos="s" depth="0" NCoef="0" IVar="1" Cut="1.0471963882446289e+00" cType="1" res="1.6773996176198125e-03" rms="4.9365156888961792e-01" purity="4.9430221319198608e-01" nType="0">
        <Node pos="l" depth="1" NCoef="0" IVar="6" Cut="6.6679859161376953e-01" cType="1" res="1.0742473602294922e-01" rms="4.8168060183525085e-01" purity="5.9939652681350708e-01" nType="0">
          <Node pos="l" depth="2" NCoef="0" IVar="2" Cut="-4.2135424613952637e+00" cType="1" res="6.3017405569553375e-02" rms="4.8910802602767944e-01" purity="5.5470031499862671e-01" nType="0">
            <Node pos="l" depth="3" NCoef="0" IVar="-1" Cut="0.0000000000000000e+00" cType="1" res="-1.0193477646680549e-04" rms="4.8146495223045349e-01" purity="3.9860275387763977e-01" nType="-99"/>
            <Node pos="r" depth="3" NCoef="0" IVar="-1" Cut="0.0000000000000000e+00" cType="1" res="1.4711821859236807e-04" rms="4.3766039609909058e-01" purity="7.3213148117065430e-01" nType="-99"/>
          </Node>
          <Node pos="r" depth="2" NCoef="0" IVar="-1" Cut="0.0000000000000000e+00" cType="1" res="1.3177665823604912e-04" rms="4.5181989669799805e-01" purity="6.9299030303955078e-01" nType="-99"/>
        </Node>
        <Node pos="r" depth="1" NCoef="0" IVar="2" Cut="-3.1071510314941406e+01" cType="1" res="-7.4045374989509583e-02" rms="4.8817113041877747e-01" purity="4.1904699802398682e-01" nType="0">
          <Node pos="l" depth="2" NCoef="0" IVar="2" Cut="-7.2278205871582031e+01" cType="1" res="-3.4773662686347961e-01" rms="3.4181311726570129e-01" purity="1.3871307671070099e-01" nType="0">
            <Node pos="l" depth="3" NCoef="0" IVar="-1" Cut="0.0000000000000000e+00" cType="1" res="-7.8907143324613571e-03" rms="1.6406817734241486e-01" purity="2.7654400095343590e-02" nType="-99"/>
            <Node pos="r" depth="3" NCoef="0" IVar="-1" Cut="0.0000000000000000e+00" cType="1" res="-8.0185313709080219e-04" rms="3.7685415148735046e-01" purity="1.7644588649272919e-01" nType="-99"/>
          </Node>
          <Node pos="r" depth="2" NCoef="0" IVar="3" Cut="3.8136222839355469e+01" cType="1" res="7.4172720313072205e-02" rms="4.9148899316787720e-01" purity="5.7086253166198730e-01" nType="0">
            <Node pos="l" depth="3" NCoef="0" IVar="-1" Cut="0.0000000000000000e+00" cType="1" res="-3.0213592253858224e-05" rms="4.9551802873611450e-01" purity="4.6503910422325134e-01" nType="-99"/>
            <Node pos="r" depth="3" NCoef="0" IVar="-1" Cut="0.0000000000000000e+00" cType="1" res="1.7061464313883334e-04" rms="4.0271461009979248e-01" purity="7.9162216186523438e-01" nType="-99"/>
          </Node>
        </Node>
      </Node>
    </BinaryTree>
    <BinaryTree type="DecisionTree" boostWeight="1.0000000000000000e+00" itree="7">
      <Node pos="s" depth="0" NCoef="0" IVar="2" Cut="-2.5717935562133789e+01" cType="1" res="1.4766376465559006e-02" rms="4.9312868714332581e-01" purity="5.0753062963485718e-01" nType="0">
        <Node pos="l" depth="1" NCoef="0" IVar="4" Cut="9.1737289428710938e+01" cType="1" res="-2.9465457797050476e-01" rms="3.8643002510070801e-01" purity="1.8982827663421631e-01" nType="0">
          <Node pos="l" depth="2" NCoef="0" IVar="4" Cut="8.4905174255371094e+01" cType="1" res="-2.4145579338073730e-01" rms="4.3052247166633606e-01" purity="2.5132930278778076e-01" nType="0">
            <Node pos="l" depth="3" NCoef="0" IVar="-1" Cut="0.0000000000000000e+00" cType="1" res="5.1713588618440554e-05" rms="4.9543291330337524e-01" purity="5.6172424554824829e-01" nType="-99"/>
            <Node pos="r" depth="3" NCoef="0" IVar="-1" Cut="0.0000000000000000e+00" cType="1" res="-6.0149505734443665e-03" rms="1.9067691266536713e-01" purity="3.7838522344827652e-02" nType="-99"/>
          </Node>
          <Node pos="r" depth="2" NCoef="0" IVar="-1" Cut="0.0000000000000000e+00" cType="1" res="-5.2387127652764320e-03" rms="1.8996448814868927e-01" purity="3.7906643003225327e-02" nType="-99"/>
        </Node>
        <Node pos="r" depth="1" NCoef="0" IVar="3" Cut="3.6054653167724609e+01" cType="1" res="1.5854851901531219e-01" rms="4.7076821327209473e-01" purity="6.5516096353530884e-01" nType="0">
          <Node pos="l" depth="2" NCoef="0" IVar="7" Cut="2.2349594116210938e+01" cType="1" res="2.2881545126438141e-02" rms="4.9544763565063477e-01" purity="5.1819145679473877e-01" nType="0">
            <Node pos="l" depth="3" NCoef="0" IVar="-1" Cut="0.0000000000000000e+00" cType="1" res="1.4723383355885744e-04" rms="4.3859601020812988e-01" purity="7.3812764883041382e-01" nType="-99"/>
            <Node pos="r" depth="3" NCoef="0" IVar="-1" Cut="0.0000000000000000e+00" cType="1" res="-7.6022253779228777e-05" rms="4.8942843079566956e-01" purity="4.2260724306106567e-01" nType="-99"/>
          </Node>
          <Node pos="r" depth="2" NCoef="0" IVar="6" Cut="3.8200956583023071e-01" cType="1" res="3.3456754684448242e-01" rms="3.6854016780853271e-01" purity="8.3286988735198975e-01" nType="0">
            <Node pos="l" depth="3" NCoef="0" IVar="-1" Cut="0.0000000000000000e+00" cType="1" res="1.4296546578407288e-04" rms="4.4954949617385864e-01" purity="7.0892107486724854e-01" nType="-99"/>
            <Node pos="r" depth="3" NCoef="0" IVar="-1" Cut="0.0000000000000000e+00" cType="1" res="1.9911090203095227e-04" rms="3.2153379917144775e-01" purity="8.7907230854034424e-01" nType="-99"/>
          </Node>
        </Node>
      </Node>
    </BinaryTree>
    <BinaryTree type="DecisionTree" boostWeight="1.0000000000000000e+00" itree="8">
      <Node pos="s" depth="0" NCoef="0" IVar="1" Cut="1.1967958211898804e+00" cType="1" res="2.2483369335532188e-02" rms="4.9262756109237671e-01" purity="5.1449841260910034e-01" nType="0">
        <Node pos="l" depth="1" NCoef="0" IVar="6" Cut="6.1944448947906494e-01" cType="1" res="1.2268855422735214e-01" rms="4.7777524590492249e-01" purity="6.1456167697906494e-01" nType="0">
          <Node pos="l" depth="2" NCoef="0" IVar="2" Cut="-6.7384514808654785e+00" cType="1" res="5.2499253302812576e-02" rms="4.8958301544189453e-01" purity="5.4418504238128662e-01" nType="0">
            <Node pos="l" depth="3" NCoef="0" IVar="-1" Cut="0.0000000000000000e+00" cType="1" res="-1.2009825877612457e-04" rms="4.7707790136337280e-01" purity="3.8489544391632080e-01" nType="-99"/>
            <Node pos="r" depth="3" NCoef="0" IVar="-1" Cut="0.0000000000000000e+00" cType="1" res="1.3284802844282240e-04" rms="4.5546925067901611e-01" purity="6.9380956888198853e-01" nType="-99"/>
          </Node>
          <Node pos="r" depth="2" NCoef="0" IVar="1" Cut="5.6990206241607666e-01" cType="1" res="2.2600282728672028e-01" rms="4.3992137908935547e-01" purity="7.1815156936645508e-01" nType="0">
            <Node pos="l" depth="3" NCoef="0" IVar="-1" Cut="0.0000000000000000e+00" cType="1" res="1.7039744125213474e-04" rms="4.0321451425552368e-01" purity="7.8388679027557373e-01" nType="-99"/>
            <Node pos="r" depth="3" NCoef="0" IVar="-1" Cut="0.0000000000000000e+00" cType="1" res="8.8685439550317824e-05" rms="4.7638997435569763e-01" purity="6.0625159740447998e-01" nType="-99"/>
          </Node>
        </Node>
        <Node pos="r" depth="1" NCoef="0" IVar="2" Cut="-3.7658267974853516e+01" cType="1" res="-6.8354077637195587e-02" rms="4.8825550079345703e-01" purity="4.2378956079483032e-01" nType="0">
          <Node pos="l" depth="2" NCoef="0" IVar="6" Cut="7.1465486288070679e-01" cType="1" res="-3.2444503903388977e-01" rms="3.6108592152595520e-01" purity="1.5853612124919891e-01" nType="0">
            <Node pos="l" depth="3" NCoef="0" IVar="-1" Cut="0.0000000000000000e+00" cType="1" res="-6.3626613700762391e-04" rms="3.9444705843925476e-01" purity="2.0083196461200714e-01" nType="-99"/>
            <Node pos="r" depth="3" NCoef="0" IVar="-1" Cut="0.0000000000000000e+00" cType="1" res="-2.1778834052383900e-03" rms="2.8314253687858582e-01" purity="8.7125755846500397e-02" nType="-99"/>
          </Node>
          <Node pos="r" depth="2" NCoef="0" IVar="3" Cut="2.8654901504516602e+01" cType="1" res="4.5184552669525146e-02" rms="4.9428018927574158e-01" purity="5.4139041900634766e-01" nType="0">
            <Node pos="l" depth="3" NCoef="0" IVar="-1" Cut="0.0000000000000000e+00" cType="1" res="-8.7145410361699760e-05" rms="4.8906379938125610e-01" purity="4.1568690538406372e-01" nType="-99"/>
            <Node pos="r" depth="3" NCoef="0" IVar="-1" Cut="0.0000000000000000e+00" cType="1" res="1.2982857879251242e-04" rms="4.5771160721778870e-01" purity="6.9227433204650879e-01" nType="-99"/>
          </Node>
        </Node>
      </Node>
    </BinaryTree>
    <BinaryTree type="DecisionTree" boostWeight="1.0000000000000000e+00" itree="9">
      <Node pos="s" depth="0" NCoef="0" IVar="4" Cut="9.1737319946289062e+01" cType="1" res="3.1607302371412516e-03" rms="4.9253809452056885e-01" purity="4.9498233199119568e-01" nType="0">
        <Node pos="l" depth="1" NCoef="0" IVar="4" Cut="8.4905204772949219e+01" cType="1" res="8.7034784257411957e-02" rms="4.8921793699264526e-01" purity="5.8408248424530029e-01" nType="0">
          <Node pos="l" depth="2" NCoef="0" IVar="4" Cut="7.8723770141601562e+01" cType="1" res="3.5153201222419739e-01" rms="3.5476160049438477e-01" purity="8.5173010826110840e-01" nType="0">
            <Node pos="l" depth="3" NCoef="0" IVar="-1" Cut="0.0000000000000000e+00" cType="1" res="2.0257543656043708e-04" rms="3.0924102663993835e-01" purity="8.9246743917465210e-01" nType="-99"/>
            <Node pos="r" depth="3" NCoef="0" IVar="-1" Cut="0.0000000000000000e+00" cType="1" res="4.5056563976686448e-05" rms="4.9670779705047607e-01" purity="5.5201876163482666e-01" nType="-99"/>
          </Node>
          <Node pos="r" depth="2" NCoef="0" IVar="4" Cut="8.7507919311523438e+01" cType="1" res="-3.7915647029876709e-01" rms="3.1417459249496460e-01" purity="1.1233836412429810e-01" nType="0">
            <Node pos="l" depth="3" NCoef="0" IVar="-1" Cut="0.0000000000000000e+00" cType="1" res="-2.3567049356643111e-04" rms="4.6651017665863037e-01" purity="3.2362502813339233e-01" nType="-99"/>
            <Node pos="r" depth="3" NCoef="0" IVar="-1" Cut="0.0000000000000000e+00" cType="1" res="-2.8005347121506929e-03" rms="2.4609749019145966e-01" purity="6.5224908292293549e-02" nType="-99"/>
          </Node>
        </Node>
        <Node pos="r" depth="1" NCoef="0" IVar="0" Cut="-1.3745586872100830e+00" cType="1" res="-3.3563846349716187e-01" rms="3.3549827337265015e-01" purity="1.3507296144962311e-01" nType="0">
          <Node pos="l" depth="2" NCoef="0" IVar="-1" Cut="0.0000000000000000e+00" cType="1" res="-5.0333439139649272e-04" rms="4.0858092904090881e-01" purity="2.2384710609912872e-01" nType="-99"/>
          <Node pos="r" depth="2" NCoef="0" IVar="5" Cut="-4.7617960721254349e-02" cType="1" res="-3.7902826070785522e-01" rms="2.8051462769508362e-01" purity="8.8741622865200043e-02" nType="0">
            <Node pos="l" depth="3" NCoef="0" IVar="-1" Cut="0.0000000000000000e+00" cType="1" res="-4.0686377324163914e-03" rms="2.1089158952236176e-01" purity="4.8610553145408630e-02" nType="-99"/>
            <Node pos="r" depth="3" NCoef="0" IVar="-1" Cut="0.0000000000000000e+00" cType="1" res="-1.2168608373031020e-03" rms="3.2423773407936096e-01" purity="1.2293630838394165e-01" nType="-99"/>
          </Node>
        </Node>
      </Node>
    </BinaryTree>
    <BinaryTree type="DecisionTree" boostWeight="1.0000000000000000e+00" itree="10">
      <Node pos="s" depth="0" NCoef="0" IVar="2" Cut="-2.0922769546508789e+01" cType="1" res="2.8841574676334858e-03" rms="4.9232286214828491e-01" purity="4.9397644400596619e-01" nType="0">
        <Node pos="l" depth="1" NCoef="0" IVar="7" Cut="3.9816871643066406e+01" cType="1" res="-2.5782164931297302e-01" rms="4.1088393330574036e-01" purity="2.2504328191280365e-01" nType="0">
          <Node pos="l" depth="2" NCoef="0" IVar="-1" Cut="0.0000000000000000e+00" cType="1" res="-5.7895304053090513e-05" rms="4.9220535159111023e-01" purity="4.3920838832855225e-01" nType="-99"/>
          <Node pos="r" depth="2" NCoef="0" IVar="1" Cut="5.9839951992034912e-01" cType="1" res="-3.1638815999031067e-01" rms="3.6377146840095520e-01" purity="1.6332918405532837e-01" nType="0">
            <Node pos="l" depth="3" NCoef="0" IVar="-1" Cut="0.0000000000000000e+00" cType="1" res="-1.6543047968298197e-04" rms="4.6623158454895020e-01" purity="3.5270890593528748e-01" nType="-99"/>
            <Node pos="r" depth="3" NCoef="0" IVar="-1" Cut="0.0000000000000000e+00" cType="1" res="-1.4126695459708571e-03" rms="3.1557640433311462e-01" purity="1.1560195684432983e-01" nType="-99"/>
          </Node>
        </Node>
        <Node pos="r" depth="1" NCoef="0" IVar="3" Cut="3.8123958587646484e+01" cType="1" res="1.6455712914466858e-01" rms="4.6873167157173157e-01" purity="6.6075152158737183e-01" nType="0">
          <Node pos="l" depth="2" NCoef="0" IVar="2" Cut="6.9368462562561035e+00" cType="1" res="4.8043750226497650e-02" rms="4.9383667111396790e-01" purity="5.4288619756698608e-01" nType="0">
            <Node pos="l" depth="3" NCoef="0" IVar="-1" Cut="0.0000000000000000e+00" cType="1" res="-9.7791398729896173e-06" rms="4.9536603689193726e-01" purity="4.8353034257888794e-01" nType="-99"/>
            <Node pos="r" depth="3" NCoef="0" IVar="-1" Cut="0.0000000000000000e+00" cType="1" res="1.3525191752705723e-04" rms="4.5292055606842041e-01" purity="7.0418226718902588e-01" nType="-99"/>
          </Node>
          <Node pos="r" depth="2" NCoef="0" IVar="-1" Cut="0.0000000000000000e+00" cType="1" res="1.8649340199772269e-04" rms="3.6540693044662476e-01" purity="8.3609163761138916e-01" nType="-99"/>
        </Node>
      </Node>
    </BinaryTree>
    <BinaryTree type="DecisionTree" boostWeight="1.0000000000000000e+00" itree="11">
      <Node pos="s" depth="0" NCoef="0" IVar="4" Cut="8.7872123718261719e+01" cType="1" res="1.2189056724309921e-02" rms="4.9185299873352051e-01" purity="5.0361019372940063e-01" nType="0">
        <Node pos="l" depth="1" NCoef="0" IVar="4" Cut="7.8176124572753906e+01" cType="1" res="3.0063495039939880e-01" rms="3.9833837747573853e-01" purity="8.0037415027618408e-01" nType="0">
          <Node pos="l" depth="2" NCoef="0" IVar="-1" Cut="0.0000000000000000e+00" cType="1" res="2.0444834080990404e-04" rms="2.9930827021598816e-01" purity="9.0003991127014160e-01" nType="-99"/>
          <Node pos="r" depth="2" NCoef="0" IVar="4" Cut="8.5101860046386719e+01" cType="1" res="-5.3090158849954605e-02" rms="4.9532970786094666e-01" purity="4.4431096315383911e-01" nType="0">
            <Node pos="l" depth="3" NCoef="0" IVar="-1" Cut="0.0000000000000000e+00" cType="1" res="6.1640261264983565e-05" rms="4.9321171641349792e-01" purity="5.7728081941604614e-01" nType="-99"/>
            <Node pos="r" depth="3" NCoef="0" IVar="-1" Cut="0.0000000000000000e+00" cType="1" res="-3.3873438951559365e-04" rms="4.4970732927322388e-01" purity="2.8406405448913574e-01" nType="-99"/>
          </Node>
        </Node>
        <Node pos="r" depth="1" NCoef="0" IVar="6" Cut="2.3823058605194092e-01" cType="1" res="-4.0678688883781433e-01" rms="2.5776672363281250e-01" purity="7.2551928460597992e-02" nType="0">
          <Node pos="l" depth="2" NCoef="0" IVar="-1" Cut="0.0000000000000000e+00" cType="1" res="-7.1196816861629486e-04" rms="3.9052519202232361e-01" purity="1.8900589644908905e-01" nType="-99"/>
          <Node pos="r" depth="2" NCoef="0" IVar="0" Cut="1.7938624322414398e-01" cType="1" res="-4.2663022875785828e-01" rms="2.1768443286418915e-01" purity="5.0057128071784973e-02" nType="0">
            <Node pos="l" depth="3" NCoef="0" IVar="-1" Cut="0.0000000000000000e+00" cType="1" res="-2.3916782811284065e-03" rms="2.5460937619209290e-01" purity="7.0430532097816467e-02" nType="-99"/>
            <Node pos="r" depth="3" NCoef="0" IVar="-1" Cut="0.0000000000000000e+00" cType="1" res="-8.1501528620719910e-03" rms="1.6239252686500549e-01" purity="2.6656961068511009e-02" nType="-99"/>
          </Node>
        </Node>
      </Node>
    </BinaryTree>
    <BinaryTree type="DecisionTree" boostWeight="1.0000000000000000e+00" itree="12">
      <Node pos="s" depth="0" NCoef="0" IVar="4" Cut="7.5852821350097656e+01" cType="1" res="9.8192049190402031e-03" rms="4.9101334810256958e-01" purity="5.0033360719680786e-01" nType="0">
        <Node pos="l" depth="1" NCoef="0" IVar="-1" Cut="0.0000000000000000e+00" cType="1" res="2.0437713828869164e-04" rms="2.9833593964576721e-01" purity="9.0074247121810913e-01" nType="-99"/>
        <Node pos="r" depth="1" NCoef="0" IVar="2" Cut="-2.7343610763549805e+01" cType="1" res="-2.8336292505264282e-01" rms="3.9359351992607117e-01" purity="1.9960933923721313e-01" nType="0">
          <Node pos="l" depth="2" NCoef="0" IVar="3" Cut="3.7176803588867188e+01" cType="1" res="-3.8282173871994019e-01" rms="2.8375792503356934e-01" purity="9.1902561485767365e-02" nType="0">
            <Node pos="l" depth="3" NCoef="0" IVar="-1" Cut="0.0000000000000000e+00" cType="1" res="-3.7155025638639927e-03" rms="2.1604810655117035e-01" purity="5.0766944885253906e-02" nType="-99"/>
            <Node pos="r" depth="3" NCoef="0" IVar="-1" Cut="0.0000000000000000e+00" cType="1" res="-6.1809667386114597e-04" rms="3.9720231294631958e-01" purity="2.0608779788017273e-01" nType="-99"/>
          </Node>
          <Node pos="r" depth="2" NCoef="0" IVar="3" Cut="3.4044273376464844e+01" cType="1" res="-2.0662635564804077e-01" rms="4.4586524367332458e-01" purity="2.8270956873893738e-01" nType="0">
            <Node pos="l" depth="3" NCoef="0" IVar="-1" Cut="0.0000000000000000e+00" cType="1" res="-4.6562985517084599e-04" rms="4.2291012406349182e-01" purity="2.3861405253410339e-01" nType="-99"/>
            <Node pos="r" depth="3" NCoef="0" IVar="-1" Cut="0.0000000000000000e+00" cType="1" res="-1.0603961709421128e-04" rms="4.8221543431282043e-01" purity="3.9673665165901184e-01" nType="-99"/>
          </Node>
        </Node>
      </Node>
    </BinaryTree>
    <BinaryTree type="DecisionTree" boostWeight="1.0000000000000000e+00" itree="13">
      <Node pos="s" depth="0" NCoef="0" IVar="4" Cut="8.7873023986816406e+01" cType="1" res="1.5561075415462255e-03" rms="4.9071639776229858e-01" purity="4.9136272072792053e-01" nType="0">
        <Node pos="l" depth="1" NCoef="0" IVar="4" Cut="8.1409027099609375e+01" cType="1" res="2.8915354609489441e-01" rms="4.0632683038711548e-01" purity="7.8895545005798340e-01" nType="0">
          <Node pos="l" depth="2" NCoef="0" IVar="7" Cut="6.0676612854003906e+01" cType="1" res="3.8119047880172729e-01" rms="3.2213878631591797e-01" purity="8.8175922632217407e-01" nType="0">
            <Node pos="l" depth="3" NCoef="0" IVar="-1" Cut="0.0000000000000000e+00" cType="1" res="2.0318741735536605e-04" rms="3.1005564332008362e-01" purity="8.9196974039077759e-01" nType="-99"/>
            <Node pos="r" depth="3" NCoef="0" IVar="-1" Cut="0.0000000000000000e+00" cType="1" res="1.9426082144491374e-04" rms="3.3489996194839478e-01" purity="8.7021821737289429e-01" nType="-99"/>
          </Node>
          <Node pos="r" depth="2" NCoef="0" IVar="-1" Cut="0.0000000000000000e+00" cType="1" res="-2.5291380006819963e-04" rms="4.6475055813789368e-01" purity="3.2026410102844238e-01" nType="-99"/>
        </Node>
        <Node pos="r" depth="1" NCoef="0" IVar="1" Cut="4.4879826903343201e-01" cType="1" res="-3.8455682992935181e-01" rms="2.8689110279083252e-01" purity="9.1830603778362274e-02" nType="0">
          <Node pos="l" depth="2" NCoef="0" IVar="-1" Cut="0.0000000000000000e+00" cType="1" res="-7.8671745723113418e-04" rms="3.7402266263961792e-01" purity="1.7357385158538818e-01" nType="-99"/>
          <Node pos="r" depth="2" NCoef="0" IVar="0" Cut="-2.7102327346801758e-01" cType="1" res="-3.9995881915092468e-01" rms="2.6508602499961853e-01" purity="7.6929770410060883e-02" nType="0">
            <Node pos="l" depth="3" NCoef="0" IVar="-1" Cut="0.0000000000000000e+00" cType="1" res="-1.4354967279359698e-03" rms="3.1408825516700745e-01" purity="1.1238519102334976e-01" nType="-99"/>
            <Node pos="r" depth="3" NCoef="0" IVar="-1" Cut="0.0000000000000000e+00" cType="1" res="-4.3262508697807789e-03" rms="2.0438648760318756e-01" purity="4.3852597475051880e-02" nType="-99"/>
          </Node>
        </Node>
      </Node>
    </BinaryTree>
    <BinaryTree type="DecisionTree" boostWeight="1.0000000000000000e+00" itree="14">
      <Node pos="s" depth="0" NCoef="0" IVar="1" Cut="8.9759689569473267e-01" cType="1" res="1.9114019349217415e-02" rms="4.9056008458137512e-01" purity="5.0844639539718628e-01" nType="0">
        <Node pos="l" depth="1" NCoef="0" IVar="6" Cut="6.6699457168579102e-01" cType="1" res="1.2408732622861862e-01" rms="4.7643411159515381e-01" purity="6.1414289474487305e-01" nType="0">
          <Node pos="l" depth="2" NCoef="0" IVar="2" Cut="-2.0177226066589355e+00" cType="1" res="5.6401453912258148e-02" rms="4.8814526200294495e-01" purity="5.4540807008743286e-01" nType="0">
            <Node pos="l" depth="3" NCoef="0" IVar="-1" Cut="0.0000000000000000e+00" cType="1" res="-1.2957915896549821e-04" rms="4.7504833340644836e-01" purity="3.7792468070983887e-01" nType="-99"/>
            <Node pos="r" depth="3" NCoef="0" IVar="-1" Cut="0.0000000000000000e+00" cType="1" res="1.5991789405234158e-04" rms="4.2112317681312561e-01" purity="7.5997298955917358e-01" nType="-99"/>
          </Node>
          <Node pos="r" depth="2" NCoef="0" IVar="-1" Cut="0.0000000000000000e+00" cType="1" res="1.5276669000741094e-04" rms="4.2987468838691711e-01" purity="7.3524755239486694e-01" nType="-99"/>
        </Node>
        <Node pos="r" depth="1" NCoef="0" IVar="2" Cut="-3.3513324737548828e+01" cType="1" res="-4.0283650159835815e-02" rms="4.8848247528076172e-01" purity="4.4863948225975037e-01" nType="0">
          <Node pos="l" depth="2" NCoef="0" IVar="6" Cut="4.3039730191230774e-01" cType="1" res="-3.3897802233695984e-01" rms="3.3820375800132751e-01" purity="1.3756236433982849e-01" nType="0">
            <Node pos="l" depth="3" NCoef="0" IVar="-1" Cut="0.0000000000000000e+00" cType="1" res="-3.1903359922580421e-04" rms="4.4314414262771606e-01" purity="2.8573027253150940e-01" nType="-99"/>
            <Node pos="r" depth="3" NCoef="0" IVar="-1" Cut="0.0000000000000000e+00" cType="1" res="-2.2736929822713137e-03" rms="2.6661911606788635e-01" purity="7.9369023442268372e-02" nType="-99"/>
          </Node>
          <Node pos="r" depth="2" NCoef="0" IVar="3" Cut="3.0501142501831055e+01" cType="1" res="9.3911945819854736e-02" rms="4.8614606261253357e-01" purity="5.8839833736419678e-01" nType="0">
            <Node pos="l" depth="3" NCoef="0" IVar="-1" Cut="0.0000000000000000e+00" cType="1" res="-2.9364851798163727e-05" rms="4.9308836460113525e-01" purity="4.6272146701812744e-01" nType="-99"/>
            <Node pos="r" depth="3" NCoef="0" IVar="-1" Cut="0.0000000000000000e+00" cType="1" res="1.5456682012882084e-04" rms="4.2886486649513245e-01" purity="7.4728882312774658e-01" nType="-99"/>
          </Node>
        </Node>
      </Node>
    </BinaryTree>
    <BinaryTree type="DecisionTree" boostWeight="1.0000000000000000e+00" itree="15">
      <Node pos="s" depth="0" NCoef="0" IVar="2" Cut="1.4294734001159668e+01" cType="1" res="1.1648437939584255e-02" rms="4.9027782678604126e-01" purity="5.0085371732711792e-01" nType="0">
        <Node pos="l" depth="1" NCoef="0" IVar="2" Cut="-2.3562635421752930e+01" cType="1" res="-8.0707907676696777e-02" rms="4.8188117146492004e-01" purity="4.0583983063697815e-01" nType="0">
          <Node pos="l" depth="2" NCoef="0" IVar="7" Cut="4.5049137115478516e+01" cType="1" res="-2.6207175850868225e-01" rms="4.0352621674537659e-01" purity="2.1526457369327545e-01" nType="0">
            <Node pos="l" depth="3" NCoef="0" IVar="-1" Cut="0.0000000000000000e+00" cType="1" res="-1.6188719018828124e-04" rms="4.7325244545936584e-01" purity="3.6277800798416138e-01" nType="-99"/>
            <Node pos="r" depth="3" NCoef="0" IVar="-1" Cut="0.0000000000000000e+00" cType="1" res="-8.6181325605139136e-04" rms="3.6531737446784973e-01" purity="1.6499477624893188e-01" nType="-99"/>
          </Node>
          <Node pos="r" depth="2" NCoef="0" IVar="4" Cut="8.5011138916015625e+01" cType="1" res="6.3551254570484161e-02" rms="4.9032437801361084e-01" purity="5.5742585659027100e-01" nType="0">
            <Node pos="l" depth="3" NCoef="0" IVar="-1" Cut="0.0000000000000000e+00" cType="1" res="1.9905011868104339e-04" rms="3.1777572631835938e-01" purity="8.8591015338897705e-01" nType="-99"/>
            <Node pos="r" depth="3" NCoef="0" IVar="-1" Cut="0.0000000000000000e+00" cType="1" res="-1.0285858297720551e-03" rms="3.5232627391815186e-01" purity="1.4705975353717804e-01" nType="-99"/>
          </Node>
        </Node>
        <Node pos="r" depth="1" NCoef="0" IVar="-1" Cut="0.0000000000000000e+00" cType="1" res="1.9391129899304360e-04" rms="3.4397217631340027e-01" purity="8.5823398828506470e-01" nType="-99"/>
      </Node>
    </BinaryTree>
    <BinaryTree type="DecisionTree" boostWeight="1.0000000000000000e+00" itree="16">
      <Node pos="s" depth="0" NCoef="0" IVar="4" Cut="8.3290534973144531e+01" cType="1" res="1.0413674637675285e-02" rms="4.8991376161575317e-01" purity="4.9961826205253601e-01" nType="0">
        <Node pos="l" depth="1" NCoef="0" IVar="2" Cut="-3.3384319305419922e+01" cType="1" res="3.7341317534446716e-01" rms="3.3091503381729126e-01" purity="8.7395018339157104e-01" nType="0">
          <Node pos="l" depth="2" NCoef="0" IVar="-1" Cut="0.0000000000000000e+00" cType="1" res="1.6954227248788811e-05" rms="4.9799957871437073e-01" purity="5.1607471704483032e-01" nType="-99"/>
          <Node pos="r" depth="2" NCoef="0" IVar="-1" Cut="0.0000000000000000e+00" cType="1" res="2.1022823057137430e-04" rms="2.6891860365867615e-01" purity="9.2140209674835205e-01" nType="-99"/>
        </Node>
        <Node pos="r" depth="1" NCoef="0" IVar="6" Cut="2.3819601535797119e-01" cType="1" res="-3.6657926440238953e-01" rms="3.1078198552131653e-01" purity="1.1085604876279831e-01" nType="0">
          <Node pos="l" depth="2" NCoef="0" IVar="-1" Cut="0.0000000000000000e+00" cType="1" res="-4.2487320024520159e-04" rms="4.3169271945953369e-01" purity="2.5110319256782532e-01" nType="-99"/>
          <Node pos="r" depth="2" NCoef="0" IVar="3" Cut="2.6847038269042969e+01" cType="1" res="-3.9154133200645447e-01" rms="2.7381950616836548e-01" purity="8.2967378199100494e-02" nType="0">
            <Node pos="l" depth="3" NCoef="0" IVar="-1" Cut="0.0000000000000000e+00" cType="1" res="-3.8335451390594244e-03" rms="2.1464042365550995e-01" purity="4.8087548464536667e-02" nType="-99"/>
            <Node pos="r" depth="3" NCoef="0" IVar="-1" Cut="0.0000000000000000e+00" cType="1" res="-1.2530531967058778e-03" rms="3.2886958122253418e-01" purity="1.2707525491714478e-01" nType="-99"/>
          </Node>
        </Node>
      </Node>
    </BinaryTree>
    <BinaryTree type="DecisionTree" boostWeight="1.0000000000000000e+00" itree="17">
      <Node pos="s" depth="0" NCoef="0" IVar="2" Cut="-2.9374105453491211e+01" cType="1" res="1.9533464685082436e-02" rms="4.8966276645660400e-01" purity="5.0804454088211060e-01" nType="0">
        <Node pos="l" depth="1" NCoef="0" IVar="7" Cut="4.5049137115478516e+01" cType="1" res="-2.6274365186691284e-01" rms="4.0098270773887634e-01" purity="2.1194791793823242e-01" nType="0">
          <Node pos="l" depth="2" NCoef="0" IVar="-1" Cut="0.0000000000000000e+00" cType="1" res="-3.7504392821574584e-05" rms="4.8948395252227783e-01" purity="4.4970774650573730e-01" nType="-99"/>
          <Node pos="r" depth="2" NCoef="0" IVar="5" Cut="4.2855665087699890e-01" cType="1" res="-3.3844351768493652e-01" rms="3.3395731449127197e-01" purity="1.3210374116897583e-01" nType="0">
            <Node pos="l" depth="3" NCoef="0" IVar="-1" Cut="0.0000000000000000e+00" cType="1" res="-1.8362404080107808e-03" rms="2.8526625037193298e-01" purity="9.2709176242351532e-02" nType="-99"/>
            <Node pos="r" depth="3" NCoef="0" IVar="-1" Cut="0.0000000000000000e+00" cType="1" res="-4.6575855230912566e-04" rms="4.1672500967979431e-01" purity="2.3138462007045746e-01" nType="-99"/>
          </Node>
        </Node>
        <Node pos="r" depth="1" NCoef="0" IVar="3" Cut="4.0656818389892578e+01" cType="1" res="1.3785667717456818e-01" rms="4.7484385967254639e-01" purity="6.3216048479080200e-01" nType="0">
          <Node pos="l" depth="2" NCoef="0" IVar="2" Cut="-9.4868345260620117e+00" cType="1" res="2.2917563095688820e-02" rms="4.9270480871200562e-01" purity="5.1499623060226440e-01" nType="0">
            <Node pos="l" depth="3" NCoef="0" IVar="-1" Cut="0.0000000000000000e+00" cType="1" res="-1.1605809413595125e-04" rms="4.8015150427818298e-01" purity="3.8958331942558289e-01" nType="-99"/>
            <Node pos="r" depth="3" NCoef="0" IVar="-1" Cut="0.0000000000000000e+00" cType="1" res="8.6021085735410452e-05" rms="4.8182916641235352e-01" purity="6.0916465520858765e-01" nType="-99"/>
          </Node>
          <Node pos="r" depth="2" NCoef="0" IVar="-1" Cut="0.0000000000000000e+00" cType="1" res="1.9175065972376615e-04" rms="3.5101890563964844e-01" purity="8.4985321760177612e-01" nType="-99"/>
        </Node>
      </Node>
    </BinaryTree>
    <BinaryTree type="DecisionTree" boostWeight="1.0000000000000000e+00" itree="18">
      <Node pos="s" depth="0" NCoef="0" IVar="4" Cut="7.5818847656250000e+01" cType="1" res="1.4350933954119682e-02" rms="4.8938202857971191e-01" purity="5.0278353691101074e-01" nType="0">
        <Node pos="l" depth="1" NCoef="0" IVar="-1" Cut="0.0000000000000000e+00" cType="1" res="2.0663006580434740e-04" rms="2.9667651653289795e-01" purity="9.0174299478530884e-01" nType="-99"/>
        <Node pos="r" depth="1" NCoef="0" IVar="2" Cut="-2.4901798248291016e+01" cType="1" res="-2.7740761637687683e-01" rms="3.9486038684844971e-01" purity="2.0167112350463867e-01" nType="0">
          <Node pos="l" depth="2" NCoef="0" IVar="3" Cut="2.7954416275024414e+01" cType="1" res="-3.5492190718650818e-01" rms="3.1434205174446106e-01" purity="1.1524375528097153e-01" nType="0">
            <Node pos="l" depth="3" NCoef="0" IVar="-1" Cut="0.0000000000000000e+00" cType="1" res="-2.9428189154714346e-03" rms="2.4413713812828064e-01" purity="6.5991140902042389e-02" nType="-99"/>
            <Node pos="r" depth="3" NCoef="0" IVar="-1" Cut="0.0000000000000000e+00" cType="1" res="-7.6498172711580992e-04" rms="3.7546208500862122e-01" purity="1.7589156329631805e-01" nType="-99"/>
          </Node>
          <Node pos="r" depth="2" NCoef="0" IVar="7" Cut="2.5695652008056641e+01" cType="1" res="-2.0703661441802979e-01" rms="4.4424018263816833e-01" purity="2.8013390302658081e-01" nType="0">
            <Node pos="l" depth="3" NCoef="0" IVar="-1" Cut="0.0000000000000000e+00" cType="1" res="-8.5284736996982247e-05" rms="4.9078127741813660e-01" purity="4.1606780886650085e-01" nType="-99"/>
            <Node pos="r" depth="3" NCoef="0" IVar="-1" Cut="0.0000000000000000e+00" cType="1" res="-4.6138669131323695e-04" rms="4.2146173119544983e-01" purity="2.3876684904098511e-01" nType="-99"/>
          </Node>
        </Node>
      </Node>
    </BinaryTree>
    <BinaryTree type="DecisionTree" boostWeight="1.0000000000000000e+00" itree="19">
      <Node pos="s" depth="0" NCoef="0" IVar="2" Cut="-1.1694807052612305e+01" cType="1" res="1.5824645757675171e-02" rms="4.8893961310386658e-01" purity="5.0417739152908325e-01" nType="0">
        <Node pos="l" depth="1" NCoef="0" IVar="4" Cut="8.3290534973144531e+01" cType="1" res="-2.1371750533580780e-01" rms="4.3228361010551453e-01" purity="2.6559400558471680e-01" nType="0">
          <Node pos="l" depth="2" NCoef="0" IVar="-1" Cut="0.0000000000000000e+00" cType="1" res="1.1511833145050332e-04" rms="4.7006013989448547e-01" purity="6.6580927371978760e-01" nType="-99"/>
          <Node pos="r" depth="2" NCoef="0" IVar="6" Cut="4.7628352046012878e-01" cType="1" res="-3.7025731801986694e-01" rms="2.9785591363906860e-01" purity="1.0115656256675720e-01" nType="0">
            <Node pos="l" depth="3" NCoef="0" IVar="-1" Cut="0.0000000000000000e+00" cType="1" res="-1.0160412639379501e-03" rms="3.4740296006202698e-01" purity="1.4357227087020874e-01" nType="-99"/>
            <Node pos="r" depth="3" NCoef="0" IVar="-1" Cut="0.0000000000000000e+00" cType="1" res="-3.0038540717214346e-03" rms="2.4075597524642944e-01" purity="6.3175030052661896e-02" nType="-99"/>
          </Node>
        </Node>
        <Node pos="r" depth="1" NCoef="0" IVar="3" Cut="4.0394161224365234e+01" cType="1" res="2.2730456292629242e-01" rms="4.4031861424446106e-01" purity="7.2398710250854492e-01" nType="0">
          <Node pos="l" depth="2" NCoef="0" IVar="2" Cut="7.9874110221862793e+00" cType="1" res="1.0598873347043991e-01" rms="4.8303461074829102e-01" purity="6.0052073001861572e-01" nType="0">
            <Node pos="l" depth="3" NCoef="0" IVar="-1" Cut="0.0000000000000000e+00" cType="1" res="3.6891178751830012e-05" rms="4.9168184399604797e-01" purity="5.3671187162399292e-01" nType="-99"/>
            <Node pos="r" depth="3" NCoef="0" IVar="-1" Cut="0.0000000000000000e+00" cType="1" res="1.3996998313814402e-04" rms="4.4439125061035156e-01" purity="7.1774554252624512e-01" nType="-99"/>
          </Node>
          <Node pos="r" depth="2" NCoef="0" IVar="-1" Cut="0.0000000000000000e+00" cType="1" res="1.9948168483097106e-04" rms="3.2381248474121094e-01" purity="8.7604695558547974e-01" nType="-99"/>
        </Node>
      </Node>
    </BinaryTree>
    <BinaryTree type="DecisionTree" boostWeight="1.0000000000000000e+00" itree="20">
      <Node pos="s" depth="0" NCoef="0" IVar="2" Cut="-2.2923706054687500e+01" cType="1" res="2.4926014244556427e-02" rms="4.8877146840095520e-01" purity="5.1288980245590210e-01" nType="0">
        <Node pos="l" depth="1" NCoef="0" IVar="4" Cut="8.3290557861328125e+01" cType="1" res="-2.2858490049839020e-01" rms="4.2129960656166077e-01" purity="2.4683591723442078e-01" nType="0">
          <Node pos="l" depth="2" NCoef="0" IVar="-1" Cut="0.0000000000000000e+00" cType="1" res="1.0149950685445219e-04" rms="4.7794958949089050e-01" purity="6.4093327522277832e-01" nType="-99"/>
          <Node pos="r" depth="2" NCoef="0" IVar="6" Cut="3.8266134262084961e-01" cType="1" res="-3.7415134906768799e-01" rms="2.8674939274787903e-01" purity="9.2594027519226074e-02" nType="0">
            <Node pos="l" depth="3" NCoef="0" IVar="-1" Cut="0.0000000000000000e+00" cType="1" res="-6.1449210625141859e-04" rms="3.9517313241958618e-01" purity="1.9926218688488007e-01" nType="-99"/>
            <Node pos="r" depth="3" NCoef="0" IVar="-1" Cut="0.0000000000000000e+00" cType="1" res="-3.4565445967018604e-03" rms="2.2606648504734039e-01" purity="5.4155856370925903e-02" nType="-99"/>
          </Node>
        </Node>
        <Node pos="r" depth="1" NCoef="0" IVar="3" Cut="4.0656818389892578e+01" cType="1" res="1.6848161816596985e-01" rms="4.6547585725784302e-01" purity="6.6354811191558838e-01" nType="0">
          <Node pos="l" depth="2" NCoef="0" IVar="7" Cut="1.9986690521240234e+01" cType="1" res="4.6815373003482819e-02" rms="4.9191561341285706e-01" purity="5.3930687904357910e-01" nType="0">
            <Node pos="l" depth="3" NCoef="0" IVar="-1" Cut="0.0000000000000000e+00" cType="1" res="1.4492659829556942e-04" rms="4.4267576932907104e-01" purity="7.2707968950271606e-01" nType="-99"/>
            <Node pos="r" depth="3" NCoef="0" IVar="-1" Cut="0.0000000000000000e+00" cType="1" res="-7.0358541961468291e-06" rms="4.9287271499633789e-01" purity="4.8316475749015808e-01" nType="-99"/>
          </Node>
          <Node pos="r" depth="2" NCoef="0" IVar="-1" Cut="0.0000000000000000e+00" cType="1" res="1.9526209507603198e-04" rms="3.3750852942466736e-01" purity="8.6329215764999390e-01" nType="-99"/>
        </Node>
      </Node>
    </BinaryTree>
    <BinaryTree type="DecisionTree" boostWeight="1.0000000000000000e+00" itree="21">
      <Node pos="s" depth="0" NCoef="0" IVar="4" Cut="8.7872306823730469e+01" cType="1" res="1.8473932519555092e-02" rms="4.8825994133949280e-01" purity="5.0628262758255005e-01" nType="0">
        <Node pos="l" depth="1" NCoef="0" IVar="4" Cut="8.1408309936523438e+01" cType="1" res="3.0186715722084045e-01" rms="3.9624625444412231e-01" purity="8.0136424303054810e-01" nType="0">
          <Node pos="l" depth="2" NCoef="0" IVar="-1" Cut="0.0000000000000000e+00" cType="1" res="2.0086143922526389e-04" rms="3.1486988067626953e-01" purity="8.8751304149627686e-01" nType="-99"/>
          <Node pos="r" depth="2" NCoef="0" IVar="4" Cut="8.5717643737792969e+01" cType="1" res="-9.7769789397716522e-02" rms="4.8607784509658813e-01" purity="3.9517918229103088e-01" nType="0">
            <Node pos="l" depth="3" NCoef="0" IVar="-1" Cut="0.0000000000000000e+00" cType="1" res="-8.8059668996720575e-06" rms="4.9742731451988220e-01" purity="4.8620882630348206e-01" nType="-99"/>
            <Node pos="r" depth="3" NCoef="0" IVar="-1" Cut="0.0000000000000000e+00" cType="1" res="-2.7534674154594541e-04" rms="4.5711731910705566e-01" purity="3.0269655585289001e-01" nType="-99"/>
          </Node>
        </Node>
        <Node pos="r" depth="1" NCoef="0" IVar="0" Cut="-2.1895627975463867e+00" cType="1" res="-3.9471334218978882e-01" rms="2.6313742995262146e-01" purity="7.6053604483604431e-02" nType="0">
          <Node pos="l" depth="2" NCoef="0" IVar="-1" Cut="0.0000000000000000e+00" cType="1" res="-7.6919270213693380e-04" rms="3.7497150897979736e-01" purity="1.7342141270637512e-01" nType="-99"/>
          <Node pos="r" depth="2" NCoef="0" IVar="1" Cut="2.0943896770477295e+00" cType="1" res="-4.1198670864105225e-01" rms="2.3084314167499542e-01" purity="5.6747686117887497e-02" nType="0">
            <Node pos="l" depth="3" NCoef="0" IVar="-1" Cut="0.0000000000000000e+00" cType="1" res="-2.5160897057503462e-03" rms="2.5253906846046448e-01" purity="6.8893417716026306e-02" nType="-99"/>
            <Node pos="r" depth="3" NCoef="0" IVar="-1" Cut="0.0000000000000000e+00" cType="1" res="-5.8267163112759590e-03" rms="1.7531985044479370e-01" purity="3.2399620860815048e-02" nType="-99"/>
          </Node>
        </Node>
      </Node>
    </BinaryTree>
    <BinaryTree type="DecisionTree" boostWeight="1.0000000000000000e+00" itree="22">
      <Node pos="s" depth="0" NCoef="0" IVar="4" Cut="8.5010269165039062e+01" cType="1" res="8.6733996868133545e-03" rms="4.8765182495117188e-01" purity="4.9563452601432800e-01" nType="0">
        <Node pos="l" depth="1" NCoef="0" IVar="4" Cut="7.8818733215332031e+01" cType="1" res="3.5361924767494202e-01" rms="3.5140347480773926e-01" purity="8.5421907901763916e-01" nType="0">
          <Node pos="l" depth="2" NCoef="0" IVar="-1" Cut="0.0000000000000000e+00" cType="1" res="2.0153341756667942e-04" rms="3.0649405717849731e-01" purity="8.9423823356628418e-01" nType="-99"/>
          <Node pos="r" depth="2" NCoef="0" IVar="-1" Cut="0.0000000000000000e+00" cType="1" res="6.1747312429361045e-05" rms="4.9252262711524963e-01" purity="5.7448035478591919e-01" nType="-99"/>
        </Node>
        <Node pos="r" depth="1" NCoef="0" IVar="2" Cut="-2.7343610763549805e+01" cType="1" res="-3.7292775511741638e-01" rms="2.9499343037605286e-01" purity="9.8945401608943939e-02" nType="0">
          <Node pos="l" depth="2" NCoef="0" IVar="5" Cut="-4.7615461051464081e-02" cType="1" res="-4.3374371528625488e-01" rms="1.6125282645225525e-01" purity="2.6846868917346001e-02" nType="0">
            <Node pos="l" depth="3" NCoef="0" IVar="-1" Cut="0.0000000000000000e+00" cType="1" res="-4.8899292014539242e-03" rms="2.0136174559593201e-01" purity="4.3269589543342590e-02" nType="-99"/>
            <Node pos="r" depth="3" NCoef="0" IVar="-1" Cut="0.0000000000000000e+00" cType="1" res="-1.9261218607425690e-02" rms="1.0855349898338318e-01" purity="1.1243557557463646e-02" nType="-99"/>
          </Node>
          <Node pos="r" depth="2" NCoef="0" IVar="3" Cut="3.4044273376464844e+01" cType="1" res="-3.2123777270317078e-01" rms="3.6478480696678162e-01" purity="1.6022491455078125e-01" nType="0">
            <Node pos="l" depth="3" NCoef="0" IVar="-1" Cut="0.0000000000000000e+00" cType="1" res="-1.1202743044123054e-03" rms="3.4007585048675537e-01" purity="1.3411815464496613e-01" nType="-99"/>
            <Node pos="r" depth="3" NCoef="0" IVar="-1" Cut="0.0000000000000000e+00" cType="1" res="-4.6741042751818895e-04" rms="4.1935700178146362e-01" purity="2.3568432033061981e-01" nType="-99"/>
          </Node>
        </Node>
      </Node>
    </BinaryTree>
    <BinaryTree type="DecisionTree" boostWeight="1.0000000000000000e+00" itree="23">
      <Node pos="s" depth="0" NCoef="0" IVar="4" Cut="9.1737289428710938e+01" cType="1" res="1.6971992328763008e-02" rms="4.8667329549789429e-01" purity="5.0242668390274048e-01" nType="0">
        <Node pos="l" depth="1" NCoef="0" IVar="4" Cut="8.1489120483398438e+01" cType="1" res="9.8655976355075836e-02" rms="4.8223355412483215e-01" purity="5.9131950139999390e-01" nType="0">
          <Node pos="l" depth="2" NCoef="0" IVar="1" Cut="1.4960054159164429e+00" cType="1" res="3.8297063112258911e-01" rms="3.1907233595848083e-01" purity="8.8403624296188354e-01" nType="0">
            <Node pos="l" depth="3" NCoef="0" IVar="-1" Cut="0.0000000000000000e+00" cType="1" res="2.0763817883562297e-04" rms="2.8218534588813782e-01" purity="9.1234630346298218e-01" nType="-99"/>
            <Node pos="r" depth="3" NCoef="0" IVar="-1" Cut="0.0000000000000000e+00" cType="1" res="1.8518410797696561e-04" rms="3.7104964256286621e-01" purity="8.3327835798263550e-01" nType="-99"/>
          </Node>
          <Node pos="r" depth="2" NCoef="0" IVar="4" Cut="8.7833244323730469e+01" cType="1" res="-3.2193031907081604e-01" rms="3.5983893275260925e-01" purity="1.5830403566360474e-01" nType="0">
            <Node pos="l" depth="3" NCoef="0" IVar="-1" Cut="0.0000000000000000e+00" cType="1" res="-1.3269732880871743e-04" rms="4.8159524798393250e-01" purity="3.7843647599220276e-01" nType="-99"/>
            <Node pos="r" depth="3" NCoef="0" IVar="-1" Cut="0.0000000000000000e+00" cType="1" res="-3.0493990052491426e-03" rms="2.3589998483657837e-01" purity="6.0238528996706009e-02" nType="-99"/>
          </Node>
        </Node>
        <Node pos="r" depth="1" NCoef="0" IVar="7" Cut="3.9816871643066406e+01" cType="1" res="-3.1812909245491028e-01" rms="3.3887046575546265e-01" purity="1.3775213062763214e-01" nType="0">
          <Node pos="l" depth="2" NCoef="0" IVar="-1" Cut="0.0000000000000000e+00" cType="1" res="-3.6893159267492592e-04" rms="4.4157308340072632e-01" purity="2.6774209737777710e-01" nType="-99"/>
          <Node pos="r" depth="2" NCoef="0" IVar="1" Cut="1.9447838068008423e+00" cType="1" res="-3.6523705720901489e-01" rms="2.6441049575805664e-01" purity="7.6087772846221924e-02" nType="0">
            <Node pos="l" depth="3" NCoef="0" IVar="-1" Cut="0.0000000000000000e+00" cType="1" res="-1.7327505629509687e-03" rms="2.8296688199043274e-01" purity="9.0748466551303864e-02" nType="-99"/>
            <Node pos="r" depth="3" NCoef="0" IVar="-1" Cut="0.0000000000000000e+00" cType="1" res="-3.7468613591045141e-03" rms="2.2324895858764648e-01" purity="5.2680555731058121e-02" nType="-99"/>
          </Node>
        </Node>
      </Node>
    </BinaryTree>
    <BinaryTree type="DecisionTree" boostWeight="1.0000000000000000e+00" itree="24">
      <Node pos="s" depth="0" NCoef="0" IVar="4" Cut="8.7872100830078125e+01" cType="1" res="8.8041853159666061e-03" rms="4.8641893267631531e-01" purity="4.9325090646743774e-01" nType="0">
        <Node pos="l" depth="1" NCoef="0" IVar="4" Cut="8.1408088684082031e+01" cType="1" res="2.8925892710685730e-01" rms="4.0499857068061829e-01" purity="7.8857809305191040e-01" nType="0">
          <Node pos="l" depth="2" NCoef="0" IVar="-1" Cut="0.0000000000000000e+00" cType="1" res="1.9747359328903258e-04" rms="3.2343605160713196e-01" purity="8.8034546375274658e-01" nType="-99"/>
          <Node pos="r" depth="2" NCoef="0" IVar="-1" Cut="0.0000000000000000e+00" cType="1" res="-1.6493549628648907e-04" rms="4.7716733813285828e-01" purity="3.6164531111717224e-01" nType="-99"/>
        </Node>
        <Node pos="r" depth="1" NCoef="0" IVar="6" Cut="2.8584116697311401e-01" cType="1" res="-3.6403977870941162e-01" rms="2.9918900132179260e-01" purity="1.0063523054122925e-01" nType="0">
          <Node pos="l" depth="2" NCoef="0" IVar="0" Cut="-4.7351324558258057e-01" cType="1" res="-2.7418220043182373e-01" rms="4.0550643205642700e-01" purity="2.0853511989116669e-01" nType="0">
            <Node pos="l" depth="3" NCoef="0" IVar="-1" Cut="0.0000000000000000e+00" cType="1" res="-3.3910450292751193e-04" rms="4.4412782788276672e-01" purity="2.7039265632629395e-01" nType="-99"/>
            <Node pos="r" depth="3" NCoef="0" IVar="-1" Cut="0.0000000000000000e+00" cType="1" res="-9.9924590904265642e-04" rms="3.4931880235671997e-01" purity="1.4331881701946259e-01" nType="-99"/>
          </Node>
          <Node pos="r" depth="2" NCoef="0" IVar="5" Cut="-6.1904752254486084e-01" cType="1" res="-3.9445394277572632e-01" rms="2.4596215784549713e-01" purity="6.4114265143871307e-02" nType="0">
            <Node pos="l" depth="3" NCoef="0" IVar="-1" Cut="0.0000000000000000e+00" cType="1" res="-1.1373737361282110e-03" rms="3.2798168063163757e-01" purity="1.2580759823322296e-01" nType="-99"/>
            <Node pos="r" depth="3" NCoef="0" IVar="-1" Cut="0.0000000000000000e+00" cType="1" res="-3.7673239130526781e-03" rms="2.2035339474678040e-01" purity="4.9621254205703735e-02" nType="-99"/>
          </Node>
        </Node>
      </Node>
    </BinaryTree>
    <BinaryTree type="DecisionTree" boostWeight="1.0000000000000000e+00" itree="25">
      <Node pos="s" depth="0" NCoef="0" IVar="4" Cut="9.1737319946289062e+01" cType="1" res="7.3533696122467518e-03" rms="4.8556414246559143e-01" purity="4.9153244495391846e-01" nType="0">
        <Node pos="l" depth="1" NCoef="0" IVar="4" Cut="8.1489151000976562e+01" cType="1" res="9.1474361717700958e-02" rms="4.8274850845336914e-01" purity="5.8320385217666626e-01" nType="0">
          <Node pos="l" depth="2" NCoef="0" IVar="1" Cut="1.4959669113159180e+00" cType="1" res="3.7971672415733337e-01" rms="3.2261034846305847e-01" purity="8.8102418184280396e-01" nType="0">
            <Node pos="l" depth="3" NCoef="0" IVar="-1" Cut="0.0000000000000000e+00" cType="1" res="2.0325483637861907e-04" rms="2.9180872440338135e-01" purity="9.0555530786514282e-01" nType="-99"/>
            <Node pos="r" depth="3" NCoef="0" IVar="-1" Cut="0.0000000000000000e+00" cType="1" res="1.8951424863189459e-04" rms="3.6247923970222473e-01" purity="8.4258151054382324e-01" nType="-99"/>
          </Node>
          <Node pos="r" depth="2" NCoef="0" IVar="4" Cut="8.7833259582519531e+01" cType="1" res="-3.3255860209465027e-01" rms="3.4748172760009766e-01" purity="1.4508080482482910e-01" nType="0">
            <Node pos="l" depth="3" NCoef="0" IVar="-1" Cut="0.0000000000000000e+00" cType="1" res="-2.3037301434669644e-04" rms="4.6513631939888000e-01" purity="3.2668131589889526e-01" nType="-99"/>
            <Node pos="r" depth="3" NCoef="0" IVar="-1" Cut="0.0000000000000000e+00" cType="1" res="-2.4829024914652109e-03" rms="2.5700420141220093e-01" purity="7.1702212095260620e-02" nType="-99"/>
          </Node>
        </Node>
        <Node pos="r" depth="1" NCoef="0" IVar="0" Cut="-9.1877400875091553e-01" cType="1" res="-3.4033122658729553e-01" rms="3.1130218505859375e-01" purity="1.1264079064130783e-01" nType="0">
          <Node pos="l" depth="2" NCoef="0" IVar="-1" Cut="0.0000000000000000e+00" cType="1" res="-8.4432645235210657e-04" rms="3.6150255799293518e-01" purity="1.5902976691722870e-01" nType="-99"/>
          <Node pos="r" depth="2" NCoef="0" IVar="6" Cut="4.7625976800918579e-01" cType="1" res="-3.6742505431175232e-01" rms="2.6927545666694641e-01" purity="8.1645637750625610e-02" nType="0">
            <Node pos="l" depth="3" NCoef="0" IVar="-1" Cut="0.0000000000000000e+00" cType="1" res="-1.3382380129769444e-03" rms="3.2113698124885559e-01" purity="1.1992465704679489e-01" nType="-99"/>
            <Node pos="r" depth="3" NCoef="0" IVar="-1" Cut="0.0000000000000000e+00" cType="1" res="-5.8783181011676788e-03" rms="1.8240818381309509e-01" purity="3.4573659300804138e-02" nType="-99"/>
          </Node>
        </Node>
      </Node>
    </BinaryTree>
    <BinaryTree type="DecisionTree" boostWeight="1.0000000000000000e+00" itree="26">
      <Node pos="s" depth="0" NCoef="0" IVar="2" Cut="-2.1692779541015625e+01" cType="1" res="1.3174709863960743e-02" rms="4.8527655005455017e-01" purity="4.9694481492042542e-01" nType="0">
        <Node pos="l" depth="1" NCoef="0" IVar="3" Cut="3.7168376922607422e+01" cType="1" res="-2.5734362006187439e-01" rms="3.9522203803062439e-01" purity="2.0842400193214417e-01" nType="0">
          <Node pos="l" depth="2" NCoef="0" IVar="2" Cut="-5.0771438598632812e+01" cType="1" res="-3.2414555549621582e-01" rms="3.3712533116340637e-01" purity="1.3900238275527954e-01" nType="0">
            <Node pos="l" depth="3" NCoef="0" IVar="-1" Cut="0.0000000000000000e+00" cType="1" res="-4.6687000431120396e-03" rms="1.9459804892539978e-01" purity="4.0961917489767075e-02" nType="-99"/>
            <Node pos="r" depth="3" NCoef="0" IVar="-1" Cut="0.0000000000000000e+00" cType="1" res="-6.8089435808360577e-04" rms="3.8113701343536377e-01" purity="1.8747514486312866e-01" nType="-99"/>
          </Node>
          <Node pos="r" depth="2" NCoef="0" IVar="-1" Cut="0.0000000000000000e+00" cType="1" res="-9.6193645731545985e-05" rms="4.7455585002899170e-01" purity="3.8962060213088989e-01" nType="-99"/>
        </Node>
        <Node pos="r" depth="1" NCoef="0" IVar="3" Cut="4.5081428527832031e+01" cType="1" res="1.6918727755546570e-01" rms="4.6333432197570801e-01" purity="6.6333973407745361e-01" nType="0">
          <Node pos="l" depth="2" NCoef="0" IVar="7" Cut="2.2420295715332031e+01" cType="1" res="4.6048138290643692e-02" rms="4.8959249258041382e-01" purity="5.3710079193115234e-01" nType="0">
            <Node pos="l" depth="3" NCoef="0" IVar="-1" Cut="0.0000000000000000e+00" cType="1" res="1.2282108946237713e-04" rms="4.6119233965873718e-01" purity="6.8148988485336304e-01" nType="-99"/>
            <Node pos="r" depth="3" NCoef="0" IVar="-1" Cut="0.0000000000000000e+00" cType="1" res="1.7063078985302127e-06" rms="4.9020928144454956e-01" purity="4.9082002043724060e-01" nType="-99"/>
          </Node>
          <Node pos="r" depth="2" NCoef="0" IVar="-1" Cut="0.0000000000000000e+00" cType="1" res="2.0271466928534210e-04" rms="3.0147969722747803e-01" purity="8.9365613460540771e-01" nType="-99"/>
        </Node>
      </Node>
    </BinaryTree>
    <BinaryTree type="DecisionTree" boostWeight="1.0000000000000000e+00" itree="27">
      <Node pos="s" depth="0" NCoef="0" IVar="4" Cut="8.5010208129882812e+01" cType="1" res="-1.8712547607719898e-03" rms="4.8442360758781433e-01" purity="4.8149749636650085e-01" nType="0">
        <Node pos="l" depth="1" NCoef="0" IVar="4" Cut="7.5723037719726562e+01" cType="1" res="3.4816062450408936e-01" rms="3.5613709688186646e-01" purity="8.4912073612213135e-01" nType="0">
          <Node pos="l" depth="2" NCoef="0" IVar="-1" Cut="0.0000000000000000e+00" cType="1" res="2.0445848349481821e-04" rms="2.9804891347885132e-01" purity="9.0056025981903076e-01" nType="-99"/>
          <Node pos="r" depth="2" NCoef="0" IVar="-1" Cut="0.0000000000000000e+00" cType="1" res="6.0600363212870434e-05" rms="4.9227178096771240e-01" purity="5.7440805435180664e-01" nType="-99"/>
        </Node>
        <Node pos="r" depth="1" NCoef="0" IVar="6" Cut="2.8584116697311401e-01" cType="1" res="-3.8155722618103027e-01" rms="2.7307623624801636e-01" purity="8.2729734480381012e-02" nType="0">
          <Node pos="l" depth="2" NCoef="0" IVar="0" Cut="-7.2950720787048340e-01" cType="1" res="-3.1167992949485779e-01" rms="3.7479612231254578e-01" purity="1.7148646712303162e-01" nType="0">
            <Node pos="l" depth="3" NCoef="0" IVar="-1" Cut="0.0000000000000000e+00" cType="1" res="-4.6353746438398957e-04" rms="4.2367434501647949e-01" purity="2.3751769959926605e-01" nType="-99"/>
            <Node pos="r" depth="3" NCoef="0" IVar="-1" Cut="0.0000000000000000e+00" cType="1" res="-1.6328798374161124e-03" rms="3.0626380443572998e-01" purity="1.0605897754430771e-01" nType="-99"/>
          </Node>
          <Node pos="r" depth="2" NCoef="0" IVar="5" Cut="2.3808655142784119e-01" cType="1" res="-4.0419819951057434e-01" rms="2.2610430419445038e-01" purity="5.3971622139215469e-02" nType="0">
            <Node pos="l" depth="3" NCoef="0" IVar="-1" Cut="0.0000000000000000e+00" cType="1" res="-4.9891690723598003e-03" rms="1.9080017507076263e-01" purity="3.8410022854804993e-02" nType="-99"/>
            <Node pos="r" depth="3" NCoef="0" IVar="-1" Cut="0.0000000000000000e+00" cType="1" res="-2.1979953162372112e-03" rms="2.7186921238899231e-01" purity="7.9444646835327148e-02" nType="-99"/>
          </Node>
        </Node>
      </Node>
    </BinaryTree>
    <BinaryTree type="DecisionTree" boostWeight="1.0000000000000000e+00" itree="28">
      <Node pos="s" depth="0" NCoef="0" IVar="1" Cut="1.1967971324920654e+00" cType="1" res="1.7174808308482170e-02" rms="4.8440194129943848e-01" purity="5.0009357929229736e-01" nType="0">
        <Node pos="l" depth="1" NCoef="0" IVar="6" Cut="6.1942237615585327e-01" cType="1" res="1.0501428693532944e-01" rms="4.7526007890701294e-01" purity="5.9049111604690552e-01" nType="0">
          <Node pos="l" depth="2" NCoef="0" IVar="4" Cut="8.9392929077148438e+01" cType="1" res="3.7600252777338028e-02" rms="4.8449879884719849e-01" purity="5.2215397357940674e-01" nType="0">
            <Node pos="l" depth="3" NCoef="0" IVar="-1" Cut="0.0000000000000000e+00" cType="1" res="1.6026124649215490e-04" rms="4.1879707574844360e-01" purity="7.6450473070144653e-01" nType="-99"/>
            <Node pos="r" depth="3" NCoef="0" IVar="-1" Cut="0.0000000000000000e+00" cType="1" res="-2.1338881924748421e-03" rms="2.7305796742439270e-01" purity="8.1276968121528625e-02" nType="-99"/>
          </Node>
          <Node pos="r" depth="2" NCoef="0" IVar="1" Cut="5.6990170478820801e-01" cType="1" res="2.0791657269001007e-01" rms="4.4137454032897949e-01" purity="6.9480252265930176e-01" nType="0">
            <Node pos="l" depth="3" NCoef="0" IVar="-1" Cut="0.0000000000000000e+00" cType="1" res="1.5748912119306624e-04" rms="4.1392117738723755e-01" purity="7.5390106439590454e-01" nType="-99"/>
            <Node pos="r" depth="3" NCoef="0" IVar="-1" Cut="0.0000000000000000e+00" cType="1" res="9.6901538199745119e-05" rms="4.6700459718704224e-01" purity="6.0603255033493042e-01" nType="-99"/>
          </Node>
        </Node>
        <Node pos="r" depth="1" NCoef="0" IVar="2" Cut="-1.9064723253250122e+00" cType="1" res="-5.7782500982284546e-02" rms="4.7950905561447144e-01" purity="4.2295339703559875e-01" nType="0">
          <Node pos="l" depth="2" NCoef="0" IVar="2" Cut="-4.4501937866210938e+01" cType="1" res="-1.7578722536563873e-01" rms="4.4401839375495911e-01" purity="2.9844957590103149e-01" nType="0">
            <Node pos="l" depth="3" NCoef="0" IVar="-1" Cut="0.0000000000000000e+00" cType="1" res="-1.9066643435508013e-03" rms="2.7795639634132385e-01" purity="9.0214028954505920e-02" nType="-99"/>
            <Node pos="r" depth="3" NCoef="0" IVar="-1" Cut="0.0000000000000000e+00" cType="1" res="-8.4744322521146387e-05" rms="4.7996756434440613e-01" purity="4.0662950277328491e-01" nType="-99"/>
          </Node>
          <Node pos="r" depth="2" NCoef="0" IVar="5" Cut="-4.7621171921491623e-02" cType="1" res="2.0433101058006287e-01" rms="4.5066455006599426e-01" purity="6.9950276613235474e-01" nType="0">
            <Node pos="l" depth="3" NCoef="0" IVar="-1" Cut="0.0000000000000000e+00" cType="1" res="1.1891465692315251e-04" rms="4.6381509304046631e-01" purity="6.6601806879043579e-01" nType="-99"/>
            <Node pos="r" depth="3" NCoef="0" IVar="-1" Cut="0.0000000000000000e+00" cType="1" res="1.4304145588539541e-04" rms="4.3882909417152405e-01" purity="7.2494566440582275e-01" nType="-99"/>
          </Node>
        </Node>
      </Node>
    </BinaryTree>
    <BinaryTree type="DecisionTree" boostWeight="1.0000000000000000e+00" itree="29">
      <Node pos="s" depth="0" NCoef="0" IVar="2" Cut="-1.8762603759765625e+01" cType="1" res="1.3841538690030575e-02" rms="4.8400697112083435e-01" purity="4.9662572145462036e-01" nType="0">
        <Node pos="l" depth="1" NCoef="0" IVar="7" Cut="4.1832599639892578e+01" cType="1" res="-2.5187069177627563e-01" rms="3.9717820286750793e-01" purity="2.1323575079441071e-01" nType="0">
          <Node pos="l" depth="2" NCoef="0" IVar="-1" Cut="0.0000000000000000e+00" cType="1" res="-1.2661858636420220e-04" rms="4.7392943501472473e-01" purity="3.7824267148971558e-01" nType="-99"/>
          <Node pos="r" depth="2" NCoef="0" IVar="5" Cut="4.2856374382972717e-01" cType="1" res="-2.9976916313171387e-01" rms="3.5581275820732117e-01" purity="1.5937058627605438e-01" nType="0">
            <Node pos="l" depth="3" NCoef="0" IVar="-1" Cut="0.0000000000000000e+00" cType="1" res="-1.2701877858489752e-03" rms="3.1901797652244568e-01" purity="1.2293330579996109e-01" nType="-99"/>
            <Node pos="r" depth="3" NCoef="0" IVar="-1" Cut="0.0000000000000000e+00" cType="1" res="-3.7612390588037670e-04" rms="4.2129001021385193e-01" purity="2.5129494071006775e-01" nType="-99"/>
          </Node>
        </Node>
        <Node pos="r" depth="1" NCoef="0" IVar="3" Cut="4.5065620422363281e+01" cType="1" res="1.8671923875808716e-01" rms="4.5631209015846252e-01" purity="6.8100494146347046e-01" nType="0">
          <Node pos="l" depth="2" NCoef="0" IVar="7" Cut="2.2420295715332031e+01" cType="1" res="7.8964553773403168e-02" rms="4.8519745469093323e-01" purity="5.7043242454528809e-01" nType="0">
            <Node pos="l" depth="3" NCoef="0" IVar="-1" Cut="0.0000000000000000e+00" cType="1" res="1.4694186393171549e-04" rms="4.3736621737480164e-01" purity="7.3366582393646240e-01" nType="-99"/>
            <Node pos="r" depth="3" NCoef="0" IVar="-1" Cut="0.0000000000000000e+00" cType="1" res="1.5390005501103587e-05" rms="4.8913434147834778e-01" purity="5.0603872537612915e-01" nType="-99"/>
          </Node>
          <Node pos="r" depth="2" NCoef="0" IVar="-1" Cut="0.0000000000000000e+00" cType="1" res="2.0242758910171688e-04" rms="3.0485600233078003e-01" purity="8.9060515165328979e-01" nType="-99"/>
        </Node>
      </Node>
    </BinaryTree>
    <BinaryTree type="DecisionTree" boostWeight="1.0000000000000000e+00" itree="30">
      <Node pos="s" depth="0" NCoef="0" IVar="1" Cut="1.0471975803375244e+00" cType="1" res="1.0456903837621212e-02" rms="4.8385381698608398e-01" purity="4.9296170473098755e-01" nType="0">
        <Node pos="l" depth="1" NCoef="0" IVar="6" Cut="6.6672587394714355e-01" cType="1" res="9.2556312680244446e-02" rms="4.7692582011222839e-01" purity="5.7778412103652954e-01" nType="0">
          <Node pos="l" depth="2" NCoef="0" IVar="4" Cut="8.8421089172363281e+01" cType="1" res="3.1596761196851730e-02" rms="4.8389148712158203e-01" purity="5.1558971405029297e-01" nType="0">
            <Node pos="l" depth="3" NCoef="0" IVar="-1" Cut="0.0000000000000000e+00" cType="1" res="1.7412820307072252e-04" rms="3.9280679821968079e-01" purity="8.0459964275360107e-01" nType="-99"/>
            <Node pos="r" depth="3" NCoef="0" IVar="-1" Cut="0.0000000000000000e+00" cType="1" res="-1.8628999823704362e-03" rms="2.8791883587837219e-01" purity="9.3615040183067322e-02" nType="-99"/>
          </Node>
          <Node pos="r" depth="2" NCoef="0" IVar="-1" Cut="0.0000000000000000e+00" cType="1" res="1.4005224511492997e-04" rms="4.4074410200119019e-01" purity="6.9598174095153809e-01" nType="-99"/>
        </Node>
        <Node pos="r" depth="1" NCoef="0" IVar="2" Cut="-3.5704814910888672e+01" cType="1" res="-4.3510563671588898e-02" rms="4.8077726364135742e-01" purity="4.3720427155494690e-01" nType="0">
          <Node pos="l" depth="2" NCoef="0" IVar="3" Cut="3.7192276000976562e+01" cType="1" res="-3.5751309990882874e-01" rms="2.9231834411621094e-01" purity="9.9395006895065308e-02" nType="0">
            <Node pos="l" depth="3" NCoef="0" IVar="-1" Cut="0.0000000000000000e+00" cType="1" res="-3.3374200575053692e-03" rms="2.2123956680297852e-01" purity="5.3785804659128189e-02" nType="-99"/>
            <Node pos="r" depth="3" NCoef="0" IVar="-1" Cut="0.0000000000000000e+00" cType="1" res="-5.8209995040670037e-04" rms="3.9519888162612915e-01" purity="2.0528313517570496e-01" nType="-99"/>
          </Node>
          <Node pos="r" depth="2" NCoef="0" IVar="2" Cut="-6.7734484672546387e+00" cType="1" res="8.5399605333805084e-02" rms="4.8359587788581848e-01" purity="5.7588803768157959e-01" nType="0">
            <Node pos="l" depth="3" NCoef="0" IVar="-1" Cut="0.0000000000000000e+00" cType="1" res="-5.8374545915285125e-05" rms="4.8427936434745789e-01" purity="4.2927172780036926e-01" nType="-99"/>
            <Node pos="r" depth="3" NCoef="0" IVar="-1" Cut="0.0000000000000000e+00" cType="1" res="1.3209608732722700e-04" rms="4.5148637890815735e-01" purity="6.9603216648101807e-01" nType="-99"/>
          </Node>
        </Node>
      </Node>
    </BinaryTree>
    <BinaryTree type="DecisionTree" boostWeight="1.0000000000000000e+00" itree="31">
      <Node pos="s" depth="0" NCoef="0" IVar="4" Cut="8.7872100830078125e+01" cType="1" res="8.2038836553692818e-03" rms="4.8364937305450439e-01" purity="4.9029144644737244e-01" nType="0">
        <Node pos="l" depth="1" NCoef="0" IVar="4" Cut="8.1408058166503906e+01" cType="1" res="2.8935694694519043e-01" rms="4.0410211682319641e-01" purity="7.8853929042816162e-01" nType="0">
          <Node pos="l" depth="2" NCoef="0" IVar="-1" Cut="0.0000000000000000e+00" cType="1" res="1.9792771490756422e-04" rms="3.2134881615638733e-01" purity="8.8170748949050903e-01" nType="-99"/>
          <Node pos="r" depth="2" NCoef="0" IVar="-1" Cut="0.0000000000000000e+00" cType="1" res="-2.4128188670147210e-04" rms="4.6215677261352539e-01" purity="3.1943553686141968e-01" nType="-99"/>
        </Node>
        <Node pos="r" depth="1" NCoef="0" IVar="0" Cut="-2.4014985561370850e+00" cType="1" res="-3.7117227911949158e-01" rms="2.8038713335990906e-01" purity="8.7848424911499023e-02" nType="0">
          <Node pos="l" depth="2" NCoef="0" IVar="-1" Cut="0.0000000000000000e+00" cType="1" res="-5.1085342420265079e-04" rms="4.1016784310340881e-01" purity="2.1754093468189240e-01" nType="-99"/>
          <Node pos="r" depth="2" NCoef="0" IVar="0" Cut="-5.4884582757949829e-01" cType="1" res="-3.8852310180664062e-01" rms="2.5042986869812012e-01" purity="6.8138845264911652e-02" nType="0">
            <Node pos="l" depth="3" NCoef="0" IVar="-1" Cut="0.0000000000000000e+00" cType="1" res="-1.5077766729518771e-03" rms="3.0335822701454163e-01" purity="1.0362320393323898e-01" nType="-99"/>
            <Node pos="r" depth="3" NCoef="0" IVar="-1" Cut="0.0000000000000000e+00" cType="1" res="-4.0469355881214142e-03" rms="2.1113665401935577e-01" purity="4.7445531934499741e-02" nType="-99"/>
          </Node>
        </Node>
      </Node>
    </BinaryTree>
    <BinaryTree type="DecisionTree" boostWeight="1.0000000000000000e+00" itree="32">
      <Node pos="s" depth="0" NCoef="0" IVar="2" Cut="-2.9873117446899414e+01" cType="1" res="2.3695794865489006e-02" rms="4.8323670029640198e-01" purity="5.0568580627441406e-01" nType="0">
        <Node pos="l" depth="1" NCoef="0" IVar="4" Cut="8.7872100830078125e+01" cType="1" res="-2.4819898605346680e-01" rms="3.9517185091972351e-01" purity="2.0978391170501709e-01" nType="0">
          <Node pos="l" depth="2" NCoef="0" IVar="-1" Cut="0.0000000000000000e+00" cType="1" res="-2.8445358111639507e-05" rms="4.9245509505271912e-01" purity="4.6082258224487305e-01" nType="-99"/>
          <Node pos="r" depth="2" NCoef="0" IVar="5" Cut="2.3803457617759705e-01" cType="1" res="-3.6971139907836914e-01" rms="2.5866991281509399e-01" purity="7.0743113756179810e-02" nType="0">
            <Node pos="l" depth="3" NCoef="0" IVar="-1" Cut="0.0000000000000000e+00" cType="1" res="-4.5126597397029400e-03" rms="1.9770152866840363e-01" purity="3.9656341075897217e-02" nType="-99"/>
            <Node pos="r" depth="3" NCoef="0" IVar="-1" Cut="0.0000000000000000e+00" cType="1" res="-1.1926159495487809e-03" rms="3.2877781987190247e-01" purity="1.2226889282464981e-01" nType="-99"/>
          </Node>
        </Node>
        <Node pos="r" depth="1" NCoef="0" IVar="3" Cut="3.4035560607910156e+01" cType="1" res="1.3563089072704315e-01" rms="4.7159346938133240e-01" purity="6.2750428915023804e-01" nType="0">
          <Node pos="l" depth="2" NCoef="0" IVar="7" Cut="2.2420295715332031e+01" cType="1" res="-1.9046642119064927e-03" rms="4.8828530311584473e-01" purity="4.8562985658645630e-01" nType="0">
            <Node pos="l" depth="3" NCoef="0" IVar="-1" Cut="0.0000000000000000e+00" cType="1" res="1.2584133946802467e-04" rms="4.5757004618644714e-01" purity="6.8775492906570435e-01" nType="-99"/>
            <Node pos="r" depth="3" NCoef="0" IVar="-1" Cut="0.0000000000000000e+00" cType="1" res="-7.4778210546355695e-05" rms="4.8074731230735779e-01" purity="4.1572815179824829e-01" nType="-99"/>
          </Node>
          <Node pos="r" depth="2" NCoef="0" IVar="6" Cut="4.2867293953895569e-01" cType="1" res="3.0675241351127625e-01" rms="3.8684338331222534e-01" purity="8.0402433872222900e-01" nType="0">
            <Node pos="l" depth="3" NCoef="0" IVar="-1" Cut="0.0000000000000000e+00" cType="1" res="1.0957623453577980e-04" rms="4.6816757321357727e-01" purity="6.4247405529022217e-01" nType="-99"/>
            <Node pos="r" depth="3" NCoef="0" IVar="-1" Cut="0.0000000000000000e+00" cType="1" res="1.9821392197627574e-04" rms="3.2098281383514404e-01" purity="8.7544691562652588e-01" nType="-99"/>
          </Node>
        </Node>
      </Node>
    </BinaryTree>
    <BinaryTree type="DecisionTree" boostWeight="1.0000000000000000e+00" itree="33">
      <Node pos="s" depth="0" NCoef="0" IVar="4" Cut="9.1737503051757812e+01" cType="1" res="2.0989978685975075e-02" rms="4.8289942741394043e-01" purity="5.0266039371490479e-01" nType="0">
        <Node pos="l" depth="1" NCoef="0" IVar="4" Cut="8.4905387878417969e+01" cType="1" res="1.0300153493881226e-01" rms="4.7834989428520203e-01" purity="5.9312224388122559e-01" nType="0">
          <Node pos="l" depth="2" NCoef="0" IVar="4" Cut="7.5633117675781250e+01" cType="1" res="3.5637167096138000e-01" rms="3.4754338860511780e-01" purity="8.5744082927703857e-01" nType="0">
            <Node pos="l" depth="3" NCoef="0" IVar="-1" Cut="0.0000000000000000e+00" cType="1" res="2.0551899797283113e-04" rms="2.9380714893341064e-01" purity="9.0344911813735962e-01" nType="-99"/>
            <Node pos="r" depth="3" NCoef="0" IVar="-1" Cut="0.0000000000000000e+00" cType="1" res="9.9724253232125193e-05" rms="4.7912847995758057e-01" purity="6.3544291257858276e-01" nType="-99"/>
          </Node>
          <Node pos="r" depth="2" NCoef="0" IVar="4" Cut="8.7833450317382812e+01" cType="1" res="-3.6421200633049011e-01" rms="3.0226337909698486e-01" purity="1.0571962594985962e-01" nType="0">
            <Node pos="l" depth="3" NCoef="0" IVar="-1" Cut="0.0000000000000000e+00" cType="1" res="-2.4964413023553789e-04" rms="4.5917767286300659e-01" purity="3.1006604433059692e-01" nType="-99"/>
            <Node pos="r" depth="3" NCoef="0" IVar="-1" Cut="0.0000000000000000e+00" cType="1" res="-3.6371897440403700e-03" rms="2.1192207932472229e-01" purity="4.8366665840148926e-02" nType="-99"/>
          </Node>
        </Node>
        <Node pos="r" depth="1" NCoef="0" IVar="5" Cut="1.4284227788448334e-01" cType="1" res="-3.2143905758857727e-01" rms="3.2574686408042908e-01" purity="1.2494798004627228e-01" nType="0">
          <Node pos="l" depth="2" NCoef="0" IVar="1" Cut="1.7951934337615967e+00" cType="1" res="-3.6332964897155762e-01" rms="2.7239307761192322e-01" purity="8.4252581000328064e-02" nType="0">
            <Node pos="l" depth="3" NCoef="0" IVar="-1" Cut="0.0000000000000000e+00" cType="1" res="-5.4259463213384151e-03" rms="1.7099741101264954e-01" purity="3.0314467847347260e-02" nType="-99"/>
            <Node pos="r" depth="3" NCoef="0" IVar="-1" Cut="0.0000000000000000e+00" cType="1" res="-9.3780568568035960e-04" rms="3.5105049610137939e-01" purity="1.4782729744911194e-01" nType="-99"/>
          </Node>
          <Node pos="r" depth="2" NCoef="0" IVar="-1" Cut="0.0000000000000000e+00" cType="1" res="-7.0267304545268416e-04" rms="3.7705150246620178e-01" purity="1.7756088078022003e-01" nType="-99"/>
        </Node>
      </Node>
    </BinaryTree>
    <BinaryTree type="DecisionTree" boostWeight="1.0000000000000000e+00" itree="34">
      <Node pos="s" depth="0" NCoef="0" IVar="1" Cut="7.4799662828445435e-01" cType="1" res="1.1886832304298878e-02" rms="4.8235833644866943e-01" purity="4.9257093667984009e-01" nType="0">
        <Node pos="l" depth="1" NCoef="0" IVar="2" Cut="-2.4554832458496094e+01" cType="1" res="1.3215887546539307e-01" rms="4.6827432513237000e-01" purity="6.1774218082427979e-01" nType="0">
          <Node pos="l" depth="2" NCoef="0" IVar="-1" Cut="0.0000000000000000e+00" cType="1" res="-2.4401600239798427e-04" rms="4.4067436456680298e-01" purity="3.0042234063148499e-01" nType="-99"/>
          <Node pos="r" depth="2" NCoef="0" IVar="6" Cut="4.2961987853050232e-01" cType="1" res="2.0613545179367065e-01" rms="4.4589045643806458e-01" purity="6.9887340068817139e-01" nType="0">
            <Node pos="l" depth="3" NCoef="0" IVar="-1" Cut="0.0000000000000000e+00" cType="1" res="6.7860004492104053e-05" rms="4.8168778419494629e-01" purity="5.7501268386840820e-01" nType="-99"/>
            <Node pos="r" depth="3" NCoef="0" IVar="-1" Cut="0.0000000000000000e+00" cType="1" res="1.7128410399891436e-04" rms="3.8890781998634338e-01" purity="7.9813796281814575e-01" nType="-99"/>
          </Node>
        </Node>
        <Node pos="r" depth="1" NCoef="0" IVar="2" Cut="-9.8069543838500977e+00" cType="1" res="-4.2941048741340637e-02" rms="4.7871983051300049e-01" purity="4.3550965189933777e-01" nType="0">
          <Node pos="l" depth="2" NCoef="0" IVar="4" Cut="8.7872100830078125e+01" cType="1" res="-2.0603370666503906e-01" rms="4.2431038618087769e-01" purity="2.6082068681716919e-01" nType="0">
            <Node pos="l" depth="3" NCoef="0" IVar="-1" Cut="0.0000000000000000e+00" cType="1" res="5.2251340093789622e-05" rms="4.9122694134712219e-01" purity="5.5622249841690063e-01" nType="-99"/>
            <Node pos="r" depth="3" NCoef="0" IVar="-1" Cut="0.0000000000000000e+00" cType="1" res="-2.6662168093025684e-03" rms="2.4349835515022278e-01" purity="6.4612761139869690e-02" nType="-99"/>
          </Node>
          <Node pos="r" depth="2" NCoef="0" IVar="3" Cut="3.8213691711425781e+01" cType="1" res="1.7588128149509430e-01" rms="4.5991700887680054e-01" purity="6.6989088058471680e-01" nType="0">
            <Node pos="l" depth="3" NCoef="0" IVar="-1" Cut="0.0000000000000000e+00" cType="1" res="6.1427017499227077e-05" rms="4.8524671792984009e-01" purity="5.6717073917388916e-01" nType="-99"/>
            <Node pos="r" depth="3" NCoef="0" IVar="-1" Cut="0.0000000000000000e+00" cType="1" res="1.8356488726567477e-04" rms="3.7977552413940430e-01" purity="8.1407475471496582e-01" nType="-99"/>
          </Node>
        </Node>
      </Node>
    </BinaryTree>
    <BinaryTree type="DecisionTree" boostWeight="1.0000000000000000e+00" itree="35">
      <Node pos="s" depth="0" NCoef="0" IVar="4" Cut="9.1737861633300781e+01" cType="1" res="2.4351449683308601e-02" rms="4.8226857185363770e-01" purity="5.0500416755676270e-01" nType="0">
        <Node pos="l" depth="1" NCoef="0" IVar="4" Cut="8.1489700317382812e+01" cType="1" res="1.0325317829847336e-01" rms="4.7768434882164001e-01" purity="5.9266555309295654e-01" nType="0">
          <Node pos="l" depth="2" NCoef="0" IVar="6" Cut="6.1942237615585327e-01" cType="1" res="3.8340079784393311e-01" rms="3.1725278496742249e-01" purity="8.8509672880172729e-01" nType="0">
            <Node pos="l" depth="3" NCoef="0" IVar="-1" Cut="0.0000000000000000e+00" cType="1" res="2.0825257524847984e-04" rms="2.7271959185600281e-01" purity="9.1867840290069580e-01" nType="-99"/>
            <Node pos="r" depth="3" NCoef="0" IVar="-1" Cut="0.0000000000000000e+00" cType="1" res="1.7915682110469788e-04" rms="3.7821534276008606e-01" purity="8.2352119684219360e-01" nType="-99"/>
          </Node>
          <Node pos="r" depth="2" NCoef="0" IVar="4" Cut="8.8809814453125000e+01" cType="1" res="-3.1801563501358032e-01" rms="3.5280838608741760e-01" purity="1.5292537212371826e-01" nType="0">
            <Node pos="l" depth="3" NCoef="0" IVar="-1" Cut="0.0000000000000000e+00" cType="1" res="-2.4123874027282000e-04" rms="4.5825770497322083e-01" purity="3.1316781044006348e-01" nType="-99"/>
            <Node pos="r" depth="3" NCoef="0" IVar="-1" Cut="0.0000000000000000e+00" cType="1" res="-5.0588189624249935e-03" rms="1.8999977409839630e-01" purity="3.8385923951864243e-02" nType="-99"/>
          </Node>
        </Node>
        <Node pos="r" depth="1" NCoef="0" IVar="6" Cut="3.3402779698371887e-01" cType="1" res="-2.9502952098846436e-01" rms="3.5098740458488464e-01" purity="1.5016566216945648e-01" nType="0">
          <Node pos="l" depth="2" NCoef="0" IVar="-1" Cut="0.0000000000000000e+00" cType="1" res="-3.5868101986125112e-04" rms="4.3863120675086975e-01" purity="2.6354074478149414e-01" nType="-99"/>
          <Node pos="r" depth="2" NCoef="0" IVar="5" Cut="4.7612108290195465e-02" cType="1" res="-3.4791812300682068e-01" rms="2.7245259284973145e-01" purity="8.2178570330142975e-02" nType="0">
            <Node pos="l" depth="3" NCoef="0" IVar="-1" Cut="0.0000000000000000e+00" cType="1" res="-1.4804368838667870e-03" rms="2.9549241065979004e-01" purity="9.9533118307590485e-02" nType="-99"/>
            <Node pos="r" depth="3" NCoef="0" IVar="-1" Cut="0.0000000000000000e+00" cType="1" res="-2.7011267375200987e-03" rms="2.4102281033992767e-01" purity="6.1611268669366837e-02" nType="-99"/>
          </Node>
        </Node>
      </Node>
    </BinaryTree>
    <BinaryTree type="DecisionTree" boostWeight="1.0000000000000000e+00" itree="36">
      <Node pos="s" depth="0" NCoef="0" IVar="2" Cut="-3.1268289566040039e+01" cType="1" res="2.9670182615518570e-02" rms="4.8144710063934326e-01" purity="5.1014930009841919e-01" nType="0">
        <Node pos="l" depth="1" NCoef="0" IVar="7" Cut="4.5049137115478516e+01" cType="1" res="-3.1055644154548645e-01" rms="3.3643499016761780e-01" purity="1.4155659079551697e-01" nType="0">
          <Node pos="l" depth="2" NCoef="0" IVar="-1" Cut="0.0000000000000000e+00" cType="1" res="-1.9955368770752102e-04" rms="4.5354494452476501e-01" purity="3.2614800333976746e-01" nType="-99"/>
          <Node pos="r" depth="2" NCoef="0" IVar="5" Cut="3.3330497145652771e-01" cType="1" res="-3.5476443171501160e-01" rms="2.8142556548118591e-01" purity="9.2234440147876740e-02" nType="0">
            <Node pos="l" depth="3" NCoef="0" IVar="-1" Cut="0.0000000000000000e+00" cType="1" res="-3.9199115708470345e-03" rms="2.0840401947498322e-01" purity="4.8900634050369263e-02" nType="-99"/>
            <Node pos="r" depth="3" NCoef="0" IVar="-1" Cut="0.0000000000000000e+00" cType="1" res="-7.1226240834221244e-04" rms="3.7264806032180786e-01" purity="1.7784774303436279e-01" nType="-99"/>
          </Node>
        </Node>
        <Node pos="r" depth="1" NCoef="0" IVar="3" Cut="4.0542995452880859e+01" cType="1" res="1.4674571156501770e-01" rms="4.6804368495941162e-01" purity="6.3698583841323853e-01" nType="0">
          <Node pos="l" depth="2" NCoef="0" IVar="2" Cut="-4.0303678512573242e+00" cType="1" res="1.7191471531987190e-02" rms="4.8770996928215027e-01" purity="5.0260788202285767e-01" nType="0">
            <Node pos="l" depth="3" NCoef="0" IVar="-1" Cut="0.0000000000000000e+00" cType="1" res="-1.0135181946679950e-04" rms="4.7628977894783020e-01" purity="3.9352509379386902e-01" nType="-99"/>
            <Node pos="r" depth="3" NCoef="0" IVar="-1" Cut="0.0000000000000000e+00" cType="1" res="1.0667615424608812e-04" rms="4.6938657760620117e-01" purity="6.4195996522903442e-01" nType="-99"/>
          </Node>
          <Node pos="r" depth="2" NCoef="0" IVar="-1" Cut="0.0000000000000000e+00" cType="1" res="1.9481444905977696e-04" rms="3.3455482125282288e-01" purity="8.6272740364074707e-01" nType="-99"/>
        </Node>
      </Node>
    </BinaryTree>
    <BinaryTree type="DecisionTree" boostWeight="1.0000000000000000e+00" itree="37">
      <Node pos="s" depth="0" NCoef="0" IVar="2" Cut="-1.1694807052612305e+01" cType="1" res="2.5922916829586029e-02" rms="4.8105871677398682e-01" purity="5.0615358352661133e-01" nType="0">
        <Node pos="l" depth="1" NCoef="0" IVar="4" Cut="8.1048072814941406e+01" cType="1" res="-1.8877746164798737e-01" rms="4.3024328351020813e-01" purity="2.7604398131370544e-01" nType="0">
          <Node pos="l" depth="2" NCoef="0" IVar="-1" Cut="0.0000000000000000e+00" cType="1" res="1.4149858907330781e-04" rms="4.4589254260063171e-01" purity="7.2080647945404053e-01" nType="-99"/>
          <Node pos="r" depth="2" NCoef="0" IVar="0" Cut="-4.2883005738258362e-01" cType="1" res="-3.5748550295829773e-01" rms="2.8585615754127502e-01" purity="9.3379676342010498e-02" nType="0">
            <Node pos="l" depth="3" NCoef="0" IVar="-1" Cut="0.0000000000000000e+00" cType="1" res="-1.1533739743754268e-03" rms="3.2712104916572571e-01" purity="1.2631516158580780e-01" nType="-99"/>
            <Node pos="r" depth="3" NCoef="0" IVar="-1" Cut="0.0000000000000000e+00" cType="1" res="-2.6332116685807705e-03" rms="2.4372798204421997e-01" purity="6.5989777445793152e-02" nType="-99"/>
          </Node>
        </Node>
        <Node pos="r" depth="1" NCoef="0" IVar="3" Cut="4.0414619445800781e+01" cType="1" res="2.2741563618183136e-01" rms="4.3705502152442932e-01" purity="7.2210770845413208e-01" nType="0">
          <Node pos="l" depth="2" NCoef="0" IVar="6" Cut="4.2879751324653625e-01" cType="1" res="1.0618375241756439e-01" rms="4.7956666350364685e-01" purity="5.9690517187118530e-01" nType="0">
            <Node pos="l" depth="3" NCoef="0" IVar="-1" Cut="0.0000000000000000e+00" cType="1" res="4.4547068682732061e-05" rms="4.8791614174842834e-01" purity="5.4289895296096802e-01" nType="-99"/>
            <Node pos="r" depth="3" NCoef="0" IVar="-1" Cut="0.0000000000000000e+00" cType="1" res="1.3777434651274234e-04" rms="4.4628268480300903e-01" purity="6.9876909255981445e-01" nType="-99"/>
          </Node>
          <Node pos="r" depth="2" NCoef="0" IVar="-1" Cut="0.0000000000000000e+00" cType="1" res="1.9813215476460755e-04" rms="3.2116815447807312e-01" purity="8.7558466196060181e-01" nType="-99"/>
        </Node>
      </Node>
    </BinaryTree>
    <BinaryTree type="DecisionTree" boostWeight="1.0000000000000000e+00" itree="38">
      <Node pos="s" depth="0" NCoef="0" IVar="4" Cut="8.5010208129882812e+01" cType="1" res="2.2377736866474152e-02" rms="4.8098415136337280e-01" purity="5.0197714567184448e-01" nType="0">
