<?xml version="1.0"?>
<MethodSetup Method="BDT::BDT_GG_BBH_M_500_Set">
  <GeneralInfo>
    <Info name="TMVA Release" value="4.2.1 [262657]"/>
    <Info name="ROOT Release" value="6.06/01 [394753]"/>
    <Info name="Creator" value="cardinia"/>
    <Info name="Date" value="Fri Aug 26 22:32:48 2016"/>
    <Info name="Host" value="Linux vocms0315.cern.ch 2.6.32-573.26.1.el6.x86_64 #1 SMP Wed May 4 09:23:05 CEST 2016 x86_64 x86_64 x86_64 GNU/Linux"/>
    <Info name="Dir" value="/nfs/dust/cms/user/cardinia/CMSSW_8_0_12/src/DesyTauAnalyses/NTupleMaker/test"/>
    <Info name="Training events" value="2384394"/>
    <Info name="TrainingTime" value="1.73943334e+03"/>
    <Info name="AnalysisType" value="Classification"/>
  </GeneralInfo>
  <Options>
    <Option name="V" modified="Yes">False</Option>
    <Option name="VerbosityLevel" modified="No">Default</Option>
    <Option name="VarTransform" modified="No">None</Option>
    <Option name="H" modified="Yes">False</Option>
    <Option name="CreateMVAPdfs" modified="No">False</Option>
    <Option name="IgnoreNegWeightsInTraining" modified="No">False</Option>
    <Option name="NTrees" modified="Yes">500</Option>
    <Option name="MaxDepth" modified="Yes">3</Option>
    <Option name="MinNodeSize" modified="No">5%</Option>
    <Option name="nCuts" modified="Yes">500</Option>
    <Option name="BoostType" modified="Yes">Grad</Option>
    <Option name="AdaBoostR2Loss" modified="No">quadratic</Option>
    <Option name="UseBaggedBoost" modified="Yes">True</Option>
    <Option name="Shrinkage" modified="Yes">3.000000e-01</Option>
    <Option name="AdaBoostBeta" modified="No">5.000000e-01</Option>
    <Option name="UseRandomisedTrees" modified="No">False</Option>
    <Option name="UseNvars" modified="No">3</Option>
    <Option name="UsePoissonNvars" modified="No">True</Option>
    <Option name="BaggedSampleFraction" modified="No">5.000000e-01</Option>
    <Option name="UseYesNoLeaf" modified="No">True</Option>
    <Option name="NegWeightTreatment" modified="No">ignorenegweightsintraining</Option>
    <Option name="Css" modified="No">1.000000e+00</Option>
    <Option name="Cts_sb" modified="No">1.000000e+00</Option>
    <Option name="Ctb_ss" modified="No">1.000000e+00</Option>
    <Option name="Cbb" modified="No">1.000000e+00</Option>
    <Option name="NodePurityLimit" modified="No">5.000000e-01</Option>
    <Option name="SeparationType" modified="Yes">giniindex</Option>
    <Option name="DoBoostMonitor" modified="No">False</Option>
    <Option name="UseFisherCuts" modified="No">False</Option>
    <Option name="MinLinCorrForFisher" modified="No">8.000000e-01</Option>
    <Option name="UseExclusiveVars" modified="No">False</Option>
    <Option name="DoPreselection" modified="No">False</Option>
    <Option name="SigToBkgFraction" modified="No">1.000000e+00</Option>
    <Option name="PruneMethod" modified="Yes">nopruning</Option>
    <Option name="PruneStrength" modified="No">0.000000e+00</Option>
    <Option name="PruningValFraction" modified="No">5.000000e-01</Option>
    <Option name="nEventsMin" modified="No">0</Option>
    <Option name="UseBaggedGrad" modified="No">False</Option>
    <Option name="GradBaggingFraction" modified="Yes">5.000000e-01</Option>
    <Option name="UseNTrainEvents" modified="No">0</Option>
    <Option name="NNodesMax" modified="No">0</Option>
  </Options>
  <Variables NVar="6">
    <Variable VarIndex="0" Expression="met" Label="met" Title="met" Unit="" Internal="met" Type="F" Min="7.05016926e-02" Max="1.42651025e+03"/>
    <Variable VarIndex="1" Expression="dzeta" Label="dzeta" Title="dzeta" Unit="" Internal="dzeta" Type="F" Min="-1.00696271e+03" Max="1.05587524e+03"/>
    <Variable VarIndex="2" Expression="AngularDistance(phi_2,metphi)" Label="dphi_mumet" Title="dphi_mumet" Unit="" Internal="dphi_mumet" Type="F" Min="2.38418579e-07" Max="3.14158773e+00"/>
    <Variable VarIndex="3" Expression="pt_2" Label="pt_2" Title="pt_2" Unit="" Internal="pt_2" Type="F" Min="1.00000038e+01" Max="1.04734937e+03"/>
    <Variable VarIndex="4" Expression="pt_1" Label="pt_1" Title="pt_1" Unit="" Internal="pt_1" Type="F" Min="1.30000181e+01" Max="1.20317920e+03"/>
    <Variable VarIndex="5" Expression="dr_tt" Label="dr_tt" Title="dr_tt" Unit="" Internal="dr_tt" Type="F" Min="3.00001860e-01" Max="5.68332291e+00"/>
  </Variables>
  <Spectators NSpec="0"/>
  <Classes NClass="2">
    <Class Name="Signal" Index="0"/>
    <Class Name="Background" Index="1"/>
  </Classes>
  <Transformations NTransformations="0"/>
  <MVAPdfs/>
  <Weights NTrees="500" AnalysisType="1">
    <BinaryTree type="DecisionTree" boostWeight="1.0000000000000000e+00" itree="0">
      <Node pos="s" depth="0" NCoef="0" IVar="5" Cut="2.8573522567749023e+00" cType="1" res="-5.8252485468983650e-03" rms="4.9996605515480042e-01" purity="4.9417474865913391e-01" nType="0">
        <Node pos="l" depth="1" NCoef="0" IVar="1" Cut="1.4926918983459473e+01" cType="1" res="-4.0810135006904602e-01" rms="2.8888282179832458e-01" purity="9.1898642480373383e-02" nType="0">
          <Node pos="l" depth="2" NCoef="0" IVar="4" Cut="8.6643836975097656e+01" cType="1" res="-4.5228448510169983e-01" rms="2.1316367387771606e-01" purity="4.7715526074171066e-02" nType="0">
            <Node pos="l" depth="3" NCoef="0" IVar="-1" Cut="0.0000000000000000e+00" cType="1" res="-1.4091948978602886e-02" rms="1.1502189934253693e-01" purity="1.3409860432147980e-02" nType="-99"/>
            <Node pos="r" depth="3" NCoef="0" IVar="-1" Cut="0.0000000000000000e+00" cType="1" res="-1.3782517053186893e-03" rms="4.2581227421760559e-01" purity="2.3792387545108795e-01" nType="-99"/>
          </Node>
          <Node pos="r" depth="2" NCoef="0" IVar="-1" Cut="0.0000000000000000e+00" cType="1" res="-4.5644151396118104e-04" rms="4.8129811882972717e-01" purity="3.6452999711036682e-01" nType="-99"/>
        </Node>
        <Node pos="r" depth="1" NCoef="0" IVar="1" Cut="-3.8701469421386719e+01" cType="1" res="2.6260188221931458e-01" rms="4.2548826336860657e-01" purity="7.6260185241699219e-01" nType="0">
          <Node pos="l" depth="2" NCoef="0" IVar="-1" Cut="0.0000000000000000e+00" cType="1" res="-2.6461952365934849e-03" rms="3.5780474543571472e-01" purity="1.5074972808361053e-01" nType="-99"/>
          <Node pos="r" depth="2" NCoef="0" IVar="4" Cut="5.6464675903320312e+01" cType="1" res="3.4354826807975769e-01" rms="3.6328306794166565e-01" purity="8.4354823827743530e-01" nType="0">
            <Node pos="l" depth="3" NCoef="0" IVar="-1" Cut="0.0000000000000000e+00" cType="1" res="4.0433256071992218e-04" rms="4.4364261627197266e-01" purity="7.3061060905456543e-01" nType="-99"/>
            <Node pos="r" depth="3" NCoef="0" IVar="-1" Cut="0.0000000000000000e+00" cType="1" res="5.8487948263064027e-04" rms="2.8877735137939453e-01" purity="9.0817600488662720e-01" nType="-99"/>
          </Node>
        </Node>
      </Node>
    </BinaryTree>
    <BinaryTree type="DecisionTree" boostWeight="1.0000000000000000e+00" itree="1">
      <Node pos="s" depth="0" NCoef="0" IVar="5" Cut="2.8539292812347412e+00" cType="1" res="-1.4999189414083958e-02" rms="4.9758422374725342e-01" purity="4.8289263248443604e-01" nType="0">
        <Node pos="l" depth="1" NCoef="0" IVar="1" Cut="1.4162665367126465e+01" cType="1" res="-4.0282848477363586e-01" rms="2.8763601183891296e-01" purity="9.1903552412986755e-02" nType="0">
          <Node pos="l" depth="2" NCoef="0" IVar="3" Cut="7.9002479553222656e+01" cType="1" res="-4.5254665613174438e-01" rms="1.9839596748352051e-01" purity="4.1323557496070862e-02" nType="0">
            <Node pos="l" depth="3" NCoef="0" IVar="-1" Cut="0.0000000000000000e+00" cType="1" res="-1.3038111850619316e-02" rms="1.2645687162876129e-01" purity="1.6349695622920990e-02" nType="-99"/>
            <Node pos="r" depth="3" NCoef="0" IVar="-1" Cut="0.0000000000000000e+00" cType="1" res="-2.2736969403922558e-03" rms="3.7867838144302368e-01" purity="1.7490783333778381e-01" nType="-99"/>
          </Node>
          <Node pos="r" depth="2" NCoef="0" IVar="-1" Cut="0.0000000000000000e+00" cType="1" res="-3.7669835728593171e-04" rms="4.8593261837959290e-01" purity="3.8249060511589050e-01" nType="-99"/>
        </Node>
        <Node pos="r" depth="1" NCoef="0" IVar="1" Cut="-3.6130535125732422e+01" cType="1" res="2.4954186379909515e-01" rms="4.3296706676483154e-01" purity="7.4958896636962891e-01" nType="0">
          <Node pos="l" depth="2" NCoef="0" IVar="-1" Cut="0.0000000000000000e+00" cType="1" res="-2.3351446725428104e-03" rms="3.6932429671287537e-01" purity="1.6296134889125824e-01" nType="-99"/>
          <Node pos="r" depth="2" NCoef="0" IVar="4" Cut="6.5972541809082031e+01" cType="1" res="3.3773884177207947e-01" rms="3.6844918131828308e-01" purity="8.3798700571060181e-01" nType="0">
            <Node pos="l" depth="3" NCoef="0" IVar="-1" Cut="0.0000000000000000e+00" cType="1" res="4.2830943129956722e-04" rms="4.3268334865570068e-01" purity="7.5056076049804688e-01" nType="-99"/>
            <Node pos="r" depth="3" NCoef="0" IVar="-1" Cut="0.0000000000000000e+00" cType="1" res="5.8786786394193769e-04" rms="2.8258243203163147e-01" purity="9.1248774528503418e-01" nType="-99"/>
          </Node>
        </Node>
      </Node>
    </BinaryTree>
    <BinaryTree type="DecisionTree" boostWeight="1.0000000000000000e+00" itree="2">
      <Node pos="s" depth="0" NCoef="0" IVar="5" Cut="2.8895936012268066e+00" cType="1" res="3.8379300385713577e-03" rms="4.9587970972061157e-01" purity="4.9986949563026428e-01" nType="0">
        <Node pos="l" depth="1" NCoef="0" IVar="5" Cut="2.6414906978607178e+00" cType="1" res="-3.9017859101295471e-01" rms="2.9752135276794434e-01" purity="9.9891625344753265e-02" nType="0">
          <Node pos="l" depth="2" NCoef="0" IVar="0" Cut="1.1224259185791016e+02" cType="1" res="-4.5088002085685730e-01" rms="1.9033063948154449e-01" purity="3.8274288177490234e-02" nType="0">
            <Node pos="l" depth="3" NCoef="0" IVar="-1" Cut="0.0000000000000000e+00" cType="1" res="-1.3713469728827477e-02" rms="1.1299364268779755e-01" purity="1.3026695698499680e-02" nType="-99"/>
            <Node pos="r" depth="3" NCoef="0" IVar="-1" Cut="0.0000000000000000e+00" cType="1" res="-2.5526972021907568e-03" rms="3.6228615045547485e-01" purity="1.5842241048812866e-01" nType="-99"/>
          </Node>
          <Node pos="r" depth="2" NCoef="0" IVar="-1" Cut="0.0000000000000000e+00" cType="1" res="-5.5956217693164945e-04" rms="4.7095519304275513e-01" purity="3.3942633867263794e-01" nType="-99"/>
        </Node>
        <Node pos="r" depth="1" NCoef="0" IVar="1" Cut="-4.7952587127685547e+01" cType="1" res="2.7639964222908020e-01" rms="4.1602802276611328e-01" purity="7.7655488252639771e-01" nType="0">
          <Node pos="l" depth="2" NCoef="0" IVar="-1" Cut="0.0000000000000000e+00" cType="1" res="-7.3518254794180393e-03" rms="2.2325612604618073e-01" purity="5.2611239254474640e-02" nType="-99"/>
          <Node pos="r" depth="2" NCoef="0" IVar="4" Cut="6.7289344787597656e+01" cType="1" res="3.4561783075332642e-01" rms="3.6081489920616150e-01" purity="8.4602701663970947e-01" nType="0">
            <Node pos="l" depth="3" NCoef="0" IVar="-1" Cut="0.0000000000000000e+00" cType="1" res="4.5541769941337407e-04" rms="4.1836771368980408e-01" purity="7.7365666627883911e-01" nType="-99"/>
            <Node pos="r" depth="3" NCoef="0" IVar="-1" Cut="0.0000000000000000e+00" cType="1" res="5.8995274594053626e-04" rms="2.7896723151206970e-01" purity="9.1488724946975708e-01" nType="-99"/>
          </Node>
        </Node>
      </Node>
    </BinaryTree>
    <BinaryTree type="DecisionTree" boostWeight="1.0000000000000000e+00" itree="3">
      <Node pos="s" depth="0" NCoef="0" IVar="5" Cut="2.8841326236724854e+00" cType="1" res="1.1405460536479950e-02" rms="4.9378550052642822e-01" purity="5.0557816028594971e-01" nType="0">
        <Node pos="l" depth="1" NCoef="0" IVar="4" Cut="9.7780540466308594e+01" cType="1" res="-3.8917410373687744e-01" rms="2.9126918315887451e-01" purity="9.6128031611442566e-02" nType="0">
          <Node pos="l" depth="2" NCoef="0" IVar="1" Cut="6.7192106246948242e+00" cType="1" res="-4.3466123938560486e-01" rms="2.1438811719417572e-01" purity="4.9596767872571945e-02" nType="0">
            <Node pos="l" depth="3" NCoef="0" IVar="-1" Cut="0.0000000000000000e+00" cType="1" res="-1.4457838609814644e-02" rms="1.0681822896003723e-01" purity="1.1795931495726109e-02" nType="-99"/>
            <Node pos="r" depth="3" NCoef="0" IVar="-1" Cut="0.0000000000000000e+00" cType="1" res="-1.1544583830982447e-03" rms="4.3125852942466736e-01" purity="2.4940705299377441e-01" nType="-99"/>
          </Node>
          <Node pos="r" depth="2" NCoef="0" IVar="-1" Cut="0.0000000000000000e+00" cType="1" res="-2.4498088168911636e-04" rms="4.8954346776008606e-01" purity="4.1365188360214233e-01" nType="-99"/>
        </Node>
        <Node pos="r" depth="1" NCoef="0" IVar="1" Cut="-4.6659973144531250e+01" cType="1" res="2.7773478627204895e-01" rms="4.1462081670761108e-01" purity="7.7780520915985107e-01" nType="0">
          <Node pos="l" depth="2" NCoef="0" IVar="-1" Cut="0.0000000000000000e+00" cType="1" res="-4.9088196828961372e-03" rms="2.7844721078872681e-01" purity="8.4688365459442139e-02" nType="-99"/>
          <Node pos="r" depth="2" NCoef="0" IVar="4" Cut="6.0038452148437500e+01" cType="1" res="3.4614256024360657e-01" rms="3.6004754900932312e-01" purity="8.4682440757751465e-01" nType="0">
            <Node pos="l" depth="3" NCoef="0" IVar="-1" Cut="0.0000000000000000e+00" cType="1" res="4.3402781011536717e-04" rms="4.2963916063308716e-01" purity="7.5558012723922729e-01" nType="-99"/>
            <Node pos="r" depth="3" NCoef="0" IVar="-1" Cut="0.0000000000000000e+00" cType="1" res="5.8472808450460434e-04" rms="2.8709560632705688e-01" purity="9.0930658578872681e-01" nType="-99"/>
          </Node>
        </Node>
      </Node>
    </BinaryTree>
    <BinaryTree type="DecisionTree" boostWeight="1.0000000000000000e+00" itree="4">
      <Node pos="s" depth="0" NCoef="0" IVar="5" Cut="2.8573551177978516e+00" cType="1" res="9.6918363124132156e-03" rms="4.9158433079719543e-01" purity="5.0162422657012939e-01" nType="0">
        <Node pos="l" depth="1" NCoef="0" IVar="1" Cut="2.3763610839843750e+01" cType="1" res="-3.7781411409378052e-01" rms="2.9742982983589172e-01" purity="1.0197028517723083e-01" nType="0">
          <Node pos="l" depth="2" NCoef="0" IVar="4" Cut="8.7977401733398438e+01" cType="1" res="-4.3026545643806458e-01" rms="2.0847305655479431e-01" purity="4.6928450465202332e-02" nType="0">
            <Node pos="l" depth="3" NCoef="0" IVar="-1" Cut="0.0000000000000000e+00" cType="1" res="-1.3667504303157330e-02" rms="1.1315771192312241e-01" purity="1.3111075386404991e-02" nType="-99"/>
            <Node pos="r" depth="3" NCoef="0" IVar="-1" Cut="0.0000000000000000e+00" cType="1" res="-1.2767788721248507e-03" rms="4.2523917555809021e-01" purity="2.4193748831748962e-01" nType="-99"/>
          </Node>
          <Node pos="r" depth="2" NCoef="0" IVar="-1" Cut="0.0000000000000000e+00" cType="1" res="-7.9104756878223270e-05" rms="4.9773332476615906e-01" purity="4.6759423613548279e-01" nType="-99"/>
        </Node>
        <Node pos="r" depth="1" NCoef="0" IVar="1" Cut="-3.9726692199707031e+01" cType="1" res="2.6516729593276978e-01" rms="4.2235639691352844e-01" purity="7.6510858535766602e-01" nType="0">
          <Node pos="l" depth="2" NCoef="0" IVar="-1" Cut="0.0000000000000000e+00" cType="1" res="-1.9288326147943735e-03" rms="3.8673150539398193e-01" purity="1.8413175642490387e-01" nType="-99"/>
          <Node pos="r" depth="2" NCoef="0" IVar="4" Cut="5.0670326232910156e+01" cType="1" res="3.4464946389198303e-01" rms="3.6120578646659851e-01" purity="8.4561139345169067e-01" nType="0">
            <Node pos="l" depth="3" NCoef="0" IVar="-1" Cut="0.0000000000000000e+00" cType="1" res="4.0024120244197547e-04" rms="4.4479641318321228e-01" purity="7.2816443443298340e-01" nType="-99"/>
            <Node pos="r" depth="3" NCoef="0" IVar="-1" Cut="0.0000000000000000e+00" cType="1" res="5.7633331744000316e-04" rms="3.0032137036323547e-01" purity="8.9970773458480835e-01" nType="-99"/>
          </Node>
        </Node>
      </Node>
    </BinaryTree>
    <BinaryTree type="DecisionTree" boostWeight="1.0000000000000000e+00" itree="5">
      <Node pos="s" depth="0" NCoef="0" IVar="5" Cut="2.9003286361694336e+00" cType="1" res="7.6424097642302513e-03" rms="4.8949691653251648e-01" purity="4.9752205610275269e-01" nType="0">
        <Node pos="l" depth="1" NCoef="0" IVar="1" Cut="5.2908082008361816e+00" cType="1" res="-3.7825575470924377e-01" rms="2.8972309827804565e-01" purity="9.6716850996017456e-02" nType="0">
          <Node pos="l" depth="2" NCoef="0" IVar="4" Cut="8.3979057312011719e+01" cType="1" res="-4.2378225922584534e-01" rms="2.0906677842140198e-01" purity="4.7521941363811493e-02" nType="0">
            <Node pos="l" depth="3" NCoef="0" IVar="-1" Cut="0.0000000000000000e+00" cType="1" res="-1.3838227838277817e-02" rms="1.0329925268888474e-01" purity="1.0916325263679028e-02" nType="-99"/>
            <Node pos="r" depth="3" NCoef="0" IVar="-1" Cut="0.0000000000000000e+00" cType="1" res="-1.4342267531901598e-03" rms="4.1491052508354187e-01" purity="2.2523292899131775e-01" nType="-99"/>
          </Node>
          <Node pos="r" depth="2" NCoef="0" IVar="-1" Cut="0.0000000000000000e+00" cType="1" res="-5.6609569583088160e-04" rms="4.6985536813735962e-01" purity="3.3671483397483826e-01" nType="-99"/>
        </Node>
        <Node pos="r" depth="1" NCoef="0" IVar="1" Cut="-3.7045490264892578e+01" cType="1" res="2.7556321024894714e-01" rms="4.1534599661827087e-01" purity="7.7579253911972046e-01" nType="0">
          <Node pos="l" depth="2" NCoef="0" IVar="-1" Cut="0.0000000000000000e+00" cType="1" res="-2.2009008098393679e-03" rms="3.7291416525840759e-01" purity="1.6842493414878845e-01" nType="-99"/>
          <Node pos="r" depth="2" NCoef="0" IVar="4" Cut="5.6275302886962891e+01" cType="1" res="3.5429361462593079e-01" rms="3.5146468877792358e-01" purity="8.5558694601058960e-01" nType="0">
            <Node pos="l" depth="3" NCoef="0" IVar="-1" Cut="0.0000000000000000e+00" cType="1" res="4.4593214988708496e-04" rms="4.2264065146446228e-01" purity="7.6714670658111572e-01" nType="-99"/>
            <Node pos="r" depth="3" NCoef="0" IVar="-1" Cut="0.0000000000000000e+00" cType="1" res="5.8350636390969157e-04" rms="2.8717371821403503e-01" purity="9.0929943323135376e-01" nType="-99"/>
          </Node>
        </Node>
      </Node>
    </BinaryTree>
    <BinaryTree type="DecisionTree" boostWeight="1.0000000000000000e+00" itree="6">
      <Node pos="s" depth="0" NCoef="0" IVar="5" Cut="2.8895864486694336e+00" cType="1" res="1.7847025766968727e-02" rms="4.8757606744766235e-01" purity="5.0588124990463257e-01" nType="0">
        <Node pos="l" depth="1" NCoef="0" IVar="5" Cut="2.6259763240814209e+00" cType="1" res="-3.6658111214637756e-01" rms="2.9745626449584961e-01" purity="1.0321326553821564e-01" nType="0">
          <Node pos="l" depth="2" NCoef="0" IVar="1" Cut="-1.4381578445434570e+01" cType="1" res="-4.2002025246620178e-01" rms="2.0654329657554626e-01" purity="4.6582445502281189e-02" nType="0">
            <Node pos="l" depth="3" NCoef="0" IVar="-1" Cut="0.0000000000000000e+00" cType="1" res="-1.2119638733565807e-02" rms="1.3584645092487335e-01" purity="1.9116720184683800e-02" nType="-99"/>
            <Node pos="r" depth="3" NCoef="0" IVar="-1" Cut="0.0000000000000000e+00" cType="1" res="-2.1375946234911680e-03" rms="3.6619573831558228e-01" purity="1.6540260612964630e-01" nType="-99"/>
          </Node>
          <Node pos="r" depth="2" NCoef="0" IVar="-1" Cut="0.0000000000000000e+00" cType="1" res="-6.2318111304193735e-04" rms="4.5940512418746948e-01" purity="3.1986758112907410e-01" nType="-99"/>
        </Node>
        <Node pos="r" depth="1" NCoef="0" IVar="1" Cut="-4.9247581481933594e+01" cType="1" res="2.7593913674354553e-01" rms="4.1485249996185303e-01" purity="7.7621889114379883e-01" nType="0">
          <Node pos="l" depth="2" NCoef="0" IVar="-1" Cut="0.0000000000000000e+00" cType="1" res="-5.4719978943467140e-03" rms="2.6479640603065491e-01" purity="7.5889423489570618e-02" nType="-99"/>
          <Node pos="r" depth="2" NCoef="0" IVar="4" Cut="5.4014125823974609e+01" cType="1" res="3.3895874023437500e-01" rms="3.6608415842056274e-01" purity="8.4024918079376221e-01" nType="0">
            <Node pos="l" depth="3" NCoef="0" IVar="-1" Cut="0.0000000000000000e+00" cType="1" res="3.9401152753271163e-04" rms="4.4677513837814331e-01" purity="7.2386974096298218e-01" nType="-99"/>
            <Node pos="r" depth="3" NCoef="0" IVar="-1" Cut="0.0000000000000000e+00" cType="1" res="5.7756877504289150e-04" rms="2.9733565449714661e-01" purity="9.0182745456695557e-01" nType="-99"/>
          </Node>
        </Node>
      </Node>
    </BinaryTree>
    <BinaryTree type="DecisionTree" boostWeight="1.0000000000000000e+00" itree="7">
      <Node pos="s" depth="0" NCoef="0" IVar="5" Cut="2.9110765457153320e+00" cType="1" res="1.2312695384025574e-02" rms="4.8577839136123657e-01" purity="4.9865019321441650e-01" nType="0">
        <Node pos="l" depth="1" NCoef="0" IVar="1" Cut="2.4963195800781250e+01" cType="1" res="-3.5475891828536987e-01" rms="3.0633997917175293e-01" purity="1.1214768886566162e-01" nType="0">
          <Node pos="l" depth="2" NCoef="0" IVar="4" Cut="9.1214462280273438e+01" cType="1" res="-4.0914008021354675e-01" rms="2.1847344934940338e-01" purity="5.3182285279035568e-02" nType="0">
            <Node pos="l" depth="3" NCoef="0" IVar="-1" Cut="0.0000000000000000e+00" cType="1" res="-1.1730589903891087e-02" rms="1.2744922935962677e-01" purity="1.7291611060500145e-02" nType="-99"/>
            <Node pos="r" depth="3" NCoef="0" IVar="-1" Cut="0.0000000000000000e+00" cType="1" res="-9.5608481205999851e-04" rms="4.4322484731674194e-01" purity="2.7581658959388733e-01" nType="-99"/>
          </Node>
          <Node pos="r" depth="2" NCoef="0" IVar="-1" Cut="0.0000000000000000e+00" cType="1" res="-2.2165873815538362e-05" rms="4.9872639775276184e-01" purity="4.8751270771026611e-01" nType="-99"/>
        </Node>
        <Node pos="r" depth="1" NCoef="0" IVar="1" Cut="-4.9488586425781250e+01" cType="1" res="2.7516338229179382e-01" rms="4.1495233774185181e-01" purity="7.7541488409042358e-01" nType="0">
          <Node pos="l" depth="2" NCoef="0" IVar="-1" Cut="0.0000000000000000e+00" cType="1" res="-5.1698191091418266e-03" rms="2.6582264900207520e-01" purity="7.6516464352607727e-02" nType="-99"/>
          <Node pos="r" depth="2" NCoef="0" IVar="4" Cut="6.6074409484863281e+01" cType="1" res="3.3965983986854553e-01" rms="3.6522141098976135e-01" purity="8.4119802713394165e-01" nType="0">
            <Node pos="l" depth="3" NCoef="0" IVar="-1" Cut="0.0000000000000000e+00" cType="1" res="4.3049087980762124e-04" rms="4.3051213026046753e-01" purity="7.5382995605468750e-01" nType="-99"/>
            <Node pos="r" depth="3" NCoef="0" IVar="-1" Cut="0.0000000000000000e+00" cType="1" res="5.8825005544349551e-04" rms="2.7799656987190247e-01" purity="9.1548621654510498e-01" nType="-99"/>
          </Node>
        </Node>
      </Node>
    </BinaryTree>
    <BinaryTree type="DecisionTree" boostWeight="1.0000000000000000e+00" itree="8">
      <Node pos="s" depth="0" NCoef="0" IVar="5" Cut="2.9003286361694336e+00" cType="1" res="1.6938641667366028e-02" rms="4.8393359780311584e-01" purity="5.0129723548889160e-01" nType="0">
        <Node pos="l" depth="1" NCoef="0" IVar="1" Cut="-7.5465126037597656e+00" cType="1" res="-3.4493923187255859e-01" rms="3.1160175800323486e-01" purity="1.1722475290298462e-01" nType="0">
          <Node pos="l" depth="2" NCoef="0" IVar="4" Cut="8.6643920898437500e+01" cType="1" res="-4.0857589244842529e-01" rms="2.0496593415737152e-01" purity="4.6940784901380539e-02" nType="0">
            <Node pos="l" depth="3" NCoef="0" IVar="-1" Cut="0.0000000000000000e+00" cType="1" res="-1.5736499801278114e-02" rms="7.5362287461757660e-02" purity="5.7495255023241043e-03" nType="-99"/>
            <Node pos="r" depth="3" NCoef="0" IVar="-1" Cut="0.0000000000000000e+00" cType="1" res="-1.0896734893321991e-03" rms="4.3359607458114624e-01" purity="2.5902056694030762e-01" nType="-99"/>
          </Node>
          <Node pos="r" depth="2" NCoef="0" IVar="-1" Cut="0.0000000000000000e+00" cType="1" res="-4.4359572348184884e-04" rms="4.7319316864013672e-01" purity="3.5652187466621399e-01" nType="-99"/>
        </Node>
        <Node pos="r" depth="1" NCoef="0" IVar="1" Cut="-4.7035327911376953e+01" cType="1" res="2.7479946613311768e-01" rms="4.1481924057006836e-01" purity="7.7497309446334839e-01" nType="0">
          <Node pos="l" depth="2" NCoef="0" IVar="-1" Cut="0.0000000000000000e+00" cType="1" res="-2.8166370466351509e-03" rms="3.4319704771041870e-01" purity="1.3670669496059418e-01" nType="-99"/>
          <Node pos="r" depth="2" NCoef="0" IVar="4" Cut="6.3801944732666016e+01" cType="1" res="3.4165742993354797e-01" rms="3.6306658387184143e-01" purity="8.4352511167526245e-01" nType="0">
            <Node pos="l" depth="3" NCoef="0" IVar="-1" Cut="0.0000000000000000e+00" cType="1" res="4.3250274029560387e-04" rms="4.2966067790985107e-01" purity="7.5535458326339722e-01" nType="-99"/>
            <Node pos="r" depth="3" NCoef="0" IVar="-1" Cut="0.0000000000000000e+00" cType="1" res="5.8234855532646179e-04" rms="2.8726324439048767e-01" purity="9.0914106369018555e-01" nType="-99"/>
          </Node>
        </Node>
      </Node>
    </BinaryTree>
    <BinaryTree type="DecisionTree" boostWeight="1.0000000000000000e+00" itree="9">
      <Node pos="s" depth="0" NCoef="0" IVar="5" Cut="2.9003286361694336e+00" cType="1" res="1.5897365286946297e-02" rms="4.8170590400695801e-01" purity="4.9819368124008179e-01" nType="0">
        <Node pos="l" depth="1" NCoef="0" IVar="1" Cut="6.7736983299255371e+00" cType="1" res="-3.4387567639350891e-01" rms="3.0543407797813416e-01" purity="1.1314160376787186e-01" nType="0">
          <Node pos="l" depth="2" NCoef="0" IVar="4" Cut="8.0175186157226562e+01" cType="1" res="-4.0385335683822632e-01" rms="2.0222087204456329e-01" purity="4.5425947755575180e-02" nType="0">
            <Node pos="l" depth="3" NCoef="0" IVar="-1" Cut="0.0000000000000000e+00" cType="1" res="-1.2591863051056862e-02" rms="1.1071757972240448e-01" purity="1.2514113448560238e-02" nType="-99"/>
            <Node pos="r" depth="3" NCoef="0" IVar="-1" Cut="0.0000000000000000e+00" cType="1" res="-1.8104045884683728e-03" rms="3.8837563991546631e-01" purity="1.9210979342460632e-01" nType="-99"/>
          </Node>
          <Node pos="r" depth="2" NCoef="0" IVar="-1" Cut="0.0000000000000000e+00" cType="1" res="-2.3025678819976747e-04" rms="4.8914489150047302e-01" purity="4.1468441486358643e-01" nType="-99"/>
        </Node>
        <Node pos="r" depth="1" NCoef="0" IVar="1" Cut="-4.2664722442626953e+01" cType="1" res="2.7400347590446472e-01" rms="4.1485393047332764e-01" purity="7.7443540096282959e-01" nType="0">
          <Node pos="l" depth="2" NCoef="0" IVar="-1" Cut="0.0000000000000000e+00" cType="1" res="-3.8001942448318005e-03" rms="3.0616423487663269e-01" purity="1.0616113245487213e-01" nType="-99"/>
          <Node pos="r" depth="2" NCoef="0" IVar="4" Cut="6.0436531066894531e+01" cType="1" res="3.4669926762580872e-01" rms="3.5795974731445312e-01" purity="8.4891384840011597e-01" nType="0">
            <Node pos="l" depth="3" NCoef="0" IVar="-1" Cut="0.0000000000000000e+00" cType="1" res="4.4352794066071510e-04" rms="4.2337441444396973e-01" purity="7.6580023765563965e-01" nType="-99"/>
            <Node pos="r" depth="3" NCoef="0" IVar="-1" Cut="0.0000000000000000e+00" cType="1" res="5.8309733867645264e-04" rms="2.8563421964645386e-01" purity="9.1031378507614136e-01" nType="-99"/>
          </Node>
        </Node>
      </Node>
    </BinaryTree>
    <BinaryTree type="DecisionTree" boostWeight="1.0000000000000000e+00" itree="10">
      <Node pos="s" depth="0" NCoef="0" IVar="5" Cut="2.9055747985839844e+00" cType="1" res="2.7059938758611679e-02" rms="4.7996151447296143e-01" purity="5.0787025690078735e-01" nType="0">
        <Node pos="l" depth="1" NCoef="0" IVar="5" Cut="2.6247341632843018e+00" cType="1" res="-3.2893168926239014e-01" rms="3.1704244017601013e-01" purity="1.2422170490026474e-01" nType="0">
          <Node pos="l" depth="2" NCoef="0" IVar="0" Cut="1.1680509185791016e+02" cType="1" res="-3.9959588646888733e-01" rms="2.0392973721027374e-01" purity="4.7030501067638397e-02" nType="0">
            <Node pos="l" depth="3" NCoef="0" IVar="-1" Cut="0.0000000000000000e+00" cType="1" res="-1.0651573538780212e-02" rms="1.4154969155788422e-01" purity="2.1442975848913193e-02" nType="-99"/>
            <Node pos="r" depth="3" NCoef="0" IVar="-1" Cut="0.0000000000000000e+00" cType="1" res="-1.8494789255782962e-03" rms="3.7570759654045105e-01" purity="1.8501490354537964e-01" nType="-99"/>
          </Node>
          <Node pos="r" depth="2" NCoef="0" IVar="-1" Cut="0.0000000000000000e+00" cType="1" res="-3.3733027521520853e-04" rms="4.7161087393760681e-01" purity="3.7279015779495239e-01" nType="-99"/>
        </Node>
        <Node pos="r" depth="1" NCoef="0" IVar="1" Cut="-3.8701469421386719e+01" cType="1" res="2.7991536259651184e-01" rms="4.1065949201583862e-01" purity="7.8036993741989136e-01" nType="0">
          <Node pos="l" depth="2" NCoef="0" IVar="-1" Cut="0.0000000000000000e+00" cType="1" res="-2.1291787270456553e-03" rms="3.7287354469299316e-01" purity="1.6884498298168182e-01" nType="-99"/>
          <Node pos="r" depth="2" NCoef="0" IVar="4" Cut="5.6275848388671875e+01" cType="1" res="3.5513466596603394e-01" rms="3.4925976395606995e-01" purity="8.5769706964492798e-01" nType="0">
            <Node pos="l" depth="3" NCoef="0" IVar="-1" Cut="0.0000000000000000e+00" cType="1" res="4.4503892422653735e-04" rms="4.2230531573295593e-01" purity="7.6763629913330078e-01" nType="-99"/>
            <Node pos="r" depth="3" NCoef="0" IVar="-1" Cut="0.0000000000000000e+00" cType="1" res="5.8404047740623355e-04" rms="2.8300830721855164e-01" purity="9.1217672824859619e-01" nType="-99"/>
          </Node>
        </Node>
      </Node>
    </BinaryTree>
    <BinaryTree type="DecisionTree" boostWeight="1.0000000000000000e+00" itree="11">
      <Node pos="s" depth="0" NCoef="0" IVar="5" Cut="2.8734114170074463e+00" cType="1" res="3.0014308169484138e-02" rms="4.7845205664634705e-01" purity="5.0986063480377197e-01" nType="0">
        <Node pos="l" depth="1" NCoef="0" IVar="5" Cut="2.6474027633666992e+00" cType="1" res="-3.5552340745925903e-01" rms="2.7762487530708313e-01" purity="9.2029899358749390e-02" nType="0">
          <Node pos="l" depth="2" NCoef="0" IVar="4" Cut="5.9060485839843750e+01" cType="1" res="-4.0031939744949341e-01" rms="1.9310954213142395e-01" purity="4.1914068162441254e-02" nType="0">
            <Node pos="l" depth="3" NCoef="0" IVar="-1" Cut="0.0000000000000000e+00" cType="1" res="-1.2021162547171116e-02" rms="1.1330500990152359e-01" purity="1.3760223984718323e-02" nType="-99"/>
            <Node pos="r" depth="3" NCoef="0" IVar="-1" Cut="0.0000000000000000e+00" cType="1" res="-3.7048964295536280e-03" rms="2.9892027378082275e-01" purity="1.0644339025020599e-01" nType="-99"/>
          </Node>
          <Node pos="r" depth="2" NCoef="0" IVar="-1" Cut="0.0000000000000000e+00" cType="1" res="-6.0082983691245317e-04" rms="4.5393574237823486e-01" purity="3.1658250093460083e-01" nType="-99"/>
        </Node>
        <Node pos="r" depth="1" NCoef="0" IVar="1" Cut="-3.8175842285156250e+01" cType="1" res="2.7509790658950806e-01" rms="4.1338303685188293e-01" purity="7.7547264099121094e-01" nType="0">
          <Node pos="l" depth="2" NCoef="0" IVar="-1" Cut="0.0000000000000000e+00" cType="1" res="-2.2535943426191807e-03" rms="3.6459162831306458e-01" purity="1.6095206141471863e-01" nType="-99"/>
          <Node pos="r" depth="2" NCoef="0" IVar="4" Cut="4.3695014953613281e+01" cType="1" res="3.5344463586807251e-01" rms="3.5064649581909180e-01" purity="8.5611426830291748e-01" nType="0">
            <Node pos="l" depth="3" NCoef="0" IVar="-1" Cut="0.0000000000000000e+00" cType="1" res="3.9742875378578901e-04" rms="4.4475436210632324e-01" purity="7.2782284021377563e-01" nType="-99"/>
            <Node pos="r" depth="3" NCoef="0" IVar="-1" Cut="0.0000000000000000e+00" cType="1" res="5.7103927247226238e-04" rms="3.0394247174263000e-01" purity="8.9681947231292725e-01" nType="-99"/>
          </Node>
        </Node>
      </Node>
    </BinaryTree>
    <BinaryTree type="DecisionTree" boostWeight="1.0000000000000000e+00" itree="12">
      <Node pos="s" depth="0" NCoef="0" IVar="5" Cut="2.9003355503082275e+00" cType="1" res="1.4445773325860500e-02" rms="4.7684359550476074e-01" purity="4.9170872569084167e-01" nType="0">
        <Node pos="l" depth="1" NCoef="0" IVar="1" Cut="2.2860479354858398e+01" cType="1" res="-3.3990493416786194e-01" rms="2.9303517937660217e-01" purity="1.0497152060270309e-01" nType="0">
          <Node pos="l" depth="2" NCoef="0" IVar="4" Cut="9.1395057678222656e+01" cType="1" res="-3.8173156976699829e-01" rms="2.2184847295284271e-01" purity="5.6387688964605331e-02" nType="0">
            <Node pos="l" depth="3" NCoef="0" IVar="-1" Cut="0.0000000000000000e+00" cType="1" res="-1.1040802113711834e-02" rms="1.3353711366653442e-01" purity="1.8944157287478447e-02" nType="-99"/>
            <Node pos="r" depth="3" NCoef="0" IVar="-1" Cut="0.0000000000000000e+00" cType="1" res="-8.6821278091520071e-04" rms="4.4614711403846741e-01" purity="2.8377237915992737e-01" nType="-99"/>
          </Node>
          <Node pos="r" depth="2" NCoef="0" IVar="-1" Cut="0.0000000000000000e+00" cType="1" res="-1.5731390158180147e-04" rms="4.9246862530708313e-01" purity="4.3625327944755554e-01" nType="-99"/>
        </Node>
        <Node pos="r" depth="1" NCoef="0" IVar="1" Cut="-4.6660400390625000e+01" cType="1" res="2.6890760660171509e-01" rms="4.1722866892814636e-01" purity="7.6942753791809082e-01" nType="0">
          <Node pos="l" depth="2" NCoef="0" IVar="-1" Cut="0.0000000000000000e+00" cType="1" res="-4.3075182475149632e-03" rms="2.8778049349784851e-01" purity="9.1662429273128510e-02" nType="-99"/>
          <Node pos="r" depth="2" NCoef="0" IVar="4" Cut="6.3218635559082031e+01" cType="1" res="3.3885356783866882e-01" rms="3.6470493674278259e-01" purity="8.4166330099105835e-01" nType="0">
            <Node pos="l" depth="3" NCoef="0" IVar="-1" Cut="0.0000000000000000e+00" cType="1" res="4.2112698429264128e-04" rms="4.3442085385322571e-01" purity="7.4701601266860962e-01" nType="-99"/>
            <Node pos="r" depth="3" NCoef="0" IVar="-1" Cut="0.0000000000000000e+00" cType="1" res="5.8322196127846837e-04" rms="2.8341913223266602e-01" purity="9.1177189350128174e-01" nType="-99"/>
          </Node>
        </Node>
      </Node>
    </BinaryTree>
    <BinaryTree type="DecisionTree" boostWeight="1.0000000000000000e+00" itree="13">
      <Node pos="s" depth="0" NCoef="0" IVar="5" Cut="2.8412425518035889e+00" cType="1" res="2.3597491905093193e-02" rms="4.7517842054367065e-01" purity="4.9953383207321167e-01" nType="0">
        <Node pos="l" depth="1" NCoef="0" IVar="3" Cut="8.8169776916503906e+01" cType="1" res="-3.4800058603286743e-01" rms="2.7372920513153076e-01" purity="9.0644501149654388e-02" nType="0">
          <Node pos="l" depth="2" NCoef="0" IVar="1" Cut="6.1832747459411621e+00" cType="1" res="-3.9124253392219543e-01" rms="1.9679130613803864e-01" purity="4.4677544385194778e-02" nType="0">
            <Node pos="l" depth="3" NCoef="0" IVar="-1" Cut="0.0000000000000000e+00" cType="1" res="-1.4484655112028122e-02" rms="8.0450326204299927e-02" purity="6.7959739826619625e-03" nType="-99"/>
            <Node pos="r" depth="3" NCoef="0" IVar="-1" Cut="0.0000000000000000e+00" cType="1" res="-1.1049705790355802e-03" rms="4.2647692561149597e-01" purity="2.4782781302928925e-01" nType="-99"/>
          </Node>
          <Node pos="r" depth="2" NCoef="0" IVar="-1" Cut="0.0000000000000000e+00" cType="1" res="-2.8319717966951430e-04" rms="4.6399816870689392e-01" purity="3.7315478920936584e-01" nType="-99"/>
        </Node>
        <Node pos="r" depth="1" NCoef="0" IVar="1" Cut="-3.4772445678710938e+01" cType="1" res="2.6208174228668213e-01" rms="4.2085963487625122e-01" purity="7.6195079088211060e-01" nType="0">
          <Node pos="l" depth="2" NCoef="0" IVar="-1" Cut="0.0000000000000000e+00" cType="1" res="-2.0733512938022614e-03" rms="3.7226542830467224e-01" purity="1.7114791274070740e-01" nType="-99"/>
          <Node pos="r" depth="2" NCoef="0" IVar="4" Cut="4.4512851715087891e+01" cType="1" res="3.4690392017364502e-01" rms="3.5666143894195557e-01" purity="8.4969449043273926e-01" nType="0">
            <Node pos="l" depth="3" NCoef="0" IVar="-1" Cut="0.0000000000000000e+00" cType="1" res="3.8669159403070807e-04" rms="4.4835716485977173e-01" purity="7.1939331293106079e-01" nType="-99"/>
            <Node pos="r" depth="3" NCoef="0" IVar="-1" Cut="0.0000000000000000e+00" cType="1" res="5.7005614507943392e-04" rms="3.0505007505416870e-01" purity="8.9582479000091553e-01" nType="-99"/>
          </Node>
        </Node>
      </Node>
    </BinaryTree>
    <BinaryTree type="DecisionTree" boostWeight="1.0000000000000000e+00" itree="14">
      <Node pos="s" depth="0" NCoef="0" IVar="5" Cut="2.7713994979858398e+00" cType="1" res="3.0570505186915398e-02" rms="4.7299608588218689e-01" purity="5.0502032041549683e-01" nType="0">
        <Node pos="l" depth="1" NCoef="0" IVar="1" Cut="8.2191073894500732e-01" cType="1" res="-3.8301017880439758e-01" rms="2.0150135457515717e-01" purity="4.6585943549871445e-02" nType="0">
          <Node pos="l" depth="2" NCoef="0" IVar="3" Cut="7.2927650451660156e+01" cType="1" res="-3.9985251426696777e-01" rms="1.4169304072856903e-01" purity="2.1676696836948395e-02" nType="0">
            <Node pos="l" depth="3" NCoef="0" IVar="-1" Cut="0.0000000000000000e+00" cType="1" res="-1.2977147474884987e-02" rms="9.5195047557353973e-02" purity="9.2648314312100410e-03" nType="-99"/>
            <Node pos="r" depth="3" NCoef="0" IVar="-1" Cut="0.0000000000000000e+00" cType="1" res="-5.0218058750033379e-03" rms="2.6356363296508789e-01" purity="8.0502308905124664e-02" nType="-99"/>
          </Node>
          <Node pos="r" depth="2" NCoef="0" IVar="-1" Cut="0.0000000000000000e+00" cType="1" res="-1.7536472296342254e-03" rms="3.8201931118965149e-01" purity="1.8735639750957489e-01" nType="-99"/>
        </Node>
        <Node pos="r" depth="1" NCoef="0" IVar="1" Cut="-3.8731552124023438e+01" cType="1" res="2.5504320859909058e-01" rms="4.2413470149040222e-01" purity="7.5383758544921875e-01" nType="0">
          <Node pos="l" depth="2" NCoef="0" IVar="-1" Cut="0.0000000000000000e+00" cType="1" res="-2.4456623941659927e-03" rms="3.5165649652481079e-01" purity="1.4873194694519043e-01" nType="-99"/>
          <Node pos="r" depth="2" NCoef="0" IVar="4" Cut="4.6484561920166016e+01" cType="1" res="3.3921080827713013e-01" rms="3.6337092518806458e-01" purity="8.4147912263870239e-01" nType="0">
            <Node pos="l" depth="3" NCoef="0" IVar="-1" Cut="0.0000000000000000e+00" cType="1" res="3.8038523052819073e-04" rms="4.5053210854530334e-01" purity="7.1217030286788940e-01" nType="-99"/>
            <Node pos="r" depth="3" NCoef="0" IVar="-1" Cut="0.0000000000000000e+00" cType="1" res="5.6705204769968987e-04" rms="3.0909401178359985e-01" purity="8.9195090532302856e-01" nType="-99"/>
          </Node>
        </Node>
      </Node>
    </BinaryTree>
    <BinaryTree type="DecisionTree" boostWeight="1.0000000000000000e+00" itree="15">
      <Node pos="s" depth="0" NCoef="0" IVar="5" Cut="2.8686048984527588e+00" cType="1" res="3.0440269038081169e-02" rms="4.7142297029495239e-01" purity="5.0285631418228149e-01" nType="0">
        <Node pos="l" depth="1" NCoef="0" IVar="1" Cut="1.4714536666870117e+01" cType="1" res="-3.3846512436866760e-01" rms="2.7265101671218872e-01" purity="9.0838998556137085e-02" nType="0">
          <Node pos="l" depth="2" NCoef="0" IVar="3" Cut="7.4893875122070312e+01" cType="1" res="-3.7571337819099426e-01" rms="1.9757780432701111e-01" purity="4.4308762997388840e-02" nType="0">
            <Node pos="l" depth="3" NCoef="0" IVar="-1" Cut="0.0000000000000000e+00" cType="1" res="-1.1631114408373833e-02" rms="1.1533363908529282e-01" purity="1.3887103646993637e-02" nType="-99"/>
            <Node pos="r" depth="3" NCoef="0" IVar="-1" Cut="0.0000000000000000e+00" cType="1" res="-1.7726008081808686e-03" rms="3.7092703580856323e-01" purity="1.8114297091960907e-01" nType="-99"/>
          </Node>
          <Node pos="r" depth="2" NCoef="0" IVar="-1" Cut="0.0000000000000000e+00" cType="1" res="-3.6360736703500152e-04" rms="4.7967258095741272e-01" purity="3.7603855133056641e-01" nType="-99"/>
        </Node>
        <Node pos="r" depth="1" NCoef="0" IVar="1" Cut="-3.6090446472167969e+01" cType="1" res="2.7048578858375549e-01" rms="4.1509324312210083e-01" purity="7.7095460891723633e-01" nType="0">
          <Node pos="l" depth="2" NCoef="0" IVar="-1" Cut="0.0000000000000000e+00" cType="1" res="-2.0023805554956198e-03" rms="3.7568429112434387e-01" purity="1.7407408356666565e-01" nType="-99"/>
          <Node pos="r" depth="2" NCoef="0" IVar="4" Cut="6.0038356781005859e+01" cType="1" res="3.5191911458969116e-01" rms="3.5114228725433350e-01" purity="8.5555368661880493e-01" nType="0">
            <Node pos="l" depth="3" NCoef="0" IVar="-1" Cut="0.0000000000000000e+00" cType="1" res="4.4945205445401371e-04" rms="4.1867396235466003e-01" purity="7.7266931533813477e-01" nType="-99"/>
            <Node pos="r" depth="3" NCoef="0" IVar="-1" Cut="0.0000000000000000e+00" cType="1" res="5.8416504180058837e-04" rms="2.7963647246360779e-01" purity="9.1437834501266479e-01" nType="-99"/>
          </Node>
        </Node>
      </Node>
    </BinaryTree>
    <BinaryTree type="DecisionTree" boostWeight="1.0000000000000000e+00" itree="16">
      <Node pos="s" depth="0" NCoef="0" IVar="5" Cut="2.9110736846923828e+00" cType="1" res="1.7014620825648308e-02" rms="4.6954035758972168e-01" purity="4.8681584000587463e-01" nType="0">
        <Node pos="l" depth="1" NCoef="0" IVar="1" Cut="1.8006168365478516e+01" cType="1" res="-3.3031919598579407e-01" rms="2.7890279889106750e-01" purity="9.6973396837711334e-02" nType="0">
          <Node pos="l" depth="2" NCoef="0" IVar="4" Cut="8.7922470092773438e+01" cType="1" res="-3.7282004952430725e-01" rms="1.9638341665267944e-01" purity="4.4501077383756638e-02" nType="0">
            <Node pos="l" depth="3" NCoef="0" IVar="-1" Cut="0.0000000000000000e+00" cType="1" res="-1.0981407947838306e-02" rms="1.2006589770317078e-01" purity="1.5246187336742878e-02" nType="-99"/>
            <Node pos="r" depth="3" NCoef="0" IVar="-1" Cut="0.0000000000000000e+00" cType="1" res="-1.4223038451746106e-03" rms="4.0203452110290527e-01" purity="2.1602459251880646e-01" nType="-99"/>
          </Node>
          <Node pos="r" depth="2" NCoef="0" IVar="-1" Cut="0.0000000000000000e+00" cType="1" res="-2.1355814533308148e-04" rms="4.8860952258110046e-01" purity="4.1685113310813904e-01" nType="-99"/>
        </Node>
        <Node pos="r" depth="1" NCoef="0" IVar="1" Cut="-4.7176471710205078e+01" cType="1" res="2.7031397819519043e-01" rms="4.1518798470497131e-01" purity="7.7111536264419556e-01" nType="0">
          <Node pos="l" depth="2" NCoef="0" IVar="-1" Cut="0.0000000000000000e+00" cType="1" res="-3.8283509202301502e-03" rms="3.0014196038246155e-01" purity="1.0029564052820206e-01" nType="-99"/>
          <Node pos="r" depth="2" NCoef="0" IVar="4" Cut="6.0437057495117188e+01" cType="1" res="3.3779788017272949e-01" rms="3.6473694443702698e-01" purity="8.4146642684936523e-01" nType="0">
            <Node pos="l" depth="3" NCoef="0" IVar="-1" Cut="0.0000000000000000e+00" cType="1" res="4.1238919948227704e-04" rms="4.3754976987838745e-01" purity="7.4103552103042603e-01" nType="-99"/>
            <Node pos="r" depth="3" NCoef="0" IVar="-1" Cut="0.0000000000000000e+00" cType="1" res="5.8065738994628191e-04" rms="2.8593060374259949e-01" purity="9.0998196601867676e-01" nType="-99"/>
          </Node>
        </Node>
      </Node>
    </BinaryTree>
    <BinaryTree type="DecisionTree" boostWeight="1.0000000000000000e+00" itree="17">
      <Node pos="s" depth="0" NCoef="0" IVar="5" Cut="2.7983496189117432e+00" cType="1" res="1.6396669670939445e-02" rms="4.6810820698738098e-01" purity="4.8425072431564331e-01" nType="0">
        <Node pos="l" depth="1" NCoef="0" IVar="0" Cut="1.2963302612304688e+02" cType="1" res="-3.4089607000350952e-01" rms="2.5186905264854431e-01" purity="7.8186817467212677e-02" nType="0">
          <Node pos="l" depth="2" NCoef="0" IVar="5" Cut="2.5689601898193359e+00" cType="1" res="-3.7782526016235352e-01" rms="1.7491501569747925e-01" purity="3.5619951784610748e-02" nType="0">
            <Node pos="l" depth="3" NCoef="0" IVar="-1" Cut="0.0000000000000000e+00" cType="1" res="-1.2432955205440521e-02" rms="1.0267695784568787e-01" purity="1.1327401734888554e-02" nType="-99"/>
            <Node pos="r" depth="3" NCoef="0" IVar="-1" Cut="0.0000000000000000e+00" cType="1" res="-1.9584165420383215e-03" rms="3.5096433758735657e-01" purity="1.6179734468460083e-01" nType="-99"/>
          </Node>
          <Node pos="r" depth="2" NCoef="0" IVar="-1" Cut="0.0000000000000000e+00" cType="1" res="-3.6311318399384618e-04" rms="4.5855373144149780e-01" purity="3.5437408089637756e-01" nType="-99"/>
        </Node>
        <Node pos="r" depth="1" NCoef="0" IVar="1" Cut="-3.9076797485351562e+01" cType="1" res="2.4084824323654175e-01" rms="4.3168821930885315e-01" purity="7.3934030532836914e-01" nType="0">
          <Node pos="l" depth="2" NCoef="0" IVar="-1" Cut="0.0000000000000000e+00" cType="1" res="-2.2984845563769341e-03" rms="3.5734540224075317e-01" purity="1.5466637909412384e-01" nType="-99"/>
          <Node pos="r" depth="2" NCoef="0" IVar="4" Cut="5.0630615234375000e+01" cType="1" res="3.2685104012489319e-01" rms="3.7428939342498779e-01" purity="8.2958549261093140e-01" nType="0">
            <Node pos="l" depth="3" NCoef="0" IVar="-1" Cut="0.0000000000000000e+00" cType="1" res="3.7685263669118285e-04" rms="4.5151823759078979e-01" purity="7.1039283275604248e-01" nType="-99"/>
            <Node pos="r" depth="3" NCoef="0" IVar="-1" Cut="0.0000000000000000e+00" cType="1" res="5.6331523228436708e-04" rms="3.1396070122718811e-01" purity="8.8822650909423828e-01" nType="-99"/>
          </Node>
        </Node>
      </Node>
    </BinaryTree>
    <BinaryTree type="DecisionTree" boostWeight="1.0000000000000000e+00" itree="18">
      <Node pos="s" depth="0" NCoef="0" IVar="5" Cut="2.9055776596069336e+00" cType="1" res="3.0996957793831825e-02" rms="4.6682050824165344e-01" purity="4.9829491972923279e-01" nType="0">
        <Node pos="l" depth="1" NCoef="0" IVar="1" Cut="-1.8031713485717773e+01" cType="1" res="-3.0587241053581238e-01" rms="2.9823428392410278e-01" purity="1.1367025226354599e-01" nType="0">
          <Node pos="l" depth="2" NCoef="0" IVar="4" Cut="8.4190238952636719e+01" cType="1" res="-3.6361548304557800e-01" rms="1.9054709374904633e-01" purity="4.1774939745664597e-02" nType="0">
            <Node pos="l" depth="3" NCoef="0" IVar="-1" Cut="0.0000000000000000e+00" cType="1" res="-1.3685814104974270e-02" rms="8.6108617484569550e-02" purity="7.6324958354234695e-03" nType="-99"/>
            <Node pos="r" depth="3" NCoef="0" IVar="-1" Cut="0.0000000000000000e+00" cType="1" res="-1.4609589707106352e-03" rms="3.9915335178375244e-01" purity="2.0763255655765533e-01" nType="-99"/>
          </Node>
          <Node pos="r" depth="2" NCoef="0" IVar="4" Cut="4.6887805938720703e+01" cType="1" res="-1.4488136768341064e-01" rms="4.4775015115737915e-01" purity="3.1411850452423096e-01" nType="0">
            <Node pos="l" depth="3" NCoef="0" IVar="-1" Cut="0.0000000000000000e+00" cType="1" res="-2.1392991766333580e-03" rms="3.4693977236747742e-01" purity="1.5141451358795166e-01" nType="-99"/>
            <Node pos="r" depth="3" NCoef="0" IVar="-1" Cut="0.0000000000000000e+00" cType="1" res="3.8155973015818745e-05" rms="4.8502922058105469e-01" purity="4.8538038134574890e-01" nType="-99"/>
          </Node>
        </Node>
        <Node pos="r" depth="1" NCoef="0" IVar="1" Cut="-3.6703407287597656e+01" cType="1" res="2.7051228284835815e-01" rms="4.1421255469322205e-01" purity="7.7176439762115479e-01" nType="0">
          <Node pos="l" depth="2" NCoef="0" IVar="-1" Cut="0.0000000000000000e+00" cType="1" res="-2.3395973257720470e-03" rms="3.5642990469932556e-01" purity="1.5347017347812653e-01" nType="-99"/>
          <Node pos="r" depth="2" NCoef="0" IVar="4" Cut="4.3104625701904297e+01" cType="1" res="3.4867155551910400e-01" rms="3.5359674692153931e-01" purity="8.5333061218261719e-01" nType="0">
            <Node pos="l" depth="3" NCoef="0" IVar="-1" Cut="0.0000000000000000e+00" cType="1" res="3.6874186480417848e-04" rms="4.5454448461532593e-01" purity="7.0816421508789062e-01" nType="-99"/>
            <Node pos="r" depth="3" NCoef="0" IVar="-1" Cut="0.0000000000000000e+00" cType="1" res="5.6765397312119603e-04" rms="3.0469745397567749e-01" purity="8.9637792110443115e-01" nType="-99"/>
          </Node>
        </Node>
      </Node>
    </BinaryTree>
    <BinaryTree type="DecisionTree" boostWeight="1.0000000000000000e+00" itree="19">
      <Node pos="s" depth="0" NCoef="0" IVar="5" Cut="2.9003326892852783e+00" cType="1" res="2.9040757566690445e-02" rms="4.6511662006378174e-01" purity="4.9461197853088379e-01" nType="0">
        <Node pos="l" depth="1" NCoef="0" IVar="1" Cut="8.6952276229858398e+00" cType="1" res="-3.1136560440063477e-01" rms="2.8525263071060181e-01" purity="1.0376698523759842e-01" nType="0">
          <Node pos="l" depth="2" NCoef="0" IVar="4" Cut="7.5715476989746094e+01" cType="1" res="-3.6101663112640381e-01" rms="1.8725652992725372e-01" purity="4.0066037327051163e-02" nType="0">
            <Node pos="l" depth="3" NCoef="0" IVar="-1" Cut="0.0000000000000000e+00" cType="1" res="-1.2939456850290298e-02" rms="9.1905988752841949e-02" purity="8.6530549451708794e-03" nType="-99"/>
            <Node pos="r" depth="3" NCoef="0" IVar="-1" Cut="0.0000000000000000e+00" cType="1" res="-2.1160517353564501e-03" rms="3.5915991663932800e-01" purity="1.6096706688404083e-01" nType="-99"/>
          </Node>
          <Node pos="r" depth="2" NCoef="0" IVar="-1" Cut="0.0000000000000000e+00" cType="1" res="-2.4345883866772056e-04" rms="4.8230436444282532e-01" purity="4.0212386846542358e-01" nType="-99"/>
        </Node>
        <Node pos="r" depth="1" NCoef="0" IVar="1" Cut="-3.5744792938232422e+01" cType="1" res="2.6968774199485779e-01" rms="4.1462817788124084e-01" purity="7.7091610431671143e-01" nType="0">
          <Node pos="l" depth="2" NCoef="0" IVar="-1" Cut="0.0000000000000000e+00" cType="1" res="-1.7556602833792567e-03" rms="3.8790985941886902e-01" purity="1.8977306783199310e-01" nType="-99"/>
          <Node pos="r" depth="2" NCoef="0" IVar="4" Cut="5.2806346893310547e+01" cType="1" res="3.4751707315444946e-01" rms="3.5450524091720581e-01" purity="8.5241711139678955e-01" nType="0">
            <Node pos="l" depth="3" NCoef="0" IVar="-1" Cut="0.0000000000000000e+00" cType="1" res="4.1238366975449026e-04" rms="4.3701934814453125e-01" purity="7.4286043643951416e-01" nType="-99"/>
            <Node pos="r" depth="3" NCoef="0" IVar="-1" Cut="0.0000000000000000e+00" cType="1" res="5.7637004647403955e-04" rms="2.8998473286628723e-01" purity="9.0728604793548584e-01" nType="-99"/>
          </Node>
        </Node>
      </Node>
    </BinaryTree>
    <BinaryTree type="DecisionTree" boostWeight="1.0000000000000000e+00" itree="20">
      <Node pos="s" depth="0" NCoef="0" IVar="5" Cut="2.8968479633331299e+00" cType="1" res="3.3509813249111176e-02" rms="4.6337893605232239e-01" purity="4.9671998620033264e-01" nType="0">
        <Node pos="l" depth="1" NCoef="0" IVar="1" Cut="6.4840168952941895e+00" cType="1" res="-2.8343954682350159e-01" rms="3.1122681498527527e-01" purity="1.2859961390495300e-01" nType="0">
          <Node pos="l" depth="2" NCoef="0" IVar="4" Cut="9.2883979797363281e+01" cType="1" res="-3.3493152260780334e-01" rms="2.2687137126922607e-01" purity="6.2346097081899643e-02" nType="0">
            <Node pos="l" depth="3" NCoef="0" IVar="-1" Cut="0.0000000000000000e+00" cType="1" res="-1.1103130877017975e-02" rms="1.1671997606754303e-01" purity="1.4356536790728569e-02" nType="-99"/>
            <Node pos="r" depth="3" NCoef="0" IVar="-1" Cut="0.0000000000000000e+00" cType="1" res="-4.4361592154018581e-04" rms="4.6497556567192078e-01" purity="3.4088233113288879e-01" nType="-99"/>
          </Node>
          <Node pos="r" depth="2" NCoef="0" IVar="-1" Cut="0.0000000000000000e+00" cType="1" res="-1.4648564683739096e-04" rms="4.8589453101158142e-01" purity="4.2882826924324036e-01" nType="-99"/>
        </Node>
        <Node pos="r" depth="1" NCoef="0" IVar="1" Cut="-3.5150241851806641e+01" cType="1" res="2.6792037487030029e-01" rms="4.1550117731094360e-01" purity="7.6897573471069336e-01" nType="0">
          <Node pos="l" depth="2" NCoef="0" IVar="-1" Cut="0.0000000000000000e+00" cType="1" res="-1.6250303015112877e-03" rms="3.9440959692001343e-01" purity="1.9824862480163574e-01" nType="-99"/>
          <Node pos="r" depth="2" NCoef="0" IVar="4" Cut="5.2066535949707031e+01" cType="1" res="3.4869125485420227e-01" rms="3.5315722227096558e-01" purity="8.5372555255889893e-01" nType="0">
            <Node pos="l" depth="3" NCoef="0" IVar="-1" Cut="0.0000000000000000e+00" cType="1" res="4.2904456495307386e-04" rms="4.2890691757202148e-01" purity="7.5677639245986938e-01" nType="-99"/>
            <Node pos="r" depth="3" NCoef="0" IVar="-1" Cut="0.0000000000000000e+00" cType="1" res="5.7388457935303450e-04" rms="2.9406458139419556e-01" purity="9.0432554483413696e-01" nType="-99"/>
          </Node>
        </Node>
      </Node>
    </BinaryTree>
    <BinaryTree type="DecisionTree" boostWeight="1.0000000000000000e+00" itree="21">
      <Node pos="s" depth="0" NCoef="0" IVar="5" Cut="2.8626847267150879e+00" cType="1" res="4.4389352202415466e-02" rms="4.6156221628189087e-01" purity="5.0771498680114746e-01" nType="0">
        <Node pos="l" depth="1" NCoef="0" IVar="1" Cut="1.5369843482971191e+01" cType="1" res="-3.1825065612792969e-01" rms="2.6000940799713135e-01" purity="8.6191602051258087e-02" nType="0">
          <Node pos="l" depth="2" NCoef="0" IVar="4" Cut="8.3806144714355469e+01" cType="1" res="-3.5769501328468323e-01" rms="1.6879025101661682e-01" purity="3.3282656222581863e-02" nType="0">
            <Node pos="l" depth="3" NCoef="0" IVar="-1" Cut="0.0000000000000000e+00" cType="1" res="-1.2703125365078449e-02" rms="8.7473861873149872e-02" purity="8.1479921936988831e-03" nType="-99"/>
            <Node pos="r" depth="3" NCoef="0" IVar="-1" Cut="0.0000000000000000e+00" cType="1" res="-2.0179124549031258e-03" rms="3.6684277653694153e-01" purity="1.7043733596801758e-01" nType="-99"/>
          </Node>
          <Node pos="r" depth="2" NCoef="0" IVar="-1" Cut="0.0000000000000000e+00" cType="1" res="-2.7830028557218611e-04" rms="4.8325878381729126e-01" purity="3.9423608779907227e-01" nType="-99"/>
        </Node>
        <Node pos="r" depth="1" NCoef="0" IVar="1" Cut="-3.9514682769775391e+01" cType="1" res="2.7373698353767395e-01" rms="4.1139677166938782e-01" purity="7.7430278062820435e-01" nType="0">
          <Node pos="l" depth="2" NCoef="0" IVar="-1" Cut="0.0000000000000000e+00" cType="1" res="-1.6966694965958595e-03" rms="3.9024224877357483e-01" purity="1.9214960932731628e-01" nType="-99"/>
          <Node pos="r" depth="2" NCoef="0" IVar="3" Cut="5.0302871704101562e+01" cType="1" res="3.4613171219825745e-01" rms="3.5540705919265747e-01" purity="8.5073482990264893e-01" nType="0">
            <Node pos="l" depth="3" NCoef="0" IVar="-1" Cut="0.0000000000000000e+00" cType="1" res="4.1992432670667768e-04" rms="4.3179559707641602e-01" purity="7.4987798929214478e-01" nType="-99"/>
            <Node pos="r" depth="3" NCoef="0" IVar="-1" Cut="0.0000000000000000e+00" cType="1" res="5.7937664678320289e-04" rms="2.8660163283348083e-01" purity="9.0927577018737793e-01" nType="-99"/>
          </Node>
        </Node>
      </Node>
    </BinaryTree>
    <BinaryTree type="DecisionTree" boostWeight="1.0000000000000000e+00" itree="22">
      <Node pos="s" depth="0" NCoef="0" IVar="1" Cut="-3.1129184722900391e+01" cType="1" res="4.2851120233535767e-02" rms="4.5981749892234802e-01" purity="5.0410467386245728e-01" nType="0">
        <Node pos="l" depth="1" NCoef="0" IVar="1" Cut="-4.8659263610839844e+01" cType="1" res="-3.3527266979217529e-01" rms="2.3748321831226349e-01" purity="6.9284275174140930e-02" nType="0">
          <Node pos="l" depth="2" NCoef="0" IVar="5" Cut="2.8002681732177734e+00" cType="1" res="-3.7843355536460876e-01" rms="1.3570350408554077e-01" purity="1.8946083262562752e-02" nType="0">
            <Node pos="l" depth="3" NCoef="0" IVar="-1" Cut="0.0000000000000000e+00" cType="1" res="-1.1531763710081577e-02" rms="1.2492866814136505e-01" purity="1.6965253278613091e-02" nType="-99"/>
            <Node pos="r" depth="3" NCoef="0" IVar="-1" Cut="0.0000000000000000e+00" cType="1" res="-1.1120781302452087e-02" rms="1.6074988245964050e-01" purity="2.6756031438708305e-02" nType="-99"/>
          </Node>
          <Node pos="r" depth="2" NCoef="0" IVar="-1" Cut="0.0000000000000000e+00" cType="1" res="-7.1108055999502540e-04" rms="4.1357752680778503e-01" purity="2.7057522535324097e-01" nType="-99"/>
        </Node>
        <Node pos="r" depth="1" NCoef="0" IVar="5" Cut="2.7609810829162598e+00" cType="1" res="2.4918775260448456e-01" rms="4.1885107755661011e-01" purity="7.4137985706329346e-01" nType="0">
          <Node pos="l" depth="2" NCoef="0" IVar="4" Cut="4.3114498138427734e+01" cType="1" res="-2.4445943534374237e-01" rms="3.6785772442817688e-01" purity="1.8803973495960236e-01" nType="0">
            <Node pos="l" depth="3" NCoef="0" IVar="-1" Cut="0.0000000000000000e+00" cType="1" res="-5.4366644471883774e-03" rms="2.0963807404041290e-01" purity="5.0861231982707977e-02" nType="-99"/>
            <Node pos="r" depth="3" NCoef="0" IVar="-1" Cut="0.0000000000000000e+00" cType="1" res="-4.4016586616635323e-04" rms="4.4427624344825745e-01" purity="3.2936623692512512e-01" nType="-99"/>
          </Node>
          <Node pos="r" depth="2" NCoef="0" IVar="4" Cut="5.6464019775390625e+01" cType="1" res="3.4336996078491211e-01" rms="3.5738915205001831e-01" purity="8.4695076942443848e-01" nType="0">
            <Node pos="l" depth="3" NCoef="0" IVar="-1" Cut="0.0000000000000000e+00" cType="1" res="4.2712251888588071e-04" rms="4.2842862010002136e-01" purity="7.5176405906677246e-01" nType="-99"/>
            <Node pos="r" depth="3" NCoef="0" IVar="-1" Cut="0.0000000000000000e+00" cType="1" res="5.7641504099592566e-04" rms="2.9041466116905212e-01" purity="9.0596574544906616e-01" nType="-99"/>
          </Node>
        </Node>
      </Node>
    </BinaryTree>
    <BinaryTree type="DecisionTree" boostWeight="1.0000000000000000e+00" itree="23">
      <Node pos="s" depth="0" NCoef="0" IVar="5" Cut="2.9183065891265869e+00" cType="1" res="4.5430488884449005e-02" rms="4.5871433615684509e-01" purity="5.0514388084411621e-01" nType="0">
        <Node pos="l" depth="1" NCoef="0" IVar="1" Cut="-1.3732742071151733e+00" cType="1" res="-2.8042319416999817e-01" rms="3.0046305060386658e-01" purity="1.2098821252584457e-01" nType="0">
          <Node pos="l" depth="2" NCoef="0" IVar="4" Cut="8.7922340393066406e+01" cType="1" res="-3.3744388818740845e-01" rms="1.9478712975978851e-01" purity="4.5430932193994522e-02" nType="0">
            <Node pos="l" depth="3" NCoef="0" IVar="-1" Cut="0.0000000000000000e+00" cType="1" res="-1.2283941730856895e-02" rms="9.4322301447391510e-02" purity="9.6405260264873505e-03" nType="-99"/>
            <Node pos="r" depth="3" NCoef="0" IVar="-1" Cut="0.0000000000000000e+00" cType="1" res="-1.0821563191711903e-03" rms="4.2073595523834229e-01" purity="2.4179315567016602e-01" nType="-99"/>
          </Node>
          <Node pos="r" depth="2" NCoef="0" IVar="-1" Cut="0.0000000000000000e+00" cType="1" res="-2.1819559333380312e-04" rms="4.7661110758781433e-01" purity="3.9988058805465698e-01" nType="-99"/>
        </Node>
        <Node pos="r" depth="1" NCoef="0" IVar="1" Cut="-3.8175842285156250e+01" cType="1" res="2.7808883786201477e-01" rms="4.0774556994438171e-01" purity="7.7942967414855957e-01" nType="0">
          <Node pos="l" depth="2" NCoef="0" IVar="-1" Cut="0.0000000000000000e+00" cType="1" res="-1.6079857014119625e-03" rms="3.9239037036895752e-01" purity="1.9579096138477325e-01" nType="-99"/>
          <Node pos="r" depth="2" NCoef="0" IVar="4" Cut="4.6867679595947266e+01" cType="1" res="3.5089981555938721e-01" rms="3.5009717941284180e-01" purity="8.5675424337387085e-01" nType="0">
            <Node pos="l" depth="3" NCoef="0" IVar="-1" Cut="0.0000000000000000e+00" cType="1" res="4.1903182864189148e-04" rms="4.3328580260276794e-01" purity="7.4937367439270020e-01" nType="-99"/>
            <Node pos="r" depth="3" NCoef="0" IVar="-1" Cut="0.0000000000000000e+00" cType="1" res="5.6836794828996062e-04" rms="3.0053269863128662e-01" purity="8.9952152967453003e-01" nType="-99"/>
          </Node>
        </Node>
      </Node>
    </BinaryTree>
    <BinaryTree type="DecisionTree" boostWeight="1.0000000000000000e+00" itree="24">
      <Node pos="s" depth="0" NCoef="0" IVar="5" Cut="2.9003286361694336e+00" cType="1" res="4.0655486285686493e-02" rms="4.5662778615951538e-01" purity="4.9811756610870361e-01" nType="0">
        <Node pos="l" depth="1" NCoef="0" IVar="1" Cut="2.9175691604614258e+01" cType="1" res="-2.9428252577781677e-01" rms="2.7630016207695007e-01" purity="1.0048653185367584e-01" nType="0">
          <Node pos="l" depth="2" NCoef="0" IVar="4" Cut="8.9019485473632812e+01" cType="1" res="-3.3586159348487854e-01" rms="1.9652619957923889e-01" purity="4.6049285680055618e-02" nType="0">
            <Node pos="l" depth="3" NCoef="0" IVar="-1" Cut="0.0000000000000000e+00" cType="1" res="-1.0582436807453632e-02" rms="1.1733757704496384e-01" purity="1.4957509003579617e-02" nType="-99"/>
            <Node pos="r" depth="3" NCoef="0" IVar="-1" Cut="0.0000000000000000e+00" cType="1" res="-1.1518871178850532e-03" rms="4.1611754894256592e-01" purity="2.3572424054145813e-01" nType="-99"/>
          </Node>
          <Node pos="r" depth="2" NCoef="0" IVar="-1" Cut="0.0000000000000000e+00" cType="1" res="5.1899878599215299e-06" rms="4.9499610066413879e-01" purity="4.8841074109077454e-01" nType="-99"/>
        </Node>
        <Node pos="r" depth="1" NCoef="0" IVar="1" Cut="-3.8703586578369141e+01" cType="1" res="2.7546134591102600e-01" rms="4.0912654995918274e-01" purity="7.7687394618988037e-01" nType="0">
          <Node pos="l" depth="2" NCoef="0" IVar="-1" Cut="0.0000000000000000e+00" cType="1" res="-2.0220414735376835e-03" rms="3.7092864513397217e-01" purity="1.6924844682216644e-01" nType="-99"/>
          <Node pos="r" depth="2" NCoef="0" IVar="4" Cut="5.0630729675292969e+01" cType="1" res="3.4812125563621521e-01" rms="3.5266557335853577e-01" purity="8.5413497686386108e-01" nType="0">
            <Node pos="l" depth="3" NCoef="0" IVar="-1" Cut="0.0000000000000000e+00" cType="1" res="4.2179081356152892e-04" rms="4.3174174427986145e-01" purity="7.5186175107955933e-01" nType="-99"/>
            <Node pos="r" depth="3" NCoef="0" IVar="-1" Cut="0.0000000000000000e+00" cType="1" res="5.7237851433455944e-04" rms="2.9416504502296448e-01" purity="9.0420538187026978e-01" nType="-99"/>
          </Node>
        </Node>
      </Node>
    </BinaryTree>
    <BinaryTree type="DecisionTree" boostWeight="1.0000000000000000e+00" itree="25">
      <Node pos="s" depth="0" NCoef="0" IVar="5" Cut="2.8986818790435791e+00" cType="1" res="3.9126262068748474e-02" rms="4.5554673671722412e-01" purity="4.9460744857788086e-01" nType="0">
        <Node pos="l" depth="1" NCoef="0" IVar="1" Cut="8.0268945693969727e+00" cType="1" res="-2.7853250503540039e-01" rms="2.9071626067161560e-01" purity="1.1376743018627167e-01" nType="0">
          <Node pos="l" depth="2" NCoef="0" IVar="4" Cut="8.7437225341796875e+01" cType="1" res="-3.2625263929367065e-01" rms="1.9815865159034729e-01" purity="4.7370146960020065e-02" nType="0">
            <Node pos="l" depth="3" NCoef="0" IVar="-1" Cut="0.0000000000000000e+00" cType="1" res="-1.1036694049835205e-02" rms="1.0661598294973373e-01" purity="1.1971009895205498e-02" nType="-99"/>
            <Node pos="r" depth="3" NCoef="0" IVar="-1" Cut="0.0000000000000000e+00" cType="1" res="-1.0449914261698723e-03" rms="4.2060178518295288e-01" purity="2.4477432668209076e-01" nType="-99"/>
          </Node>
          <Node pos="r" depth="2" NCoef="0" IVar="-1" Cut="0.0000000000000000e+00" cType="1" res="-1.8234908930025995e-04" rms="4.8277729749679565e-01" purity="4.1641232371330261e-01" nType="-99"/>
        </Node>
        <Node pos="r" depth="1" NCoef="0" IVar="1" Cut="-4.8243572235107422e+01" cType="1" res="2.6921913027763367e-01" rms="4.1302284598350525e-01" purity="7.7046495676040649e-01" nType="0">
          <Node pos="l" depth="2" NCoef="0" IVar="-1" Cut="0.0000000000000000e+00" cType="1" res="-5.1018204540014267e-03" rms="2.6387012004852295e-01" purity="7.5325600802898407e-02" nType="-99"/>
          <Node pos="r" depth="2" NCoef="0" IVar="4" Cut="6.0038356781005859e+01" cType="1" res="3.3294045925140381e-01" rms="3.6714103817939758e-01" purity="8.3832889795303345e-01" nType="0">
            <Node pos="l" depth="3" NCoef="0" IVar="-1" Cut="0.0000000000000000e+00" cType="1" res="3.9792724419385195e-04" rms="4.4218888878822327e-01" purity="7.3118853569030762e-01" nType="-99"/>
            <Node pos="r" depth="3" NCoef="0" IVar="-1" Cut="0.0000000000000000e+00" cType="1" res="5.7552644284442067e-04" rms="2.8958621621131897e-01" purity="9.0718287229537964e-01" nType="-99"/>
          </Node>
        </Node>
      </Node>
    </BinaryTree>
    <BinaryTree type="DecisionTree" boostWeight="1.0000000000000000e+00" itree="26">
      <Node pos="s" depth="0" NCoef="0" IVar="5" Cut="2.8895833492279053e+00" cType="1" res="4.8223376274108887e-02" rms="4.5389249920845032e-01" purity="5.0330060720443726e-01" nType="0">
        <Node pos="l" depth="1" NCoef="0" IVar="4" Cut="9.6146270751953125e+01" cType="1" res="-2.7809229493141174e-01" rms="2.8553423285484314e-01" purity="1.0967466980218887e-01" nType="0">
          <Node pos="l" depth="2" NCoef="0" IVar="1" Cut="1.0449834823608398e+01" cType="1" res="-3.1747642159461975e-01" rms="2.1534980833530426e-01" purity="5.8237116783857346e-02" nType="0">
            <Node pos="l" depth="3" NCoef="0" IVar="-1" Cut="0.0000000000000000e+00" cType="1" res="-1.0422064922749996e-02" rms="1.2113469094038010e-01" purity="1.5511545352637768e-02" nType="-99"/>
            <Node pos="r" depth="3" NCoef="0" IVar="-1" Cut="0.0000000000000000e+00" cType="1" res="-7.0607336238026619e-04" rms="4.4956728816032410e-01" purity="3.0046477913856506e-01" nType="-99"/>
          </Node>
          <Node pos="r" depth="2" NCoef="0" IVar="-1" Cut="0.0000000000000000e+00" cType="1" res="-1.0587145516183227e-04" rms="4.7932329773902893e-01" purity="4.2682623863220215e-01" nType="-99"/>
        </Node>
        <Node pos="r" depth="1" NCoef="0" IVar="1" Cut="-3.5150241851806641e+01" cType="1" res="2.7245607972145081e-01" rms="4.1001421213150024e-01" purity="7.7378654479980469e-01" nType="0">
          <Node pos="l" depth="2" NCoef="0" IVar="-1" Cut="0.0000000000000000e+00" cType="1" res="-2.3236307315528393e-03" rms="3.5161128640174866e-01" purity="1.5038079023361206e-01" nType="-99"/>
          <Node pos="r" depth="2" NCoef="0" IVar="4" Cut="5.6276012420654297e+01" cType="1" res="3.5312324762344360e-01" rms="3.4704595804214478e-01" purity="8.5957759618759155e-01" nType="0">
            <Node pos="l" depth="3" NCoef="0" IVar="-1" Cut="0.0000000000000000e+00" cType="1" res="4.3705714051611722e-04" rms="4.2354097962379456e-01" purity="7.6515644788742065e-01" nType="-99"/>
            <Node pos="r" depth="3" NCoef="0" IVar="-1" Cut="0.0000000000000000e+00" cType="1" res="5.8013485977426171e-04" rms="2.7912142872810364e-01" purity="9.1479212045669556e-01" nType="-99"/>
          </Node>
        </Node>
      </Node>
    </BinaryTree>
    <BinaryTree type="DecisionTree" boostWeight="1.0000000000000000e+00" itree="27">
      <Node pos="s" depth="0" NCoef="0" IVar="5" Cut="2.9183166027069092e+00" cType="1" res="4.4107269495725632e-02" rms="4.5284330844879150e-01" purity="4.9713262915611267e-01" nType="0">
        <Node pos="l" depth="1" NCoef="0" IVar="1" Cut="2.7005096435546875e+01" cType="1" res="-2.7276191115379333e-01" rms="2.8961515426635742e-01" purity="1.1377644538879395e-01" nType="0">
          <Node pos="l" depth="2" NCoef="0" IVar="3" Cut="8.8659149169921875e+01" cType="1" res="-3.1361290812492371e-01" rms="2.1701544523239136e-01" purity="5.7974744588136673e-02" nType="0">
            <Node pos="l" depth="3" NCoef="0" IVar="-1" Cut="0.0000000000000000e+00" cType="1" res="-9.1350385919213295e-03" rms="1.3565982878208160e-01" purity="2.0781166851520538e-02" nType="-99"/>
            <Node pos="r" depth="3" NCoef="0" IVar="-1" Cut="0.0000000000000000e+00" cType="1" res="-5.1906064618378878e-04" rms="4.2684626579284668e-01" purity="2.9087439179420471e-01" nType="-99"/>
          </Node>
          <Node pos="r" depth="2" NCoef="0" IVar="-1" Cut="0.0000000000000000e+00" cType="1" res="4.5656415750272572e-06" rms="4.9444502592086792e-01" purity="4.8878091573715210e-01" nType="-99"/>
        </Node>
        <Node pos="r" depth="1" NCoef="0" IVar="1" Cut="-4.6660400390625000e+01" cType="1" res="2.7604660391807556e-01" rms="4.0802517533302307e-01" purity="7.7773857116699219e-01" nType="0">
          <Node pos="l" depth="2" NCoef="0" IVar="-1" Cut="0.0000000000000000e+00" cType="1" res="-3.1816000118851662e-03" rms="3.2102677226066589e-01" purity="1.1853279173374176e-01" nType="-99"/>
          <Node pos="r" depth="2" NCoef="0" IVar="4" Cut="5.2389938354492188e+01" cType="1" res="3.3729329705238342e-01" rms="3.6253410577774048e-01" purity="8.4345895051956177e-01" nType="0">
            <Node pos="l" depth="3" NCoef="0" IVar="-1" Cut="0.0000000000000000e+00" cType="1" res="3.8959761150181293e-04" rms="4.4510251283645630e-01" purity="7.2584533691406250e-01" nType="-99"/>
            <Node pos="r" depth="3" NCoef="0" IVar="-1" Cut="0.0000000000000000e+00" cType="1" res="5.6964874966070056e-04" rms="2.9779189825057983e-01" purity="9.0130555629730225e-01" nType="-99"/>
          </Node>
        </Node>
      </Node>
    </BinaryTree>
    <BinaryTree type="DecisionTree" boostWeight="1.0000000000000000e+00" itree="28">
      <Node pos="s" depth="0" NCoef="0" IVar="5" Cut="2.9183065891265869e+00" cType="1" res="5.4774437099695206e-02" rms="4.5114848017692566e-01" purity="5.0699514150619507e-01" nType="0">
        <Node pos="l" depth="1" NCoef="0" IVar="4" Cut="1.0089751434326172e+02" cType="1" res="-2.6590970158576965e-01" rms="2.9330363869667053e-01" purity="1.1709332466125488e-01" nType="0">
          <Node pos="l" depth="2" NCoef="0" IVar="1" Cut="-8.7678937911987305e+00" cType="1" res="-3.0134907364845276e-01" rms="2.3458570241928101e-01" purity="7.0953734219074249e-02" nType="0">
            <Node pos="l" depth="3" NCoef="0" IVar="-1" Cut="0.0000000000000000e+00" cType="1" res="-1.1233618482947350e-02" rms="1.0740921646356583e-01" purity="1.2119647115468979e-02" nType="-99"/>
            <Node pos="r" depth="3" NCoef="0" IVar="-1" Cut="0.0000000000000000e+00" cType="1" res="-7.7526568202301860e-04" rms="4.2943692207336426e-01" purity="2.7343285083770752e-01" nType="-99"/>
          </Node>
          <Node pos="r" depth="2" NCoef="0" IVar="-1" Cut="0.0000000000000000e+00" cType="1" res="-4.0233666368294507e-05" rms="4.8373872041702271e-01" purity="4.4518929719924927e-01" nType="-99"/>
        </Node>
        <Node pos="r" depth="1" NCoef="0" IVar="1" Cut="-4.7505947113037109e+01" cType="1" res="2.8476113080978394e-01" rms="4.0144959092140198e-01" purity="7.8662294149398804e-01" nType="0">
          <Node pos="l" depth="2" NCoef="0" IVar="-1" Cut="0.0000000000000000e+00" cType="1" res="-4.5301639474928379e-03" rms="2.7696791291236877e-01" purity="8.3881102502346039e-02" nType="-99"/>
          <Node pos="r" depth="2" NCoef="0" IVar="4" Cut="6.3801944732666016e+01" cType="1" res="3.4642544388771057e-01" rms="3.5343253612518311e-01" purity="8.5277485847473145e-01" nType="0">
            <Node pos="l" depth="3" NCoef="0" IVar="-1" Cut="0.0000000000000000e+00" cType="1" res="4.4385911314748228e-04" rms="4.1949582099914551e-01" purity="7.7064126729965210e-01" nType="-99"/>
            <Node pos="r" depth="3" NCoef="0" IVar="-1" Cut="0.0000000000000000e+00" cType="1" res="5.8081460883840919e-04" rms="2.7723678946495056e-01" purity="9.1576945781707764e-01" nType="-99"/>
          </Node>
        </Node>
      </Node>
    </BinaryTree>
    <BinaryTree type="DecisionTree" boostWeight="1.0000000000000000e+00" itree="29">
      <Node pos="s" depth="0" NCoef="0" IVar="1" Cut="-3.0553319931030273e+01" cType="1" res="4.8329204320907593e-02" rms="4.4967055320739746e-01" purity="4.9852547049522400e-01" nType="0">
        <Node pos="l" depth="1" NCoef="0" IVar="1" Cut="-5.1967483520507812e+01" cType="1" res="-3.0811807513237000e-01" rms="2.3640498518943787e-01" purity="7.1318767964839935e-02" nType="0">
          <Node pos="l" depth="2" NCoef="0" IVar="5" Cut="2.6376984119415283e+00" cType="1" res="-3.4875085949897766e-01" rms="1.3993373513221741e-01" purity="2.0825225859880447e-02" nType="0">
            <Node pos="l" depth="3" NCoef="0" IVar="-1" Cut="0.0000000000000000e+00" cType="1" res="-1.1885585263371468e-02" rms="1.0776043683290482e-01" purity="1.3219454325735569e-02" nType="-99"/>
            <Node pos="r" depth="3" NCoef="0" IVar="-1" Cut="0.0000000000000000e+00" cType="1" res="-7.5228903442621231e-03" rms="1.9930492341518402e-01" purity="4.1938014328479767e-02" nType="-99"/>
          </Node>
          <Node pos="r" depth="2" NCoef="0" IVar="-1" Cut="0.0000000000000000e+00" cType="1" res="-8.5501768626272678e-04" rms="3.8980433344841003e-01" purity="2.3726537823677063e-01" nType="-99"/>
        </Node>
        <Node pos="r" depth="1" NCoef="0" IVar="5" Cut="2.7608454227447510e+00" cType="1" res="2.5002649426460266e-01" rms="4.1523620486259460e-01" purity="7.4026232957839966e-01" nType="0">
          <Node pos="l" depth="2" NCoef="0" IVar="0" Cut="7.9922050476074219e+01" cType="1" res="-2.3537850379943848e-01" rms="3.5834684967994690e-01" purity="1.8041050434112549e-01" nType="0">
            <Node pos="l" depth="3" NCoef="0" IVar="-1" Cut="0.0000000000000000e+00" cType="1" res="-7.2122639976441860e-03" rms="1.4848169684410095e-01" purity="2.2534616291522980e-02" nType="-99"/>
            <Node pos="r" depth="3" NCoef="0" IVar="-1" Cut="0.0000000000000000e+00" cType="1" res="-4.2378058424219489e-04" rms="4.5339098572731018e-01" purity="3.3852046728134155e-01" nType="-99"/>
          </Node>
          <Node pos="r" depth="2" NCoef="0" IVar="4" Cut="5.6251522064208984e+01" cType="1" res="3.4266045689582825e-01" rms="3.5675424337387085e-01" purity="8.4710359573364258e-01" nType="0">
            <Node pos="l" depth="3" NCoef="0" IVar="-1" Cut="0.0000000000000000e+00" cType="1" res="4.1229921043850482e-04" rms="4.3606647849082947e-01" purity="7.3807525634765625e-01" nType="-99"/>
            <Node pos="r" depth="3" NCoef="0" IVar="-1" Cut="0.0000000000000000e+00" cType="1" res="5.7636853307485580e-04" rms="2.8628271818161011e-01" purity="9.0857738256454468e-01" nType="-99"/>
          </Node>
        </Node>
      </Node>
    </BinaryTree>
    <BinaryTree type="DecisionTree" boostWeight="1.0000000000000000e+00" itree="30">
      <Node pos="s" depth="0" NCoef="0" IVar="5" Cut="2.8880722522735596e+00" cType="1" res="5.6316915899515152e-02" rms="4.4810819625854492e-01" purity="5.0629645586013794e-01" nType="0">
        <Node pos="l" depth="1" NCoef="0" IVar="5" Cut="2.7175979614257812e+00" cType="1" res="-2.7069160342216492e-01" rms="2.7406328916549683e-01" purity="1.0283979773521423e-01" nType="0">
          <Node pos="l" depth="2" NCoef="0" IVar="0" Cut="1.1267671966552734e+02" cType="1" res="-3.0862638354301453e-01" rms="2.0633448660373688e-01" purity="5.3941924124956131e-02" nType="0">
            <Node pos="l" depth="3" NCoef="0" IVar="-1" Cut="0.0000000000000000e+00" cType="1" res="-9.2892982065677643e-03" rms="1.3294430077075958e-01" purity="1.9167238846421242e-02" nType="-99"/>
            <Node pos="r" depth="3" NCoef="0" IVar="-1" Cut="0.0000000000000000e+00" cType="1" res="-1.1460819514468312e-03" rms="3.7598243355751038e-01" purity="2.1325588226318359e-01" nType="-99"/>
          </Node>
          <Node pos="r" depth="2" NCoef="0" IVar="-1" Cut="0.0000000000000000e+00" cType="1" res="-1.9982406229246408e-04" rms="4.5097389817237854e-01" purity="3.7422513961791992e-01" nType="-99"/>
        </Node>
        <Node pos="r" depth="1" NCoef="0" IVar="1" Cut="-3.7332462310791016e+01" cType="1" res="2.7604517340660095e-01" rms="4.0635335445404053e-01" purity="7.7739286422729492e-01" nType="0">
          <Node pos="l" depth="2" NCoef="0" IVar="-1" Cut="0.0000000000000000e+00" cType="1" res="-1.9959576893597841e-03" rms="3.6630073189735413e-01" purity="1.6650098562240601e-01" nType="-99"/>
          <Node pos="r" depth="2" NCoef="0" IVar="4" Cut="5.6123016357421875e+01" cType="1" res="3.4965911507606506e-01" rms="3.4949937462806702e-01" purity="8.5699576139450073e-01" nType="0">
            <Node pos="l" depth="3" NCoef="0" IVar="-1" Cut="0.0000000000000000e+00" cType="1" res="4.2237850720994174e-04" rms="4.3045487999916077e-01" purity="7.5350016355514526e-01" nType="-99"/>
            <Node pos="r" depth="3" NCoef="0" IVar="-1" Cut="0.0000000000000000e+00" cType="1" res="5.7789043057709932e-04" rms="2.8017622232437134e-01" purity="9.1398906707763672e-01" nType="-99"/>
          </Node>
        </Node>
      </Node>
    </BinaryTree>
    <BinaryTree type="DecisionTree" boostWeight="1.0000000000000000e+00" itree="31">
      <Node pos="s" depth="0" NCoef="0" IVar="5" Cut="2.8036293983459473e+00" cType="1" res="5.0400070846080780e-02" rms="4.4760867953300476e-01" purity="4.9814790487289429e-01" nType="0">
        <Node pos="l" depth="1" NCoef="0" IVar="4" Cut="8.9019577026367188e+01" cType="1" res="-2.9181471467018127e-01" rms="2.3512783646583557e-01" purity="7.1384094655513763e-02" nType="0">
          <Node pos="l" depth="2" NCoef="0" IVar="3" Cut="6.8627479553222656e+01" cType="1" res="-3.1648004055023193e-01" rms="1.6624474525451660e-01" purity="3.4276109188795090e-02" nType="0">
            <Node pos="l" depth="3" NCoef="0" IVar="-1" Cut="0.0000000000000000e+00" cType="1" res="-8.6227245628833771e-03" rms="1.3012860715389252e-01" purity="1.9665593281388283e-02" nType="-99"/>
            <Node pos="r" depth="3" NCoef="0" IVar="-1" Cut="0.0000000000000000e+00" cType="1" res="-3.3256465103477240e-03" rms="2.6474258303642273e-01" purity="9.6251077950000763e-02" nType="-99"/>
          </Node>
          <Node pos="r" depth="2" NCoef="0" IVar="-1" Cut="0.0000000000000000e+00" cType="1" res="-6.2197272200137377e-04" rms="4.4273442029953003e-01" purity="2.9477295279502869e-01" nType="-99"/>
        </Node>
        <Node pos="r" depth="1" NCoef="0" IVar="1" Cut="-3.9650585174560547e+01" cType="1" res="2.5276580452919006e-01" rms="4.1944491863250732e-01" purity="7.5051093101501465e-01" nType="0">
          <Node pos="l" depth="2" NCoef="0" IVar="-1" Cut="0.0000000000000000e+00" cType="1" res="-2.6245862245559692e-03" rms="3.3070105314254761e-01" purity="1.3177652657032013e-01" nType="-99"/>
          <Node pos="r" depth="2" NCoef="0" IVar="3" Cut="5.7130634307861328e+01" cType="1" res="3.3170610666275024e-01" rms="3.6653447151184082e-01" purity="8.3687114715576172e-01" nType="0">
            <Node pos="l" depth="3" NCoef="0" IVar="-1" Cut="0.0000000000000000e+00" cType="1" res="4.1117286309599876e-04" rms="4.3271812796592712e-01" purity="7.4311071634292603e-01" nType="-99"/>
            <Node pos="r" depth="3" NCoef="0" IVar="-1" Cut="0.0000000000000000e+00" cType="1" res="5.7718669995665550e-04" rms="2.8849390149116516e-01" purity="9.0713757276535034e-01" nType="-99"/>
          </Node>
        </Node>
      </Node>
    </BinaryTree>
    <BinaryTree type="DecisionTree" boostWeight="1.0000000000000000e+00" itree="32">
      <Node pos="s" depth="0" NCoef="0" IVar="5" Cut="2.9183065891265869e+00" cType="1" res="4.1466828435659409e-02" rms="4.4600573182106018e-01" purity="4.8617810010910034e-01" nType="0">
        <Node pos="l" depth="1" NCoef="0" IVar="1" Cut="-2.4213645935058594e+01" cType="1" res="-2.6797413825988770e-01" rms="2.7234330773353577e-01" purity="1.0048173367977142e-01" nType="0">
          <Node pos="l" depth="2" NCoef="0" IVar="3" Cut="7.4490570068359375e+01" cType="1" res="-3.2059639692306519e-01" rms="1.4054450392723083e-01" purity="2.2430136799812317e-02" nType="0">
            <Node pos="l" depth="3" NCoef="0" IVar="-1" Cut="0.0000000000000000e+00" cType="1" res="-1.1228688992559910e-02" rms="9.7178734838962555e-02" purity="9.6218958497047424e-03" nType="-99"/>
            <Node pos="r" depth="3" NCoef="0" IVar="-1" Cut="0.0000000000000000e+00" cType="1" res="-4.2559467256069183e-03" rms="2.5746318697929382e-01" purity="8.1887215375900269e-02" nType="-99"/>
          </Node>
          <Node pos="r" depth="2" NCoef="0" IVar="4" Cut="5.5067588806152344e+01" cType="1" res="-1.4212623238563538e-01" rms="4.2644289135932922e-01" purity="2.8714472055435181e-01" nType="0">
            <Node pos="l" depth="3" NCoef="0" IVar="-1" Cut="0.0000000000000000e+00" cType="1" res="-2.4677105247974396e-03" rms="3.1689679622650146e-01" purity="1.2363536655902863e-01" nType="-99"/>
            <Node pos="r" depth="3" NCoef="0" IVar="-1" Cut="0.0000000000000000e+00" cType="1" res="1.5631006681360304e-04" rms="4.7493878006935120e-01" purity="5.1955020427703857e-01" nType="-99"/>
          </Node>
        </Node>
        <Node pos="r" depth="1" NCoef="0" IVar="1" Cut="-4.8243572235107422e+01" cType="1" res="2.7133545279502869e-01" rms="4.0941619873046875e-01" purity="7.7269315719604492e-01" nType="0">
          <Node pos="l" depth="2" NCoef="0" IVar="-1" Cut="0.0000000000000000e+00" cType="1" res="-4.7625410370528698e-03" rms="2.6688128709793091e-01" purity="7.7129296958446503e-02" nType="-99"/>
          <Node pos="r" depth="2" NCoef="0" IVar="4" Cut="5.7781486511230469e+01" cType="1" res="3.3432868123054504e-01" rms="3.6445325613021851e-01" purity="8.4115588665008545e-01" nType="0">
            <Node pos="l" depth="3" NCoef="0" IVar="-1" Cut="0.0000000000000000e+00" cType="1" res="4.2007322190329432e-04" rms="4.3123590946197510e-01" purity="7.5113666057586670e-01" nType="-99"/>
            <Node pos="r" depth="3" NCoef="0" IVar="-1" Cut="0.0000000000000000e+00" cType="1" res="5.6828110245987773e-04" rms="2.9767084121704102e-01" purity="9.0122705698013306e-01" nType="-99"/>
          </Node>
        </Node>
      </Node>
    </BinaryTree>
    <BinaryTree type="DecisionTree" boostWeight="1.0000000000000000e+00" itree="33">
      <Node pos="s" depth="0" NCoef="0" IVar="1" Cut="-3.7698413848876953e+01" cType="1" res="6.1990018934011459e-02" rms="4.4472017884254456e-01" purity="5.0820207595825195e-01" nType="0">
        <Node pos="l" depth="1" NCoef="0" IVar="1" Cut="-5.3149581909179688e+01" cType="1" res="-3.1502330303192139e-01" rms="1.9739212095737457e-01" purity="4.5690841972827911e-02" nType="0">
          <Node pos="l" depth="2" NCoef="0" IVar="5" Cut="2.8002712726593018e+00" cType="1" res="-3.3492273092269897e-01" rms="1.4042349159717560e-01" purity="1.9837450236082077e-02" nType="0">
            <Node pos="l" depth="3" NCoef="0" IVar="-1" Cut="0.0000000000000000e+00" cType="1" res="-1.1218884028494358e-02" rms="1.2195040285587311e-01" purity="1.5998417511582375e-02" nType="-99"/>
            <Node pos="r" depth="3" NCoef="0" IVar="-1" Cut="0.0000000000000000e+00" cType="1" res="-8.8835032656788826e-03" rms="1.8345773220062256e-01" purity="3.4921012818813324e-02" nType="-99"/>
          </Node>
          <Node pos="r" depth="2" NCoef="0" IVar="-1" Cut="0.0000000000000000e+00" cType="1" res="-1.4429363654926419e-03" rms="3.4630101919174194e-01" purity="1.6911676526069641e-01" nType="-99"/>
        </Node>
        <Node pos="r" depth="1" NCoef="0" IVar="5" Cut="2.8337647914886475e+00" cType="1" res="2.4225738644599915e-01" rms="4.1623550653457642e-01" purity="7.2934991121292114e-01" nType="0">
          <Node pos="l" depth="2" NCoef="0" IVar="4" Cut="5.2730503082275391e+01" cType="1" res="-1.7969429492950439e-01" rms="3.8845151662826538e-01" purity="2.2627091407775879e-01" nType="0">
            <Node pos="l" depth="3" NCoef="0" IVar="-1" Cut="0.0000000000000000e+00" cType="1" res="-2.3363081272691488e-03" rms="3.0163210630416870e-01" purity="1.1997184902429581e-01" nType="-99"/>
            <Node pos="r" depth="3" NCoef="0" IVar="-1" Cut="0.0000000000000000e+00" cType="1" res="-9.0723595349118114e-05" rms="4.6066847443580627e-01" purity="4.0023714303970337e-01" nType="-99"/>
          </Node>
          <Node pos="r" depth="2" NCoef="0" IVar="4" Cut="6.0169837951660156e+01" cType="1" res="3.4484687447547913e-01" rms="3.5337707400321960e-01" purity="8.5166388750076294e-01" nType="0">
            <Node pos="l" depth="3" NCoef="0" IVar="-1" Cut="0.0000000000000000e+00" cType="1" res="4.2148955981247127e-04" rms="4.2941120266914368e-01" purity="7.5137770175933838e-01" nType="-99"/>
            <Node pos="r" depth="3" NCoef="0" IVar="-1" Cut="0.0000000000000000e+00" cType="1" res="5.8101152535527945e-04" rms="2.7496656775474548e-01" purity="9.1708928346633911e-01" nType="-99"/>
          </Node>
        </Node>
      </Node>
    </BinaryTree>
    <BinaryTree type="DecisionTree" boostWeight="1.0000000000000000e+00" itree="34">
      <Node pos="s" depth="0" NCoef="0" IVar="5" Cut="2.8986749649047852e+00" cType="1" res="5.9036761522293091e-02" rms="4.4374027848243713e-01" purity="5.0372749567031860e-01" nType="0">
        <Node pos="l" depth="1" NCoef="0" IVar="4" Cut="9.7780738830566406e+01" cType="1" res="-2.4838727712631226e-01" rms="2.8597784042358398e-01" purity="1.1457069218158722e-01" nType="0">
          <Node pos="l" depth="2" NCoef="0" IVar="1" Cut="1.5115162849426270e+01" cType="1" res="-2.8988143801689148e-01" rms="2.1342198550701141e-01" purity="5.9432733803987503e-02" nType="0">
            <Node pos="l" depth="3" NCoef="0" IVar="-1" Cut="0.0000000000000000e+00" cType="1" res="-9.2661604285240173e-03" rms="1.2445194274187088e-01" purity="1.7592985183000565e-02" nType="-99"/>
            <Node pos="r" depth="3" NCoef="0" IVar="-1" Cut="0.0000000000000000e+00" cType="1" res="-5.9136282652616501e-04" rms="4.5669454336166382e-01" purity="3.1625008583068848e-01" nType="-99"/>
          </Node>
          <Node pos="r" depth="2" NCoef="0" IVar="-1" Cut="0.0000000000000000e+00" cType="1" res="3.0408244128921069e-05" rms="4.7977203130722046e-01" purity="4.5897254347801208e-01" nType="-99"/>
        </Node>
        <Node pos="r" depth="1" NCoef="0" IVar="1" Cut="-4.8093349456787109e+01" cType="1" res="2.7349597215652466e-01" rms="4.0656119585037231e-01" purity="7.7520352602005005e-01" nType="0">
          <Node pos="l" depth="2" NCoef="0" IVar="-1" Cut="0.0000000000000000e+00" cType="1" res="-5.8227749541401863e-03" rms="2.3863653838634491e-01" purity="6.0764461755752563e-02" nType="-99"/>
          <Node pos="r" depth="2" NCoef="0" IVar="4" Cut="5.6122920989990234e+01" cType="1" res="3.3445724844932556e-01" rms="3.6330103874206543e-01" purity="8.4204107522964478e-01" nType="0">
            <Node pos="l" depth="3" NCoef="0" IVar="-1" Cut="0.0000000000000000e+00" cType="1" res="3.8939024670980871e-04" rms="4.4407200813293457e-01" purity="7.2682970762252808e-01" nType="-99"/>
            <Node pos="r" depth="3" NCoef="0" IVar="-1" Cut="0.0000000000000000e+00" cType="1" res="5.6993222096934915e-04" rms="2.9249015450477600e-01" purity="9.0488082170486450e-01" nType="-99"/>
          </Node>
        </Node>
      </Node>
    </BinaryTree>
    <BinaryTree type="DecisionTree" boostWeight="1.0000000000000000e+00" itree="35">
      <Node pos="s" depth="0" NCoef="0" IVar="1" Cut="-3.5514106750488281e+01" cType="1" res="5.7459622621536255e-02" rms="4.4267368316650391e-01" purity="4.9997720122337341e-01" nType="0">
        <Node pos="l" depth="1" NCoef="0" IVar="1" Cut="-5.2935771942138672e+01" cType="1" res="-2.9266434907913208e-01" rms="2.2497591376304626e-01" purity="6.3563734292984009e-02" nType="0">
          <Node pos="l" depth="2" NCoef="0" IVar="5" Cut="2.7573559284210205e+00" cType="1" res="-3.2270869612693787e-01" rms="1.5036834776401520e-01" purity="2.4176696315407753e-02" nType="0">
            <Node pos="l" depth="3" NCoef="0" IVar="-1" Cut="0.0000000000000000e+00" cType="1" res="-1.1014967225492001e-02" rms="1.2010733783245087e-01" purity="1.6365980729460716e-02" nType="-99"/>
            <Node pos="r" depth="3" NCoef="0" IVar="-1" Cut="0.0000000000000000e+00" cType="1" res="-6.6746077500283718e-03" rms="2.2156894207000732e-01" purity="5.2207306027412415e-02" nType="-99"/>
          </Node>
          <Node pos="r" depth="2" NCoef="0" IVar="-1" Cut="0.0000000000000000e+00" cType="1" res="-9.1418047668412328e-04" rms="3.7901449203491211e-01" purity="2.1928699314594269e-01" nType="-99"/>
        </Node>
        <Node pos="r" depth="1" NCoef="0" IVar="5" Cut="2.7598869800567627e+00" cType="1" res="2.3793990910053253e-01" rms="4.1847169399261475e-01" purity="7.2493755817413330e-01" nType="0">
          <Node pos="l" depth="2" NCoef="0" IVar="0" Cut="8.1556854248046875e+01" cType="1" res="-2.0563545823097229e-01" rms="3.6300158500671387e-01" purity="1.9510039687156677e-01" nType="0">
            <Node pos="l" depth="3" NCoef="0" IVar="-1" Cut="0.0000000000000000e+00" cType="1" res="-9.8018553107976913e-03" rms="8.8376358151435852e-02" purity="6.7027993500232697e-03" nType="-99"/>
            <Node pos="r" depth="3" NCoef="0" IVar="-1" Cut="0.0000000000000000e+00" cType="1" res="-1.9628074369393289e-04" rms="4.6290507912635803e-01" purity="3.8489732146263123e-01" nType="-99"/>
          </Node>
          <Node pos="r" depth="2" NCoef="0" IVar="3" Cut="5.7130531311035156e+01" cType="1" res="3.3134162425994873e-01" rms="3.6618530750274658e-01" purity="8.3650308847427368e-01" nType="0">
            <Node pos="l" depth="3" NCoef="0" IVar="-1" Cut="0.0000000000000000e+00" cType="1" res="3.9750189171172678e-04" rms="4.3809208273887634e-01" purity="7.3149704933166504e-01" nType="-99"/>
            <Node pos="r" depth="3" NCoef="0" IVar="-1" Cut="0.0000000000000000e+00" cType="1" res="5.7957426179200411e-04" rms="2.8361785411834717e-01" purity="9.1022801399230957e-01" nType="-99"/>
          </Node>
        </Node>
      </Node>
    </BinaryTree>
    <BinaryTree type="DecisionTree" boostWeight="1.0000000000000000e+00" itree="36">
      <Node pos="s" depth="0" NCoef="0" IVar="5" Cut="2.8948523998260498e+00" cType="1" res="5.7311933487653732e-02" rms="4.4076755642890930e-01" purity="4.9817866086959839e-01" nType="0">
        <Node pos="l" depth="1" NCoef="0" IVar="1" Cut="1.4162665367126465e+01" cType="1" res="-2.4809649586677551e-01" rms="2.7665981650352478e-01" purity="1.0716667026281357e-01" nType="0">
          <Node pos="l" depth="2" NCoef="0" IVar="4" Cut="8.7922607421875000e+01" cType="1" res="-2.8651970624923706e-01" rms="1.9414335489273071e-01" purity="4.6833369880914688e-02" nType="0">
            <Node pos="l" depth="3" NCoef="0" IVar="-1" Cut="0.0000000000000000e+00" cType="1" res="-9.0478071942925453e-03" rms="1.2226330488920212e-01" purity="1.6948664560914040e-02" nType="-99"/>
            <Node pos="r" depth="3" NCoef="0" IVar="-1" Cut="0.0000000000000000e+00" cType="1" res="-1.1245409259572625e-03" rms="4.0356972813606262e-01" purity="2.2346474230289459e-01" nType="-99"/>
          </Node>
          <Node pos="r" depth="2" NCoef="0" IVar="-1" Cut="0.0000000000000000e+00" cType="1" res="-1.2128923117415980e-04" rms="4.8444023728370667e-01" purity="4.3122258782386780e-01" nType="-99"/>
        </Node>
        <Node pos="r" depth="1" NCoef="0" IVar="1" Cut="-4.9488586425781250e+01" cType="1" res="2.7252134680747986e-01" rms="4.0644523501396179e-01" purity="7.7370959520339966e-01" nType="0">
          <Node pos="l" depth="2" NCoef="0" IVar="-1" Cut="0.0000000000000000e+00" cType="1" res="-5.7386001572012901e-03" rms="2.4057266116142273e-01" purity="6.1698764562606812e-02" nType="-99"/>
          <Node pos="r" depth="2" NCoef="0" IVar="4" Cut="4.4986701965332031e+01" cType="1" res="3.3293533325195312e-01" rms="3.6440095305442810e-01" purity="8.4061127901077271e-01" nType="0">
            <Node pos="l" depth="3" NCoef="0" IVar="-1" Cut="0.0000000000000000e+00" cType="1" res="3.7494496791623533e-04" rms="4.4913804531097412e-01" purity="7.1563935279846191e-01" nType="-99"/>
            <Node pos="r" depth="3" NCoef="0" IVar="-1" Cut="0.0000000000000000e+00" cType="1" res="5.5488146608695388e-04" rms="3.1605216860771179e-01" purity="8.8644587993621826e-01" nType="-99"/>
          </Node>
        </Node>
      </Node>
    </BinaryTree>
    <BinaryTree type="DecisionTree" boostWeight="1.0000000000000000e+00" itree="37">
      <Node pos="s" depth="0" NCoef="0" IVar="5" Cut="2.9127299785614014e+00" cType="1" res="6.0123667120933533e-02" rms="4.4004964828491211e-01" purity="5.0047641992568970e-01" nType="0">
        <Node pos="l" depth="1" NCoef="0" IVar="1" Cut="-1.0156921386718750e+01" cType="1" res="-2.3692862689495087e-01" rms="2.8831413388252258e-01" purity="1.1918425559997559e-01" nType="0">
          <Node pos="l" depth="2" NCoef="0" IVar="1" Cut="-6.6104194641113281e+01" cType="1" res="-2.9048094153404236e-01" rms="1.7299506068229675e-01" purity="3.6875374615192413e-02" nType="0">
            <Node pos="l" depth="3" NCoef="0" IVar="-1" Cut="0.0000000000000000e+00" cType="1" res="-1.5583083964884281e-02" rms="9.2198699712753296e-02" purity="8.1018852069973946e-03" nType="-99"/>
            <Node pos="r" depth="3" NCoef="0" IVar="-1" Cut="0.0000000000000000e+00" cType="1" res="-3.0052673537284136e-03" rms="2.4676327407360077e-01" purity="8.1290945410728455e-02" nType="-99"/>
          </Node>
          <Node pos="r" depth="2" NCoef="0" IVar="3" Cut="4.2317249298095703e+01" cType="1" res="-7.4850998818874359e-02" rms="4.5736283063888550e-01" purity="3.6829447746276855e-01" nType="0">
            <Node pos="l" depth="3" NCoef="0" IVar="-1" Cut="0.0000000000000000e+00" cType="1" res="-1.4379876665771008e-03" rms="3.6942595243453979e-01" purity="1.8850539624691010e-01" nType="-99"/>
            <Node pos="r" depth="3" NCoef="0" IVar="-1" Cut="0.0000000000000000e+00" cType="1" res="2.0650030637625605e-04" rms="4.7617343068122864e-01" purity="5.4338067770004272e-01" nType="-99"/>
          </Node>
        </Node>
        <Node pos="r" depth="1" NCoef="0" IVar="1" Cut="-3.3421936035156250e+01" cType="1" res="2.7602389454841614e-01" rms="4.0400871634483337e-01" purity="7.7760303020477295e-01" nType="0">
          <Node pos="l" depth="2" NCoef="0" IVar="-1" Cut="0.0000000000000000e+00" cType="1" res="-1.1165635660290718e-03" rms="4.1085520386695862e-01" purity="2.3306308686733246e-01" nType="-99"/>
          <Node pos="r" depth="2" NCoef="0" IVar="4" Cut="6.0970420837402344e+01" cType="1" res="3.5130497813224792e-01" rms="3.4584769606590271e-01" purity="8.6080092191696167e-01" nType="0">
            <Node pos="l" depth="3" NCoef="0" IVar="-1" Cut="0.0000000000000000e+00" cType="1" res="4.4889925629831851e-04" rms="4.1425669193267822e-01" purity="7.7984231710433960e-01" nType="-99"/>
            <Node pos="r" depth="3" NCoef="0" IVar="-1" Cut="0.0000000000000000e+00" cType="1" res="5.7913316413760185e-04" rms="2.7253043651580811e-01" purity="9.1916024684906006e-01" nType="-99"/>
          </Node>
        </Node>
      </Node>
    </BinaryTree>
    <BinaryTree type="DecisionTree" boostWeight="1.0000000000000000e+00" itree="38">
      <Node pos="s" depth="0" NCoef="0" IVar="5" Cut="2.9325668811798096e+00" cType="1" res="5.9775978326797485e-02" rms="4.3889847397804260e-01" purity="4.9845367670059204e-01" nType="0">
        <Node pos="l" depth="1" NCoef="0" IVar="5" Cut="2.6172897815704346e+00" cType="1" res="-2.3548381030559540e-01" rms="2.8794673085212708e-01" purity="1.1784376949071884e-01" nType="0">
          <Node pos="l" depth="2" NCoef="0" IVar="4" Cut="8.0175094604492188e+01" cType="1" res="-2.8907120227813721e-01" rms="1.8415270745754242e-01" purity="4.1304115206003189e-02" nType="0">
            <Node pos="l" depth="3" NCoef="0" IVar="-1" Cut="0.0000000000000000e+00" cType="1" res="-9.3249334022402763e-03" rms="1.1945254355669022e-01" purity="1.5888992697000504e-02" nType="-99"/>
            <Node pos="r" depth="3" NCoef="0" IVar="-1" Cut="0.0000000000000000e+00" cType="1" res="-1.5546800568699837e-03" rms="3.6334082484245300e-01" purity="1.7576125264167786e-01" nType="-99"/>
          </Node>
          <Node pos="r" depth="2" NCoef="0" IVar="0" Cut="7.7298614501953125e+01" cType="1" res="-7.7940136194229126e-02" rms="4.4012629985809326e-01" purity="3.4286564588546753e-01" nType="0">
            <Node pos="l" depth="3" NCoef="0" IVar="-1" Cut="0.0000000000000000e+00" cType="1" res="-1.6192394541576505e-03" rms="3.4410476684570312e-01" purity="1.6292305290699005e-01" nType="-99"/>
            <Node pos="r" depth="3" NCoef="0" IVar="-1" Cut="0.0000000000000000e+00" cType="1" res="1.8142006592825055e-04" rms="4.6620199084281921e-01" purity="5.1048570871353149e-01" nType="-99"/>
          </Node>
        </Node>
        <Node pos="r" depth="1" NCoef="0" IVar="1" Cut="-3.8175842285156250e+01" cType="1" res="2.7884078025817871e-01" rms="4.0170380473136902e-01" purity="7.8084301948547363e-01" nType="0">
          <Node pos="l" depth="2" NCoef="0" IVar="-1" Cut="0.0000000000000000e+00" cType="1" res="-1.4607042539864779e-03" rms="3.8667380809783936e-01" purity="1.9729031622409821e-01" nType="-99"/>
          <Node pos="r" depth="2" NCoef="0" IVar="3" Cut="5.3207958221435547e+01" cType="1" res="3.4767997264862061e-01" rms="3.4933379292488098e-01" purity="8.5734736919403076e-01" nType="0">
            <Node pos="l" depth="3" NCoef="0" IVar="-1" Cut="0.0000000000000000e+00" cType="1" res="4.3135570012964308e-04" rms="4.2247265577316284e-01" purity="7.6659125089645386e-01" nType="-99"/>
            <Node pos="r" depth="3" NCoef="0" IVar="-1" Cut="0.0000000000000000e+00" cType="1" res="5.7606812333688140e-04" rms="2.7992051839828491e-01" purity="9.1417068243026733e-01" nType="-99"/>
          </Node>
        </Node>
      </Node>
    </BinaryTree>
    <BinaryTree type="DecisionTree" boostWeight="1.0000000000000000e+00" itree="39">
      <Node pos="s" depth="0" NCoef="0" IVar="5" Cut="2.9218189716339111e+00" cType="1" res="6.4739085733890533e-02" rms="4.3785667419433594e-01" purity="5.0289016962051392e-01" nType="0">
        <Node pos="l" depth="1" NCoef="0" IVar="5" Cut="2.6235196590423584e+00" cType="1" res="-2.2745783627033234e-01" rms="2.9166701436042786e-01" purity="1.2298589199781418e-01" nType="0">
          <Node pos="l" depth="2" NCoef="0" IVar="0" Cut="1.0958197021484375e+02" cType="1" res="-2.8470820188522339e-01" rms="1.8881630897521973e-01" purity="4.2750965803861618e-02" nType="0">
            <Node pos="l" depth="3" NCoef="0" IVar="-1" Cut="0.0000000000000000e+00" cType="1" res="-7.9898880794644356e-03" rms="1.5030075609683990e-01" purity="2.3856585845351219e-02" nType="-99"/>
