<?xml version="1.0"?>
<MethodSetup Method="BDT::BDT_GG_H_M_500_Set">
  <GeneralInfo>
    <Info name="TMVA Release" value="4.2.1 [262657]"/>
    <Info name="ROOT Release" value="6.06/01 [394753]"/>
    <Info name="Creator" value="cardinia"/>
    <Info name="Date" value="Fri Sep  2 19:18:09 2016"/>
    <Info name="Host" value="Linux vocms0315.cern.ch 2.6.32-573.26.1.el6.x86_64 #1 SMP Wed May 4 09:23:05 CEST 2016 x86_64 x86_64 x86_64 GNU/Linux"/>
    <Info name="Dir" value="/nfs/dust/cms/user/cardinia/CMSSW_8_0_12/src/DesyTauAnalyses/NTupleMaker/test"/>
    <Info name="Training events" value="2384415"/>
    <Info name="TrainingTime" value="1.79775489e+03"/>
    <Info name="AnalysisType" value="Classification"/>
  </GeneralInfo>
  <Options>
    <Option name="V" modified="Yes">False</Option>
    <Option name="VerbosityLevel" modified="No">Default</Option>
    <Option name="VarTransform" modified="No">None</Option>
    <Option name="H" modified="Yes">False</Option>
    <Option name="CreateMVAPdfs" modified="No">False</Option>
    <Option name="IgnoreNegWeightsInTraining" modified="No">False</Option>
    <Option name="NTrees" modified="Yes">500</Option>
    <Option name="MaxDepth" modified="Yes">3</Option>
    <Option name="MinNodeSize" modified="No">5%</Option>
    <Option name="nCuts" modified="Yes">500</Option>
    <Option name="BoostType" modified="Yes">Grad</Option>
    <Option name="AdaBoostR2Loss" modified="No">quadratic</Option>
    <Option name="UseBaggedBoost" modified="Yes">True</Option>
    <Option name="Shrinkage" modified="Yes">3.000000e-01</Option>
    <Option name="AdaBoostBeta" modified="No">5.000000e-01</Option>
    <Option name="UseRandomisedTrees" modified="No">False</Option>
    <Option name="UseNvars" modified="No">3</Option>
    <Option name="UsePoissonNvars" modified="No">True</Option>
    <Option name="BaggedSampleFraction" modified="No">5.000000e-01</Option>
    <Option name="UseYesNoLeaf" modified="No">True</Option>
    <Option name="NegWeightTreatment" modified="No">ignorenegweightsintraining</Option>
    <Option name="Css" modified="No">1.000000e+00</Option>
    <Option name="Cts_sb" modified="No">1.000000e+00</Option>
    <Option name="Ctb_ss" modified="No">1.000000e+00</Option>
    <Option name="Cbb" modified="No">1.000000e+00</Option>
    <Option name="NodePurityLimit" modified="No">5.000000e-01</Option>
    <Option name="SeparationType" modified="Yes">giniindex</Option>
    <Option name="DoBoostMonitor" modified="No">False</Option>
    <Option name="UseFisherCuts" modified="No">False</Option>
    <Option name="MinLinCorrForFisher" modified="No">8.000000e-01</Option>
    <Option name="UseExclusiveVars" modified="No">False</Option>
    <Option name="DoPreselection" modified="No">False</Option>
    <Option name="SigToBkgFraction" modified="No">1.000000e+00</Option>
    <Option name="PruneMethod" modified="Yes">nopruning</Option>
    <Option name="PruneStrength" modified="No">0.000000e+00</Option>
    <Option name="PruningValFraction" modified="No">5.000000e-01</Option>
    <Option name="nEventsMin" modified="No">0</Option>
    <Option name="UseBaggedGrad" modified="No">False</Option>
    <Option name="GradBaggingFraction" modified="Yes">5.000000e-01</Option>
    <Option name="UseNTrainEvents" modified="No">0</Option>
    <Option name="NNodesMax" modified="No">0</Option>
  </Options>
  <Variables NVar="6">
    <Variable VarIndex="0" Expression="met" Label="met" Title="met" Unit="" Internal="met" Type="F" Min="7.05016926e-02" Max="1.42651025e+03"/>
    <Variable VarIndex="1" Expression="dzeta" Label="dzeta" Title="dzeta" Unit="" Internal="dzeta" Type="F" Min="-1.13656274e+03" Max="1.05587524e+03"/>
    <Variable VarIndex="2" Expression="AngularDistance(phi_2,metphi)" Label="dphi_mumet" Title="dphi_mumet" Unit="" Internal="dphi_mumet" Type="F" Min="4.05311584e-06" Max="3.14158750e+00"/>
    <Variable VarIndex="3" Expression="pt_2" Label="pt_2" Title="pt_2" Unit="" Internal="pt_2" Type="F" Min="1.00000038e+01" Max="9.92720825e+02"/>
    <Variable VarIndex="4" Expression="pt_1" Label="pt_1" Title="pt_1" Unit="" Internal="pt_1" Type="F" Min="1.30000181e+01" Max="1.20317920e+03"/>
    <Variable VarIndex="5" Expression="dr_tt" Label="dr_tt" Title="dr_tt" Unit="" Internal="dr_tt" Type="F" Min="3.00007433e-01" Max="5.68332291e+00"/>
  </Variables>
  <Spectators NSpec="0"/>
  <Classes NClass="2">
    <Class Name="Signal" Index="0"/>
    <Class Name="Background" Index="1"/>
  </Classes>
  <Transformations NTransformations="0"/>
  <MVAPdfs/>
  <Weights NTrees="500" AnalysisType="1">
    <BinaryTree type="DecisionTree" boostWeight="1.0000000000000000e+00" itree="0">
      <Node pos="s" depth="0" NCoef="0" IVar="1" Cut="-3.0486780166625977e+01" cType="1" res="-1.0983566753566265e-02" rms="4.9987936019897461e-01" purity="4.8901644349098206e-01" nType="0">
        <Node pos="l" depth="1" NCoef="0" IVar="3" Cut="1.0263568115234375e+02" cType="1" res="-3.9475232362747192e-01" rms="3.0687227845191956e-01" purity="1.0524766892194748e-01" nType="0">
          <Node pos="l" depth="2" NCoef="0" IVar="4" Cut="8.6765258789062500e+01" cType="1" res="-4.5322114229202271e-01" rms="2.1116483211517334e-01" purity="4.6778842806816101e-02" nType="0">
            <Node pos="l" depth="3" NCoef="0" IVar="-1" Cut="0.0000000000000000e+00" cType="1" res="-1.5274784527719021e-02" rms="1.0003306716680527e-01" purity="1.0108802467584610e-02" nType="-99"/>
            <Node pos="r" depth="3" NCoef="0" IVar="-1" Cut="0.0000000000000000e+00" cType="1" res="-1.5096244169399142e-03" rms="4.1860395669937134e-01" purity="2.2655764222145081e-01" nType="-99"/>
          </Node>
          <Node pos="r" depth="2" NCoef="0" IVar="-1" Cut="0.0000000000000000e+00" cType="1" res="-9.7007447038777173e-05" rms="4.9878588318824768e-01" purity="4.6517676115036011e-01" nType="-99"/>
        </Node>
        <Node pos="r" depth="1" NCoef="0" IVar="5" Cut="2.6910386085510254e+00" cType="1" res="2.2489315271377563e-01" rms="4.4656810164451599e-01" purity="7.2489315271377563e-01" nType="0">
          <Node pos="l" depth="2" NCoef="0" IVar="0" Cut="9.3996513366699219e+01" cType="1" res="-6.4135298132896423e-02" rms="4.9586960673332214e-01" purity="4.3586468696594238e-01" nType="0">
            <Node pos="l" depth="3" NCoef="0" IVar="-1" Cut="0.0000000000000000e+00" cType="1" res="-5.2959308959543705e-03" rms="2.5044196844100952e-01" purity="6.7242763936519623e-02" nType="-99"/>
            <Node pos="r" depth="3" NCoef="0" IVar="-1" Cut="0.0000000000000000e+00" cType="1" res="3.6095030372962356e-04" rms="4.6154540777206421e-01" purity="6.9229102134704590e-01" nType="-99"/>
          </Node>
          <Node pos="r" depth="2" NCoef="0" IVar="3" Cut="6.7353462219238281e+01" cType="1" res="3.1117609143257141e-01" rms="3.9136868715286255e-01" purity="8.1117612123489380e-01" nType="0">
            <Node pos="l" depth="3" NCoef="0" IVar="-1" Cut="0.0000000000000000e+00" cType="1" res="3.9894154178909957e-04" rms="4.4751578569412231e-01" purity="7.2300142049789429e-01" nType="-99"/>
            <Node pos="r" depth="3" NCoef="0" IVar="-1" Cut="0.0000000000000000e+00" cType="1" res="5.8786227600648999e-04" rms="2.9297274351119995e-01" purity="9.0517520904541016e-01" nType="-99"/>
          </Node>
        </Node>
      </Node>
    </BinaryTree>
    <BinaryTree type="DecisionTree" boostWeight="1.0000000000000000e+00" itree="1">
      <Node pos="s" depth="0" NCoef="0" IVar="1" Cut="-3.0485122680664062e+01" cType="1" res="9.6806595101952553e-03" rms="4.9774187803268433e-01" purity="5.0759875774383545e-01" nType="0">
        <Node pos="l" depth="1" NCoef="0" IVar="3" Cut="9.4722755432128906e+01" cType="1" res="-3.9137727022171021e-01" rms="3.0246427655220032e-01" purity="1.0297311842441559e-01" nType="0">
          <Node pos="l" depth="2" NCoef="0" IVar="5" Cut="3.0363476276397705e+00" cType="1" res="-4.4953206181526184e-01" rms="2.0423796772956848e-01" purity="4.3926388025283813e-02" nType="0">
            <Node pos="l" depth="3" NCoef="0" IVar="-1" Cut="0.0000000000000000e+00" cType="1" res="-1.3722150586545467e-02" rms="1.2481855601072311e-01" purity="1.6018243506550789e-02" nType="-99"/>
            <Node pos="r" depth="3" NCoef="0" IVar="-1" Cut="0.0000000000000000e+00" cType="1" res="-1.8480068538337946e-03" rms="3.9001849293708801e-01" purity="1.8820203840732574e-01" nType="-99"/>
          </Node>
          <Node pos="r" depth="2" NCoef="0" IVar="-1" Cut="0.0000000000000000e+00" cType="1" res="-2.3728946689516306e-04" rms="4.9339401721954346e-01" purity="4.2223513126373291e-01" nType="-99"/>
        </Node>
        <Node pos="r" depth="1" NCoef="0" IVar="4" Cut="6.2543598175048828e+01" cType="1" res="2.4008341133594513e-01" rms="4.3820938467979431e-01" purity="7.4005109071731567e-01" nType="0">
          <Node pos="l" depth="2" NCoef="0" IVar="5" Cut="2.3101577758789062e+00" cType="1" res="1.0485385358333588e-01" rms="4.8841637372970581e-01" purity="6.0465443134307861e-01" nType="0">
            <Node pos="l" depth="3" NCoef="0" IVar="-1" Cut="0.0000000000000000e+00" cType="1" res="-2.0843159873038530e-03" rms="3.7660142779350281e-01" purity="1.7194387316703796e-01" nType="-99"/>
            <Node pos="r" depth="3" NCoef="0" IVar="-1" Cut="0.0000000000000000e+00" cType="1" res="3.5727620706893504e-04" rms="4.6154665946960449e-01" purity="6.9168907403945923e-01" nType="-99"/>
          </Node>
          <Node pos="r" depth="2" NCoef="0" IVar="-1" Cut="0.0000000000000000e+00" cType="1" res="5.5863906163722277e-04" rms="3.3418577909469604e-01" purity="8.7175726890563965e-01" nType="-99"/>
        </Node>
      </Node>
    </BinaryTree>
    <BinaryTree type="DecisionTree" boostWeight="1.0000000000000000e+00" itree="2">
      <Node pos="s" depth="0" NCoef="0" IVar="1" Cut="-4.2531810760498047e+01" cType="1" res="1.0137471370398998e-02" rms="4.9591693282127380e-01" purity="5.0627946853637695e-01" nType="0">
        <Node pos="l" depth="1" NCoef="0" IVar="4" Cut="9.7608772277832031e+01" cType="1" res="-4.1600638628005981e-01" rms="2.5798326730728149e-01" purity="7.3084220290184021e-02" nType="0">
          <Node pos="l" depth="2" NCoef="0" IVar="3" Cut="7.5491729736328125e+01" cType="1" res="-4.6655341982841492e-01" rms="1.4311367273330688e-01" purity="2.1354723721742630e-02" nType="0">
            <Node pos="l" depth="3" NCoef="0" IVar="-1" Cut="0.0000000000000000e+00" cType="1" res="-1.7282614484429359e-02" rms="7.1953326463699341e-02" purity="5.2502769976854324e-03" nType="-99"/>
            <Node pos="r" depth="3" NCoef="0" IVar="-1" Cut="0.0000000000000000e+00" cType="1" res="-5.2639124915003777e-03" rms="2.8659513592720032e-01" purity="9.1587513685226440e-02" nType="-99"/>
          </Node>
          <Node pos="r" depth="2" NCoef="0" IVar="-1" Cut="0.0000000000000000e+00" cType="1" res="-5.4348935373127460e-04" rms="4.7500744462013245e-01" purity="3.4787163138389587e-01" nType="-99"/>
        </Node>
        <Node pos="r" depth="1" NCoef="0" IVar="5" Cut="2.4162454605102539e+00" cType="1" res="2.0946036279201508e-01" rms="4.5295193791389465e-01" purity="7.0890057086944580e-01" nType="0">
          <Node pos="l" depth="2" NCoef="0" IVar="3" Cut="4.1542881011962891e+01" cType="1" res="-1.9368740916252136e-01" rms="4.5736962556838989e-01" purity="3.0303019285202026e-01" nType="0">
            <Node pos="l" depth="3" NCoef="0" IVar="-1" Cut="0.0000000000000000e+00" cType="1" res="-4.5455498620867729e-03" rms="2.7082332968711853e-01" purity="8.0560103058815002e-02" nType="-99"/>
            <Node pos="r" depth="3" NCoef="0" IVar="-1" Cut="0.0000000000000000e+00" cType="1" res="7.7163866080809385e-05" rms="4.9683490395545959e-01" purity="5.2962899208068848e-01" nType="-99"/>
          </Node>
          <Node pos="r" depth="2" NCoef="0" IVar="3" Cut="7.6654022216796875e+01" cType="1" res="2.8152272105216980e-01" rms="4.1255524754524231e-01" purity="7.8144955635070801e-01" nType="0">
            <Node pos="l" depth="3" NCoef="0" IVar="-1" Cut="0.0000000000000000e+00" cType="1" res="3.5818418837152421e-04" rms="4.6095272898674011e-01" purity="6.9162786006927490e-01" nType="-99"/>
            <Node pos="r" depth="3" NCoef="0" IVar="-1" Cut="0.0000000000000000e+00" cType="1" res="5.8765040012076497e-04" rms="2.9245218634605408e-01" purity="9.0535616874694824e-01" nType="-99"/>
          </Node>
        </Node>
      </Node>
    </BinaryTree>
    <BinaryTree type="DecisionTree" boostWeight="1.0000000000000000e+00" itree="3">
      <Node pos="s" depth="0" NCoef="0" IVar="1" Cut="-2.7011743545532227e+01" cType="1" res="6.1422825092449784e-04" rms="4.9373644590377808e-01" purity="4.9461856484413147e-01" nType="0">
        <Node pos="l" depth="1" NCoef="0" IVar="3" Cut="8.8911888122558594e+01" cType="1" res="-3.7475222349166870e-01" rms="3.0779656767845154e-01" purity="1.0961854457855225e-01" nType="0">
          <Node pos="l" depth="2" NCoef="0" IVar="5" Cut="2.9270226955413818e+00" cType="1" res="-4.3556255102157593e-01" rms="2.0687024295330048e-01" purity="4.6122740954160690e-02" nType="0">
            <Node pos="l" depth="3" NCoef="0" IVar="-1" Cut="0.0000000000000000e+00" cType="1" res="-1.6220340505242348e-02" rms="8.6243502795696259e-02" purity="7.6283896341919899e-03" nType="-99"/>
            <Node pos="r" depth="3" NCoef="0" IVar="-1" Cut="0.0000000000000000e+00" cType="1" res="-1.7115148948505521e-03" rms="3.9302793145179749e-01" purity="1.9591282308101654e-01" nType="-99"/>
          </Node>
          <Node pos="r" depth="2" NCoef="0" IVar="-1" Cut="0.0000000000000000e+00" cType="1" res="-3.0954214162193239e-04" rms="4.8810181021690369e-01" purity="4.0091022849082947e-01" nType="-99"/>
        </Node>
        <Node pos="r" depth="1" NCoef="0" IVar="5" Cut="2.6754219532012939e+00" cType="1" res="2.4019095301628113e-01" rms="4.3768951296806335e-01" purity="7.4034386873245239e-01" nType="0">
          <Node pos="l" depth="2" NCoef="0" IVar="0" Cut="9.4277427673339844e+01" cType="1" res="-1.9262833520770073e-02" rms="4.9798026680946350e-01" purity="4.7903171181678772e-01" nType="0">
            <Node pos="l" depth="3" NCoef="0" IVar="-1" Cut="0.0000000000000000e+00" cType="1" res="-4.5946114696562290e-03" rms="2.7532973885536194e-01" purity="8.2963988184928894e-02" nType="-99"/>
            <Node pos="r" depth="3" NCoef="0" IVar="-1" Cut="0.0000000000000000e+00" cType="1" res="3.9220467442646623e-04" rms="4.5063167810440063e-01" purity="7.1526592969894409e-01" nType="-99"/>
          </Node>
          <Node pos="r" depth="2" NCoef="0" IVar="4" Cut="5.3973850250244141e+01" cType="1" res="3.1582647562026978e-01" rms="3.8701713085174561e-01" purity="8.1652110815048218e-01" nType="0">
            <Node pos="l" depth="3" NCoef="0" IVar="-1" Cut="0.0000000000000000e+00" cType="1" res="3.7714891368523240e-04" rms="4.5492404699325562e-01" purity="7.0737957954406738e-01" nType="-99"/>
            <Node pos="r" depth="3" NCoef="0" IVar="-1" Cut="0.0000000000000000e+00" cType="1" res="5.6788127403706312e-04" rms="3.2099571824073792e-01" purity="8.8333797454833984e-01" nType="-99"/>
          </Node>
        </Node>
      </Node>
    </BinaryTree>
    <BinaryTree type="DecisionTree" boostWeight="1.0000000000000000e+00" itree="4">
      <Node pos="s" depth="0" NCoef="0" IVar="1" Cut="-2.2322801589965820e+01" cType="1" res="1.1308226734399796e-02" rms="4.9164104461669922e-01" purity="5.0327783823013306e-01" nType="0">
        <Node pos="l" depth="1" NCoef="0" IVar="4" Cut="1.0564869689941406e+02" cType="1" res="-3.3629065752029419e-01" rms="3.4427139163017273e-01" purity="1.4389878511428833e-01" nType="0">
          <Node pos="l" depth="2" NCoef="0" IVar="1" Cut="-4.1642593383789062e+01" cType="1" res="-4.0071868896484375e-01" rms="2.6154407858848572e-01" purity="7.7083893120288849e-02" nType="0">
            <Node pos="l" depth="3" NCoef="0" IVar="-1" Cut="0.0000000000000000e+00" cType="1" res="-1.2214364483952522e-02" rms="1.3918086886405945e-01" purity="2.0394153892993927e-02" nType="-99"/>
            <Node pos="r" depth="3" NCoef="0" IVar="-1" Cut="0.0000000000000000e+00" cType="1" res="-7.4881094042211771e-04" rms="4.5425140857696533e-01" purity="3.0177366733551025e-01" nType="-99"/>
          </Node>
          <Node pos="r" depth="2" NCoef="0" IVar="-1" Cut="0.0000000000000000e+00" cType="1" res="6.9097914092708379e-05" rms="4.9570584297180176e-01" purity="5.2140551805496216e-01" nType="-99"/>
        </Node>
        <Node pos="r" depth="1" NCoef="0" IVar="4" Cut="6.3801349639892578e+01" cType="1" res="2.5494986772537231e-01" rms="4.2895925045013428e-01" purity="7.5517660379409790e-01" nType="0">
          <Node pos="l" depth="2" NCoef="0" IVar="3" Cut="5.4125152587890625e+01" cType="1" res="1.1863382160663605e-01" rms="4.8448547720909119e-01" purity="6.1829566955566406e-01" nType="0">
            <Node pos="l" depth="3" NCoef="0" IVar="-1" Cut="0.0000000000000000e+00" cType="1" res="-2.0350766135379672e-04" rms="4.9334096908569336e-01" purity="4.2844000458717346e-01" nType="-99"/>
            <Node pos="r" depth="3" NCoef="0" IVar="-1" Cut="0.0000000000000000e+00" cType="1" res="5.0411082338541746e-04" rms="3.8835883140563965e-01" purity="8.1423407793045044e-01" nType="-99"/>
          </Node>
          <Node pos="r" depth="2" NCoef="0" IVar="-1" Cut="0.0000000000000000e+00" cType="1" res="5.6949094869196415e-04" rms="3.1835690140724182e-01" purity="8.8527572154998779e-01" nType="-99"/>
        </Node>
      </Node>
    </BinaryTree>
    <BinaryTree type="DecisionTree" boostWeight="1.0000000000000000e+00" itree="5">
      <Node pos="s" depth="0" NCoef="0" IVar="1" Cut="-2.8571113586425781e+01" cType="1" res="1.4360937289893627e-02" rms="4.8988014459609985e-01" purity="5.0475710630416870e-01" nType="0">
        <Node pos="l" depth="1" NCoef="0" IVar="4" Cut="1.0613298034667969e+02" cType="1" res="-3.7100923061370850e-01" rms="2.9709193110466003e-01" purity="1.0303053259849548e-01" nType="0">
          <Node pos="l" depth="2" NCoef="0" IVar="5" Cut="3.0502502918243408e+00" cType="1" res="-4.2618578672409058e-01" rms="2.0249731838703156e-01" purity="4.4731475412845612e-02" nType="0">
            <Node pos="l" depth="3" NCoef="0" IVar="-1" Cut="0.0000000000000000e+00" cType="1" res="-1.2886879034340382e-02" rms="1.2567049264907837e-01" purity="1.6767000779509544e-02" nType="-99"/>
            <Node pos="r" depth="3" NCoef="0" IVar="-1" Cut="0.0000000000000000e+00" cType="1" res="-1.7179696587845683e-03" rms="3.9173671603202820e-01" purity="1.9428783655166626e-01" nType="-99"/>
          </Node>
          <Node pos="r" depth="2" NCoef="0" IVar="-1" Cut="0.0000000000000000e+00" cType="1" res="-1.0581610695226118e-04" rms="4.9426898360252380e-01" purity="4.5556730031967163e-01" nType="-99"/>
        </Node>
        <Node pos="r" depth="1" NCoef="0" IVar="4" Cut="6.9132484436035156e+01" cType="1" res="2.4713586270809174e-01" rms="4.3328580260276794e-01" purity="7.4741178750991821e-01" nType="0">
          <Node pos="l" depth="2" NCoef="0" IVar="3" Cut="5.5564701080322266e+01" cType="1" res="1.0862866044044495e-01" rms="4.8662701249122620e-01" purity="6.0824424028396606e-01" nType="0">
            <Node pos="l" depth="3" NCoef="0" IVar="-1" Cut="0.0000000000000000e+00" cType="1" res="-1.9522455113474280e-04" rms="4.9358001351356506e-01" purity="4.3104013800621033e-01" nType="-99"/>
            <Node pos="r" depth="3" NCoef="0" IVar="-1" Cut="0.0000000000000000e+00" cType="1" res="4.9493799451738596e-04" rms="3.9517021179199219e-01" purity="8.0547285079956055e-01" nType="-99"/>
          </Node>
          <Node pos="r" depth="2" NCoef="0" IVar="-1" Cut="0.0000000000000000e+00" cType="1" res="5.7546532480046153e-04" rms="3.0927869677543640e-01" purity="8.9259606599807739e-01" nType="-99"/>
        </Node>
      </Node>
    </BinaryTree>
    <BinaryTree type="DecisionTree" boostWeight="1.0000000000000000e+00" itree="6">
      <Node pos="s" depth="0" NCoef="0" IVar="1" Cut="-3.5335159301757812e+01" cType="1" res="9.4517217949032784e-03" rms="4.8812434077262878e-01" purity="4.9799549579620361e-01" nType="0">
        <Node pos="l" depth="1" NCoef="0" IVar="4" Cut="1.0559264373779297e+02" cType="1" res="-3.7927627563476562e-01" rms="2.7651968598365784e-01" purity="8.8677704334259033e-02" nType="0">
          <Node pos="l" depth="2" NCoef="0" IVar="1" Cut="-5.2016006469726562e+01" cType="1" res="-4.3729051947593689e-01" rms="1.5719066560268402e-01" purity="2.6557218283414841e-02" nType="0">
            <Node pos="l" depth="3" NCoef="0" IVar="-1" Cut="0.0000000000000000e+00" cType="1" res="-1.7520334571599960e-02" rms="7.6938934624195099e-02" purity="6.1470572836697102e-03" nType="-99"/>
            <Node pos="r" depth="3" NCoef="0" IVar="-1" Cut="0.0000000000000000e+00" cType="1" res="-2.8696968220174313e-03" rms="3.2015451788902283e-01" purity="1.2140458822250366e-01" nType="-99"/>
          </Node>
          <Node pos="r" depth="2" NCoef="0" IVar="-1" Cut="0.0000000000000000e+00" cType="1" res="-1.0438996832817793e-04" rms="4.9479833245277405e-01" purity="4.5538908243179321e-01" nType="-99"/>
        </Node>
        <Node pos="r" depth="1" NCoef="0" IVar="5" Cut="2.4053747653961182e+00" cType="1" res="2.2192195057868958e-01" rms="4.4605627655982971e-01" purity="7.2171968221664429e-01" nType="0">
          <Node pos="l" depth="2" NCoef="0" IVar="-1" Cut="0.0000000000000000e+00" cType="1" res="-4.9314997158944607e-04" rms="4.7388350963592529e-01" purity="3.5313755273818970e-01" nType="-99"/>
          <Node pos="r" depth="2" NCoef="0" IVar="3" Cut="5.4261093139648438e+01" cType="1" res="2.8643536567687988e-01" rms="4.0840899944305420e-01" purity="7.8709232807159424e-01" nType="0">
            <Node pos="l" depth="3" NCoef="0" IVar="-1" Cut="0.0000000000000000e+00" cType="1" res="3.1399272847920656e-04" rms="4.7186684608459473e-01" purity="6.6190260648727417e-01" nType="-99"/>
            <Node pos="r" depth="3" NCoef="0" IVar="-1" Cut="0.0000000000000000e+00" cType="1" res="5.5986474035307765e-04" rms="3.3073887228965759e-01" purity="8.7448424100875854e-01" nType="-99"/>
          </Node>
        </Node>
      </Node>
    </BinaryTree>
    <BinaryTree type="DecisionTree" boostWeight="1.0000000000000000e+00" itree="7">
      <Node pos="s" depth="0" NCoef="0" IVar="1" Cut="-2.9403440475463867e+01" cType="1" res="1.5004793182015419e-02" rms="4.8601847887039185e-01" purity="5.0150138139724731e-01" nType="0">
        <Node pos="l" depth="1" NCoef="0" IVar="3" Cut="8.8460800170898438e+01" cType="1" res="-3.6066302657127380e-01" rms="2.9360297322273254e-01" purity="1.0246767848730087e-01" nType="0">
          <Node pos="l" depth="2" NCoef="0" IVar="5" Cut="3.0363476276397705e+00" cType="1" res="-4.1709542274475098e-01" rms="1.9338417053222656e-01" purity="4.1197482496500015e-02" nType="0">
            <Node pos="l" depth="3" NCoef="0" IVar="-1" Cut="0.0000000000000000e+00" cType="1" res="-1.4150583185255527e-02" rms="1.0641837865114212e-01" purity="1.1954429559409618e-02" nType="-99"/>
            <Node pos="r" depth="3" NCoef="0" IVar="-1" Cut="0.0000000000000000e+00" cType="1" res="-1.7078355886042118e-03" rms="3.8681307435035706e-01" purity="1.8966440856456757e-01" nType="-99"/>
          </Node>
          <Node pos="r" depth="2" NCoef="0" IVar="-1" Cut="0.0000000000000000e+00" cType="1" res="-3.4479773603379726e-04" rms="4.7785186767578125e-01" purity="3.8308107852935791e-01" nType="-99"/>
        </Node>
        <Node pos="r" depth="1" NCoef="0" IVar="5" Cut="2.2108991146087646e+00" cType="1" res="2.4016553163528442e-01" rms="4.3685457110404968e-01" purity="7.4066680669784546e-01" nType="0">
          <Node pos="l" depth="2" NCoef="0" IVar="-1" Cut="0.0000000000000000e+00" cType="1" res="-6.0218386352062225e-04" rms="4.6824026107788086e-01" purity="3.3254778385162354e-01" nType="-99"/>
          <Node pos="r" depth="2" NCoef="0" IVar="4" Cut="6.9581970214843750e+01" cType="1" res="2.8857889771461487e-01" rms="4.0688127279281616e-01" purity="7.8962671756744385e-01" nType="0">
            <Node pos="l" depth="3" NCoef="0" IVar="-1" Cut="0.0000000000000000e+00" cType="1" res="3.5508294240571558e-04" rms="4.6146109700202942e-01" purity="6.9043141603469849e-01" nType="-99"/>
            <Node pos="r" depth="3" NCoef="0" IVar="-1" Cut="0.0000000000000000e+00" cType="1" res="5.7699315948411822e-04" rms="3.0580133199691772e-01" purity="8.9540028572082520e-01" nType="-99"/>
          </Node>
        </Node>
      </Node>
    </BinaryTree>
    <BinaryTree type="DecisionTree" boostWeight="1.0000000000000000e+00" itree="8">
      <Node pos="s" depth="0" NCoef="0" IVar="1" Cut="-3.3236095428466797e+01" cType="1" res="1.7718277871608734e-02" rms="4.8417016863822937e-01" purity="5.0249010324478149e-01" nType="0">
        <Node pos="l" depth="1" NCoef="0" IVar="4" Cut="1.0045452117919922e+02" cType="1" res="-3.6499941349029541e-01" rms="2.7845618128776550e-01" purity="9.2054799199104309e-02" nType="0">
          <Node pos="l" depth="2" NCoef="0" IVar="1" Cut="-4.8804187774658203e+01" cType="1" res="-4.1868841648101807e-01" rms="1.7256447672843933e-01" purity="3.2902881503105164e-02" nType="0">
            <Node pos="l" depth="3" NCoef="0" IVar="-1" Cut="0.0000000000000000e+00" cType="1" res="-1.6008820384740829e-02" rms="9.3396350741386414e-02" purity="9.1228596866130829e-03" nType="-99"/>
            <Node pos="r" depth="3" NCoef="0" IVar="-1" Cut="0.0000000000000000e+00" cType="1" res="-2.2151328157633543e-03" rms="3.4885990619659424e-01" purity="1.5092538297176361e-01" nType="-99"/>
          </Node>
          <Node pos="r" depth="2" NCoef="0" IVar="-1" Cut="0.0000000000000000e+00" cType="1" res="-2.1853538055438548e-04" rms="4.8681503534317017e-01" purity="4.1660353541374207e-01" nType="-99"/>
        </Node>
        <Node pos="r" depth="1" NCoef="0" IVar="5" Cut="2.4868035316467285e+00" cType="1" res="2.3069974780082703e-01" rms="4.4142135977745056e-01" purity="7.3089641332626343e-01" nType="0">
          <Node pos="l" depth="2" NCoef="0" IVar="3" Cut="3.8526477813720703e+01" cType="1" res="-9.5813482999801636e-02" rms="4.8597365617752075e-01" purity="3.9934602379798889e-01" nType="0">
            <Node pos="l" depth="3" NCoef="0" IVar="-1" Cut="0.0000000000000000e+00" cType="1" res="-1.7583264270797372e-03" rms="3.8864225149154663e-01" purity="1.8909224867820740e-01" nType="-99"/>
            <Node pos="r" depth="3" NCoef="0" IVar="-1" Cut="0.0000000000000000e+00" cType="1" res="2.0575574308168143e-04" rms="4.8852643370628357e-01" purity="5.9147298336029053e-01" nType="-99"/>
          </Node>
          <Node pos="r" depth="2" NCoef="0" IVar="4" Cut="6.9581970214843750e+01" cType="1" res="2.9830613732337952e-01" rms="3.9956572651863098e-01" purity="7.9954570531845093e-01" nType="0">
            <Node pos="l" depth="3" NCoef="0" IVar="-1" Cut="0.0000000000000000e+00" cType="1" res="3.6820178502239287e-04" rms="4.5714831352233887e-01" purity="7.0033770799636841e-01" nType="-99"/>
            <Node pos="r" depth="3" NCoef="0" IVar="-1" Cut="0.0000000000000000e+00" cType="1" res="5.7883985573425889e-04" rms="3.0240356922149658e-01" purity="8.9793771505355835e-01" nType="-99"/>
          </Node>
        </Node>
      </Node>
    </BinaryTree>
    <BinaryTree type="DecisionTree" boostWeight="1.0000000000000000e+00" itree="9">
      <Node pos="s" depth="0" NCoef="0" IVar="1" Cut="-2.5027317047119141e+01" cType="1" res="2.2459831088781357e-02" rms="4.8205193877220154e-01" purity="5.0532943010330200e-01" nType="0">
        <Node pos="l" depth="1" NCoef="0" IVar="3" Cut="8.7196456909179688e+01" cType="1" res="-3.3929720520973206e-01" rms="3.0627825856208801e-01" purity="1.1513309180736542e-01" nType="0">
          <Node pos="l" depth="2" NCoef="0" IVar="5" Cut="2.7069189548492432e+00" cType="1" res="-4.0554502606391907e-01" rms="1.9435043632984161e-01" purity="4.2322374880313873e-02" nType="0">
            <Node pos="l" depth="3" NCoef="0" IVar="-1" Cut="0.0000000000000000e+00" cType="1" res="-1.6733216121792793e-02" rms="5.7703323662281036e-02" purity="3.3370524179190397e-03" nType="-99"/>
            <Node pos="r" depth="3" NCoef="0" IVar="-1" Cut="0.0000000000000000e+00" cType="1" res="-2.4484372697770596e-03" rms="3.4378972649574280e-01" purity="1.4495654404163361e-01" nType="-99"/>
          </Node>
          <Node pos="r" depth="2" NCoef="0" IVar="-1" Cut="0.0000000000000000e+00" cType="1" res="-1.9301421707496047e-04" rms="4.8267948627471924e-01" purity="4.1937172412872314e-01" nType="-99"/>
        </Node>
        <Node pos="r" depth="1" NCoef="0" IVar="5" Cut="2.5958218574523926e+00" cType="1" res="2.5374168157577515e-01" rms="4.2872524261474609e-01" purity="7.5479340553283691e-01" nType="0">
          <Node pos="l" depth="2" NCoef="0" IVar="5" Cut="2.0688447952270508e+00" cType="1" res="-4.7287885099649429e-02" rms="4.9448969960212708e-01" purity="4.4978311657905579e-01" nType="0">
            <Node pos="l" depth="3" NCoef="0" IVar="-1" Cut="0.0000000000000000e+00" cType="1" res="-7.7179534127935767e-04" rms="4.5638754963874817e-01" purity="3.0227467417716980e-01" nType="-99"/>
            <Node pos="r" depth="3" NCoef="0" IVar="-1" Cut="0.0000000000000000e+00" cType="1" res="1.5667287516407669e-04" rms="4.9278140068054199e-01" purity="5.6766235828399658e-01" nType="-99"/>
          </Node>
          <Node pos="r" depth="2" NCoef="0" IVar="3" Cut="6.7353744506835938e+01" cType="1" res="3.2245564460754395e-01" rms="3.8018399477005005e-01" purity="8.2441592216491699e-01" nType="0">
            <Node pos="l" depth="3" NCoef="0" IVar="-1" Cut="0.0000000000000000e+00" cType="1" res="4.1239979327656329e-04" rms="4.4056534767150879e-01" purity="7.3584181070327759e-01" nType="-99"/>
            <Node pos="r" depth="3" NCoef="0" IVar="-1" Cut="0.0000000000000000e+00" cType="1" res="5.9146888088434935e-04" rms="2.8026047348976135e-01" purity="9.1402989625930786e-01" nType="-99"/>
          </Node>
        </Node>
      </Node>
    </BinaryTree>
    <BinaryTree type="DecisionTree" boostWeight="1.0000000000000000e+00" itree="10">
      <Node pos="s" depth="0" NCoef="0" IVar="1" Cut="-2.6438060760498047e+01" cType="1" res="2.3452267050743103e-02" rms="4.8017400503158569e-01" purity="5.0446695089340210e-01" nType="0">
        <Node pos="l" depth="1" NCoef="0" IVar="4" Cut="1.0125724029541016e+02" cType="1" res="-3.4842178225517273e-01" rms="2.8643581271171570e-01" purity="9.9716365337371826e-02" nType="0">
          <Node pos="l" depth="2" NCoef="0" IVar="5" Cut="3.0502321720123291e+00" cType="1" res="-3.9729425311088562e-01" rms="1.9796495139598846e-01" purity="4.4519193470478058e-02" nType="0">
            <Node pos="l" depth="3" NCoef="0" IVar="-1" Cut="0.0000000000000000e+00" cType="1" res="-1.2339396402239799e-02" rms="1.1818250268697739e-01" purity="1.5305217355489731e-02" nType="-99"/>
            <Node pos="r" depth="3" NCoef="0" IVar="-1" Cut="0.0000000000000000e+00" cType="1" res="-1.5685652615502477e-03" rms="3.9308783411979675e-01" purity="2.0021463930606842e-01" nType="-99"/>
          </Node>
          <Node pos="r" depth="2" NCoef="0" IVar="-1" Cut="0.0000000000000000e+00" cType="1" res="-2.1394486248027533e-04" rms="4.8511785268783569e-01" purity="4.1532680392265320e-01" nType="-99"/>
        </Node>
        <Node pos="r" depth="1" NCoef="0" IVar="5" Cut="2.6859920024871826e+00" cType="1" res="2.5118765234947205e-01" rms="4.3008056282997131e-01" purity="7.5233590602874756e-01" nType="0">
          <Node pos="l" depth="2" NCoef="0" IVar="0" Cut="9.4377517700195312e+01" cType="1" res="-9.5873111858963966e-03" rms="4.9681007862091064e-01" purity="4.8772627115249634e-01" nType="0">
            <Node pos="l" depth="3" NCoef="0" IVar="-1" Cut="0.0000000000000000e+00" cType="1" res="-4.8641483299434185e-03" rms="2.6108270883560181e-01" purity="7.4137493968009949e-02" nType="-99"/>
            <Node pos="r" depth="3" NCoef="0" IVar="-1" Cut="0.0000000000000000e+00" cType="1" res="4.1373627027496696e-04" rms="4.4157850742340088e-01" purity="7.3237913846969604e-01" nType="-99"/>
          </Node>
          <Node pos="r" depth="2" NCoef="0" IVar="4" Cut="6.5682929992675781e+01" cType="1" res="3.2543301582336426e-01" rms="3.7747314572334290e-01" purity="8.2767301797866821e-01" nType="0">
            <Node pos="l" depth="3" NCoef="0" IVar="-1" Cut="0.0000000000000000e+00" cType="1" res="4.2540353024378419e-04" rms="4.3449386954307556e-01" purity="7.4709814786911011e-01" nType="-99"/>
            <Node pos="r" depth="3" NCoef="0" IVar="-1" Cut="0.0000000000000000e+00" cType="1" res="5.8069248916581273e-04" rms="2.9726025462150574e-01" purity="9.0201818943023682e-01" nType="-99"/>
          </Node>
        </Node>
      </Node>
    </BinaryTree>
    <BinaryTree type="DecisionTree" boostWeight="1.0000000000000000e+00" itree="11">
      <Node pos="s" depth="0" NCoef="0" IVar="1" Cut="-2.5576658248901367e+01" cType="1" res="1.0349673219025135e-02" rms="4.7827294468879700e-01" purity="4.8885130882263184e-01" nType="0">
        <Node pos="l" depth="1" NCoef="0" IVar="4" Cut="1.1277590179443359e+02" cType="1" res="-3.3125478029251099e-01" rms="3.0156153440475464e-01" purity="1.1353942006826401e-01" nType="0">
          <Node pos="l" depth="2" NCoef="0" IVar="1" Cut="-4.1282314300537109e+01" cType="1" res="-3.8455787301063538e-01" rms="2.1555745601654053e-01" purity="5.3900122642517090e-02" nType="0">
            <Node pos="l" depth="3" NCoef="0" IVar="-1" Cut="0.0000000000000000e+00" cType="1" res="-1.2435324490070343e-02" rms="1.2274339050054550e-01" purity="1.6084216535091400e-02" nType="-99"/>
            <Node pos="r" depth="3" NCoef="0" IVar="-1" Cut="0.0000000000000000e+00" cType="1" res="-1.0475408053025603e-03" rms="4.2132434248924255e-01" purity="2.4919885396957397e-01" nType="-99"/>
          </Node>
          <Node pos="r" depth="2" NCoef="0" IVar="-1" Cut="0.0000000000000000e+00" cType="1" res="7.6996191637590528e-05" rms="4.9258416891098022e-01" purity="5.1854717731475830e-01" nType="-99"/>
        </Node>
        <Node pos="r" depth="1" NCoef="0" IVar="4" Cut="6.3801349639892578e+01" cType="1" res="2.3980538547039032e-01" rms="4.3620645999908447e-01" purity="7.4094837903976440e-01" nType="0">
          <Node pos="l" depth="2" NCoef="0" IVar="3" Cut="5.6676315307617188e+01" cType="1" res="8.6952708661556244e-02" rms="4.9006557464599609e-01" purity="5.8681070804595947e-01" nType="0">
            <Node pos="l" depth="3" NCoef="0" IVar="-1" Cut="0.0000000000000000e+00" cType="1" res="-3.2860430656000972e-04" rms="4.8611831665039062e-01" purity="3.9329329133033752e-01" nType="-99"/>
            <Node pos="r" depth="3" NCoef="0" IVar="-1" Cut="0.0000000000000000e+00" cType="1" res="4.9194536404684186e-04" rms="3.9579224586486816e-01" purity="8.0423980951309204e-01" nType="-99"/>
          </Node>
          <Node pos="r" depth="2" NCoef="0" IVar="-1" Cut="0.0000000000000000e+00" cType="1" res="5.6255888193845749e-04" rms="3.2453894615173340e-01" purity="8.7980431318283081e-01" nType="-99"/>
        </Node>
      </Node>
    </BinaryTree>
    <BinaryTree type="DecisionTree" boostWeight="1.0000000000000000e+00" itree="12">
      <Node pos="s" depth="0" NCoef="0" IVar="1" Cut="-3.3797233581542969e+01" cType="1" res="1.7824690788984299e-02" rms="4.7679612040519714e-01" purity="4.9501824378967285e-01" nType="0">
        <Node pos="l" depth="1" NCoef="0" IVar="3" Cut="9.6230209350585938e+01" cType="1" res="-3.5073620080947876e-01" rms="2.6441642642021179e-01" purity="8.5270196199417114e-02" nType="0">
          <Node pos="l" depth="2" NCoef="0" IVar="4" Cut="8.4268501281738281e+01" cType="1" res="-3.9761051535606384e-01" rms="1.6625861823558807e-01" purity="3.1691424548625946e-02" nType="0">
            <Node pos="l" depth="3" NCoef="0" IVar="-1" Cut="0.0000000000000000e+00" cType="1" res="-1.4791395515203476e-02" rms="6.6207028925418854e-02" purity="4.5838057994842529e-03" nType="-99"/>
            <Node pos="r" depth="3" NCoef="0" IVar="-1" Cut="0.0000000000000000e+00" cType="1" res="-2.2192932665348053e-03" rms="3.5839441418647766e-01" purity="1.6371610760688782e-01" nType="-99"/>
          </Node>
          <Node pos="r" depth="2" NCoef="0" IVar="-1" Cut="0.0000000000000000e+00" cType="1" res="-2.7067356859333813e-04" rms="4.7692194581031799e-01" purity="3.9241409301757812e-01" nType="-99"/>
        </Node>
        <Node pos="r" depth="1" NCoef="0" IVar="4" Cut="6.4621894836425781e+01" cType="1" res="2.2311049699783325e-01" rms="4.4408667087554932e-01" purity="7.2324508428573608e-01" nType="0">
          <Node pos="l" depth="2" NCoef="0" IVar="3" Cut="4.9175815582275391e+01" cType="1" res="6.9630727171897888e-02" rms="4.9133923649787903e-01" purity="5.6789869070053101e-01" nType="0">
            <Node pos="l" depth="3" NCoef="0" IVar="-1" Cut="0.0000000000000000e+00" cType="1" res="-5.4166436893865466e-04" rms="4.7034388780593872e-01" purity="3.4163501858711243e-01" nType="-99"/>
            <Node pos="r" depth="3" NCoef="0" IVar="-1" Cut="0.0000000000000000e+00" cType="1" res="4.4779593008570373e-04" rms="4.2304635047912598e-01" purity="7.6263147592544556e-01" nType="-99"/>
          </Node>
          <Node pos="r" depth="2" NCoef="0" IVar="-1" Cut="0.0000000000000000e+00" cType="1" res="5.5487395729869604e-04" rms="3.3417290449142456e-01" purity="8.7070345878601074e-01" nType="-99"/>
        </Node>
      </Node>
    </BinaryTree>
    <BinaryTree type="DecisionTree" boostWeight="1.0000000000000000e+00" itree="13">
      <Node pos="s" depth="0" NCoef="0" IVar="1" Cut="-3.5246627807617188e+01" cType="1" res="1.4636084437370300e-02" rms="4.7528424859046936e-01" purity="4.8990684747695923e-01" nType="0">
        <Node pos="l" depth="1" NCoef="0" IVar="4" Cut="9.8522659301757812e+01" cType="1" res="-3.5334813594818115e-01" rms="2.5194510817527771e-01" purity="7.6413311064243317e-02" nType="0">
          <Node pos="l" depth="2" NCoef="0" IVar="4" Cut="6.4552452087402344e+01" cType="1" res="-3.9021888375282288e-01" rms="1.6638189554214478e-01" purity="3.1218176707625389e-02" nType="0">
            <Node pos="l" depth="3" NCoef="0" IVar="-1" Cut="0.0000000000000000e+00" cType="1" res="-1.3543284498155117e-02" rms="8.8231988251209259e-02" purity="8.2892058417201042e-03" nType="-99"/>
            <Node pos="r" depth="3" NCoef="0" IVar="-1" Cut="0.0000000000000000e+00" cType="1" res="-3.2247677445411682e-03" rms="3.0460384488105774e-01" purity="1.1474200338125229e-01" nType="-99"/>
          </Node>
          <Node pos="r" depth="2" NCoef="0" IVar="-1" Cut="0.0000000000000000e+00" cType="1" res="-5.4316973546519876e-04" rms="4.6488857269287109e-01" purity="3.3531746268272400e-01" nType="-99"/>
        </Node>
        <Node pos="r" depth="1" NCoef="0" IVar="4" Cut="6.3801406860351562e+01" cType="1" res="2.1422383189201355e-01" rms="4.4800400733947754e-01" purity="7.1417796611785889e-01" nType="0">
          <Node pos="l" depth="2" NCoef="0" IVar="3" Cut="5.9418521881103516e+01" cType="1" res="4.7502059489488602e-02" rms="4.9348765611648560e-01" purity="5.4503417015075684e-01" nType="0">
            <Node pos="l" depth="3" NCoef="0" IVar="-1" Cut="0.0000000000000000e+00" cType="1" res="-3.8048540591262281e-04" rms="4.8032042384147644e-01" purity="3.7739557027816772e-01" nType="-99"/>
            <Node pos="r" depth="3" NCoef="0" IVar="-1" Cut="0.0000000000000000e+00" cType="1" res="4.6714785275980830e-04" rms="4.1175225377082825e-01" purity="7.8006625175476074e-01" nType="-99"/>
          </Node>
          <Node pos="r" depth="2" NCoef="0" IVar="-1" Cut="0.0000000000000000e+00" cType="1" res="5.5268011055886745e-04" rms="3.3629676699638367e-01" purity="8.6856067180633545e-01" nType="-99"/>
        </Node>
      </Node>
    </BinaryTree>
    <BinaryTree type="DecisionTree" boostWeight="1.0000000000000000e+00" itree="14">
      <Node pos="s" depth="0" NCoef="0" IVar="1" Cut="-4.0738029479980469e+01" cType="1" res="2.5571942329406738e-02" rms="4.7367161512374878e-01" purity="4.9957272410392761e-01" nType="0">
        <Node pos="l" depth="1" NCoef="0" IVar="3" Cut="8.3765563964843750e+01" cType="1" res="-3.5912862420082092e-01" rms="2.2990524768829346e-01" purity="6.3478320837020874e-02" nType="0">
          <Node pos="l" depth="2" NCoef="0" IVar="2" Cut="1.2102352380752563e+00" cType="1" res="-3.9815586805343628e-01" rms="1.2059454619884491e-01" purity="1.5846833586692810e-02" nType="0">
            <Node pos="l" depth="3" NCoef="0" IVar="-1" Cut="0.0000000000000000e+00" cType="1" res="-5.1047676242887974e-03" rms="2.4321702122688293e-01" purity="6.8270862102508545e-02" nType="-99"/>
            <Node pos="r" depth="3" NCoef="0" IVar="-1" Cut="0.0000000000000000e+00" cType="1" res="-1.5902843326330185e-02" rms="6.0359135270118713e-02" purity="3.5567115992307663e-03" nType="-99"/>
          </Node>
          <Node pos="r" depth="2" NCoef="0" IVar="-1" Cut="0.0000000000000000e+00" cType="1" res="-8.7043462553992867e-04" rms="4.3133133649826050e-01" purity="2.7469173073768616e-01" nType="-99"/>
        </Node>
        <Node pos="r" depth="1" NCoef="0" IVar="4" Cut="6.6778861999511719e+01" cType="1" res="2.1051032841205597e-01" rms="4.4885018467903137e-01" purity="7.0921778678894043e-01" nType="0">
          <Node pos="l" depth="2" NCoef="0" IVar="3" Cut="6.7384635925292969e+01" cType="1" res="6.5736509859561920e-02" rms="4.9001225829124451e-01" purity="5.6166732311248779e-01" nType="0">
            <Node pos="l" depth="3" NCoef="0" IVar="-1" Cut="0.0000000000000000e+00" cType="1" res="-3.0369460000656545e-04" rms="4.8263341188430786e-01" purity="3.9529266953468323e-01" nType="-99"/>
            <Node pos="r" depth="3" NCoef="0" IVar="-1" Cut="0.0000000000000000e+00" cType="1" res="5.2163045620545745e-04" rms="3.7142854928970337e-01" purity="8.3181589841842651e-01" nType="-99"/>
          </Node>
          <Node pos="r" depth="2" NCoef="0" IVar="-1" Cut="0.0000000000000000e+00" cType="1" res="5.5109406821429729e-04" rms="3.3834791183471680e-01" purity="8.6598408222198486e-01" nType="-99"/>
        </Node>
      </Node>
    </BinaryTree>
    <BinaryTree type="DecisionTree" boostWeight="1.0000000000000000e+00" itree="15">
      <Node pos="s" depth="0" NCoef="0" IVar="1" Cut="-2.5027317047119141e+01" cType="1" res="2.7450172230601311e-02" rms="4.7181910276412964e-01" purity="4.9955987930297852e-01" nType="0">
        <Node pos="l" depth="1" NCoef="0" IVar="4" Cut="1.1531761932373047e+02" cType="1" res="-2.9578676819801331e-01" rms="3.1716766953468323e-01" purity="1.3245335221290588e-01" nType="0">
          <Node pos="l" depth="2" NCoef="0" IVar="1" Cut="-4.2488929748535156e+01" cType="1" res="-3.4716084599494934e-01" rms="2.4413779377937317e-01" purity="7.2995044291019440e-02" nType="0">
            <Node pos="l" depth="3" NCoef="0" IVar="-1" Cut="0.0000000000000000e+00" cType="1" res="-1.0500470176339149e-02" rms="1.3902109861373901e-01" purity="2.1420067176222801e-02" nType="-99"/>
            <Node pos="r" depth="3" NCoef="0" IVar="-1" Cut="0.0000000000000000e+00" cType="1" res="-6.8150187144055963e-04" rms="4.4363856315612793e-01" purity="2.9840719699859619e-01" nType="-99"/>
          </Node>
          <Node pos="r" depth="2" NCoef="0" IVar="-1" Cut="0.0000000000000000e+00" cType="1" res="1.4861873933114111e-04" rms="4.8959758877754211e-01" purity="5.4729765653610229e-01" nType="-99"/>
        </Node>
        <Node pos="r" depth="1" NCoef="0" IVar="5" Cut="2.4326574802398682e+00" cType="1" res="2.4589374661445618e-01" rms="4.3214163184165955e-01" purity="7.4765062332153320e-01" nType="0">
          <Node pos="l" depth="2" NCoef="0" IVar="-1" Cut="0.0000000000000000e+00" cType="1" res="-1.8723185348790139e-04" rms="4.9091932177543640e-01" purity="4.3145424127578735e-01" nType="-99"/>
          <Node pos="r" depth="2" NCoef="0" IVar="4" Cut="6.4621978759765625e+01" cType="1" res="3.0223491787910461e-01" rms="3.9527466893196106e-01" purity="8.0509120225906372e-01" nType="0">
            <Node pos="l" depth="3" NCoef="0" IVar="-1" Cut="0.0000000000000000e+00" cType="1" res="3.8223338196985424e-04" rms="4.5184019207954407e-01" purity="7.1210777759552002e-01" nType="-99"/>
            <Node pos="r" depth="3" NCoef="0" IVar="-1" Cut="0.0000000000000000e+00" cType="1" res="5.6999985827133060e-04" rms="3.1111922860145569e-01" purity="8.9122116565704346e-01" nType="-99"/>
          </Node>
        </Node>
      </Node>
    </BinaryTree>
    <BinaryTree type="DecisionTree" boostWeight="1.0000000000000000e+00" itree="16">
      <Node pos="s" depth="0" NCoef="0" IVar="1" Cut="-3.4737396240234375e+01" cType="1" res="3.4561939537525177e-02" rms="4.7044539451599121e-01" purity="5.0563150644302368e-01" nType="0">
        <Node pos="l" depth="1" NCoef="0" IVar="3" Cut="9.8268440246582031e+01" cType="1" res="-3.2464605569839478e-01" rms="2.7089709043502808e-01" purity="9.2348888516426086e-02" nType="0">
          <Node pos="l" depth="2" NCoef="0" IVar="5" Cut="2.9325668811798096e+00" cType="1" res="-3.6727952957153320e-01" rms="1.8776257336139679e-01" purity="4.1297353804111481e-02" nType="0">
            <Node pos="l" depth="3" NCoef="0" IVar="-1" Cut="0.0000000000000000e+00" cType="1" res="-1.3421259820461273e-02" rms="9.9397599697113037e-02" purity="1.0882513597607613e-02" nType="-99"/>
            <Node pos="r" depth="3" NCoef="0" IVar="-1" Cut="0.0000000000000000e+00" cType="1" res="-1.8399185501039028e-03" rms="3.5942050814628601e-01" purity="1.6682824492454529e-01" nType="-99"/>
          </Node>
          <Node pos="r" depth="2" NCoef="0" IVar="-1" Cut="0.0000000000000000e+00" cType="1" res="-2.1610978001262993e-04" rms="4.7591015696525574e-01" purity="4.0100350975990295e-01" nType="-99"/>
        </Node>
        <Node pos="r" depth="1" NCoef="0" IVar="5" Cut="2.6437499523162842e+00" cType="1" res="2.2984464466571808e-01" rms="4.3984118103981018e-01" purity="7.3031175136566162e-01" nType="0">
          <Node pos="l" depth="2" NCoef="0" IVar="0" Cut="9.3620056152343750e+01" cType="1" res="-4.9302123486995697e-02" rms="4.8957660794258118e-01" purity="4.4386741518974304e-01" nType="0">
            <Node pos="l" depth="3" NCoef="0" IVar="-1" Cut="0.0000000000000000e+00" cType="1" res="-7.7935964800417423e-03" rms="1.7704384028911591e-01" purity="3.2816641032695770e-02" nType="-99"/>
            <Node pos="r" depth="3" NCoef="0" IVar="-1" Cut="0.0000000000000000e+00" cType="1" res="3.9583843317814171e-04" rms="4.4702535867691040e-01" purity="7.1809315681457520e-01" nType="-99"/>
          </Node>
          <Node pos="r" depth="2" NCoef="0" IVar="4" Cut="6.9446075439453125e+01" cType="1" res="3.0962374806404114e-01" rms="3.8937711715698242e-01" purity="8.1217652559280396e-01" nType="0">
            <Node pos="l" depth="3" NCoef="0" IVar="-1" Cut="0.0000000000000000e+00" cType="1" res="3.9129235665313900e-04" rms="4.4823160767555237e-01" purity="7.1877133846282959e-01" nType="-99"/>
            <Node pos="r" depth="3" NCoef="0" IVar="-1" Cut="0.0000000000000000e+00" cType="1" res="5.8113824343308806e-04" rms="2.9452067613601685e-01" purity="9.0373444557189941e-01" nType="-99"/>
          </Node>
        </Node>
      </Node>
    </BinaryTree>
    <BinaryTree type="DecisionTree" boostWeight="1.0000000000000000e+00" itree="17">
      <Node pos="s" depth="0" NCoef="0" IVar="1" Cut="-3.6571052551269531e+01" cType="1" res="3.9771005511283875e-02" rms="4.6890220046043396e-01" purity="5.0963628292083740e-01" nType="0">
        <Node pos="l" depth="1" NCoef="0" IVar="3" Cut="8.6499282836914062e+01" cType="1" res="-3.2698205113410950e-01" rms="2.5882312655448914e-01" purity="8.3873435854911804e-02" nType="0">
          <Node pos="l" depth="2" NCoef="0" IVar="5" Cut="2.9377522468566895e+00" cType="1" res="-3.7385824322700500e-01" rms="1.5103267133235931e-01" purity="2.6045594364404678e-02" nType="0">
            <Node pos="l" depth="3" NCoef="0" IVar="-1" Cut="0.0000000000000000e+00" cType="1" res="-1.6056658700108528e-02" rms="6.9630801677703857e-02" purity="5.0218128599226475e-03" nType="-99"/>
            <Node pos="r" depth="3" NCoef="0" IVar="-1" Cut="0.0000000000000000e+00" cType="1" res="-2.7534244582056999e-03" rms="3.1586006283760071e-01" purity="1.2112387269735336e-01" nType="-99"/>
          </Node>
          <Node pos="r" depth="2" NCoef="0" IVar="-1" Cut="0.0000000000000000e+00" cType="1" res="-4.5292559661902487e-04" rms="4.5805683732032776e-01" purity="3.3998224139213562e-01" nType="-99"/>
        </Node>
        <Node pos="r" depth="1" NCoef="0" IVar="4" Cut="8.2616470336914062e+01" cType="1" res="2.2645691037178040e-01" rms="4.4087347388267517e-01" purity="7.2635954618453979e-01" nType="0">
          <Node pos="l" depth="2" NCoef="0" IVar="3" Cut="5.4346771240234375e+01" cType="1" res="1.1151620000600815e-01" rms="4.8237138986587524e-01" purity="6.0917305946350098e-01" nType="0">
            <Node pos="l" depth="3" NCoef="0" IVar="-1" Cut="0.0000000000000000e+00" cType="1" res="-2.5746665778569877e-04" rms="4.8566460609436035e-01" purity="4.0863394737243652e-01" nType="-99"/>
            <Node pos="r" depth="3" NCoef="0" IVar="-1" Cut="0.0000000000000000e+00" cType="1" res="4.9560796469449997e-04" rms="3.9210247993469238e-01" purity="8.0664950609207153e-01" nType="-99"/>
          </Node>
          <Node pos="r" depth="2" NCoef="0" IVar="-1" Cut="0.0000000000000000e+00" cType="1" res="5.8391212951391935e-04" rms="2.8912320733070374e-01" purity="9.0695118904113770e-01" nType="-99"/>
        </Node>
      </Node>
    </BinaryTree>
    <BinaryTree type="DecisionTree" boostWeight="1.0000000000000000e+00" itree="18">
      <Node pos="s" depth="0" NCoef="0" IVar="1" Cut="-2.4767372131347656e+01" cType="1" res="3.2426632940769196e-02" rms="4.6720525622367859e-01" purity="5.0009459257125854e-01" nType="0">
        <Node pos="l" depth="1" NCoef="0" IVar="4" Cut="1.1531758117675781e+02" cType="1" res="-2.9135298728942871e-01" rms="3.0552670359611511e-01" purity="1.2440679967403412e-01" nType="0">
          <Node pos="l" depth="2" NCoef="0" IVar="5" Cut="3.0502407550811768e+00" cType="1" res="-3.4496024250984192e-01" rms="2.2344107925891876e-01" purity="6.1426911503076553e-02" nType="0">
            <Node pos="l" depth="3" NCoef="0" IVar="-1" Cut="0.0000000000000000e+00" cType="1" res="-1.1116976849734783e-02" rms="1.2493221461772919e-01" purity="1.7380215227603912e-02" nType="-99"/>
            <Node pos="r" depth="3" NCoef="0" IVar="-1" Cut="0.0000000000000000e+00" cType="1" res="-8.7006675312295556e-04" rms="4.2212072014808655e-01" purity="2.6271468400955200e-01" nType="-99"/>
          </Node>
          <Node pos="r" depth="2" NCoef="0" IVar="-1" Cut="0.0000000000000000e+00" cType="1" res="1.7645671323407441e-04" rms="4.8604151606559753e-01" purity="5.5511188507080078e-01" nType="-99"/>
        </Node>
        <Node pos="r" depth="1" NCoef="0" IVar="4" Cut="6.3728782653808594e+01" cType="1" res="2.4676102399826050e-01" rms="4.3086874485015869e-01" purity="7.4879091978073120e-01" nType="0">
          <Node pos="l" depth="2" NCoef="0" IVar="3" Cut="5.4247951507568359e+01" cType="1" res="1.0610420256853104e-01" rms="4.8524576425552368e-01" purity="6.0592937469482422e-01" nType="0">
            <Node pos="l" depth="3" NCoef="0" IVar="-1" Cut="0.0000000000000000e+00" cType="1" res="-2.2373437241185457e-04" rms="4.9043017625808716e-01" purity="4.2075359821319580e-01" nType="-99"/>
            <Node pos="r" depth="3" NCoef="0" IVar="-1" Cut="0.0000000000000000e+00" cType="1" res="4.8999954015016556e-04" rms="3.9525726437568665e-01" purity="8.0449002981185913e-01" nType="-99"/>
          </Node>
          <Node pos="r" depth="2" NCoef="0" IVar="-1" Cut="0.0000000000000000e+00" cType="1" res="5.6175875943154097e-04" rms="3.2148143649101257e-01" purity="8.8226687908172607e-01" nType="-99"/>
        </Node>
      </Node>
    </BinaryTree>
    <BinaryTree type="DecisionTree" boostWeight="1.0000000000000000e+00" itree="19">
      <Node pos="s" depth="0" NCoef="0" IVar="1" Cut="-2.4797281265258789e+01" cType="1" res="3.0348880216479301e-02" rms="4.6570432186126709e-01" purity="4.9618026614189148e-01" nType="0">
        <Node pos="l" depth="1" NCoef="0" IVar="1" Cut="-4.4769241333007812e+01" cType="1" res="-2.8738918900489807e-01" rms="3.0455225706100464e-01" purity="1.2429540604352951e-01" nType="0">
          <Node pos="l" depth="2" NCoef="0" IVar="4" Cut="8.7437225341796875e+01" cType="1" res="-3.5738858580589294e-01" rms="1.7924217879772186e-01" purity="3.8044415414333344e-02" nType="0">
            <Node pos="l" depth="3" NCoef="0" IVar="-1" Cut="0.0000000000000000e+00" cType="1" res="-1.3166769407689571e-02" rms="1.0060691833496094e-01" purity="1.0680353268980980e-02" nType="-99"/>
            <Node pos="r" depth="3" NCoef="0" IVar="-1" Cut="0.0000000000000000e+00" cType="1" res="-1.9940033089369535e-03" rms="3.6356171965599060e-01" purity="1.7274661362171173e-01" nType="-99"/>
          </Node>
          <Node pos="r" depth="2" NCoef="0" IVar="-1" Cut="0.0000000000000000e+00" cType="1" res="-2.0579317060764879e-04" rms="4.6902993321418762e-01" purity="3.9711511135101318e-01" nType="-99"/>
        </Node>
        <Node pos="r" depth="1" NCoef="0" IVar="4" Cut="6.5680000305175781e+01" cType="1" res="2.4394448101520538e-01" rms="4.3224281072616577e-01" purity="7.4617534875869751e-01" nType="0">
          <Node pos="l" depth="2" NCoef="0" IVar="5" Cut="2.8022048473358154e+00" cType="1" res="7.8611202538013458e-02" rms="4.9030885100364685e-01" purity="5.7840931415557861e-01" nType="0">
            <Node pos="l" depth="3" NCoef="0" IVar="-1" Cut="0.0000000000000000e+00" cType="1" res="-8.9765049051493406e-04" rms="4.4546687602996826e-01" purity="2.8257608413696289e-01" nType="-99"/>
            <Node pos="r" depth="3" NCoef="0" IVar="-1" Cut="0.0000000000000000e+00" cType="1" res="3.9622691110707819e-04" rms="4.4627401232719421e-01" purity="7.2442543506622314e-01" nType="-99"/>
          </Node>
          <Node pos="r" depth="2" NCoef="0" IVar="-1" Cut="0.0000000000000000e+00" cType="1" res="5.6982517708092928e-04" rms="3.0981644988059998e-01" purity="8.9183300733566284e-01" nType="-99"/>
        </Node>
      </Node>
    </BinaryTree>
    <BinaryTree type="DecisionTree" boostWeight="1.0000000000000000e+00" itree="20">
      <Node pos="s" depth="0" NCoef="0" IVar="1" Cut="-2.5164001464843750e+01" cType="1" res="3.3493477851152420e-02" rms="4.6441712975502014e-01" purity="4.9780002236366272e-01" nType="0">
        <Node pos="l" depth="1" NCoef="0" IVar="4" Cut="1.0941464996337891e+02" cType="1" res="-2.8517156839370728e-01" rms="3.0135759711265564e-01" purity="1.2163676321506500e-01" nType="0">
          <Node pos="l" depth="2" NCoef="0" IVar="5" Cut="3.1031918525695801e+00" cType="1" res="-3.2888966798782349e-01" rms="2.3275770246982574e-01" purity="6.7680299282073975e-02" nType="0">
            <Node pos="l" depth="3" NCoef="0" IVar="-1" Cut="0.0000000000000000e+00" cType="1" res="-8.8284043595194817e-03" rms="1.5072290599346161e-01" purity="2.6409609243273735e-02" nType="-99"/>
            <Node pos="r" depth="3" NCoef="0" IVar="-1" Cut="0.0000000000000000e+00" cType="1" res="-7.0017104735597968e-04" rms="4.3338626623153687e-01" purity="2.8472983837127686e-01" nType="-99"/>
          </Node>
          <Node pos="r" depth="2" NCoef="0" IVar="-1" Cut="0.0000000000000000e+00" cType="1" res="2.0451001546462066e-05" rms="4.8752379417419434e-01" purity="4.8300284147262573e-01" nType="-99"/>
        </Node>
        <Node pos="r" depth="1" NCoef="0" IVar="5" Cut="2.1732151508331299e+00" cType="1" res="2.4406966567039490e-01" rms="4.3214648962020874e-01" purity="7.4637144804000854e-01" nType="0">
          <Node pos="l" depth="2" NCoef="0" IVar="-1" Cut="0.0000000000000000e+00" cType="1" res="-7.9125381307676435e-04" rms="4.5173460245132446e-01" purity="2.9839658737182617e-01" nType="-99"/>
          <Node pos="r" depth="2" NCoef="0" IVar="4" Cut="5.4393722534179688e+01" cType="1" res="2.8843966126441956e-01" rms="4.0445277094841003e-01" purity="7.9172134399414062e-01" nType="0">
            <Node pos="l" depth="3" NCoef="0" IVar="-1" Cut="0.0000000000000000e+00" cType="1" res="3.1575100729241967e-04" rms="4.7012779116630554e-01" purity="6.6471213102340698e-01" nType="-99"/>
            <Node pos="r" depth="3" NCoef="0" IVar="-1" Cut="0.0000000000000000e+00" cType="1" res="5.5458728456869721e-04" rms="3.3067107200622559e-01" purity="8.7436980009078979e-01" nType="-99"/>
          </Node>
        </Node>
      </Node>
    </BinaryTree>
    <BinaryTree type="DecisionTree" boostWeight="1.0000000000000000e+00" itree="21">
      <Node pos="s" depth="0" NCoef="0" IVar="1" Cut="-2.6961263656616211e+01" cType="1" res="3.2448709011077881e-02" rms="4.6307107806205750e-01" purity="4.9540099501609802e-01" nType="0">
        <Node pos="l" depth="1" NCoef="0" IVar="3" Cut="9.4058311462402344e+01" cType="1" res="-2.8529423475265503e-01" rms="2.9471758008003235e-01" purity="1.1709066480398178e-01" nType="0">
          <Node pos="l" depth="2" NCoef="0" IVar="1" Cut="-4.2610046386718750e+01" cType="1" res="-3.3654835820198059e-01" rms="2.0916606485843658e-01" purity="5.4006930440664291e-02" nType="0">
            <Node pos="l" depth="3" NCoef="0" IVar="-1" Cut="0.0000000000000000e+00" cType="1" res="-1.0909081436693668e-02" rms="1.2376678735017776e-01" purity="1.7034363001585007e-02" nType="-99"/>
            <Node pos="r" depth="3" NCoef="0" IVar="-1" Cut="0.0000000000000000e+00" cType="1" res="-1.0727685876190662e-03" rms="4.0348476171493530e-01" purity="2.3084631562232971e-01" nType="-99"/>
          </Node>
          <Node pos="r" depth="2" NCoef="0" IVar="-1" Cut="0.0000000000000000e+00" cType="1" res="-5.8784473367268220e-05" rms="4.7540023922920227e-01" purity="4.4359654188156128e-01" nType="-99"/>
        </Node>
        <Node pos="r" depth="1" NCoef="0" IVar="5" Cut="2.2784187793731689e+00" cType="1" res="2.3846636712551117e-01" rms="4.3502718210220337e-01" purity="7.4068927764892578e-01" nType="0">
          <Node pos="l" depth="2" NCoef="0" IVar="-1" Cut="0.0000000000000000e+00" cType="1" res="-4.4030183926224709e-04" rms="4.7473517060279846e-01" purity="3.6377823352813721e-01" nType="-99"/>
          <Node pos="r" depth="2" NCoef="0" IVar="4" Cut="7.5090446472167969e+01" cType="1" res="2.8821963071823120e-01" rms="4.0447515249252319e-01" purity="7.9172384738922119e-01" nType="0">
            <Node pos="l" depth="3" NCoef="0" IVar="-1" Cut="0.0000000000000000e+00" cType="1" res="3.6348504363559186e-04" rms="4.5712515711784363e-01" purity="6.9860488176345825e-01" nType="-99"/>
            <Node pos="r" depth="3" NCoef="0" IVar="-1" Cut="0.0000000000000000e+00" cType="1" res="5.8007391635328531e-04" rms="2.9233869910240173e-01" purity="9.0532374382019043e-01" nType="-99"/>
          </Node>
        </Node>
      </Node>
    </BinaryTree>
    <BinaryTree type="DecisionTree" boostWeight="1.0000000000000000e+00" itree="22">
      <Node pos="s" depth="0" NCoef="0" IVar="1" Cut="-2.3728063583374023e+01" cType="1" res="4.6553269028663635e-02" rms="4.6187841892242432e-01" purity="5.0949943065643311e-01" nType="0">
        <Node pos="l" depth="1" NCoef="0" IVar="4" Cut="1.1515112304687500e+02" cType="1" res="-2.7284151315689087e-01" rms="3.0729672312736511e-01" purity="1.2948638200759888e-01" nType="0">
          <Node pos="l" depth="2" NCoef="0" IVar="5" Cut="3.0608098506927490e+00" cType="1" res="-3.2182767987251282e-01" rms="2.3494796454906464e-01" purity="6.9659188389778137e-02" nType="0">
            <Node pos="l" depth="3" NCoef="0" IVar="-1" Cut="0.0000000000000000e+00" cType="1" res="-8.9878896251320839e-03" rms="1.4785423874855042e-01" purity="2.5001093745231628e-02" nType="-99"/>
            <Node pos="r" depth="3" NCoef="0" IVar="-1" Cut="0.0000000000000000e+00" cType="1" res="-7.1087607648223639e-04" rms="4.3041309714317322e-01" purity="2.8338932991027832e-01" nType="-99"/>
          </Node>
          <Node pos="r" depth="2" NCoef="0" IVar="-1" Cut="0.0000000000000000e+00" cType="1" res="1.6479895566590130e-04" rms="4.8437082767486572e-01" purity="5.4734289646148682e-01" nType="-99"/>
        </Node>
        <Node pos="r" depth="1" NCoef="0" IVar="5" Cut="2.4688665866851807e+00" cType="1" res="2.5578761100769043e-01" rms="4.2498886585235596e-01" purity="7.5844466686248779e-01" nType="0">
          <Node pos="l" depth="2" NCoef="0" IVar="-1" Cut="0.0000000000000000e+00" cType="1" res="-1.1832279415102676e-04" rms="4.9156340956687927e-01" purity="4.5205703377723694e-01" nType="-99"/>
          <Node pos="r" depth="2" NCoef="0" IVar="4" Cut="6.8807533264160156e+01" cType="1" res="3.1262642145156860e-01" rms="3.8575026392936707e-01" purity="8.1682586669921875e-01" nType="0">
            <Node pos="l" depth="3" NCoef="0" IVar="-1" Cut="0.0000000000000000e+00" cType="1" res="4.0453689871355891e-04" rms="4.4235768914222717e-01" purity="7.3091423511505127e-01" nType="-99"/>
            <Node pos="r" depth="3" NCoef="0" IVar="-1" Cut="0.0000000000000000e+00" cType="1" res="5.7872600154951215e-04" rms="2.9329445958137512e-01" purity="9.0480357408523560e-01" nType="-99"/>
          </Node>
        </Node>
      </Node>
    </BinaryTree>
    <BinaryTree type="DecisionTree" boostWeight="1.0000000000000000e+00" itree="23">
      <Node pos="s" depth="0" NCoef="0" IVar="1" Cut="-2.5576658248901367e+01" cType="1" res="3.6806818097829819e-02" rms="4.6102020144462585e-01" purity="4.9753847718238831e-01" nType="0">
        <Node pos="l" depth="1" NCoef="0" IVar="4" Cut="9.0656929016113281e+01" cType="1" res="-2.6260095834732056e-01" rms="3.1279823184013367e-01" purity="1.3565741479396820e-01" nType="0">
          <Node pos="l" depth="2" NCoef="0" IVar="3" Cut="8.0645439147949219e+01" cType="1" res="-3.2772049307823181e-01" rms="2.1040225028991699e-01" purity="5.4756022989749908e-02" nType="0">
            <Node pos="l" depth="3" NCoef="0" IVar="-1" Cut="0.0000000000000000e+00" cType="1" res="-9.0962760150432587e-03" rms="1.2852793931961060e-01" purity="1.8650528043508530e-02" nType="-99"/>
            <Node pos="r" depth="3" NCoef="0" IVar="-1" Cut="0.0000000000000000e+00" cType="1" res="-1.0982846142724156e-03" rms="3.9894929528236389e-01" purity="2.3067395389080048e-01" nType="-99"/>
          </Node>
          <Node pos="r" depth="2" NCoef="0" IVar="-1" Cut="0.0000000000000000e+00" cType="1" res="-2.0054932974744588e-05" rms="4.7554877400398254e-01" purity="4.5319545269012451e-01" nType="-99"/>
        </Node>
        <Node pos="r" depth="1" NCoef="0" IVar="4" Cut="6.2958827972412109e+01" cType="1" res="2.3876626789569855e-01" rms="4.3433886766433716e-01" purity="7.4163812398910522e-01" nType="0">
          <Node pos="l" depth="2" NCoef="0" IVar="3" Cut="5.6393104553222656e+01" cType="1" res="8.1840924918651581e-02" rms="4.8921447992324829e-01" purity="5.8190351724624634e-01" nType="0">
            <Node pos="l" depth="3" NCoef="0" IVar="-1" Cut="0.0000000000000000e+00" cType="1" res="-3.6282406654208899e-04" rms="4.8243209719657898e-01" purity="3.8320988416671753e-01" nType="-99"/>
            <Node pos="r" depth="3" NCoef="0" IVar="-1" Cut="0.0000000000000000e+00" cType="1" res="4.8841151874512434e-04" rms="3.9527788758277893e-01" purity="8.0404514074325562e-01" nType="-99"/>
          </Node>
          <Node pos="r" depth="2" NCoef="0" IVar="-1" Cut="0.0000000000000000e+00" cType="1" res="5.5693421745672822e-04" rms="3.2539352774620056e-01" purity="8.7872862815856934e-01" nType="-99"/>
        </Node>
      </Node>
    </BinaryTree>
    <BinaryTree type="DecisionTree" boostWeight="1.0000000000000000e+00" itree="24">
      <Node pos="s" depth="0" NCoef="0" IVar="1" Cut="-2.5027317047119141e+01" cType="1" res="3.4582462161779404e-02" rms="4.5939561724662781e-01" purity="4.9404650926589966e-01" nType="0">
        <Node pos="l" depth="1" NCoef="0" IVar="4" Cut="1.1270301818847656e+02" cType="1" res="-2.8238382935523987e-01" rms="2.8579264879226685e-01" purity="1.1110706627368927e-01" nType="0">
          <Node pos="l" depth="2" NCoef="0" IVar="3" Cut="8.0334518432617188e+01" cType="1" res="-3.3187785744667053e-01" rms="1.9967408478260040e-01" purity="4.9270410090684891e-02" nType="0">
            <Node pos="l" depth="3" NCoef="0" IVar="-1" Cut="0.0000000000000000e+00" cType="1" res="-9.8392777144908905e-03" rms="1.1979260295629501e-01" purity="1.6236444935202599e-02" nType="-99"/>
            <Node pos="r" depth="3" NCoef="0" IVar="-1" Cut="0.0000000000000000e+00" cType="1" res="-1.3549859868362546e-03" rms="3.8424327969551086e-01" purity="2.0785586535930634e-01" nType="-99"/>
          </Node>
          <Node pos="r" depth="2" NCoef="0" IVar="-1" Cut="0.0000000000000000e+00" cType="1" res="1.2345446157269180e-04" rms="4.8528692126274109e-01" purity="5.2629041671752930e-01" nType="-99"/>
        </Node>
        <Node pos="r" depth="1" NCoef="0" IVar="4" Cut="6.0038246154785156e+01" cType="1" res="2.4349619448184967e-01" rms="4.3179509043693542e-01" purity="7.4644339084625244e-01" nType="0">
          <Node pos="l" depth="2" NCoef="0" IVar="5" Cut="2.6911303997039795e+00" cType="1" res="9.5435157418251038e-02" rms="4.8696246743202209e-01" purity="5.9551608562469482e-01" nType="0">
            <Node pos="l" depth="3" NCoef="0" IVar="-1" Cut="0.0000000000000000e+00" cType="1" res="-8.4200588753446937e-04" rms="4.4788068532943726e-01" purity="2.8924325108528137e-01" nType="-99"/>
            <Node pos="r" depth="3" NCoef="0" IVar="-1" Cut="0.0000000000000000e+00" cType="1" res="3.8880883948877454e-04" rms="4.4856017827987671e-01" purity="7.1972596645355225e-01" nType="-99"/>
          </Node>
          <Node pos="r" depth="2" NCoef="0" IVar="-1" Cut="0.0000000000000000e+00" cType="1" res="5.5113865528255701e-04" rms="3.3297097682952881e-01" purity="8.7200498580932617e-01" nType="-99"/>
        </Node>
      </Node>
    </BinaryTree>
    <BinaryTree type="DecisionTree" boostWeight="1.0000000000000000e+00" itree="25">
      <Node pos="s" depth="0" NCoef="0" IVar="1" Cut="-2.6734699249267578e+01" cType="1" res="4.6591255813837051e-02" rms="4.5786786079406738e-01" purity="5.0571054220199585e-01" nType="0">
        <Node pos="l" depth="1" NCoef="0" IVar="4" Cut="9.9576591491699219e+01" cType="1" res="-2.8098928928375244e-01" rms="2.8093197941780090e-01" purity="1.0719225555658340e-01" nType="0">
          <Node pos="l" depth="2" NCoef="0" IVar="1" Cut="-4.2070938110351562e+01" cType="1" res="-3.2441988587379456e-01" rms="1.9949735701084137e-01" purity="4.9410186707973480e-02" nType="0">
            <Node pos="l" depth="3" NCoef="0" IVar="-1" Cut="0.0000000000000000e+00" cType="1" res="-1.2331654317677021e-02" rms="1.0292848199605942e-01" purity="1.1238227598369122e-02" nType="-99"/>
            <Node pos="r" depth="3" NCoef="0" IVar="-1" Cut="0.0000000000000000e+00" cType="1" res="-9.2101504560559988e-04" rms="4.1226431727409363e-01" purity="2.4607165157794952e-01" nType="-99"/>
          </Node>
          <Node pos="r" depth="2" NCoef="0" IVar="-1" Cut="0.0000000000000000e+00" cType="1" res="-1.4344243390951306e-04" rms="4.7428581118583679e-01" purity="4.1902562975883484e-01" nType="-99"/>
        </Node>
        <Node pos="r" depth="1" NCoef="0" IVar="5" Cut="2.4900910854339600e+00" cType="1" res="2.4952572584152222e-01" rms="4.2774254083633423e-01" purity="7.5259065628051758e-01" nType="0">
          <Node pos="l" depth="2" NCoef="0" IVar="-1" Cut="0.0000000000000000e+00" cType="1" res="-2.4891673820093274e-04" rms="4.8501497507095337e-01" purity="4.1134333610534668e-01" nType="-99"/>
          <Node pos="r" depth="2" NCoef="0" IVar="4" Cut="6.3729484558105469e+01" cType="1" res="3.1120166182518005e-01" rms="3.8599872589111328e-01" purity="8.1612050533294678e-01" nType="0">
            <Node pos="l" depth="3" NCoef="0" IVar="-1" Cut="0.0000000000000000e+00" cType="1" res="3.6551585071720183e-04" rms="4.5622053742408752e-01" purity="7.0109599828720093e-01" nType="-99"/>
            <Node pos="r" depth="3" NCoef="0" IVar="-1" Cut="0.0000000000000000e+00" cType="1" res="5.7642912724986672e-04" rms="2.9542514681816101e-01" purity="9.0313184261322021e-01" nType="-99"/>
          </Node>
        </Node>
      </Node>
    </BinaryTree>
    <BinaryTree type="DecisionTree" boostWeight="1.0000000000000000e+00" itree="26">
      <Node pos="s" depth="0" NCoef="0" IVar="1" Cut="-3.2192104339599609e+01" cType="1" res="4.4690892100334167e-02" rms="4.5683351159095764e-01" purity="5.0234621763229370e-01" nType="0">
        <Node pos="l" depth="1" NCoef="0" IVar="3" Cut="9.6306877136230469e+01" cType="1" res="-2.9329377412796021e-01" rms="2.5289687514305115e-01" purity="8.5157699882984161e-02" nType="0">
          <Node pos="l" depth="2" NCoef="0" IVar="5" Cut="2.9290442466735840e+00" cType="1" res="-3.3044853806495667e-01" rms="1.7024050652980804e-01" purity="3.5322051495313644e-02" nType="0">
            <Node pos="l" depth="3" NCoef="0" IVar="-1" Cut="0.0000000000000000e+00" cType="1" res="-1.5947028994560242e-02" rms="5.9548318386077881e-02" purity="3.1318715773522854e-03" nType="-99"/>
            <Node pos="r" depth="3" NCoef="0" IVar="-1" Cut="0.0000000000000000e+00" cType="1" res="-1.6989902360364795e-03" rms="3.5512739419937134e-01" purity="1.6871058940887451e-01" nType="-99"/>
          </Node>
          <Node pos="r" depth="2" NCoef="0" IVar="-1" Cut="0.0000000000000000e+00" cType="1" res="-2.5807585916481912e-04" rms="4.6220582723617554e-01" purity="3.7782046198844910e-01" nType="-99"/>
        </Node>
        <Node pos="r" depth="1" NCoef="0" IVar="4" Cut="6.5682739257812500e+01" cType="1" res="2.3287773132324219e-01" rms="4.3619748950004578e-01" purity="7.3463308811187744e-01" nType="0">
          <Node pos="l" depth="2" NCoef="0" IVar="5" Cut="2.3100769519805908e+00" cType="1" res="7.2571232914924622e-02" rms="4.8885276913642883e-01" purity="5.7043385505676270e-01" nType="0">
            <Node pos="l" depth="3" NCoef="0" IVar="-1" Cut="0.0000000000000000e+00" cType="1" res="-2.6711318641901016e-03" rms="3.3903208374977112e-01" purity="1.3769748806953430e-01" nType="-99"/>
            <Node pos="r" depth="3" NCoef="0" IVar="-1" Cut="0.0000000000000000e+00" cType="1" res="3.1252790358848870e-04" rms="4.6979397535324097e-01" purity="6.6167914867401123e-01" nType="-99"/>
          </Node>
          <Node pos="r" depth="2" NCoef="0" IVar="-1" Cut="0.0000000000000000e+00" cType="1" res="5.6129245785996318e-04" rms="3.1883719563484192e-01" purity="8.8353937864303589e-01" nType="-99"/>
        </Node>
      </Node>
    </BinaryTree>
    <BinaryTree type="DecisionTree" boostWeight="1.0000000000000000e+00" itree="27">
      <Node pos="s" depth="0" NCoef="0" IVar="1" Cut="-2.5027317047119141e+01" cType="1" res="4.2872399091720581e-02" rms="4.5557898283004761e-01" purity="4.9795401096343994e-01" nType="0">
        <Node pos="l" depth="1" NCoef="0" IVar="4" Cut="9.8522140502929688e+01" cType="1" res="-2.4841327965259552e-01" rms="3.0884608626365662e-01" purity="1.3572616875171661e-01" nType="0">
          <Node pos="l" depth="2" NCoef="0" IVar="1" Cut="-4.2489166259765625e+01" cType="1" res="-3.0054032802581787e-01" rms="2.2768571972846985e-01" purity="6.7505866289138794e-02" nType="0">
            <Node pos="l" depth="3" NCoef="0" IVar="-1" Cut="0.0000000000000000e+00" cType="1" res="-1.1139831505715847e-02" rms="1.1355312913656235e-01" purity="1.4164766296744347e-02" nType="-99"/>
            <Node pos="r" depth="3" NCoef="0" IVar="-1" Cut="0.0000000000000000e+00" cType="1" res="-6.2101206276565790e-04" rms="4.3351146578788757e-01" purity="2.9163011908531189e-01" nType="-99"/>
          </Node>
          <Node pos="r" depth="2" NCoef="0" IVar="-1" Cut="0.0000000000000000e+00" cType="1" res="1.4590626051358413e-05" rms="4.7929471731185913e-01" purity="4.6772193908691406e-01" nType="-99"/>
        </Node>
        <Node pos="r" depth="1" NCoef="0" IVar="4" Cut="6.3801342010498047e+01" cType="1" res="2.4150539934635162e-01" rms="4.3211853504180908e-01" purity="7.4496376514434814e-01" nType="0">
          <Node pos="l" depth="2" NCoef="0" IVar="3" Cut="5.4247951507568359e+01" cType="1" res="8.4619253873825073e-02" rms="4.8832309246063232e-01" purity="5.8475410938262939e-01" nType="0">
            <Node pos="l" depth="3" NCoef="0" IVar="-1" Cut="0.0000000000000000e+00" cType="1" res="-3.6527769407257438e-04" rms="4.8186951875686646e-01" purity="3.8240247964859009e-01" nType="-99"/>
            <Node pos="r" depth="3" NCoef="0" IVar="-1" Cut="0.0000000000000000e+00" cType="1" res="4.7736108535900712e-04" rms="4.0244591236114502e-01" purity="7.9411208629608154e-01" nType="-99"/>
          </Node>
          <Node pos="r" depth="2" NCoef="0" IVar="-1" Cut="0.0000000000000000e+00" cType="1" res="5.6099391076713800e-04" rms="3.1838041543960571e-01" purity="8.8476175069808960e-01" nType="-99"/>
        </Node>
      </Node>
    </BinaryTree>
    <BinaryTree type="DecisionTree" boostWeight="1.0000000000000000e+00" itree="28">
      <Node pos="s" depth="0" NCoef="0" IVar="1" Cut="-2.5027317047119141e+01" cType="1" res="3.4895304590463638e-02" rms="4.5414242148399353e-01" purity="4.8797848820686340e-01" nType="0">
        <Node pos="l" depth="1" NCoef="0" IVar="4" Cut="1.0744703674316406e+02" cType="1" res="-2.7635109424591064e-01" rms="2.7113252878189087e-01" purity="9.9364213645458221e-02" nType="0">
          <Node pos="l" depth="2" NCoef="0" IVar="3" Cut="7.9960342407226562e+01" cType="1" res="-3.1531524658203125e-01" rms="1.9479742646217346e-01" purity="4.6445600688457489e-02" nType="0">
            <Node pos="l" depth="3" NCoef="0" IVar="-1" Cut="0.0000000000000000e+00" cType="1" res="-8.8254520669579506e-03" rms="1.3072369992733002e-01" purity="1.9096665084362030e-02" nType="-99"/>
            <Node pos="r" depth="3" NCoef="0" IVar="-1" Cut="0.0000000000000000e+00" cType="1" res="-1.6327680787071586e-03" rms="3.6333245038986206e-01" purity="1.8043196201324463e-01" nType="-99"/>
          </Node>
          <Node pos="r" depth="2" NCoef="0" IVar="-1" Cut="0.0000000000000000e+00" cType="1" res="-5.5062937462935224e-05" rms="4.8179781436920166e-01" purity="4.4873455166816711e-01" nType="-99"/>
        </Node>
        <Node pos="r" depth="1" NCoef="0" IVar="5" Cut="2.5035974979400635e+00" cType="1" res="2.3803256452083588e-01" rms="4.3403190374374390e-01" purity="7.4161052703857422e-01" nType="0">
          <Node pos="l" depth="2" NCoef="0" IVar="-1" Cut="0.0000000000000000e+00" cType="1" res="-2.1286685660015792e-04" rms="4.8688933253288269e-01" purity="4.2179414629936218e-01" nType="-99"/>
          <Node pos="r" depth="2" NCoef="0" IVar="4" Cut="6.5679878234863281e+01" cType="1" res="2.9896199703216553e-01" rms="3.9525377750396729e-01" purity="8.0453532934188843e-01" nType="0">
            <Node pos="l" depth="3" NCoef="0" IVar="-1" Cut="0.0000000000000000e+00" cType="1" res="3.6529023782350123e-04" rms="4.5595505833625793e-01" purity="7.0227265357971191e-01" nType="-99"/>
            <Node pos="r" depth="3" NCoef="0" IVar="-1" Cut="0.0000000000000000e+00" cType="1" res="5.6995375780388713e-04" rms="3.0314564704895020e-01" purity="8.9742034673690796e-01" nType="-99"/>
          </Node>
        </Node>
      </Node>
    </BinaryTree>
    <BinaryTree type="DecisionTree" boostWeight="1.0000000000000000e+00" itree="29">
      <Node pos="s" depth="0" NCoef="0" IVar="1" Cut="-3.5246627807617188e+01" cType="1" res="4.9247264862060547e-02" rms="4.5334374904632568e-01" purity="5.0231456756591797e-01" nType="0">
        <Node pos="l" depth="1" NCoef="0" IVar="3" Cut="9.6307220458984375e+01" cType="1" res="-2.8026130795478821e-01" rms="2.5026476383209229e-01" purity="8.3738811314105988e-02" nType="0">
          <Node pos="l" depth="2" NCoef="0" IVar="1" Cut="-5.4642196655273438e+01" cType="1" res="-3.1741264462471008e-01" rms="1.6391311585903168e-01" purity="3.2306957989931107e-02" nType="0">
            <Node pos="l" depth="3" NCoef="0" IVar="-1" Cut="0.0000000000000000e+00" cType="1" res="-1.2459455989301205e-02" rms="1.0170882940292358e-01" purity="1.1352652683854103e-02" nType="-99"/>
            <Node pos="r" depth="3" NCoef="0" IVar="-1" Cut="0.0000000000000000e+00" cType="1" res="-2.3886556737124920e-03" rms="2.9682055115699768e-01" purity="1.1448118090629578e-01" nType="-99"/>
          </Node>
          <Node pos="r" depth="2" NCoef="0" IVar="-1" Cut="0.0000000000000000e+00" cType="1" res="-2.2306802566163242e-04" rms="4.6407255530357361e-01" purity="3.8128906488418579e-01" nType="-99"/>
        </Node>
        <Node pos="r" depth="1" NCoef="0" IVar="4" Cut="5.9826393127441406e+01" cType="1" res="2.2512741386890411e-01" rms="4.3920540809631348e-01" purity="7.2573566436767578e-01" nType="0">
          <Node pos="l" depth="2" NCoef="0" IVar="3" Cut="6.0010112762451172e+01" cType="1" res="6.7851081490516663e-02" rms="4.8764747381210327e-01" purity="5.6386035680770874e-01" nType="0">
            <Node pos="l" depth="3" NCoef="0" IVar="-1" Cut="0.0000000000000000e+00" cType="1" res="-3.1169570866040885e-04" rms="4.8040342330932617e-01" purity="3.9173385500907898e-01" nType="-99"/>
            <Node pos="r" depth="3" NCoef="0" IVar="-1" Cut="0.0000000000000000e+00" cType="1" res="4.8593844985589385e-04" rms="3.9553785324096680e-01" purity="8.0002087354660034e-01" nType="-99"/>
          </Node>
          <Node pos="r" depth="2" NCoef="0" IVar="4" Cut="8.2118064880371094e+01" cType="1" res="3.5465633869171143e-01" rms="3.4463658928871155e-01" purity="8.5905212163925171e-01" nType="0">
            <Node pos="l" depth="3" NCoef="0" IVar="-1" Cut="0.0000000000000000e+00" cType="1" res="4.2406772263348103e-04" rms="4.3230652809143066e-01" purity="7.4293154478073120e-01" nType="-99"/>
            <Node pos="r" depth="3" NCoef="0" IVar="-1" Cut="0.0000000000000000e+00" cType="1" res="5.7946017477661371e-04" rms="2.9052579402923584e-01" purity="9.0552610158920288e-01" nType="-99"/>
          </Node>
        </Node>
      </Node>
    </BinaryTree>
    <BinaryTree type="DecisionTree" boostWeight="1.0000000000000000e+00" itree="30">
      <Node pos="s" depth="0" NCoef="0" IVar="1" Cut="-2.3867925643920898e+01" cType="1" res="4.3949536979198456e-02" rms="4.5223957300186157e-01" purity="4.9504041671752930e-01" nType="0">
        <Node pos="l" depth="1" NCoef="0" IVar="4" Cut="1.0958234405517578e+02" cType="1" res="-2.4238799512386322e-01" rms="3.0324929952621460e-01" purity="1.3250336050987244e-01" nType="0">
          <Node pos="l" depth="2" NCoef="0" IVar="5" Cut="3.0792706012725830e+00" cType="1" res="-2.9191681742668152e-01" rms="2.2730153799057007e-01" purity="6.7224256694316864e-02" nType="0">
            <Node pos="l" depth="3" NCoef="0" IVar="-1" Cut="0.0000000000000000e+00" cType="1" res="-8.5731595754623413e-03" rms="1.4372067153453827e-01" purity="2.3812165483832359e-02" nType="-99"/>
            <Node pos="r" depth="3" NCoef="0" IVar="-1" Cut="0.0000000000000000e+00" cType="1" res="-6.1874586390331388e-04" rms="4.2448064684867859e-01" purity="2.8383907675743103e-01" nType="-99"/>
          </Node>
          <Node pos="r" depth="2" NCoef="0" IVar="-1" Cut="0.0000000000000000e+00" cType="1" res="1.4464500418398529e-04" rms="4.8101651668548584e-01" purity="5.2960950136184692e-01" nType="-99"/>
        </Node>
        <Node pos="r" depth="1" NCoef="0" IVar="4" Cut="6.9445869445800781e+01" cType="1" res="2.4206849932670593e-01" rms="4.3176618218421936e-01" purity="7.4588233232498169e-01" nType="0">
          <Node pos="l" depth="2" NCoef="0" IVar="3" Cut="5.5384361267089844e+01" cType="1" res="1.1800881475210190e-01" rms="4.8155128955841064e-01" purity="6.1893218755722046e-01" nType="0">
            <Node pos="l" depth="3" NCoef="0" IVar="-1" Cut="0.0000000000000000e+00" cType="1" res="-1.3165229756850749e-04" rms="4.9360686540603638e-01" purity="4.4988131523132324e-01" nType="-99"/>
            <Node pos="r" depth="3" NCoef="0" IVar="-1" Cut="0.0000000000000000e+00" cType="1" res="4.8896740190684795e-04" rms="3.9324387907981873e-01" purity="8.0667161941528320e-01" nType="-99"/>
          </Node>
          <Node pos="r" depth="2" NCoef="0" IVar="-1" Cut="0.0000000000000000e+00" cType="1" res="5.6401803158223629e-04" rms="3.1261330842971802e-01" purity="8.8969457149505615e-01" nType="-99"/>
        </Node>
      </Node>
    </BinaryTree>
    <BinaryTree type="DecisionTree" boostWeight="1.0000000000000000e+00" itree="31">
      <Node pos="s" depth="0" NCoef="0" IVar="1" Cut="-3.5246627807617188e+01" cType="1" res="5.7515207678079605e-02" rms="4.5128658413887024e-01" purity="5.0982350111007690e-01" nType="0">
        <Node pos="l" depth="1" NCoef="0" IVar="4" Cut="1.0154444885253906e+02" cType="1" res="-2.7591019868850708e-01" rms="2.4553222954273224e-01" purity="8.1620357930660248e-02" nType="0">
          <Node pos="l" depth="2" NCoef="0" IVar="1" Cut="-5.1929397583007812e+01" cType="1" res="-3.1068581342697144e-01" rms="1.5803602337837219e-01" purity="3.0116807669401169e-02" nType="0">
            <Node pos="l" depth="3" NCoef="0" IVar="-1" Cut="0.0000000000000000e+00" cType="1" res="-1.5906890854239464e-02" rms="7.2570487856864929e-02" purity="4.8044519498944283e-03" nType="-99"/>
            <Node pos="r" depth="3" NCoef="0" IVar="-1" Cut="0.0000000000000000e+00" cType="1" res="-1.7872746102511883e-03" rms="3.2691690325737000e-01" purity="1.4360350370407104e-01" nType="-99"/>
          </Node>
          <Node pos="r" depth="2" NCoef="0" IVar="-1" Cut="0.0000000000000000e+00" cType="1" res="-2.4557841243222356e-04" rms="4.6718522906303406e-01" purity="3.8258019089698792e-01" nType="-99"/>
        </Node>
        <Node pos="r" depth="1" NCoef="0" IVar="5" Cut="2.2678463459014893e+00" cType="1" res="2.2872136533260345e-01" rms="4.3690100312232971e-01" purity="7.2969585657119751e-01" nType="0">
          <Node pos="l" depth="2" NCoef="0" IVar="-1" Cut="0.0000000000000000e+00" cType="1" res="-6.7396176746115088e-04" rms="4.5075428485870361e-01" purity="3.1058186292648315e-01" nType="-99"/>
          <Node pos="r" depth="2" NCoef="0" IVar="4" Cut="6.9685928344726562e+01" cType="1" res="2.8151381015777588e-01" rms="4.0660730004310608e-01" purity="7.8493726253509521e-01" nType="0">
            <Node pos="l" depth="3" NCoef="0" IVar="-1" Cut="0.0000000000000000e+00" cType="1" res="3.3574775443412364e-04" rms="4.6289318799972534e-01" purity="6.7666715383529663e-01" nType="-99"/>
            <Node pos="r" depth="3" NCoef="0" IVar="-1" Cut="0.0000000000000000e+00" cType="1" res="5.7082256535068154e-04" rms="3.0264589190483093e-01" purity="8.9672040939331055e-01" nType="-99"/>
          </Node>
        </Node>
      </Node>
    </BinaryTree>
    <BinaryTree type="DecisionTree" boostWeight="1.0000000000000000e+00" itree="32">
      <Node pos="s" depth="0" NCoef="0" IVar="1" Cut="-3.5463954925537109e+01" cType="1" res="5.6474030017852783e-02" rms="4.4915303587913513e-01" purity="5.0627160072326660e-01" nType="0">
        <Node pos="l" depth="1" NCoef="0" IVar="3" Cut="9.3789421081542969e+01" cType="1" res="-2.7098852396011353e-01" rms="2.4334824085235596e-01" purity="8.1125512719154358e-02" nType="0">
          <Node pos="l" depth="2" NCoef="0" IVar="3" Cut="5.2313190460205078e+01" cType="1" res="-3.0146858096122742e-01" rms="1.6883841156959534e-01" purity="3.5285752266645432e-02" nType="0">
            <Node pos="l" depth="3" NCoef="0" IVar="-1" Cut="0.0000000000000000e+00" cType="1" res="-1.0534388013184071e-02" rms="9.5685027539730072e-02" purity="9.3096680939197540e-03" nType="-99"/>
            <Node pos="r" depth="3" NCoef="0" IVar="-1" Cut="0.0000000000000000e+00" cType="1" res="-3.1408222857862711e-03" rms="2.6595464348793030e-01" purity="9.6446685492992401e-02" nType="-99"/>
          </Node>
          <Node pos="r" depth="2" NCoef="0" IVar="-1" Cut="0.0000000000000000e+00" cType="1" res="-3.7066638469696045e-04" rms="4.4548639655113220e-01" purity="3.4160420298576355e-01" nType="-99"/>
        </Node>
        <Node pos="r" depth="1" NCoef="0" IVar="4" Cut="6.3728672027587891e+01" cType="1" res="2.2865049540996552e-01" rms="4.3663254380226135e-01" purity="7.2980910539627075e-01" nType="0">
          <Node pos="l" depth="2" NCoef="0" IVar="3" Cut="6.3727012634277344e+01" cType="1" res="8.1376098096370697e-02" rms="4.8543581366539001e-01" purity="5.7733702659606934e-01" nType="0">
            <Node pos="l" depth="3" NCoef="0" IVar="-1" Cut="0.0000000000000000e+00" cType="1" res="-2.7600099565461278e-04" rms="4.8211011290550232e-01" purity="4.0121719241142273e-01" nType="-99"/>
            <Node pos="r" depth="3" NCoef="0" IVar="-1" Cut="0.0000000000000000e+00" cType="1" res="5.1089131738990545e-04" rms="3.7564682960510254e-01" purity="8.2526886463165283e-01" nType="-99"/>
          </Node>
          <Node pos="r" depth="2" NCoef="0" IVar="-1" Cut="0.0000000000000000e+00" cType="1" res="5.4933963110670447e-04" rms="3.3213558793067932e-01" purity="8.7097078561782837e-01" nType="-99"/>
        </Node>
      </Node>
    </BinaryTree>
    <BinaryTree type="DecisionTree" boostWeight="1.0000000000000000e+00" itree="33">
      <Node pos="s" depth="0" NCoef="0" IVar="1" Cut="-2.5472337722778320e+01" cType="1" res="5.4163709282875061e-02" rms="4.4830024242401123e-01" purity="5.0295096635818481e-01" nType="0">
        <Node pos="l" depth="1" NCoef="0" IVar="4" Cut="1.1277552032470703e+02" cType="1" res="-2.4666616320610046e-01" rms="2.8219237923622131e-01" purity="1.1484480649232864e-01" nType="0">
          <Node pos="l" depth="2" NCoef="0" IVar="3" Cut="8.4537765502929688e+01" cType="1" res="-2.9240626096725464e-01" rms="2.0158892869949341e-01" purity="5.3049210458993912e-02" nType="0">
            <Node pos="l" depth="3" NCoef="0" IVar="-1" Cut="0.0000000000000000e+00" cType="1" res="-8.3822943270206451e-03" rms="1.3212870061397552e-01" purity="2.1391559392213821e-02" nType="-99"/>
            <Node pos="r" depth="3" NCoef="0" IVar="-1" Cut="0.0000000000000000e+00" cType="1" res="-1.0781661840155721e-03" rms="3.9175650477409363e-01" purity="2.2461944818496704e-01" nType="-99"/>
          </Node>
          <Node pos="r" depth="2" NCoef="0" IVar="-1" Cut="0.0000000000000000e+00" cType="1" res="1.4440891391132027e-04" rms="4.8239794373512268e-01" purity="5.2712279558181763e-01" nType="-99"/>
        </Node>
        <Node pos="r" depth="1" NCoef="0" IVar="5" Cut="2.4900121688842773e+00" cType="1" res="2.4549940228462219e-01" rms="4.2892897129058838e-01" purity="7.4979674816131592e-01" nType="0">
          <Node pos="l" depth="2" NCoef="0" IVar="-1" Cut="0.0000000000000000e+00" cType="1" res="-1.9708881154656410e-04" rms="4.8649078607559204e-01" purity="4.2610082030296326e-01" nType="-99"/>
          <Node pos="r" depth="2" NCoef="0" IVar="4" Cut="7.1533065795898438e+01" cType="1" res="3.0620443820953369e-01" rms="3.8869920372962952e-01" purity="8.1266522407531738e-01" nType="0">
            <Node pos="l" depth="3" NCoef="0" IVar="-1" Cut="0.0000000000000000e+00" cType="1" res="3.9897768874652684e-04" rms="4.4310900568962097e-01" purity="7.2874081134796143e-01" nType="-99"/>
            <Node pos="r" depth="3" NCoef="0" IVar="-1" Cut="0.0000000000000000e+00" cType="1" res="5.7507370365783572e-04" rms="2.9194921255111694e-01" purity="9.0574651956558228e-01" nType="-99"/>
          </Node>
        </Node>
      </Node>
    </BinaryTree>
    <BinaryTree type="DecisionTree" boostWeight="1.0000000000000000e+00" itree="34">
      <Node pos="s" depth="0" NCoef="0" IVar="1" Cut="-3.3779563903808594e+01" cType="1" res="5.2920766174793243e-02" rms="4.4733616709709167e-01" purity="4.9968582391738892e-01" nType="0">
        <Node pos="l" depth="1" NCoef="0" IVar="3" Cut="9.8406684875488281e+01" cType="1" res="-2.5758388638496399e-01" rms="2.5465750694274902e-01" purity="9.0871252119541168e-02" nType="0">
          <Node pos="l" depth="2" NCoef="0" IVar="2" Cut="9.7822278738021851e-01" cType="1" res="-2.9530873894691467e-01" rms="1.7197158932685852e-01" purity="3.7400633096694946e-02" nType="0">
            <Node pos="l" depth="3" NCoef="0" IVar="-1" Cut="0.0000000000000000e+00" cType="1" res="-1.4691125834360719e-03" rms="3.4075200557708740e-01" purity="1.6790316998958588e-01" nType="-99"/>
            <Node pos="r" depth="3" NCoef="0" IVar="-1" Cut="0.0000000000000000e+00" cType="1" res="-1.0675594210624695e-02" rms="1.0483462363481522e-01" purity="1.1920769698917866e-02" nType="-99"/>
          </Node>
          <Node pos="r" depth="2" NCoef="0" IVar="-1" Cut="0.0000000000000000e+00" cType="1" res="-9.6448937256354839e-05" rms="4.6589082479476929e-01" purity="4.1271492838859558e-01" nType="-99"/>
        </Node>
        <Node pos="r" depth="1" NCoef="0" IVar="5" Cut="2.4794392585754395e+00" cType="1" res="2.2660467028617859e-01" rms="4.3780413269996643e-01" purity="7.2836035490036011e-01" nType="0">
          <Node pos="l" depth="2" NCoef="0" IVar="5" Cut="1.9835245609283447e+00" cType="1" res="-1.0788379609584808e-01" rms="4.7271978855133057e-01" purity="3.7818828225135803e-01" nType="0">
            <Node pos="l" depth="3" NCoef="0" IVar="-1" Cut="0.0000000000000000e+00" cType="1" res="-7.8748894156888127e-04" rms="4.4363874197006226e-01" purity="2.9303616285324097e-01" nType="-99"/>
            <Node pos="r" depth="3" NCoef="0" IVar="-1" Cut="0.0000000000000000e+00" cType="1" res="-6.5099076891783625e-05" rms="4.8668083548545837e-01" purity="4.6544790267944336e-01" nType="-99"/>
          </Node>
          <Node pos="r" depth="2" NCoef="0" IVar="4" Cut="7.5436065673828125e+01" cType="1" res="2.9092633724212646e-01" rms="3.9988356828689575e-01" purity="7.9569792747497559e-01" nType="0">
            <Node pos="l" depth="3" NCoef="0" IVar="-1" Cut="0.0000000000000000e+00" cType="1" res="3.6211215774528682e-04" rms="4.5506337285041809e-01" purity="6.9821989536285400e-01" nType="-99"/>
            <Node pos="r" depth="3" NCoef="0" IVar="-1" Cut="0.0000000000000000e+00" cType="1" res="5.7847279822453856e-04" rms="2.8958645462989807e-01" purity="9.0697151422500610e-01" nType="-99"/>
          </Node>
        </Node>
      </Node>
    </BinaryTree>
    <BinaryTree type="DecisionTree" boostWeight="1.0000000000000000e+00" itree="35">
      <Node pos="s" depth="0" NCoef="0" IVar="1" Cut="-3.4484668731689453e+01" cType="1" res="5.5089086294174194e-02" rms="4.4641134142875671e-01" purity="5.0104767084121704e-01" nType="0">
        <Node pos="l" depth="1" NCoef="0" IVar="3" Cut="8.9197357177734375e+01" cType="1" res="-2.6104763150215149e-01" rms="2.4433399736881256e-01" purity="8.1913627684116364e-02" nType="0">
          <Node pos="l" depth="2" NCoef="0" IVar="2" Cut="1.1036323308944702e+00" cType="1" res="-2.9574909806251526e-01" rms="1.5524484217166901e-01" purity="2.8950931504368782e-02" nType="0">
            <Node pos="l" depth="3" NCoef="0" IVar="-1" Cut="0.0000000000000000e+00" cType="1" res="-2.6028051506727934e-03" rms="2.9394960403442383e-01" purity="1.1233576387166977e-01" nType="-99"/>
            <Node pos="r" depth="3" NCoef="0" IVar="-1" Cut="0.0000000000000000e+00" cType="1" res="-1.0512107051908970e-02" rms="1.0150330513715744e-01" purity="1.1175356805324554e-02" nType="-99"/>
          </Node>
          <Node pos="r" depth="2" NCoef="0" IVar="-1" Cut="0.0000000000000000e+00" cType="1" res="-3.4884730121120811e-04" rms="4.4596317410469055e-01" purity="3.4041529893875122e-01" nType="-99"/>
        </Node>
        <Node pos="r" depth="1" NCoef="0" IVar="4" Cut="6.9685745239257812e+01" cType="1" res="2.2606685757637024e-01" rms="4.3759480118751526e-01" purity="7.2772997617721558e-01" nType="0">
          <Node pos="l" depth="2" NCoef="0" IVar="5" Cut="2.7016117572784424e+00" cType="1" res="8.3501063287258148e-02" rms="4.8506066203117371e-01" purity="5.8030366897583008e-01" nType="0">
            <Node pos="l" depth="3" NCoef="0" IVar="-1" Cut="0.0000000000000000e+00" cType="1" res="-9.1887859161943197e-04" rms="4.3563213944435120e-01" purity="2.7214637398719788e-01" nType="-99"/>
            <Node pos="r" depth="3" NCoef="0" IVar="-1" Cut="0.0000000000000000e+00" cType="1" res="3.8169737672433257e-04" rms="4.4899299740791321e-01" purity="7.1377098560333252e-01" nType="-99"/>
          </Node>
          <Node pos="r" depth="2" NCoef="0" IVar="-1" Cut="0.0000000000000000e+00" cType="1" res="5.6089262943714857e-04" rms="3.1547775864601135e-01" purity="8.8559240102767944e-01" nType="-99"/>
        </Node>
      </Node>
    </BinaryTree>
    <BinaryTree type="DecisionTree" boostWeight="1.0000000000000000e+00" itree="36">
      <Node pos="s" depth="0" NCoef="0" IVar="1" Cut="-3.4317459106445312e+01" cType="1" res="5.6708101183176041e-02" rms="4.4546711444854736e-01" purity="5.0141054391860962e-01" nType="0">
        <Node pos="l" depth="1" NCoef="0" IVar="3" Cut="9.8406349182128906e+01" cType="1" res="-2.5230062007904053e-01" rms="2.5105816125869751e-01" purity="8.8052220642566681e-02" nType="0">
          <Node pos="l" depth="2" NCoef="0" IVar="5" Cut="2.9397721290588379e+00" cType="1" res="-2.9217419028282166e-01" rms="1.5935611724853516e-01" purity="3.0522624030709267e-02" nType="0">
            <Node pos="l" depth="3" NCoef="0" IVar="-1" Cut="0.0000000000000000e+00" cType="1" res="-1.3085031881928444e-02" rms="7.9141005873680115e-02" purity="6.2339552678167820e-03" nType="-99"/>
            <Node pos="r" depth="3" NCoef="0" IVar="-1" Cut="0.0000000000000000e+00" cType="1" res="-1.9825045019388199e-03" rms="3.2756608724594116e-01" purity="1.3826020061969757e-01" nType="-99"/>
          </Node>
          <Node pos="r" depth="2" NCoef="0" IVar="-1" Cut="0.0000000000000000e+00" cType="1" res="-5.4208365327212960e-05" rms="4.6914890408515930e-01" purity="4.2662566900253296e-01" nType="-99"/>
        </Node>
        <Node pos="r" depth="1" NCoef="0" IVar="4" Cut="6.3728672027587891e+01" cType="1" res="2.2603526711463928e-01" rms="4.3777453899383545e-01" purity="7.2791796922683716e-01" nType="0">
          <Node pos="l" depth="2" NCoef="0" IVar="5" Cut="2.8179879188537598e+00" cType="1" res="7.3047697544097900e-02" rms="4.8684799671173096e-01" purity="5.6954747438430786e-01" nType="0">
            <Node pos="l" depth="3" NCoef="0" IVar="-1" Cut="0.0000000000000000e+00" cType="1" res="-8.8325043907389045e-04" rms="4.3857440352439880e-01" purity="2.7883386611938477e-01" nType="-99"/>
            <Node pos="r" depth="3" NCoef="0" IVar="-1" Cut="0.0000000000000000e+00" cType="1" res="3.9638721500523388e-04" rms="4.4413137435913086e-01" purity="7.2514379024505615e-01" nType="-99"/>
          </Node>
          <Node pos="r" depth="2" NCoef="0" IVar="-1" Cut="0.0000000000000000e+00" cType="1" res="5.4982810979709029e-04" rms="3.3023077249526978e-01" purity="8.7291979789733887e-01" nType="-99"/>
        </Node>
      </Node>
    </BinaryTree>
    <BinaryTree type="DecisionTree" boostWeight="1.0000000000000000e+00" itree="37">
      <Node pos="s" depth="0" NCoef="0" IVar="1" Cut="-2.6926973342895508e+01" cType="1" res="4.8792220652103424e-02" rms="4.4407275319099426e-01" purity="4.9098899960517883e-01" nType="0">
        <Node pos="l" depth="1" NCoef="0" IVar="1" Cut="-4.9577495574951172e+01" cType="1" res="-2.3444667458534241e-01" rms="2.7813819050788879e-01" purity="1.1259741336107254e-01" nType="0">
          <Node pos="l" depth="2" NCoef="0" IVar="5" Cut="2.8110020160675049e+00" cType="1" res="-2.9733482003211975e-01" rms="1.4288420975208282e-01" purity="2.4265056475996971e-02" nType="0">
            <Node pos="l" depth="3" NCoef="0" IVar="-1" Cut="0.0000000000000000e+00" cType="1" res="-8.1725213676691055e-03" rms="1.4077894389629364e-01" purity="2.5286918506026268e-02" nType="-99"/>
            <Node pos="r" depth="3" NCoef="0" IVar="-1" Cut="0.0000000000000000e+00" cType="1" res="-1.0113786906003952e-02" rms="1.4152733981609344e-01" purity="2.0186336711049080e-02" nType="-99"/>
          </Node>
          <Node pos="r" depth="2" NCoef="0" IVar="0" Cut="4.8634395599365234e+01" cType="1" res="-6.2079969793558121e-02" rms="4.3919020891189575e-01" purity="3.5470277070999146e-01" nType="0">
            <Node pos="l" depth="3" NCoef="0" IVar="-1" Cut="0.0000000000000000e+00" cType="1" res="-6.1517226276919246e-04" rms="4.0154141187667847e-01" purity="2.6740032434463501e-01" nType="-99"/>
            <Node pos="r" depth="3" NCoef="0" IVar="-1" Cut="0.0000000000000000e+00" cType="1" res="6.0019221564289182e-05" rms="4.6102792024612427e-01" purity="4.4602409005165100e-01" nType="-99"/>
          </Node>
        </Node>
        <Node pos="r" depth="1" NCoef="0" IVar="4" Cut="6.9581970214843750e+01" cType="1" res="2.3456926643848419e-01" rms="4.3436321616172791e-01" purity="7.3917692899703979e-01" nType="0">
          <Node pos="l" depth="2" NCoef="0" IVar="3" Cut="5.9393135070800781e+01" cType="1" res="9.7466312348842621e-02" rms="4.8504307866096497e-01" purity="5.9810638427734375e-01" nType="0">
            <Node pos="l" depth="3" NCoef="0" IVar="-1" Cut="0.0000000000000000e+00" cType="1" res="-2.5218562223017216e-04" rms="4.8765021562576294e-01" purity="4.1245755553245544e-01" nType="-99"/>
            <Node pos="r" depth="3" NCoef="0" IVar="-1" Cut="0.0000000000000000e+00" cType="1" res="5.0136214122176170e-04" rms="3.8224974274635315e-01" purity="8.1973308324813843e-01" nType="-99"/>
          </Node>
          <Node pos="r" depth="2" NCoef="0" IVar="-1" Cut="0.0000000000000000e+00" cType="1" res="5.6183652486652136e-04" rms="3.1191954016685486e-01" purity="8.8997077941894531e-01" nType="-99"/>
        </Node>
      </Node>
    </BinaryTree>
    <BinaryTree type="DecisionTree" boostWeight="1.0000000000000000e+00" itree="38">
      <Node pos="s" depth="0" NCoef="0" IVar="1" Cut="-2.5027317047119141e+01" cType="1" res="6.2234882265329361e-02" rms="4.4273567199707031e-01" purity="5.0489598512649536e-01" nType="0">
        <Node pos="l" depth="1" NCoef="0" IVar="4" Cut="1.1386544799804688e+02" cType="1" res="-2.2687569260597229e-01" rms="2.8537365794181824e-01" purity="1.1960229277610779e-01" nType="0">
          <Node pos="l" depth="2" NCoef="0" IVar="3" Cut="8.0614730834960938e+01" cType="1" res="-2.7199801802635193e-01" rms="2.0987153053283691e-01" purity="5.7543180882930756e-02" nType="0">
            <Node pos="l" depth="3" NCoef="0" IVar="-1" Cut="0.0000000000000000e+00" cType="1" res="-8.2891760393977165e-03" rms="1.2729828059673309e-01" purity="1.8794465810060501e-02" nType="-99"/>
            <Node pos="r" depth="3" NCoef="0" IVar="-1" Cut="0.0000000000000000e+00" cType="1" res="-8.6940644541755319e-04" rms="3.9947462081909180e-01" purity="2.3934124410152435e-01" nType="-99"/>
          </Node>
          <Node pos="r" depth="2" NCoef="0" IVar="-1" Cut="0.0000000000000000e+00" cType="1" res="1.9186791905667633e-04" rms="4.7710788249969482e-01" purity="5.4094606637954712e-01" nType="-99"/>
        </Node>
        <Node pos="r" depth="1" NCoef="0" IVar="5" Cut="2.4688527584075928e+00" cType="1" res="2.5057417154312134e-01" rms="4.2512658238410950e-01" purity="7.5589317083358765e-01" nType="0">
          <Node pos="l" depth="2" NCoef="0" IVar="-1" Cut="0.0000000000000000e+00" cType="1" res="-3.4332199720665812e-04" rms="4.7908285260200500e-01" purity="3.8586574792861938e-01" nType="-99"/>
          <Node pos="r" depth="2" NCoef="0" IVar="3" Cut="5.5972198486328125e+01" cType="1" res="3.0943241715431213e-01" rms="3.8500231504440308e-01" purity="8.1696730852127075e-01" nType="0">
            <Node pos="l" depth="3" NCoef="0" IVar="-1" Cut="0.0000000000000000e+00" cType="1" res="3.7349582999013364e-04" rms="4.5102289319038391e-01" purity="7.1126759052276611e-01" nType="-99"/>
            <Node pos="r" depth="3" NCoef="0" IVar="-1" Cut="0.0000000000000000e+00" cType="1" res="5.6719430722296238e-04" rms="3.0463698506355286e-01" purity="8.9610737562179565e-01" nType="-99"/>
          </Node>
        </Node>
      </Node>
    </BinaryTree>
